{
  "config": {
    "altitude_km": 550.0,
    "n_satellites_visible": 10,
    "min_elevation_deg": 25.0,
    "carrier_freq_ghz": 1.67,
    "p_max_dbm": 40.0,
    "n_platoons": 5,
    "n_priorities": 3,
    "priority_weights": [
      4.5,
      2.5,
      0.5
    ],
    "tau_s": 1.0,
    "tau_ac": 0.02,
    "n_ac": 50,
    "n_safe": [
      5,
      10,
      50
    ],
    "epsilon": [
      0.01,
      0.05,
      0.2
    ],
    "p_bg": 0.42,
    "ho_delay_mean_ms": 225.0,
    "ho_delay_std_ms": 25.0,
    "ho_period_s": 15.0,
    "n_episodes": 800,
    "episode_slots": 150,
    "eval_episodes": 50,
    "n_seeds": 3,
    "update_interval": 4,
    "nn_safety_coeff": 0.35,
    "nn_safety_warmup_env_steps": 12000,
    "nn_safety_shield_urgency": 1.35,
    "nn_safety_shield_power_floor": 0.5,
    "w_power": 0.02,
    "w_handover": 0.3,
    "kappa1": 1.0,
    "kappa2": 0.5,
    "kappa3_m1": 2.0,
    "kappa3_m2": 1.0,
    "kappa1_m3": 0.5,
    "kappa4": 0.1,
    "kappa5": 0.3,
    "rmin_m1": 0.8,
    "rmin_m2": 0.5,
    "sinr_noise_floor": 0.05,
    "interference_coupling": 0.6,
    "t_pre_s": 3.0,
    "output_dir": "outputs",
    "output_run_id": "run_20260417_130033_n_episodes_800"
  },
  "convergence": {
    "SafeScale-MATD3": {
      "rewards": [
        [
          -140.1303819621926,
          -291.82937180755016,
          -602.5532302365233,
          -579.3666908248186,
          -578.7550448436435,
          -543.5762097169439,
          -565.0814805562096,
          -547.5703858189129,
          -405.43818493539885,
          -487.19850786956016,
          -518.3327386348036,
          -259.5381321793668,
          -227.08725691670074,
          -308.9305957210603,
          -52.34563809281871,
          -595.3173187507733,
          -362.0975762547353,
          -481.80889328167905,
          -392.058204801685,
          -769.6162539626473,
          -681.2022448749262,
          -569.3142870978586,
          -366.0567026354582,
          -392.0789059762035,
          -194.35379890973277,
          -144.21276869365605,
          -481.12011962645875,
          -513.4277113347214,
          -484.42678031276216,
          -96.09520580775856,
          -425.93740368938643,
          189.70770225481525,
          -139.67141402277335,
          -144.63882907743476,
          160.56944615256666,
          -142.78867885458476,
          167.29762573881484,
          -151.39420402252415,
          -444.8014332474836,
          -136.80670263891628,
          152.40365013697362,
          -185.85953169111727,
          -134.52737124363713,
          -123.86302852225838,
          -157.3790984174585,
          -328.93583068885664,
          -138.46708665574997,
          -103.53295956867295,
          -136.6202850752865,
          -141.63848939109582,
          -350.8209788381779,
          163.36639453934268,
          164.1751235344154,
          -131.21932095302742,
          -126.50184590354779,
          -109.3628900741949,
          -118.6520831839834,
          -586.6367841542257,
          157.83748867119064,
          157.35508918365161,
          147.05396033771163,
          -169.98763962463818,
          -446.7162130706458,
          -472.8366723624094,
          -172.48228614065846,
          -462.0814690483512,
          -443.028646596132,
          137.1690120969648,
          57.43274038842599,
          2.6056725206645424,
          -10.532154795774801,
          -246.93848153046656,
          -30.293033210584813,
          -498.86545753956375,
          -255.11292735909456,
          18.758225817207837,
          -219.52957151229165,
          -59.396173116037325,
          -252.9845301226943,
          -232.69612372908486,
          -222.7114617885502,
          23.82280693913411,
          -253.49543212922256,
          -32.839876680900005,
          -12.010850916146993,
          -471.3395817537575,
          0.5064026535089572,
          -28.809849292245566,
          -224.69689517866993,
          -240.20692078468042,
          -247.0551687751994,
          -579.5103424992776,
          -426.0318024677971,
          -34.38118761436732,
          -19.762665859618863,
          -253.78614513927764,
          -231.4255114136068,
          -239.8980103367932,
          -400.681802908815,
          143.33900575752932,
          68.83861418915738,
          -180.09372135293378,
          92.38033334827966,
          -121.71541340714488,
          -410.14640364076223,
          -143.95516643776457,
          -191.58085184227966,
          -2.5014538718750634,
          -147.67877576049216,
          -150.82896148912366,
          130.4115559031488,
          -153.32912954864798,
          86.97149617178448,
          -168.65911766838298,
          -361.38755833505616,
          29.441203660591192,
          -457.1054648034188,
          -278.39276766117706,
          46.77212882375549,
          52.210889881273076,
          -412.736051735238,
          -441.95330323527304,
          -425.40817782105256,
          -70.93233999711012,
          -149.7374613023066,
          -506.50365058880567,
          161.06142900013086,
          -21.912739748852218,
          -117.73413137299693,
          54.63927792683105,
          -120.54754650510593,
          75.84001131736399,
          211.3618948164107,
          -114.83523498371439,
          -650.7198305517039,
          214.97206232797717,
          -129.3979998194517,
          206.90216347594398,
          -502.8481154878733,
          20.692154685558336,
          206.92857380059587,
          -105.98884013069318,
          198.69046277299424,
          -137.07004896628578,
          -122.20629689481667,
          -118.04684954568236,
          134.69951575825664,
          -146.53951391021667,
          -153.29663177371285,
          -131.80583279898272,
          -99.6981550020377,
          -178.64712686722618,
          -87.97142107591479,
          -425.7442295188558,
          189.87184757520868,
          -97.89750381542092,
          -119.75430572414473,
          201.0055773650898,
          207.30849542008406,
          190.8944471928573,
          -135.99119387913774,
          196.4047287890072,
          153.30829641345554,
          -114.86566563491466,
          -113.03782352582041,
          -159.13825404040116,
          197.9144394608068,
          196.3084072619579,
          -113.95229170076661,
          -134.14878623468013,
          -123.08915565556933,
          -102.33571685076878,
          185.70630954895168,
          221.11906327196263,
          -93.66713109035099,
          197.17648419052915,
          188.09232541429154,
          -113.75957339161512,
          -130.85226495679154,
          -340.5707706637268,
          220.99272866500044,
          -137.65914808957677,
          -688.0436506152071,
          180.6076583730808,
          -195.3125531132853,
          194.34286796991336,
          -135.08163526395919,
          -103.79352789433393,
          -136.36719577286993,
          -126.82598357704872,
          206.0640334781056,
          -98.83838373172222,
          192.26794229757206,
          -126.18316236646974,
          197.66512876477069,
          -105.0881535416441,
          192.80325327250355,
          141.8272041980466,
          185.25650109436188,
          177.70639572314656,
          -133.9600068145207,
          109.6802085396216,
          -121.75014696827381,
          199.32166363932134,
          -411.98983350405433,
          163.4423363014924,
          -435.2488309849035,
          -133.8506606002298,
          195.50459979212488,
          176.70464655573346,
          185.98511712794055,
          -122.59433907905148,
          -507.70972381441493,
          -121.21326391812181,
          -169.6508614783366,
          -186.8680805379187,
          -124.000873040876,
          -414.98097003232454,
          -347.0686297547835,
          -134.9254333522896,
          208.2668490774016,
          -109.98190812905993,
          -101.7961927412538,
          -140.77770644841502,
          173.10844186647276,
          -158.87702826053166,
          -155.11239861007724,
          193.8027902530821,
          -79.98179444256485,
          -101.48059422790845,
          -142.38983287758998,
          -133.11573942026882,
          192.26173481766196,
          -121.7653039671543,
          -111.20350617910334,
          -141.40496420340654,
          -438.61926885719834,
          215.72629334418517,
          -129.5243204299488,
          -132.9505079127169,
          -133.85915025978548,
          213.99644569796243,
          212.64107876425763,
          -124.82554746901538,
          -121.13625684335041,
          207.4151702377103,
          -116.08816455401258,
          -121.68515593650203,
          -447.2585770857798,
          -189.64913497263035,
          209.31359195127226,
          203.9126764737057,
          -125.82685158834238,
          -156.8671620167402,
          -477.8429502918986,
          -108.17194485095158,
          -122.55303892275056,
          182.33488500155138,
          176.46738440672874,
          -135.6935880004479,
          176.52406000638172,
          -112.26749224388996,
          176.47944571724798,
          175.62607746482877,
          204.00021184176015,
          -121.08354435889942,
          190.37348422846222,
          -340.17360271030475,
          -139.34339691743693,
          189.91718253803708,
          170.6503982078555,
          -99.66436209567539,
          -108.44645666629465,
          157.16028562559057,
          172.96702272690933,
          -127.31136947869098,
          -441.59495665493404,
          -413.1340355097193,
          196.39381626140187,
          -107.46031640185596,
          -172.46140309939966,
          179.41395464266256,
          -137.41341975075377,
          201.13328083603488,
          -129.6823145300805,
          -104.6295938862744,
          -121.87271831183051,
          200.57334090879607,
          -154.2629227475884,
          184.94404073035994,
          -490.9102537739727,
          -133.5075010762234,
          -92.34419227102003,
          -138.21257285378908,
          -168.74733446956725,
          138.8306398046558,
          -146.66326591008976,
          227.74289239302112,
          -127.83319833855278,
          -127.14555630712871,
          -206.39406244255815,
          -439.19663392047596,
          -138.3817921521609,
          200.54375015811812,
          -371.9864514629689,
          -127.30254591310913,
          -124.73609974392386,
          -349.94298727705154,
          -119.8338351271025,
          -187.73792670486108,
          199.85680438816505,
          178.04538373283316,
          -128.43045061845842,
          198.69686133172027,
          -391.79300185982305,
          -470.5524167806565,
          197.14285858746192,
          187.91470636360845,
          -438.3795601219295,
          199.78604617548666,
          183.2059170186695,
          -341.36019658716464,
          199.73055167688997,
          189.4105518119001,
          -145.8974826020289,
          198.39883212494559,
          -148.21284526812093,
          195.8637582677882,
          -153.11765003556206,
          200.20747300547188,
          -131.92818829161462,
          -107.8755496006024,
          -102.63358582319702,
          -466.5072296070515,
          196.42679472656855,
          -135.2153460149689,
          204.93310839574806,
          -128.8601312354589,
          -136.82123148581195,
          190.55829178848765,
          -159.67044475715736,
          194.8594363900681,
          -115.96412320298592,
          -105.3213008102144,
          187.60476439826525,
          191.74411691851057,
          -121.24646800318206,
          177.2879471639101,
          225.74699291527642,
          191.26692120521375,
          169.3500115926961,
          176.8170158538485,
          -134.4967494822441,
          -104.18056642577952,
          -129.93657266056042,
          -135.30090200874758,
          185.98418687622927,
          -331.17892383116407,
          -137.61539509972417,
          185.35582021784086,
          -117.88039112437434,
          -174.4512567408797,
          206.35430787040315,
          -114.02227156286575,
          -181.61157140219416,
          -111.05487046257241,
          -164.81717100113732,
          -119.58904417682953,
          -113.29008977896618,
          -133.0500380467933,
          192.70491403620412,
          -114.31781638830208,
          -131.62424438211983,
          -100.51910863110425,
          -182.41016891494826,
          -116.12695115284349,
          -485.045021529918,
          -144.57463017088935,
          -134.28169714111058,
          -164.26744566198775,
          199.0090858395684,
          120.68904595099882,
          -108.89525687396768,
          -112.3202568051229,
          -120.59888021097402,
          181.89908953413234,
          -139.6200373220707,
          -111.03401365777457,
          -412.4899766985187,
          157.24918182116286,
          -337.6186959366432,
          163.39119625161482,
          125.35271858768492,
          -430.95238109977856,
          197.54093879403237,
          186.99237629630434,
          -133.45753176892646,
          -323.965776827107,
          -138.67518409996504,
          -419.4706081453798,
          -133.8527223272614,
          -134.37670811062114,
          -368.68547030718446,
          -134.403671417126,
          -123.6213729947799,
          -332.55811074599103,
          -457.1656479709125,
          -148.31765164245846,
          -125.13668165828803,
          175.11980122449384,
          210.44560371883082,
          -123.0981795956628,
          -144.4397548405489,
          -113.22696556524744,
          -352.3204321146525,
          -175.92054907974895,
          -110.10429973514523,
          -129.12343191198056,
          194.04075997769291,
          -361.2702173960908,
          -109.57735183186612,
          -457.49244949789903,
          177.32839925130523,
          -423.3838526923825,
          -132.06220920377814,
          -142.51229940617478,
          -168.77056103265855,
          -144.67539750492486,
          -570.1891487001478,
          -351.9956567702576,
          -678.3790707745013,
          -120.57881428752727,
          -439.98039608136827,
          199.99479623451444,
          -172.64378105406487,
          -517.8051996964036,
          -349.17608536644724,
          -132.75126393197425,
          -145.9352241011702,
          -147.39981670022888,
          -451.4889385039428,
          -103.86370198517189,
          -394.9337353111266,
          -350.89859134544446,
          -370.8273088514762,
          -143.03770719117026,
          -122.79665675167227,
          -350.4483085249621,
          201.0140846378749,
          -126.75890848502652,
          -141.19908394313362,
          -107.74833291966468,
          196.03136913632997,
          -94.85116615324588,
          -121.07437546986719,
          -123.86561473354021,
          -160.7479774575929,
          132.37245277295372,
          181.9130803882678,
          -130.40525191302518,
          -121.82060138865063,
          219.24058984717905,
          -424.2736001120139,
          -365.23816786399186,
          -354.4310199181229,
          -349.130816590409,
          206.9237419287797,
          -137.86862175003856,
          -138.41566303423508,
          -221.07847764233057,
          -456.59627898061404,
          207.46699688528884,
          -130.89803249771273,
          -105.2798799329456,
          -88.8658200862715,
          -113.45091317048012,
          168.9125141335748,
          -111.53385406340301,
          210.4776882262424,
          -122.00625215624224,
          -205.31121552411742,
          -141.05512514586582,
          190.48602838873614,
          -121.82834134633991,
          220.03943110685717,
          -459.17616014951886,
          -412.4786101534291,
          -136.4202126667074,
          -119.74303158244197,
          -108.09336397044942,
          -128.17219187679663,
          -139.20126257122766,
          -436.42999804726327,
          -433.9292654485375,
          201.13001186685054,
          -141.56292185489716,
          196.5922145943446,
          183.07005973339326,
          -119.47513387252224,
          -124.04027791684662,
          -113.87921097468035,
          187.86543554136398,
          -162.12709175981735,
          -120.99329844251058,
          200.73380572935966,
          -129.25359090943132,
          217.74524266150323,
          -128.83062450240703,
          -123.45262174247723,
          192.52593763940183,
          -343.6873679822186,
          -342.62778571913117,
          -469.40193501944367,
          -344.21116934319184,
          223.08893902824434,
          -421.8377293097272,
          129.10165745923263,
          -99.47803287703582,
          174.73981070960554,
          184.2305637000684,
          -119.6950808122848,
          213.12275517896384,
          -125.69629597977168,
          186.92667977033824,
          -117.63634544581316,
          -154.01281409588657,
          202.78674237384473,
          -440.64493543375704,
          -135.4840335409617,
          210.52363262566521,
          -118.57830462603899,
          -347.7389591021189,
          -139.40045637200183,
          -454.75332495194806,
          187.72681891491814,
          -134.90254295607357,
          209.58023530603913,
          -107.15105900886245,
          189.8847662488611,
          -98.17773139716753,
          -133.41942340920272,
          -115.78238681221771,
          -120.32831046604082,
          -114.02415326537098,
          -97.44947508500343,
          -130.1010962180258,
          165.59320798809307,
          -664.1587088862228,
          -437.5755967644567,
          -483.00066178633364,
          -141.65594525333827,
          -118.87300748124682,
          -163.80484595653814,
          -164.7651783190259,
          215.93653281917827,
          -382.8702980555565,
          -115.86543040321995,
          -358.76391147791605,
          -330.74927600593236,
          165.44973513445362,
          -448.2385656553602,
          -382.37170162806143,
          -137.82117029197917,
          -143.38902647999393,
          -134.44771106390868,
          -110.18935454095049,
          -158.8168889543662,
          184.37911998532445,
          -457.2816644382562,
          -122.1086026275973,
          -446.39409779682177,
          -121.80438685111345,
          192.62803426589397,
          -127.79222216629385,
          207.51691106322897,
          -129.34223331226562,
          200.44241634991002,
          -153.93645381298975,
          -348.7329199295384,
          -128.0963600098312,
          -132.2075004802325,
          195.29774523080326,
          175.42332985698582,
          -114.08197138076684,
          -116.92731676819902,
          -129.42108891277533,
          160.5935989308159,
          -136.064848491555,
          -110.05154572062037,
          -134.39983915961733,
          219.17735750506645,
          -157.75900673488601,
          180.0066896979949,
          -124.41787581286991,
          -506.642030759717,
          -114.80257501584138,
          -122.81361270883107,
          -125.83632740722507,
          201.41310570973707,
          -121.49400386047601,
          -136.92050182306386,
          -375.7939201515986,
          -381.45271690968275,
          194.5726062111898,
          -122.21480484373366,
          181.3666974789066,
          190.23448290679713,
          172.611260110194,
          -456.938050038157,
          -131.28295907731206,
          211.77542864767025,
          209.1006263695198,
          -129.29790132920283,
          -76.7571616449793,
          193.5805016345712,
          -99.65609682464734,
          -108.91648684637057,
          205.6933859852324,
          206.82727682151025,
          161.61390052797947,
          168.474012012665,
          -138.91227703235293,
          190.10620509242318,
          -161.1803239685889,
          225.62816088054825,
          -136.01224498683203,
          188.62703680562564,
          -124.40886011834239,
          -173.23482930293034,
          -107.48410175035318,
          -147.17650640842942,
          -336.034838714342,
          -111.35642303636564,
          -144.21678696283837,
          -128.94181332581798,
          -152.54525566671413,
          -456.240100577462,
          -123.75297830895964,
          -702.5696996472099,
          -174.96217180595886,
          -120.44194763412622,
          214.55714282211872,
          -160.2480871040116,
          -146.1383918294024,
          -106.19446986266773,
          135.86574932577753,
          -91.48432676531141,
          -120.81485722347071,
          193.7126160616552,
          -444.5127739178849,
          -352.91923527523056,
          -430.520943015205,
          -128.64969086436426,
          -163.3345141374294,
          192.48465158831726,
          -162.37477950263911,
          -429.593785246671,
          -383.2265232526326,
          -151.80910053298086,
          -99.26704812477848,
          -121.42024890120523,
          -125.01015528293637,
          -115.44976983075863,
          142.79140882651237,
          -161.0682053590772,
          -356.36835649078904,
          -121.59067289792382,
          181.555192086519,
          -134.58236895824407,
          -439.6787506101488,
          185.0395633816216,
          -108.16214773985782,
          -153.2446830002072,
          192.12625758449954,
          -109.70265477558095,
          -132.94996776547984,
          -148.2274909039093,
          -114.69013650291666,
          170.7383047920321,
          -128.967992026613,
          -425.7806412082936,
          -105.15492551738498,
          -132.8894972967157,
          -103.41773400350598,
          193.3279947075993,
          -130.5169355418123,
          204.1881080045129,
          -138.10890849677287,
          -131.22503400651937,
          -349.3411067512597,
          198.60558939482328,
          -149.54294866930528,
          -133.69710224836666,
          165.5296533441228,
          -137.1878170694672,
          218.65240996370548,
          195.07361455063062,
          -84.494179103342,
          -158.51425548935202,
          -149.00962528058412,
          -451.7028542261762,
          -152.22322895764904,
          -124.13481024055844,
          183.88258182126572,
          -122.90017449218492,
          -377.5459564291716,
          187.1089521042767,
          -121.46703258510885,
          213.54098137309782,
          -153.7670080957348,
          -93.68999143609736,
          -121.15897514753064,
          205.91848751605554,
          -138.6567960857655,
          -350.1808193091493,
          187.8798839727565,
          225.45052447812833,
          216.19636613408719,
          -109.56968662059907,
          -121.69420844458271,
          -157.41781154692436,
          -120.07942162755852,
          -551.8917514348209,
          174.19148378603728,
          204.95143112575286,
          200.04722992147143,
          -125.16840424303041,
          -448.2217663630187,
          -113.31448236003999,
          -117.48218871647643,
          215.356946231163,
          -107.37087102656469,
          171.49786843333075,
          168.12381674237471,
          -102.1844746264317,
          128.44963693864696,
          -451.54867708188914,
          -104.618430171732,
          -120.01078757032168,
          -120.61143682127911,
          170.6443197515692,
          -107.55463963570816,
          195.7820444704937,
          -348.0744285241893,
          222.15170831354902,
          202.1515310649547,
          -143.10704617882243,
          -173.70592075103684,
          -142.5601182231952,
          -457.6315262321472,
          -606.6354919396291,
          204.13525167559763,
          -664.7196838205883,
          -137.74699552722748,
          188.88433579916145,
          -128.99185754770096,
          -445.1212562331108,
          199.088271084626,
          -148.3876496753936,
          -157.77321914775862,
          188.65317773255757,
          -134.1849516607129,
          216.69230504901572,
          -367.89815467062243,
          -148.29385045724806,
          -125.2468413515839,
          221.9078312651721,
          -127.77166447185536,
          -342.8337857917975,
          -116.63984443918652,
          -121.71301098429691,
          -670.6664174069587,
          -122.84268801003202,
          -110.9237700401067,
          -103.23883850853845,
          -125.81401331842501,
          -202.6260775350431,
          190.37533555623256,
          -108.92720469835807,
          201.02682596797413,
          -122.51871596662218,
          -443.97175889723013,
          189.56434156079888,
          -112.13500053116377,
          207.11592437960329,
          -343.9260153627411,
          184.49094452273195,
          -149.6204844318281,
          -110.70388826763293,
          -461.5781861389652,
          -118.75369437554299,
          166.42252993503035,
          -145.79460491446181,
          -139.77500560559855,
          -702.4010201265767,
          -152.30823762058623,
          -346.7774486572251,
          -117.34209776290453,
          -98.07935012263276,
          -129.189513869515
        ],
        [
          -454.3243150032525,
          -126.39154261584957,
          -540.0563626111425,
          -533.0696693115592,
          -507.35516868653775,
          -448.00014789182205,
          -405.9738834198771,
          -447.32757482605416,
          -406.81493574661215,
          -367.83022669109664,
          -590.2899576956214,
          -526.5330889326198,
          -502.5132834234399,
          -617.6089917957554,
          -576.7910230145325,
          -433.5777132833686,
          -433.5091420108793,
          -371.3567861214134,
          -417.75812726571047,
          -541.8315375403264,
          -446.7769743498263,
          -427.41455189726116,
          -398.2896630498618,
          -415.94040482788614,
          -552.9070515713371,
          204.10947332411186,
          -503.2880233627296,
          -301.9626806644104,
          181.4827618565774,
          -458.03014943917674,
          -191.52992818113228,
          -394.3448521522913,
          -215.29650047180297,
          34.212413121839106,
          -203.5534444645579,
          -449.6583761867793,
          -255.43666258151342,
          136.62664745154495,
          -132.34537775422095,
          197.48563402907558,
          200.85694111501317,
          -132.094715768004,
          -390.8164616994707,
          112.96896711605855,
          -330.62718379445204,
          -121.86607840730386,
          -475.42614885877407,
          -130.00615271672123,
          -104.37084594606553,
          -460.2278698022083,
          193.5932362770871,
          194.75461099089478,
          -116.98163693335738,
          190.36830327566378,
          -120.0520484325434,
          -141.6054478411097,
          204.45184629817751,
          -332.5338244166333,
          -117.55429205771254,
          -139.37212927638984,
          -438.5602302577666,
          197.11432756003555,
          187.69297199152152,
          -123.65268685390956,
          -86.68694301397295,
          -120.05559336265702,
          -90.9254179666802,
          -116.08858794946357,
          -442.4099469950088,
          -308.4414438884343,
          -423.39282110516876,
          -108.60796445462447,
          167.03539968415143,
          -428.53987445991027,
          169.14179045804661,
          186.77414203649116,
          -317.92969449781964,
          -123.7613966311878,
          179.67603263878107,
          -123.8773207246944,
          209.01199258960375,
          -103.17423998361201,
          -91.50413972744937,
          203.3608836749332,
          201.6042620162221,
          -436.271269786955,
          -112.65657021570503,
          170.41339555124745,
          -105.15108761853486,
          173.98132873737418,
          -116.38236045909824,
          -119.75021645834354,
          -119.6185458916455,
          175.44793469906102,
          207.57426048266674,
          -134.615048230667,
          -336.6873711542492,
          215.91170303768533,
          188.06487081103924,
          -111.42428101327542,
          -122.20581098454478,
          -342.30755331043383,
          -318.19619837827446,
          -115.81850673714213,
          -106.59533072819809,
          212.17525579974483,
          -104.04494149709795,
          -118.19131966075368,
          -103.81398512093017,
          208.57992325449123,
          212.46753018631415,
          -572.315083368919,
          -148.40141352865732,
          -423.38504752310456,
          -132.4575387405832,
          -135.88583225751188,
          -95.68967697485282,
          206.56985959671783,
          202.18144341231715,
          216.70057856739248,
          -109.99978003477271,
          193.69237140653092,
          -105.34272416884528,
          184.60798297567712,
          215.63464182916258,
          -114.02708736144623,
          -90.25359368468942,
          -340.5640183002355,
          -440.80531602254933,
          -96.32862287528893,
          -111.81862961479634,
          -118.74884373554022,
          193.80640248400238,
          -104.26237978193078,
          175.09576119863112,
          -103.57094286190686,
          176.8472411549463,
          -126.22833437846148,
          203.30790477738228,
          216.2193186974751,
          -426.53191980314335,
          -90.65762974559759,
          206.8622059522642,
          -126.86331412166403,
          -114.41237579715023,
          -107.4980931125611,
          -104.94860372145693,
          -123.19372003039186,
          202.85765793403712,
          -348.07693452749385,
          -441.43587299486023,
          186.91970106231548,
          -112.75170287816837,
          -98.21466588209343,
          -99.22950515029551,
          162.41053519616767,
          215.10776631559958,
          -121.76673601764979,
          -114.29857403199013,
          -101.18839052931921,
          -112.51834445297963,
          -332.8286909821386,
          -137.3816980983607,
          -115.60501986925907,
          189.7993323041221,
          205.50779683906129,
          -124.83776489822786,
          202.234426636716,
          230.88464463263992,
          -682.2213485685596,
          -129.13047675442115,
          -537.1007914678552,
          -114.7508902767984,
          -122.99463721203092,
          -400.6301452555415,
          -355.23988961556705,
          -428.5375934247431,
          -115.7529015161059,
          -101.07114044189747,
          207.4459845330496,
          219.78301748167428,
          198.3911781936259,
          -443.54181095600853,
          189.53742035537053,
          -106.85047790729169,
          -428.07681312095593,
          -442.5842977058765,
          -129.50631073763068,
          -142.0140807670331,
          -663.9166575449249,
          199.49338835966384,
          -86.39128109818772,
          204.61003153013047,
          225.0478488175027,
          -99.80917026222671,
          208.31138083833915,
          -320.8642552788848,
          -128.57940485620438,
          146.53030409536436,
          -418.64442988695845,
          -114.86979910667449,
          -120.85097590366483,
          -104.09226819228664,
          210.29616214279665,
          -446.31692508281367,
          -115.29811120405483,
          -118.82726773663873,
          -101.40002103982492,
          -116.1716713703989,
          -450.6536770271127,
          -454.40115845923293,
          155.82498421120007,
          -107.54388761164073,
          -364.2665723956138,
          -156.02534950542258,
          -114.00950390699174,
          -128.88957581781423,
          203.43289964869768,
          -93.46664600327516,
          218.95967506403684,
          189.45933846764487,
          -109.21548304950672,
          210.79679967662898,
          -95.2311441305724,
          225.56732416745618,
          -120.55826656797157,
          197.42742008444148,
          171.86437419337489,
          -118.97996069755534,
          -113.77835875901934,
          -118.8723972866206,
          191.40730579606856,
          188.26361115220078,
          -100.37052797932957,
          -117.132778379761,
          -119.20443318250662,
          -665.6801790106109,
          -128.5952449598193,
          179.63841963073966,
          162.64273649101415,
          217.33628948985057,
          -86.0343825971431,
          -379.1973960252026,
          -124.04839853636618,
          -115.97458365932746,
          187.66022017538526,
          -116.74556071541568,
          -122.22519711032304,
          215.6498338471862,
          -355.2200402525617,
          -428.48414876881037,
          -358.4272545164868,
          -133.64500667863663,
          -104.81615961694128,
          -130.34259848167608,
          -112.42023844069851,
          -108.28496914697341,
          -119.9130417042372,
          194.55972894799157,
          -440.38327536400135,
          -427.62617565763907,
          -347.5238693593226,
          -136.42482875301647,
          -128.78993174769047,
          -452.0165101661928,
          -103.7050942041721,
          -451.8291448946246,
          -121.19254393505001,
          -447.20269617970416,
          -396.4089969671164,
          -141.87692305274103,
          -125.0269925147676,
          194.07722608068022,
          -141.65625223493728,
          -117.99184925022848,
          -121.52185551608103,
          -140.28794441696215,
          -120.19962585787074,
          203.79165956266942,
          -364.4316591825112,
          -338.251119584896,
          -118.70100144258149,
          -130.06148186958598,
          211.40765491763128,
          -433.6697324083067,
          -134.21961499311152,
          204.40196622210252,
          -118.8309682156449,
          -450.42342568964074,
          207.23741721005464,
          227.758310997252,
          -93.97703772232803,
          -454.1738334879823,
          -119.87172986842252,
          -149.55577326121394,
          -92.63973017191226,
          -152.633362032795,
          -670.1049781812352,
          -121.17530633122149,
          -134.87364457832183,
          -93.36348744323753,
          -100.7910937834603,
          164.6073099288091,
          191.35820439349374,
          203.85514545589368,
          207.21793862160038,
          -139.86599821467462,
          -125.5959252801063,
          209.86474437321772,
          -445.04380582520776,
          195.1814023814939,
          -124.39962110964998,
          -94.78595873754968,
          185.66422210011342,
          -353.16727203761513,
          196.7630039568768,
          -97.66104956990895,
          208.9720049898861,
          -125.60409283096432,
          215.16646377768328,
          -351.6162840789394,
          189.94624716850606,
          -325.08228253155113,
          -658.9899097410308,
          184.5247168367215,
          215.53327818552123,
          194.2614548759173,
          171.09236589612402,
          -335.8044169149933,
          -125.46471991781512,
          -118.45778255740872,
          -111.90182744921646,
          -423.8873335734343,
          -403.1888937172659,
          -102.99188609459675,
          -126.86541077878984,
          -541.2436074491374,
          -123.49005946487048,
          -442.0223997081695,
          179.88699740274623,
          -112.83115727832619,
          -101.3681756216326,
          204.04790311263378,
          206.1150977705129,
          206.4449675364501,
          212.97872326988855,
          198.85920639361464,
          200.60206809669188,
          -116.12298868170791,
          213.57147676873922,
          -137.8249439379775,
          -99.99537000890368,
          210.9051334061106,
          -98.28709754914864,
          -123.52964118536403,
          -91.31028042203748,
          -133.3979056323186,
          199.76198755352206,
          198.42287652463872,
          -119.91582734062325,
          -108.28838554228805,
          205.52751911524408,
          214.60918314788088,
          212.90577664261616,
          -115.55832441992929,
          -120.45815903942183,
          208.23030981042157,
          194.993017377893,
          -127.73435318313415,
          -332.7791133534815,
          -426.40336943329584,
          -142.05242781796483,
          -110.03223830194395,
          -102.28070175172878,
          -138.4056084473415,
          -93.91759637339443,
          192.24812319104223,
          -313.565947796254,
          -121.44522117054363,
          -117.77604951817864,
          196.1197645328606,
          -108.07122353661589,
          -107.84681563550039,
          -107.22545881010673,
          -114.31310919375292,
          -134.97996203301344,
          -122.31706031297988,
          -142.64756913450665,
          209.18628359693756,
          -107.71661766573071,
          -105.13450254092747,
          209.75915281183555,
          189.54473299548758,
          -133.8841473964985,
          -416.7717056678459,
          216.97435708384631,
          -146.45534292528157,
          -104.58031857422745,
          201.80712612340716,
          -137.7189175425985,
          227.40532215299748,
          200.11440518510574,
          -132.4529599590842,
          -120.8903808208366,
          214.77600924547627,
          189.70376338835246,
          188.08206121124726,
          -350.13808023024205,
          197.95222870057006,
          -104.59924297634103,
          -135.1578002740902,
          201.5807195117215,
          -361.7241410378245,
          -103.24023001224876,
          -102.92089759708477,
          -343.1058521931674,
          -110.0687476959525,
          -121.13233232491943,
          219.13822792381234,
          193.88899795049915,
          192.79356256277504,
          -108.72205679348663,
          189.82391522724038,
          -124.0825683019126,
          -365.29926719919627,
          -95.46166307620878,
          -108.3059271670961,
          -431.1219617791271,
          -118.75444607926846,
          -353.50010640702646,
          184.35828095017422,
          -99.97773811462048,
          211.77243851891185,
          -120.5472901508158,
          -442.9600726783366,
          221.6331532104432,
          -116.91200719507847,
          -110.51514798876052,
          209.19837536674473,
          -172.7878091836272,
          -119.63976055415704,
          -121.13346068130046,
          -108.39203791653468,
          -346.7564347072964,
          189.05865474547772,
          -91.13600830004725,
          -108.64495165691237,
          -148.19932785361328,
          200.53967394110794,
          -88.51653650191733,
          -114.63836683771773,
          -121.53731075725,
          -99.13686495633839,
          -443.5047837834498,
          -107.01761301690868,
          -116.94313843071967,
          -90.91502275653329,
          199.7480463505563,
          -340.0799934515643,
          -417.20310077862655,
          -423.52395743316566,
          -115.35413668465024,
          -427.1536784170742,
          -117.38160531295652,
          201.41890029823227,
          217.00167316909906,
          -118.09728123609153,
          184.3815149447905,
          -105.31735062660431,
          -429.9682597645106,
          -420.0661486289831,
          -117.93461882107206,
          186.45361091989506,
          -435.1561035678039,
          -100.44342093206076,
          -114.24798155166141,
          -439.65275116931593,
          -106.57004368644253,
          202.19208464837732,
          194.0542932439997,
          -89.3106670523541,
          202.8364082816854,
          -116.30561143439678,
          203.54704189972185,
          192.1185159895191,
          -127.88322730284851,
          200.82503815268362,
          -116.86639120799126,
          -359.825777380011,
          -124.39203751530914,
          -135.88955603236738,
          -105.1426892655656,
          -142.3231957617176,
          -128.5356790779883,
          -385.57489672905473,
          -108.44236689711559,
          -360.3361950957836,
          217.2298200616188,
          217.79102827362223,
          -412.05199790287395,
          -122.7477102010602,
          196.64445694315685,
          214.70928362566622,
          -104.54997073802123,
          -98.53093759889506,
          -102.83743307131992,
          -111.52560880821127,
          -422.5798142113883,
          226.39073057828173,
          -116.04746247834156,
          -346.50080177047056,
          212.5881161962119,
          -659.3899175875615,
          -115.37054774943786,
          211.8801750588592,
          -120.59165029771658,
          -344.5874996097997,
          -99.87031828110244,
          211.12619336313625,
          216.26084820840003,
          184.0274853875223,
          -99.9942182239614,
          -341.8027546220116,
          -441.59823746793364,
          -101.67033290172787,
          206.37378067458948,
          -153.3017932664192,
          -358.68902341678864,
          -125.74665965170436,
          209.99496638753857,
          193.34537780438674,
          205.57583476702246,
          217.36263534814003,
          -129.2732691751058,
          -119.23443197408683,
          -108.19230307298817,
          -459.4286736883434,
          225.06180508529178,
          -111.46151162191893,
          -104.90952960461709,
          -97.40288873396766,
          204.0160199287596,
          -107.60188047923984,
          -111.00044737243559,
          -142.91397145763014,
          -117.36657719783885,
          217.31080698811056,
          -122.02463352016701,
          -459.8220412659334,
          -121.81114294384354,
          -97.92713594580177,
          -112.66615942709086,
          -445.89579265753065,
          215.5650478690677,
          211.07076011878456,
          -113.77618531463888,
          -125.83812492403312,
          198.47433524010492,
          -424.04755495138124,
          207.5168144459112,
          -114.87887028254721,
          -113.15918053631614,
          -136.1257553746496,
          -109.11751206245903,
          -112.56358106856446,
          190.47498330752217,
          -121.36542126165668,
          -438.43941752488,
          -122.74958375496153,
          -127.62215427336069,
          -125.64583284377645,
          -468.02354130655954,
          -429.28122636474797,
          -453.0317437487813,
          -102.40795578670573,
          205.52703649766548,
          -389.2558053977729,
          -329.4736322888414,
          213.47986170917852,
          218.75042101795813,
          130.30111251117228,
          203.04423357662384,
          -136.19119197173328,
          208.7115825455625,
          -132.76655809443562,
          207.60160432950687,
          -352.9022891306735,
          -460.6516693104203,
          184.98166650467064,
          -121.72889610403725,
          -661.4632770636653,
          -110.52299067847775,
          -417.02020107778446,
          201.17604965516676,
          -133.65372531481117,
          193.39006387475985,
          214.19164109931137,
          -430.9715143691027,
          215.727092207795,
          -102.65230411928435,
          190.6548041860218,
          -93.8080183945248,
          -99.74817370663926,
          -114.4166064835922,
          -111.7504307794813,
          -339.2122719734549,
          212.34830961868803,
          181.84082883895044,
          219.7790356573977,
          -108.16052390960857,
          216.63282346340094,
          -423.6254964186922,
          211.54623086570743,
          210.58170688897425,
          -122.25033828925343,
          209.35550947521952,
          205.12237607076543,
          -112.48853513307813,
          -434.4547458142608,
          178.57030099306732,
          -341.27572890716516,
          191.80021659329125,
          -118.58708839624656,
          180.3622411167371,
          184.17844316838705,
          -109.22533467576551,
          -105.39057060964606,
          -95.88002438933839,
          187.42304386420534,
          -130.18161933287976,
          -547.8807877350964,
          -91.82765871629219,
          218.24434994591542,
          -452.35625091410907,
          -131.7295403620349,
          202.43080856793188,
          204.79426933158678,
          -113.65410707069296,
          206.18944192668678,
          -418.1849458243566,
          207.30149959697638,
          167.99181493376824,
          -411.42946716182206,
          -163.20743476842372,
          -120.08677971184936,
          189.85693061432028,
          200.39639939003268,
          -106.21318893414715,
          -422.04583047426746,
          -92.74806012811948,
          -125.71543341090867,
          -119.41447696206896,
          200.96454581458966,
          -436.01347813954567,
          -433.44557353622423,
          -109.9736530624108,
          203.77127575462623,
          193.2239399470396,
          205.08955301087857,
          211.04297068178641,
          209.0845609438035,
          -110.45699296426112,
          -131.79747477363975,
          -128.97127233141586,
          -112.84273085874302,
          201.18779965769514,
          -320.3501463604944,
          226.41118457843228,
          202.2305253990622,
          -109.55900508949463,
          205.47159449477198,
          -112.73395358379824,
          208.9693928208731,
          -421.46535981422954,
          202.79755775824674,
          -114.04862626482041,
          -116.48438199403724,
          207.405261093098,
          -345.36244839789657,
          -325.2204862965776,
          -115.95573955992406,
          -126.56880018929814,
          -350.28080864784624,
          215.99901874263475,
          200.74917348665514,
          226.07731807771526,
          -446.82804144016796,
          -100.38410438244674,
          221.48589427199093,
          -108.11746458299834,
          -96.62136002549262,
          207.5591766170746,
          -122.749437837676,
          -111.14548838135872,
          -128.55561525181156,
          -354.4576757578608,
          -167.33042233212439,
          -118.83702085021017,
          186.02251051560916,
          -345.52780137756696,
          -125.44305920810731,
          211.76445464803976,
          184.13814583794732,
          -109.90220418134884,
          -114.64881098671485,
          -134.30561626298496,
          -114.93287237384268,
          190.58800838182276,
          -119.57034444983255,
          -431.9087713997068,
          -116.66125200010315,
          -93.24389152473027,
          -125.11962754143029,
          -101.79813441560071,
          -121.68691172889774,
          -114.03779415338636,
          -348.9432593136001,
          196.80864252707465,
          -372.2236421550782,
          -109.2027531570947,
          175.7552203069815,
          -428.54395264213775,
          -92.09300751515234,
          -463.80748746202806,
          -663.4921265209621,
          190.18071053842903,
          -102.38101026639052,
          -124.16305204555117,
          217.4925922810896,
          -104.11894215170764,
          -106.99025335526544,
          -99.36577788303312,
          202.66965913374534,
          -126.01790417909346,
          -417.5876071690214,
          -109.60524555748218,
          -99.66108707917999,
          -442.24836657063184,
          -134.7494606322736,
          -342.36219072987586,
          -429.07559631668215,
          -118.28016265730199,
          179.4556191661866,
          -335.1010373890088,
          -574.4776490317555,
          -335.470686114544,
          -105.14685525183806,
          -332.5465385511038,
          -120.57853545169965,
          -100.3047618403353,
          -103.6431921540682,
          -99.33242651449645,
          -94.07439857286498,
          -110.24375041312405,
          207.49348748480364,
          168.66169178573747,
          -114.67144105939447,
          -421.1780013488858,
          204.08240629973486,
          -127.72427398300901,
          -414.61598655980373,
          -105.24612785158065,
          -99.66030726690647,
          173.69007469003606,
          -109.6835363519033,
          -128.57103078838654,
          175.3093043773215,
          -101.85892419328594,
          202.3593022200313,
          -120.15015641562822,
          -105.5306134766374,
          -308.900731780613,
          -337.4450219181079,
          -123.64326566972375,
          195.0945068974908,
          211.5625517055363,
          186.1996783312436,
          -130.49447452312543,
          -144.66181074470674,
          -112.03545036318447,
          -661.9473568975092,
          165.28773636237574,
          -124.67480466049943,
          -102.11462668482862,
          217.62660361217664,
          215.1694234790219,
          -115.37965394218655,
          -111.25993301842337,
          -127.91108131477014,
          208.07852310984603,
          -113.40445508650218,
          -427.4656060912583,
          -111.00602835322469,
          -467.0563173813347,
          -329.6077444178004,
          -126.37895136219463,
          -91.00431223175632,
          215.28821488717628,
          -101.35119625840541,
          -462.00159260725314
        ],
        [
          -373.2511288293705,
          -371.6989010064714,
          -681.8623371564261,
          -609.7023453344242,
          -612.7193053839735,
          -563.4007348646124,
          -526.2299998051354,
          -492.53076008378684,
          -489.9022383325538,
          -402.93845340860304,
          -394.0667912812372,
          -510.0931761329131,
          -393.09341409508795,
          -109.01303768694235,
          208.53605071204973,
          -92.55397628746583,
          -112.32392021300222,
          -145.95269466545417,
          -401.1452535670081,
          -440.9355999223041,
          -69.1823357360393,
          -90.1765518741217,
          -339.4402075928144,
          -409.7990179002332,
          -614.2748972814785,
          -732.1401838701773,
          -76.71816433646761,
          -433.3431976750273,
          182.0836983189184,
          -182.14889383223863,
          -451.8135703853606,
          187.7435665796665,
          -122.16704237231001,
          -110.25310928429336,
          214.6781118690838,
          -157.79860383336705,
          163.17129495868954,
          -383.54447205418,
          -183.79474490523165,
          -340.2542073402079,
          -434.9839678191206,
          -126.28254789396155,
          198.12341413062597,
          -203.16093681157417,
          -139.20632122661289,
          -116.1578277996829,
          139.51288549728375,
          -142.03944158241958,
          176.97010438729257,
          -223.65110896370695,
          -423.35433507923557,
          -104.62601849908982,
          -108.35582428668725,
          -95.25862785005015,
          196.1592851574514,
          -112.57804881173334,
          -133.56836074072856,
          -100.11217416414068,
          -127.24759886338524,
          -120.13197366620406,
          -156.5460112096477,
          190.75914841295545,
          -136.25069592438174,
          -126.4096313232622,
          -113.91026809201034,
          225.11305497342698,
          127.75535196152427,
          219.3396883077693,
          -138.6474652988773,
          204.69763612110177,
          -447.8509694883651,
          -114.79712431592614,
          142.6366058282048,
          -329.6474939057938,
          211.91003086312628,
          208.342546060268,
          -141.43460249839407,
          -176.05423327050534,
          -341.25202890549616,
          -133.54336973651635,
          211.5290870205978,
          -111.23291155365229,
          -430.43774118507775,
          -434.32585409471085,
          -124.08214574549987,
          200.32999094108445,
          211.7530186808833,
          -113.0669831973511,
          -470.49041686007206,
          184.9717289357045,
          -83.76905751448041,
          -432.54933915882214,
          -133.41307708960056,
          -122.5740722537846,
          225.54217185438418,
          -125.92003300813535,
          -122.82065316888168,
          192.9640372162492,
          220.8804044171118,
          -126.84124474198191,
          -100.11913447128958,
          217.53296875985953,
          -142.13285586206138,
          -123.29364355287011,
          213.07311596189493,
          -118.81932614850739,
          208.88172847170995,
          -123.49265691711337,
          -418.90233707628,
          127.53434632442901,
          192.00926031466298,
          158.4833341083835,
          169.7407242372739,
          -347.7986560334996,
          160.84864706284566,
          -346.2407709607004,
          -111.4328538932661,
          -101.93105401567249,
          199.01735782023945,
          -121.03862896337968,
          203.29508048346185,
          -109.3680563218702,
          -137.17808224344842,
          -465.54503513504153,
          -417.4449474754288,
          -129.50765717904898,
          -340.0494243467244,
          191.8423549812194,
          -419.6169379291824,
          195.154680574061,
          -92.33580424653621,
          196.09517247787474,
          194.47512674162147,
          -433.16907596077397,
          205.26746012704388,
          -428.12751267314735,
          -161.68216506014502,
          -115.95688789976407,
          -340.8943699365571,
          -131.9676683600917,
          -330.25903256578664,
          195.47923064939113,
          -145.25174307623055,
          -115.97124599613143,
          -100.25614516328238,
          -117.0663696212105,
          -140.12595846972272,
          206.75803592173514,
          -319.09861263971266,
          179.35467622091898,
          199.28682782652362,
          -92.1401030000493,
          -441.81924960017335,
          -319.7248149031272,
          -69.56675540397772,
          199.93444448292493,
          209.2208853083625,
          -117.06951954780979,
          -633.1071431151377,
          -137.7119670893732,
          -101.4098578957479,
          -134.38808602754847,
          -120.73350605172192,
          -339.51772486829327,
          -132.30876262373582,
          -118.4551797337194,
          -100.3274252671914,
          -88.0719964403304,
          217.20155233506205,
          -428.89881588688263,
          216.2783218245507,
          -139.54512665064271,
          -132.84142672514545,
          205.61979406910805,
          200.52895462200306,
          202.90648643778434,
          204.61421825336845,
          193.26032861829432,
          -106.87005599299924,
          -428.5857829197083,
          -132.67999865920905,
          213.3317833426776,
          -120.45440095718753,
          -141.5415299688707,
          -138.88373112692764,
          -124.90353428056143,
          -121.83237505110716,
          -452.26035785211246,
          -101.71468957883809,
          -123.59698852816744,
          -98.15427626929825,
          -121.85222858211395,
          -104.38055039498879,
          -112.70597254888587,
          -103.02054214707657,
          222.8067530268246,
          -115.57888818124462,
          -126.80546931519785,
          194.81150478147202,
          -128.27602920733526,
          -136.83819454422266,
          199.59500149396771,
          -134.04678769874803,
          -122.7400772750195,
          -427.35687180828575,
          -118.58970735972014,
          -104.39153708720276,
          209.0053263089636,
          202.52239281263527,
          217.47997023887567,
          -92.12821639631908,
          -435.5319949771752,
          -127.83626917296004,
          -355.6082437578742,
          -112.68706521635413,
          198.09130594161087,
          -116.61240566630215,
          196.01502941647053,
          212.218233882342,
          -434.4166653155755,
          -95.92303871643456,
          -342.8663114859613,
          -110.26312943873178,
          -127.179505665185,
          -107.15487065603934,
          -127.81216432705169,
          -107.71102677782712,
          -91.25628329909853,
          212.76827843440853,
          -106.41695395394477,
          -143.00361160570074,
          211.41687073342092,
          220.5058594913542,
          204.5127881056697,
          -122.61652362454956,
          -421.7556751483889,
          190.35005643717176,
          -131.2252886956932,
          -331.97258486368384,
          -433.66725646696625,
          211.78320819433276,
          198.08434160710874,
          193.03737336443723,
          -105.88811147111805,
          177.80464569137465,
          178.86117666956693,
          -171.72548275365,
          212.1609623764661,
          209.34173608043216,
          197.0964196354917,
          -122.36871011614741,
          -109.27730752006227,
          183.12702347896834,
          -97.5111035058683,
          213.9314055025118,
          -107.38373357914017,
          190.0907598277064,
          -426.173256999689,
          182.9634159847119,
          -113.31779025082325,
          -464.38515811258634,
          211.60613621418395,
          -105.70533052995377,
          -118.52994011534737,
          212.85341524085715,
          -101.33504176601105,
          -326.5274405166542,
          -117.1621743676458,
          -330.86808512052016,
          205.52515901120196,
          216.54725307023963,
          197.0965724819508,
          -326.6900318725049,
          -106.61971378486386,
          -111.19330317400645,
          -130.78435898103936,
          -345.71208255020883,
          203.05063830457374,
          -108.08022461920645,
          -120.05082394517821,
          186.72756098636071,
          209.45064534452544,
          220.33108529526396,
          167.55987820712252,
          -118.92464066168534,
          -112.5068291849269,
          219.96564538011378,
          -164.21455558438072,
          -115.52636624878247,
          -105.16666994017959,
          197.21812928619306,
          -119.95336925538814,
          131.61720239752822,
          -119.73123321487488,
          -423.48814825847984,
          -102.08350943854293,
          -427.18216713040033,
          -112.86354990921768,
          211.26133653530226,
          -113.3956242154629,
          -115.09993764944285,
          -142.9939037048473,
          -101.37936843735984,
          -99.8128966760137,
          201.41062164716993,
          214.80576812381432,
          -331.782191178364,
          190.87267107232287,
          -103.19317934646223,
          -117.88416383696716,
          88.07208092455326,
          204.57592235706525,
          210.82955528594584,
          207.60570949060659,
          234.55160678168355,
          195.5908508084466,
          -105.60321647914745,
          -697.6408637336624,
          -96.3888393507002,
          212.15862291238184,
          -131.1376529530049,
          -362.840685016244,
          -134.90071539741584,
          -108.77480636567809,
          -119.3982038876943,
          -426.03968062193,
          -451.7328318091041,
          -407.71934033069147,
          -102.83917096528472,
          -422.8768193366692,
          -96.74586185554901,
          -112.838368017821,
          196.94183894531056,
          -444.0649128653144,
          -92.43682771408085,
          208.6964094350548,
          208.10478721303926,
          -117.23660189027004,
          -124.72140638330767,
          -114.86565575599276,
          -107.84569216506002,
          -103.47215728225157,
          -112.74778823536747,
          203.16192944153244,
          -131.3634551712995,
          -116.04196289592271,
          -110.21273728074023,
          -96.81638880220852,
          -430.23936028777723,
          -141.23587336469583,
          215.5777816857463,
          195.99726237712096,
          -442.0937814026064,
          -114.04670421790883,
          -114.32414523178022,
          -436.9813205048644,
          -413.6561660403819,
          -104.43319416739016,
          -126.60370815318421,
          196.67538122295775,
          209.1700976633616,
          185.23090002348098,
          206.5855165316855,
          -131.3968241200407,
          -116.2650614012249,
          -337.60618834314556,
          -131.03607098326978,
          -116.96425666740467,
          209.71634958038328,
          -106.94216193488776,
          -111.77408365396334,
          188.68314907873233,
          -444.3438084715411,
          -405.01351410883365,
          -108.64059031820626,
          -118.83379909843491,
          223.69284285651602,
          193.01711713091493,
          -148.03349079888227,
          -128.4405126915591,
          -101.50263537139811,
          -101.87173578767992,
          -415.7078679771402,
          -128.74015279338633,
          -116.8314130377487,
          -455.7458560325283,
          -115.13975957657385,
          -87.62818291446888,
          -326.4599724432815,
          217.62693416983242,
          193.79192125684355,
          217.88946269969514,
          -126.13426126373575,
          -107.6718861108033,
          220.24857340099467,
          -135.80401860051256,
          -329.9741289823127,
          -443.65556374801645,
          219.8156525709755,
          -115.63593371463058,
          -105.70836038370875,
          -117.50221276589001,
          -128.59184258905992,
          -100.68212231428049,
          -107.3013458363057,
          -127.12371120764688,
          216.6974765413743,
          218.34400478039083,
          -149.4559736775071,
          -112.77620548550051,
          -130.16403703649,
          -127.71384590245671,
          221.57197280902824,
          189.89957122739673,
          -100.73278422263633,
          -131.6275222609768,
          -108.00150144838481,
          -449.95507055798885,
          190.93254065859637,
          -448.03295645705253,
          198.81758091942143,
          -99.24408281668943,
          -129.11497389550306,
          202.20115463487795,
          -135.52398315533077,
          -108.77122064238918,
          -113.41513760334823,
          193.65002910824418,
          -135.05717573370688,
          -123.14456514965653,
          -86.25888646889281,
          -133.36001509904503,
          -100.8160531392209,
          192.13664501239202,
          -434.61757248856895,
          -353.89556527628747,
          183.64687358318028,
          -109.40133909547806,
          232.41765748065643,
          204.96769919773172,
          -343.8984827595032,
          205.19742014271282,
          -153.28957809391784,
          182.8796376559974,
          -124.21267027758174,
          96.8567952555673,
          -646.6762376498419,
          -111.875318248293,
          50.41427197985178,
          -135.9502682287448,
          -118.35987681871968,
          -101.22341531517591,
          -106.9337183509858,
          -109.64042748255909,
          -101.96324677729241,
          -420.51842411251806,
          169.342513239089,
          190.34830579300245,
          -119.89270421709041,
          -116.50054103840827,
          -440.24370248302506,
          196.02430304309468,
          -122.52025649489993,
          -192.17515968270536,
          -97.4877407073002,
          -342.30988674297237,
          -321.49729361037475,
          -109.45551427535403,
          221.97873400423472,
          209.6178149059366,
          -425.3917882366217,
          -428.31141484702147,
          -104.06187159349174,
          -110.66010592359022,
          -144.25117847535267,
          -101.1443680017024,
          -124.98043058189349,
          -347.4439499252647,
          178.7749033722835,
          217.37481952731343,
          191.23621912247384,
          -340.4037317911919,
          -352.4492065055974,
          212.9313456338205,
          -130.84944305869823,
          224.7055928709278,
          196.31805700228423,
          197.83689912530292,
          -125.67594912828682,
          184.33043445944875,
          191.43282837350444,
          -653.7530719459173,
          -114.38040188617855,
          -125.55204868933377,
          -410.39325234627523,
          -442.67431506099655,
          196.72203383945688,
          189.58714589211385,
          -91.75647681115174,
          186.94682845777987,
          -132.5797688410335,
          -138.9730477685923,
          -85.2416688706358,
          198.8729487941983,
          -94.61847349201224,
          193.75251428057243,
          -129.6956554257872,
          -121.82273969231099,
          -132.01371410223197,
          -117.84030374013565,
          -133.93312737136748,
          224.5313583152026,
          -122.29161902430708,
          184.02770160667362,
          206.23967398766507,
          217.332125849407,
          -105.11490674758605,
          -99.97256491884629,
          -124.77472829568546,
          -129.98786182882552,
          -81.71804690137226,
          -104.91931141843271,
          176.09855605098466,
          221.1272144596984,
          -342.81272086623045,
          -122.67170024533331,
          -119.06955802434642,
          224.4622530888269,
          185.65022684312171,
          -107.86507211723206,
          -334.2101299709781,
          -789.0086569874006,
          -104.10480942149071,
          -101.31916663926825,
          -118.09380776163228,
          -100.05858864725852,
          -457.36403963153776,
          200.05782047577387,
          220.6457485597115,
          222.69924084182915,
          197.7215572848129,
          188.25797882210628,
          -132.26716625381243,
          -359.62339296722035,
          -410.1066671504345,
          202.67125978647334,
          -109.87769078005275,
          -417.8865615481956,
          -106.59439242993072,
          -139.07349755145023,
          214.31855921446743,
          -116.33476427158098,
          189.40552598555144,
          -424.24032397495466,
          216.48681109817375,
          200.47328365887464,
          182.24210900421866,
          -116.73752117206921,
          211.54901837500563,
          204.83544650726662,
          220.12445444087743,
          -441.6225255288145,
          -129.33347208559195,
          -130.44140338325747,
          -435.715536240893,
          205.92487750430112,
          -345.44498947461415,
          -351.4920840909848,
          192.01916304946892,
          -350.9561727411776,
          219.36891039091716,
          206.41682896512276,
          194.35211574436755,
          198.21222584248386,
          191.74278510492013,
          -98.86549914277882,
          -142.38520414644003,
          -372.9326353884508,
          -106.57685542037744,
          -108.55565151152794,
          -127.02093517981811,
          -94.23613255559944,
          -101.2610941469402,
          -88.48580449926547,
          200.97175150731346,
          -109.55736861872339,
          216.21886005219486,
          -359.5931056142934,
          -117.12881265121284,
          195.78365991911008,
          -443.0645727661102,
          187.89380861206743,
          -118.72679210076318,
          -103.10762641856078,
          -100.02741058752498,
          182.78647812770484,
          -125.48047060906751,
          -98.8044560079729,
          -115.38377038189692,
          -323.20072846710957,
          -430.5170264248354,
          -128.21214662689528,
          202.65851324677507,
          -426.1573374469733,
          -133.44149178868636,
          188.58052694464297,
          -351.2974583345844,
          -131.40789156123,
          -121.09684144313762,
          -107.49296074529246,
          -337.97771913160193,
          -100.19107854626448,
          -113.15122254000092,
          -441.32131795071314,
          -114.37593566152087,
          215.36345954347732,
          -331.8063243004443,
          199.7716014974861,
          -433.36150008630443,
          -136.3566834183791,
          -367.11907226229647,
          -101.67025160721053,
          196.65730277894397,
          -108.22477912888203,
          -107.00816141708873,
          -121.20087178916879,
          -121.59557625847575,
          220.3913139354921,
          197.63078433203148,
          -425.5570138781943,
          -429.3922239885071,
          -92.74121471141066,
          206.35216533626743,
          -112.33970047164684,
          209.71389637609118,
          -341.6411730549493,
          -114.36083964328178,
          -439.9121850906972,
          226.6886710275021,
          -119.1485714384852,
          192.60957396144,
          205.80228609852907,
          -107.96380107454054,
          -409.5897519735609,
          191.08992063752578,
          204.21499843974908,
          -347.7200530967039,
          -124.38016336143434,
          -115.56506789704821,
          -342.99153910856694,
          209.18793382251772,
          -113.93197562509253,
          -150.91858750963183,
          -119.99872788850786,
          -438.6392724448512,
          -117.18299570024655,
          -123.79974295219951,
          218.43743348928353,
          -152.80287034082772,
          -139.11280037298198,
          204.128008619635,
          -119.60919268230893,
          -89.41387016710611,
          198.49272436462334,
          185.16005565352486,
          -417.65524484874885,
          -436.16247190953766,
          -141.72166409324217,
          234.04862802516035,
          -98.74510775416434,
          199.13460866487847,
          201.87829857941733,
          -93.77837287407321,
          -102.14152487375077,
          -109.0794724030214,
          -95.23263626293459,
          209.8777273567363,
          -336.43212195236583,
          -103.77599203043471,
          -112.67966370120146,
          -584.4926898739998,
          -120.24660365012721,
          205.7039183706725,
          204.29604923674086,
          -95.64357759685902,
          -432.34977757240233,
          228.78730291265592,
          -124.45870539925713,
          198.8319898237294,
          -102.08798722544911,
          216.3596626468114,
          -100.75510190840878,
          -130.58726170596796,
          -100.85649602425151,
          -115.82672025271762,
          -327.40170825943676,
          -92.8137405320419,
          -468.99128926280093,
          -105.03128516700224,
          186.2464410376622,
          -113.08407974015108,
          196.40277120064135,
          208.2648510545114,
          194.0770822454116,
          194.86933080686754,
          -328.6901227259502,
          -354.6666320804396,
          -320.9870671764266,
          -109.16204681035987,
          -108.83643292716953,
          -440.6895853018691,
          -98.14968268341306,
          -357.0165684413606,
          -431.42207753375186,
          -433.13083460234446,
          -137.87222897785213,
          -365.15597878242215,
          -104.7316797430114,
          -117.53804226202139,
          -94.4943490271721,
          -129.14363508209848,
          190.83265651344036,
          -357.6890171513347,
          196.45947179828656,
          -331.19969874418837,
          -151.4246720578508,
          -127.58710061479768,
          -92.4601930794084,
          -110.8037438339271,
          194.16782210781707,
          209.51308790470594,
          219.48908004919335,
          201.23614962202788,
          -434.9655521006898,
          -120.3214478071058,
          200.83025786343165,
          -120.43213205733926,
          -123.0569867774677,
          197.64567855014374,
          -335.14007206664445,
          -435.2336966794995,
          -133.44909393769905,
          212.25045676405125,
          -117.30005470155884,
          195.1897590542995,
          -338.4656895015225,
          -124.50468191967485,
          207.58686973567754,
          -108.01181774672085,
          -129.35897653653484,
          -104.50223626661518,
          -119.88751016212795,
          -105.63253410226712,
          -458.4425636891685,
          -129.62934042128026,
          -113.04086710502962,
          198.63088314403385,
          -105.49984404595108,
          -110.51659155308955,
          -133.52738973714068,
          -96.73137878406524,
          -99.7118862311465,
          -109.69348472478437,
          -119.35009365376114,
          -107.48596813239676,
          -422.16366308642364,
          -97.30377850457793,
          216.8725935887914,
          -91.20890785350801,
          176.09374756717799,
          -361.1297224654016,
          -131.69388786739975,
          195.24813768675932,
          191.31820612216245,
          -133.65613487906538,
          -101.10428350233965,
          -108.78435273298199,
          -339.4016554703664,
          -112.90659653302363,
          -406.0360423364929,
          -138.66103885906074,
          197.4401715037877,
          204.11832534619592,
          -97.77182595264817,
          206.6832523514351,
          -113.97641077185891,
          -439.20194764051786,
          -106.12826908893943,
          236.70887098364662,
          -101.40726532120203,
          -133.0934547299208,
          -95.14360513988454,
          228.04879851823648,
          -118.96726236089998,
          -132.71885900359572,
          -109.67283500811024,
          -99.21087673229565,
          -112.47045118399114,
          -118.90664868351406,
          -117.52579286183627
        ]
      ],
      "aoi": [
        [
          1.9946666666666677,
          2.0333333333333328,
          2.308,
          2.3537777777777773,
          2.3195555555555547,
          2.331111111111111,
          2.3053333333333335,
          2.2875555555555565,
          2.201333333333334,
          2.2475555555555555,
          2.2564444444444436,
          2.0657777777777775,
          2.041333333333333,
          2.055111111111111,
          2.0128888888888894,
          2.100888888888889,
          2.0142222222222212,
          2.037333333333333,
          2.0480000000000005,
          1.9991111111111115,
          2.041777777777778,
          2.0626666666666664,
          2.035555555555556,
          2.050222222222221,
          2.1342222222222222,
          2.0831111111111116,
          2.034222222222224,
          2.077333333333334,
          2.0004444444444442,
          2.0359999999999996,
          1.9528888888888896,
          1.947555555555556,
          2.003555555555555,
          2.011555555555556,
          1.9604444444444444,
          1.9786666666666675,
          2.00311111111111,
          1.9911111111111097,
          1.9942222222222226,
          1.9768888888888887,
          1.929333333333333,
          1.988,
          2.011111111111111,
          1.9693333333333332,
          2.014666666666667,
          1.9639999999999993,
          1.9693333333333332,
          1.9715555555555564,
          1.9559999999999995,
          1.971111111111112,
          1.978666666666666,
          1.9773333333333327,
          1.960888888888889,
          1.9666666666666663,
          1.9879999999999984,
          1.8991111111111108,
          2.0253333333333337,
          2.017333333333333,
          1.9688888888888885,
          2.013333333333333,
          1.9817777777777785,
          2.0111111111111115,
          1.975111111111111,
          2.012,
          2.0604444444444456,
          2.0435555555555567,
          1.9884444444444447,
          1.9751111111111106,
          2.045333333333334,
          2.0480000000000005,
          2.079555555555556,
          2.087111111111111,
          2.110666666666668,
          2.138666666666667,
          2.1173333333333333,
          2.023555555555556,
          2.067999999999999,
          2.127999999999999,
          2.1453333333333324,
          2.0844444444444448,
          2.0693333333333337,
          2.060888888888889,
          2.127555555555554,
          2.1106666666666665,
          2.1675555555555555,
          2.100000000000001,
          2.112888888888889,
          2.096444444444445,
          2.080888888888889,
          2.0902222222222218,
          2.0991111111111116,
          2.087111111111111,
          2.1124444444444443,
          2.121777777777777,
          2.154222222222223,
          2.0702222222222213,
          2.0648888888888894,
          2.112444444444444,
          2.058222222222222,
          1.9888888888888903,
          2.029333333333334,
          2.057777777777779,
          2.040000000000001,
          1.9884444444444442,
          2.0004444444444442,
          2.051111111111111,
          2.044888888888889,
          2.126666666666667,
          1.978666666666667,
          1.9999999999999996,
          1.9639999999999997,
          1.9884444444444442,
          2.021333333333334,
          2.011111111111111,
          1.975999999999999,
          1.955999999999999,
          1.9853333333333334,
          2.0195555555555558,
          1.9555555555555557,
          1.9728888888888896,
          1.956444444444444,
          1.9502222222222227,
          2.002222222222222,
          1.990666666666668,
          2.065333333333334,
          1.985333333333333,
          2.066666666666667,
          2.0191111111111115,
          1.9919999999999989,
          1.9777777777777772,
          1.9915555555555564,
          1.9955555555555542,
          1.9342222222222225,
          1.9866666666666655,
          1.9804444444444425,
          1.9484444444444444,
          2.0124444444444443,
          1.9902222222222212,
          2.0551111111111102,
          2.035999999999999,
          1.9311111111111117,
          1.954222222222223,
          1.9715555555555546,
          2.040000000000001,
          1.9382222222222223,
          1.944888888888889,
          1.9928888888888894,
          1.988,
          1.9960000000000009,
          1.9813333333333345,
          1.9453333333333334,
          2.0600000000000005,
          1.9177777777777782,
          1.9817777777777796,
          2.0164444444444443,
          1.9555555555555544,
          1.9764444444444438,
          1.9675555555555555,
          1.9533333333333345,
          1.986666666666668,
          2.0257777777777783,
          1.980444444444445,
          2.029777777777778,
          1.9866666666666666,
          1.998666666666666,
          1.982222222222222,
          2.0217777777777775,
          1.960444444444444,
          1.9982222222222223,
          2.015111111111112,
          2.012444444444445,
          1.947999999999999,
          2.0004444444444442,
          1.9497777777777772,
          1.941777777777778,
          2.005333333333333,
          2.009333333333333,
          1.9835555555555564,
          2.0048888888888894,
          1.946666666666668,
          1.942666666666667,
          2.019111111111112,
          1.9866666666666666,
          2.047111111111111,
          2.047111111111112,
          1.9893333333333336,
          1.9711111111111113,
          1.9684444444444447,
          1.9844444444444442,
          1.9906666666666664,
          1.962222222222221,
          1.9377777777777778,
          1.9906666666666657,
          2.027111111111111,
          1.9808888888888885,
          1.934222222222222,
          1.992888888888889,
          2.062222222222223,
          1.9537777777777792,
          1.9964444444444436,
          1.9826666666666666,
          1.9644444444444447,
          1.9951111111111117,
          1.9955555555555542,
          1.9617777777777765,
          1.9764444444444451,
          2.0191111111111115,
          1.9457777777777778,
          1.992000000000001,
          1.9924444444444445,
          2.0182222222222226,
          1.967111111111112,
          2.0497777777777766,
          1.9764444444444451,
          2.070222222222222,
          2.0551111111111124,
          2.0124444444444447,
          1.9644444444444449,
          1.967555555555556,
          2.031999999999999,
          1.9595555555555544,
          1.9817777777777796,
          1.9519999999999993,
          2.017777777777777,
          1.987111111111111,
          2.0160000000000005,
          2.0253333333333328,
          2.0142222222222212,
          1.9884444444444436,
          1.9106666666666665,
          2.0035555555555553,
          2.044444444444446,
          1.944888888888889,
          1.9826666666666677,
          2.0000000000000013,
          2.0466666666666664,
          1.9746666666666661,
          1.9488888888888896,
          2.0213333333333336,
          2.0084444444444443,
          1.9422222222222216,
          1.9471111111111121,
          1.9582222222222205,
          1.9875555555555555,
          1.9719999999999993,
          1.966222222222223,
          1.9906666666666675,
          1.9639999999999997,
          2.014222222222222,
          2.0662222222222226,
          1.9502222222222216,
          1.9888888888888887,
          1.9951111111111117,
          2.020444444444445,
          2.021777777777777,
          1.9906666666666668,
          1.998222222222222,
          2.033333333333333,
          2.015111111111112,
          2.030222222222224,
          1.9706666666666668,
          1.9853333333333327,
          2.025777777777779,
          1.9840000000000009,
          1.936888888888888,
          1.9991111111111104,
          1.9977777777777779,
          1.9760000000000013,
          2.0248888888888894,
          2.030222222222223,
          2.039555555555556,
          1.9635555555555553,
          1.9391111111111101,
          2.0337777777777784,
          2.031555555555556,
          2.017777777777778,
          1.9377777777777778,
          1.9813333333333345,
          1.9964444444444442,
          1.9711111111111108,
          2.050666666666668,
          1.9568888888888876,
          2.0111111111111124,
          2.0053333333333336,
          1.9928888888888896,
          1.9715555555555553,
          1.9604444444444449,
          1.9684444444444429,
          2.033777777777777,
          2.035555555555555,
          2.02088888888889,
          2.0013333333333327,
          1.954666666666667,
          2.0480000000000005,
          2.0173333333333336,
          1.9995555555555555,
          2.007111111111111,
          1.9297777777777776,
          2.0111111111111115,
          2.005333333333334,
          1.9706666666666668,
          1.9880000000000002,
          2.016888888888889,
          2.0324444444444443,
          2.0008888888888885,
          1.9764444444444451,
          1.960444444444445,
          1.9720000000000004,
          1.9760000000000006,
          2.04,
          1.9871111111111115,
          2.0382222222222226,
          1.994666666666666,
          2.0044444444444447,
          2.048444444444445,
          2.012888888888889,
          1.9822222222222226,
          2.0008888888888885,
          1.9977777777777774,
          2.0062222222222226,
          2.0039999999999996,
          1.952888888888889,
          2.017333333333333,
          2.0120000000000013,
          1.991111111111112,
          1.975111111111111,
          2.0075555555555553,
          2.0066666666666673,
          2.0213333333333323,
          1.981777777777777,
          1.980888888888888,
          1.9577777777777776,
          1.9435555555555557,
          2.0453333333333332,
          1.9662222222222212,
          2.0057777777777788,
          1.9888888888888887,
          1.933777777777778,
          2.0133333333333345,
          2.0026666666666673,
          2.015555555555555,
          2.0133333333333328,
          1.9760000000000013,
          1.9457777777777774,
          2.0066666666666673,
          1.9515555555555568,
          1.9564444444444447,
          2.017777777777777,
          1.9106666666666676,
          2.003999999999999,
          2.0422222222222226,
          1.9706666666666668,
          1.9715555555555557,
          1.942666666666666,
          1.9711111111111104,
          2.005333333333333,
          1.9955555555555557,
          1.9688888888888887,
          1.9906666666666668,
          2.0142222222222217,
          1.9937777777777774,
          2.0106666666666673,
          1.9635555555555557,
          1.9871111111111115,
          2.054666666666667,
          1.9911111111111113,
          1.9653333333333334,
          2.00711111111111,
          1.9835555555555542,
          2.0328888888888885,
          2.003111111111111,
          1.9555555555555555,
          2.0062222222222217,
          1.9391111111111123,
          2.0222222222222213,
          1.9613333333333345,
          2.0293333333333337,
          2.045777777777778,
          2.011555555555556,
          2.0364444444444447,
          1.9813333333333336,
          1.9773333333333327,
          1.9559999999999995,
          1.9657777777777785,
          2.0102222222222226,
          2.0200000000000005,
          1.9848888888888887,
          1.9875555555555566,
          1.915555555555555,
          2.048444444444444,
          1.9631111111111117,
          1.980444444444445,
          2.047111111111111,
          2.0035555555555558,
          1.9768888888888894,
          1.9906666666666664,
          1.992444444444445,
          1.9404444444444444,
          2.0022222222222212,
          1.9684444444444444,
          1.9657777777777783,
          2.006666666666668,
          2.0222222222222217,
          2.02488888888889,
          1.9888888888888898,
          1.9462222222222214,
          2.038222222222222,
          2.0346666666666664,
          2.0453333333333337,
          1.98488888888889,
          1.9662222222222225,
          1.969777777777778,
          1.9982222222222223,
          1.9733333333333334,
          2.0066666666666673,
          1.993777777777778,
          1.970222222222222,
          2.0195555555555558,
          1.9657777777777778,
          2.0431111111111107,
          1.9773333333333338,
          1.9822222222222214,
          1.9839999999999998,
          1.9826666666666657,
          1.9933333333333336,
          2.003555555555557,
          1.9715555555555564,
          2.056444444444445,
          2.0075555555555553,
          1.9893333333333338,
          2.0364444444444447,
          2.0004444444444456,
          1.9733333333333334,
          1.9728888888888885,
          2.0075555555555566,
          2.0422222222222226,
          1.9653333333333334,
          2.001777777777778,
          2.020444444444446,
          1.9897777777777772,
          1.9800000000000006,
          1.972444444444446,
          2.0062222222222217,
          1.9706666666666661,
          1.9786666666666668,
          1.9893333333333332,
          1.9871111111111122,
          2.0133333333333328,
          1.9937777777777776,
          2.001777777777778,
          2.006666666666665,
          1.9666666666666666,
          1.9964444444444447,
          1.9320000000000013,
          1.9653333333333323,
          1.9986666666666668,
          2.053333333333333,
          1.9973333333333338,
          1.9915555555555584,
          1.9911111111111117,
          2.0106666666666677,
          1.9666666666666675,
          1.9586666666666668,
          2.0088888888888903,
          1.9857777777777774,
          1.9866666666666664,
          1.9457777777777772,
          2.009333333333334,
          2.003555555555555,
          2.0844444444444448,
          1.9942222222222226,
          1.9648888888888887,
          1.9964444444444442,
          1.9533333333333338,
          1.9204444444444444,
          2.0031111111111106,
          2.020888888888889,
          1.9720000000000009,
          1.9537777777777778,
          2.009777777777779,
          2.022222222222222,
          1.974666666666667,
          1.9666666666666666,
          1.9977777777777774,
          1.9386666666666656,
          2.026222222222222,
          1.9279999999999993,
          2.0253333333333345,
          1.9964444444444436,
          1.9724444444444444,
          1.9968888888888887,
          1.9982222222222223,
          1.967111111111112,
          2.019555555555556,
          1.9964444444444442,
          2.0173333333333336,
          1.983999999999999,
          2.0355555555555553,
          1.953333333333334,
          1.981333333333334,
          1.960444444444444,
          2.0173333333333323,
          2.029777777777779,
          2.0013333333333336,
          1.9977777777777772,
          2.0168888888888885,
          1.950222222222222,
          2.020444444444445,
          1.9746666666666677,
          2.022222222222223,
          1.956444444444444,
          1.9555555555555557,
          2.026666666666666,
          1.9920000000000004,
          1.9208888888888884,
          1.9977777777777783,
          2.0951111111111103,
          1.9342222222222225,
          2.067555555555556,
          2.018666666666668,
          1.980888888888888,
          1.9751111111111121,
          2.0031111111111115,
          2.033333333333334,
          1.9715555555555557,
          2.0151111111111106,
          1.9884444444444447,
          1.9835555555555553,
          1.9973333333333332,
          1.968000000000001,
          1.9835555555555557,
          1.9457777777777783,
          2.026666666666667,
          2.0066666666666664,
          2.014222222222222,
          1.9933333333333336,
          1.9884444444444442,
          1.9902222222222221,
          2.0124444444444447,
          1.9248888888888893,
          2.0359999999999996,
          1.9386666666666663,
          1.9746666666666677,
          1.9773333333333332,
          1.9142222222222234,
          1.9644444444444442,
          2.019111111111111,
          1.974222222222223,
          1.9871111111111104,
          2.035111111111111,
          2.0062222222222226,
          1.993333333333334,
          2.016,
          2.0004444444444442,
          1.9391111111111115,
          1.991555555555556,
          1.9702222222222223,
          1.975111111111111,
          1.9506666666666672,
          2.0164444444444456,
          1.9924444444444434,
          2.0395555555555562,
          1.9906666666666675,
          1.9871111111111122,
          1.9924444444444454,
          1.9959999999999996,
          2.01288888888889,
          2.024,
          2.0320000000000005,
          1.9724444444444444,
          1.9973333333333332,
          1.979111111111112,
          1.999111111111111,
          2.0026666666666673,
          1.9728888888888878,
          1.993777777777779,
          1.9640000000000002,
          1.9902222222222234,
          1.9697777777777783,
          2.0017777777777783,
          1.956444444444445,
          1.9617777777777776,
          2.011555555555556,
          1.9977777777777783,
          1.9542222222222214,
          2.0088888888888876,
          1.9533333333333345,
          2.0199999999999987,
          1.98,
          2.012444444444446,
          1.891111111111112,
          2.0044444444444447,
          1.994222222222223,
          1.9902222222222221,
          2.054222222222223,
          1.9177777777777787,
          1.9942222222222221,
          1.986222222222222,
          1.9733333333333325,
          1.9871111111111104,
          2.0168888888888894,
          2.029333333333334,
          2.032,
          1.9559999999999984,
          2.0075555555555553,
          1.9911111111111128,
          2.028444444444444,
          2.0311111111111106,
          2.0586666666666673,
          1.9822222222222232,
          1.97911111111111,
          1.992444444444445,
          2.0231111111111115,
          1.9057777777777767,
          2.002222222222222,
          1.9697777777777772,
          1.9746666666666666,
          1.994666666666667,
          1.9724444444444444,
          1.9911111111111113,
          2.0102222222222226,
          1.974222222222223,
          2.0311111111111106,
          2.006222222222222,
          1.941777777777778,
          2.0471111111111098,
          2.0048888888888885,
          2.0062222222222217,
          2.044888888888889,
          1.9724444444444438,
          2.0120000000000005,
          1.971555555555556,
          1.9760000000000006,
          2.0235555555555567,
          1.9911111111111117,
          2.0017777777777774,
          2.006222222222223,
          1.9693333333333327,
          1.9902222222222232,
          2.018666666666667,
          1.9826666666666657,
          1.9617777777777785,
          2.0151111111111093,
          2.0142222222222212,
          1.9568888888888882,
          2.035555555555556,
          1.916444444444443,
          1.982666666666665,
          2.0004444444444465,
          2.0151111111111133,
          2.008000000000001,
          1.9973333333333323,
          2.0040000000000004,
          2.0253333333333328,
          1.9688888888888885,
          1.9395555555555568,
          1.9595555555555555,
          2.0373333333333346,
          1.9799999999999995,
          1.9426666666666672,
          1.975111111111111,
          1.9715555555555573,
          1.9813333333333347,
          2.054666666666667,
          2.0604444444444447,
          2.021777777777778,
          1.9671111111111104,
          2.015111111111111,
          2.0271111111111115,
          1.9924444444444465,
          2.0146666666666673,
          1.9911111111111104,
          1.9991111111111115,
          1.920444444444444,
          1.991111111111112,
          1.9884444444444447,
          2.011555555555556,
          1.9475555555555555,
          2.035111111111112,
          1.9653333333333345,
          1.9702222222222228,
          1.9440000000000006,
          2.0204444444444447,
          1.961333333333333,
          2.0142222222222212,
          2.006666666666667,
          1.9924444444444454,
          2.0519999999999996,
          1.9937777777777776,
          1.968888888888888,
          2.0053333333333327,
          2.0404444444444443,
          2.005333333333333,
          2.025333333333333,
          1.9680000000000006,
          1.9444444444444438,
          1.9742222222222232,
          1.9248888888888893,
          2.0213333333333336,
          2.0244444444444447,
          2.016000000000001,
          2.040444444444444,
          1.968,
          2.017777777777777,
          2.0177777777777774,
          2.0617777777777784,
          2.0302222222222213,
          1.9884444444444442,
          1.9688888888888887,
          2.019111111111111,
          1.9404444444444444,
          1.967999999999999,
          1.9951111111111117,
          1.9866666666666664,
          1.993777777777779,
          2.015111111111111,
          1.9462222222222214,
          1.938666666666666,
          1.9600000000000004,
          1.969777777777778,
          2.032000000000002,
          2.0044444444444434,
          1.972888888888889,
          1.9964444444444447,
          2.008888888888889,
          1.9764444444444442,
          2.0173333333333336,
          1.9831111111111106,
          1.986222222222222,
          2.002666666666666,
          1.908444444444444,
          1.9471111111111115,
          2.021777777777778,
          1.9773333333333332,
          1.9680000000000002,
          1.9857777777777785,
          2.00311111111111,
          1.948,
          1.9951111111111095,
          1.9835555555555553,
          2.046222222222224,
          1.9848888888888883,
          1.9720000000000015,
          1.9857777777777774,
          1.9404444444444449,
          1.980888888888889,
          2.0053333333333336,
          2.0031111111111124,
          1.9968888888888903,
          2.033333333333333,
          1.9693333333333336,
          1.978666666666666,
          1.9791111111111104,
          2.0102222222222226,
          2.0226666666666673,
          1.9848888888888898,
          2.0115555555555558,
          1.9764444444444447,
          2.002666666666666,
          2.009333333333333,
          2.0057777777777788,
          1.9906666666666668,
          1.9599999999999995,
          2.0342222222222217,
          2.052444444444446,
          2.004444444444445,
          1.9097777777777791,
          1.9884444444444451,
          1.9724444444444453,
          2.0035555555555566,
          1.9519999999999993,
          1.9551111111111106,
          1.9840000000000002,
          1.9786666666666664,
          1.948444444444444,
          1.9853333333333338,
          1.9759999999999998,
          1.940888888888889,
          1.9715555555555553,
          2.008444444444446,
          1.9657777777777774,
          1.985777777777777,
          2.026222222222223,
          1.9968888888888903,
          1.9671111111111108,
          1.9764444444444453,
          1.9399999999999997,
          2.0813333333333337,
          1.9724444444444438,
          2.0000000000000004,
          1.982222222222222,
          1.9884444444444436,
          2.011555555555556,
          2.028888888888889,
          2.032444444444445,
          2.0706666666666647,
          1.992444444444444,
          1.9893333333333316,
          1.966666666666667,
          2.0088888888888894
        ],
        [
          2.0519999999999996,
          2.0511111111111107,
          2.235555555555556,
          2.321777777777778,
          2.252888888888888,
          2.2439999999999998,
          2.2133333333333334,
          2.2231111111111113,
          2.2471111111111104,
          2.179111111111111,
          2.3231111111111122,
          2.338666666666666,
          2.241777777777777,
          2.3217777777777786,
          2.369333333333333,
          2.186666666666667,
          2.266222222222223,
          2.1533333333333333,
          2.2111111111111112,
          2.312444444444445,
          2.229777777777777,
          2.2142222222222214,
          2.2137777777777767,
          2.26888888888889,
          2.289777777777778,
          1.9617777777777785,
          2.0422222222222213,
          2.2159999999999993,
          2.0351111111111124,
          2.051111111111111,
          2.0893333333333333,
          2.0715555555555554,
          2.086222222222222,
          2.0871111111111107,
          2.0755555555555563,
          2.076000000000001,
          2.093333333333334,
          2.024444444444445,
          2.004444444444445,
          2.004000000000001,
          1.9773333333333334,
          2.005333333333333,
          1.9964444444444438,
          2.063999999999999,
          1.9262222222222218,
          1.9773333333333334,
          2.0133333333333323,
          2.0008888888888885,
          1.9386666666666672,
          1.9937777777777774,
          1.9675555555555548,
          1.9986666666666686,
          1.9662222222222223,
          1.97911111111111,
          1.9724444444444444,
          1.9831111111111108,
          1.9742222222222225,
          1.9488888888888896,
          1.9942222222222241,
          2.007111111111111,
          1.9822222222222217,
          2.020888888888889,
          2.021333333333334,
          2.027111111111111,
          1.9173333333333338,
          2.010666666666666,
          1.9391111111111128,
          2.010222222222223,
          2.019555555555556,
          1.91288888888889,
          1.9835555555555553,
          1.999555555555556,
          2.047111111111112,
          1.993333333333334,
          2.086666666666666,
          2.011999999999999,
          1.954666666666667,
