{
  "config": {
    "altitude_km": 550.0,
    "n_satellites_visible": 10,
    "min_elevation_deg": 25.0,
    "carrier_freq_ghz": 1.67,
    "p_max_dbm": 40.0,
    "n_platoons": 5,
    "n_priorities": 3,
    "priority_weights": [
      4.5,
      2.5,
      0.5
    ],
    "tau_s": 1.0,
    "tau_ac": 0.02,
    "n_ac": 50,
    "n_safe": [
      5,
      10,
      50
    ],
    "epsilon": [
      0.01,
      0.05,
      0.2
    ],
    "p_bg": 0.42,
    "ho_delay_mean_ms": 225.0,
    "ho_delay_std_ms": 25.0,
    "ho_period_s": 15.0,
    "n_episodes": 300,
    "episode_slots": 150,
    "eval_episodes": 50,
    "n_seeds": 3,
    "update_interval": 4,
    "nn_safety_coeff": 0.35,
    "nn_safety_warmup_env_steps": 12000,
    "nn_safety_shield_urgency": 1.35,
    "nn_safety_shield_power_floor": 0.5,
    "w_power": 0.02,
    "w_handover": 0.3,
    "kappa1": 1.0,
    "kappa2": 0.5,
    "kappa3_m1": 2.0,
    "kappa3_m2": 1.0,
    "kappa1_m3": 0.5,
    "kappa4": 0.1,
    "kappa5": 0.3,
    "rmin_m1": 0.8,
    "rmin_m2": 0.5,
    "sinr_noise_floor": 0.05,
    "interference_coupling": 0.6,
    "t_pre_s": 3.0,
    "output_dir": "outputs",
    "output_run_id": "run_20260417_125610_tou_ac_0_01"
  },
  "convergence": {
    "SafeScale-MATD3": {
      "rewards": [
        [
          -222.60009174462257,
          -316.72420856491283,
          -496.0967519796964,
          -403.41443577260236,
          -409.3024150344426,
          -413.16142862457775,
          -411.246051247089,
          -467.66793688196844,
          -480.64176682583246,
          -552.3167519247448,
          -623.6162632737387,
          -552.6123662400007,
          -604.3101161033192,
          -633.0098141104706,
          -518.1113535293536,
          -543.8021151336452,
          -561.6493880156065,
          -737.3148839135309,
          -40.221556128790475,
          -389.10721512784824,
          -71.45581922310035,
          -391.9802575538396,
          -627.9035641942226,
          -651.0495165287434,
          -391.6457416616512,
          -373.03797068501484,
          -392.48301678358513,
          -60.420650072344635,
          -115.3222269798358,
          -440.43749179649393,
          -98.14069059099222,
          -118.06570985633353,
          -107.5552786933052,
          191.45384832894547,
          -457.33444349657384,
          -374.53783442844014,
          -391.0980327122152,
          168.96506152885902,
          -180.7560841663288,
          172.92402815373185,
          219.29866934093855,
          -99.15278039889836,
          -188.21885543503456,
          -132.81441967133188,
          -309.1398987778017,
          -168.88335906325122,
          -109.67190633145937,
          205.9960681076296,
          -350.2417996507421,
          191.46794876066681,
          -120.11756495295168,
          -170.03048859098783,
          -414.194087622369,
          -106.79947115033053,
          -90.80991315142171,
          -175.54697695565488,
          -94.81000058488632,
          30.623297710909885,
          -148.1320494306527,
          -358.250525053839,
          -168.22307021739562,
          209.27234981352984,
          -340.70719858358353,
          -98.57089411936428,
          -113.22031059615635,
          -128.11952892251327,
          -141.19081327501073,
          -120.9285933169935,
          -92.04879695231085,
          -432.3073346890914,
          -350.06782540943874,
          -361.1164007292733,
          188.94959043437495,
          201.2611859715552,
          230.4527308706173,
          -105.24923651378718,
          -146.18513387354434,
          -448.0855012869542,
          192.0682765299725,
          -90.27507922194947,
          -169.51248435514276,
          -114.20234552101508,
          -103.65494099667978,
          -124.47967282452656,
          -115.51827002513599,
          176.0968218254689,
          -112.7581082884688,
          197.01249499580754,
          -695.1337520420312,
          -117.0165991244683,
          206.12212670134875,
          -420.0868107344084,
          -120.93101083777769,
          205.50684887205853,
          -457.46101566403246,
          -168.45274432728718,
          -106.0021763378908,
          -74.68528212741515,
          -102.24813955684705,
          207.5446488330601,
          205.9805040887846,
          -113.60936551257026,
          201.55791879794594,
          -304.4459928384276,
          -125.96946853491905,
          193.76214054315366,
          -352.4869460765909,
          -438.3691957933464,
          191.60167063211668,
          -100.79817891999275,
          -375.60277278930346,
          195.76078472347953,
          110.75826190917505,
          210.90595867758628,
          114.15412621126707,
          -114.7223741225558,
          -115.30198498571939,
          -334.70174332893293,
          -108.05855939688269,
          -434.3505977515353,
          -93.59117896851384,
          -105.96406017103548,
          -650.0885446216753,
          202.10152241532802,
          190.6985284146065,
          -453.8948690242366,
          -145.97948744278352,
          -334.9365355570992,
          214.0464763500726,
          -105.53516804317555,
          -147.29696227773437,
          191.36330001708438,
          197.98880116341496,
          -109.91366756939966,
          -110.17862452446245,
          167.92771155360117,
          -112.07893817717753,
          -105.34438567874643,
          -134.0610663221007,
          -360.5893085762601,
          -114.31739314538245,
          -464.76282271851477,
          -117.61659819860058,
          -569.2222508729452,
          -115.66214378861122,
          211.95203605003596,
          -143.02370184347788,
          217.83377405914538,
          -106.18689327692066,
          203.58006281414765,
          -117.11061193351229,
          -141.47720312256226,
          -125.48045676985065,
          -115.49871564918163,
          186.3437410040296,
          -116.6816981215902,
          -152.83723163582624,
          -119.57885254736075,
          192.02135009821976,
          214.64299163224112,
          -419.5361657888347,
          181.59891802891738,
          -418.9299228675422,
          -113.08736941774879,
          214.95225245663627,
          -103.88394378923317,
          -421.23379599995354,
          -110.22390275896304,
          -105.20229213400634,
          -340.2807058149441,
          -137.3495490579317,
          -104.7476627979273,
          -128.0163412899078,
          -112.97868229786553,
          205.91507669338418,
          221.4904202758763,
          -329.01449689778525,
          -116.34803614063574,
          -132.81936036118387,
          221.9909000628204,
          -89.12703330834492,
          -189.81640911896028,
          39.29684885536348,
          201.73610492438613,
          210.2688627374099,
          -446.01436802234696,
          -113.78098818325009,
          176.19851476115142,
          -97.84095143428881,
          -109.37560360522934,
          154.95936680727584,
          212.46052790606964,
          199.22721919601332,
          -72.23397787842394,
          -110.30679173797033,
          -130.0732668184036,
          -452.9071598230917,
          -106.66123450817166,
          206.2027990154052,
          -100.87500333350356,
          -422.9721862303211,
          -85.74351761557661,
          170.75856498038877,
          169.6042877376874,
          -117.03448315223352,
          -168.53384993470698,
          204.06266060527486,
          -15.204822685247285,
          -426.5098186490833,
          204.8026616122606,
          -102.64300729423259,
          183.7315919965269,
          193.77456455024736,
          -112.19579540538238,
          -370.1439522319361,
          -118.40457140995635,
          -86.47315214961199,
          -114.1630631015769,
          -138.58352040991187,
          182.40237841194963,
          -106.38349594057031,
          155.22164947225485,
          -431.0122490216602,
          -116.08969218634743,
          201.79437738442067,
          -431.11266831574267,
          -113.60829618494657,
          -98.51344058371876,
          -118.56107379340489,
          214.9051477992703,
          -427.23541006543223,
          -122.46633284860827,
          -104.43278502399774,
          -98.71760009393846,
          -92.16698716110558,
          193.19432764974664,
          -456.41649392265384,
          -119.33937416781637,
          -108.07560737119714,
          -131.51841123179784,
          -103.75533265506637,
          -105.83742456702727,
          205.76469823472178,
          -99.55609398129039,
          -103.5259095863141,
          -105.97574494352712,
          200.81372047783384,
          214.53979548289118,
          -139.87302007296992,
          -104.04010421856296,
          -122.43076827726023,
          -113.55286843484306,
          -104.2648017227144,
          -110.99035798609692,
          -126.58472138902624,
          -100.35857252372654,
          -112.71028941126286,
          217.59806623233075,
          208.47846867749564,
          -98.38296890566195,
          -106.53827984653554,
          -99.15529354946996,
          -116.12753295160952,
          -121.41093581268628,
          -97.64132653955116,
          -110.68697322454118,
          -102.95056198449436,
          204.47917102368868,
          218.6981411595056,
          -107.69905145440335,
          -111.19527038288638,
          -119.82287297321885,
          -110.68431425502189,
          -95.59285764008159,
          182.62321834179204,
          -341.2328647809038,
          -342.6715953587037,
          -96.99099112078733,
          168.35424336375405,
          188.04996509778167,
          -112.93156225519816,
          205.16394468424832,
          -119.1801282842778,
          201.46554925710385,
          -430.24945091784815,
          190.93637337099204,
          -97.12197730893313,
          203.18051501302153,
          -103.04779959751747,
          -116.4913409942917,
          198.9246398083296,
          -112.04216909436035,
          -108.34736142765371,
          -108.2186512863201,
          -111.54994340233415,
          -460.42450284718865,
          -112.49015726183461,
          141.99199612850597,
          194.30347536853745,
          213.64235139628784
        ],
        [
          -557.853580339472,
          -335.6855077491027,
          -184.6474289745419,
          41.128724748732395,
          -376.9589278068252,
          -265.81902251790456,
          -331.396114084338,
          -479.39398275382206,
          -446.88074205310414,
          -10.697870442718575,
          -600.1905288476577,
          -575.4356288405513,
          -593.1588154033732,
          -612.5885330490738,
          -610.2445319323595,
          -624.690982909198,
          -573.6756433168272,
          -580.6230547647383,
          -657.1660514311365,
          -35.92836261309509,
          -497.280585599024,
          22.53484910455934,
          -347.9850638982798,
          -640.6301665885037,
          42.067741397998205,
          -316.69362237666,
          -483.58558214869146,
          -613.9474254276821,
          -133.51131228657434,
          187.84939952383925,
          -212.5561326339776,
          -128.19834807019484,
          197.40381927954286,
          -128.4794666371649,
          -135.36405462953687,
          -138.8680165974463,
          -483.8670785511787,
          191.45672170872663,
          -78.7401828916709,
          -422.25135446901874,
          -362.429606293271,
          -455.3439077614332,
          -145.75160552491337,
          -143.83999796676147,
          -152.56921806769188,
          -176.31314710261003,
          184.549588103757,
          141.33869463244523,
          -451.76288876210776,
          -214.81504478705295,
          -207.17340447301925,
          -395.9965051219956,
          -231.02237961432593,
          -192.1927042570283,
          -480.35654435516716,
          -142.28461391415388,
          165.02238731445112,
          -90.64380132562638,
          -134.9090316813889,
          -125.70557411169753,
          167.9449404920712,
          227.19475123461473,
          -111.29873833484011,
          -132.23434164214225,
          196.9542745960077,
          206.5250057693453,
          186.50281822919067,
          -109.4847229735833,
          217.24930837502475,
          -130.67205768018383,
          -145.35761851799828,
          -588.9213536794473,
          -112.48473540252996,
          -141.91692167375402,
          -135.67115793087396,
          175.66441730001267,
          -85.82550995397413,
          -142.02676216273096,
          -160.98062036700912,
          -139.32954967652663,
          -89.0795703363669,
          -173.49980801983847,
          191.9101752154741,
          -112.17705910788,
          -432.2274566215418,
          -112.14849541185212,
          -169.19278160562627,
          -119.5047061151873,
          -119.63705425929312,
          197.18872019156592,
          -386.8119015276006,
          -103.43147963355808,
          -118.58995012074804,
          -99.40835287978847,
          -423.15643696577564,
          -132.31789495400415,
          -346.12456961875745,
          -429.11981613101767,
          217.92160749161985,
          -110.69929336896756,
          -135.29326852703255,
          -124.87774997627614,
          -111.54914483801598,
          -123.71535647493236,
          -69.0639405731274,
          -86.75208495629153,
          -329.74866771907296,
          -423.6755620748603,
          206.62035919723246,
          -341.43276785609413,
          -354.71509972237544,
          203.77340705564046,
          -111.71601411543887,
          -108.46663690089366,
          194.892730610901,
          188.99865034031973,
          -114.28780354665898,
          201.8948140286728,
          -333.6874823272719,
          -134.45807293685652,
          -133.58008957312927,
          -121.81242383836789,
          -124.68275273577346,
          -133.17065849107138,
          187.12432207506245,
          199.72064535838146,
          195.38150429692604,
          -125.06031408606579,
          -144.72230743982607,
          208.82895869286466,
          -111.69150383666866,
          -550.1687670857888,
          178.26628694787098,
          -112.66277506340298,
          -130.75497039431886,
          -129.70177642549905,
          -108.1864632224134,
          236.51999269566474,
          -265.11375657154593,
          -96.75072139484347,
          -338.20047586706494,
          -111.68580736540531,
          214.12253463844306,
          214.9516843801512,
          -108.79740401861895,
          -409.7253335634638,
          -106.25617742456556,
          -446.4574081851847,
          -122.6120056203499,
          -127.4673613787162,
          -143.74585545268974,
          37.440118663665935,
          204.59242472117845,
          190.17002596516159,
          203.70856937175884,
          186.28942315469882,
          -96.67224509321629,
          205.50425565203494,
          -121.6882976120947,
          -433.7260347448378,
          -129.6568705918587,
          -106.65437682804415,
          171.88071227444414,
          -91.74807562089256,
          175.97855989520974,
          -107.4826789889864,
          -325.9555604618534,
          -109.84535981003981,
          -432.89338491656895,
          155.09061848469463,
          -436.10721016881723,
          -116.81422782735011,
          191.71734781952668,
          -111.55022501877721,
          -338.2344301717361,
          208.1188381569217,
          -100.49160714025257,
          -439.9225665521285,
          -111.09221551260413,
          199.23608549547959,
          53.07385821280603,
          -415.86098208348443,
          -128.9661887721541,
          -111.04478674244356,
          -118.18303852022437,
          -133.08422033653306,
          -337.0153248137707,
          -474.7938601137507,
          -111.96965407603874,
          -97.40022587547415,
          -430.10264455661235,
          -423.2814344266285,
          -128.90470792325655,
          -444.23414946377284,
          205.78647961291446,
          199.88184382659296,
          -99.06023671110589,
          -83.82683313659642,
          -144.24264617154276,
          121.6877868689174,
          217.30719531368922,
          -340.77193393923983,
          -93.43223037639844,
          210.26035071730024,
          -5.417761401616148,
          -111.64131815969918,
          187.72667859272335,
          -105.13147258811152,
          -435.8844587563955,
          -117.91258104114259,
          -125.5307567478731,
          -476.57038331396024,
          -114.67943906997941,
          -122.68881790459812,
          199.47217457607707,
          155.64115306362052,
          -149.80963408411287,
          -105.96383659052576,
          -362.58262199206195,
          -114.4126628983373,
          -100.79463059910248,
          -114.80972728771197,
          -137.2146570049403,
          -145.77309434906826,
          201.05819732570689,
          -106.9594067249298,
          -106.65793194779496,
          -115.63018128868993,
          -345.8624349127052,
          -113.59122607624064,
          -102.41566567557452,
          -177.281184652806,
          -112.28290305490835,
          212.88374464851955,
          187.5901259282858,
          -127.30950815443023,
          -142.96340681029525,
          -337.7412648953514,
          -94.54796539943774,
          -122.6585941311665,
          204.5704541997409,
          -134.60378703229378,
          -90.06707762720497,
          -104.68847630616048,
          216.06651656769787,
          -125.75456242943038,
          206.04879280430157,
          -110.54835470410097,
          -98.87811650278421,
          -114.23268963524826,
          -642.1312095088687,
          180.32262586832803,
          224.36680488726185,
          -138.7628615587438,
          -107.9940379706502,
          -134.05153066124987,
          199.78746345834836,
          156.8916336847698,
          214.32824458517558,
          -113.3131625411928,
          -105.30052754955325,
          -342.2753570106134,
          190.44484527477186,
          -132.66750773961152,
          -98.16665128984057,
          -124.40655625103439,
          -122.97648116474066,
          -99.1368093824676,
          -93.17851401621657,
          -112.59107741452833,
          200.23525470626868,
          -356.8412414869103,
          180.29068168813646,
          205.8192976035034,
          -239.78164820207246,
          199.77519180118617,
          -370.3855016267578,
          -342.94161879900133,
          -357.477546953397,
          -178.74440997197448,
          -134.95094276233752,
          -117.86648503002044,
          -657.5184321753309,
          200.03851402037975,
          -121.04938066042229,
          -138.04312092691725,
          -103.42687178400364,
          190.1120858527692,
          -119.88038866543826,
          -319.5714152316745,
          -117.77162896746941,
          -342.9544259035745,
          -96.98580598152044,
          -127.46769743483044,
          -127.41125457073028,
          -109.95541600307594,
          162.81447621954368,
          -131.08989208244267,
          206.597438274862,
          -168.92341773621175
        ],
        [
          -142.1446222062868,
          -338.45241745763786,
          -481.2543345784794,
          -205.10775878842668,
          -236.6336650246978,
          -207.58540532212137,
          -471.6300999920864,
          -498.9312242300474,
          -509.12156360242017,
          -454.3808305674814,
          -404.8212995292944,
          -624.9529988301697,
          -623.404807987006,
          -622.3711022050029,
          -551.0249332918581,
          -582.0190595710696,
          -586.0135139211267,
          -538.4106863953814,
          -573.908564489738,
          -593.6066599938367,
          -666.6053411699022,
          -640.504001822059,
          -646.2032054515706,
          -584.9024234494271,
          -602.7016921150381,
          -630.6008632895358,
          -643.0001133673312,
          -573.4000629975349,
          -242.4712470076203,
          20.788471497091493,
          -212.0506745931858,
          -426.57149836361884,
          -9.105033704625464,
          -563.9238224871381,
          -637.4519748192172,
          -5.1212449778570575,
          23.124089053590847,
          -209.8392913652337,
          -240.979724869252,
          -26.836563694781564,
          -440.82883910611196,
          4.515517312820119,
          -222.55364314050888,
          -18.32248973238754,
          -235.0458143018779,
          -224.61883455399018,
          -258.4036095156796,
          -237.25831158970863,
          -255.7490688077408,
          -22.861831039546367,
          -240.44280167568118,
          -218.27971471310676,
          -226.40978119953763,
          -15.044549614245966,
          -223.71936731714172,
          -198.12289334437483,
          -253.43605395605573,
          22.57816047236354,
          -434.6709182351913,
          5.829016929039692,
          -270.9501227549337,
          -6.630411742400582,
          -417.0943958881499,
          -455.9621282126093,
          -6.777411705826504,
          -232.92086277261433,
          -53.515767589566934,
          -238.59414368737214,
          -203.88149710284776,
          18.065572508400663,
          -623.0008844056571,
          -223.64960369646724,
          -211.4364073176587,
          -191.4567627127462,
          -263.6982639633378,
          -461.8166636101529,
          -211.59154110753846,
          -468.14869713866466,
          -237.04921910008113,
          -244.452715396765,
          -441.59010376332685,
          -207.5485989183168,
          41.62336269555741,
          -466.7341774585405,
          -620.313754103646,
          -222.4642973387083,
          -228.7087185523229,
          -223.31107805189473,
          -240.39383829211573,
          -251.81351110996798,
          -18.990739760442793,
          -8.611483117854991,
          -234.59853183682935,
          -271.3316429706263,
          -265.92231744521456,
          -437.5342329997604,
          -219.6073038262301,
          -228.14154794568333,
          -227.13552542548857,
          -442.57021827114755,
          -223.92635378964593,
          -423.79035885734294,
          -221.35047259842068,
          -197.49854504389592,
          -453.1849862903488,
          6.819721161720497,
          -232.09057730918093,
          -465.7064891375424,
          -454.34090750900145,
          -224.73396865002144,
          -251.2597248779535,
          -0.8231183328312799,
          -205.84266339172422,
          -400.8477748148913,
          -415.7673031029416,
          -16.837593533258037,
          -72.77660975456004,
          1.8882853369051178,
          18.441318735353185,
          -246.83678373440003,
          -265.3228387515094,
          -235.3046768480339,
          -193.77114760209915,
          -199.40643994092403,
          -285.7328978165454,
          -215.52986393015843,
          -634.7881836951619,
          -234.48111963076792,
          -455.7358388313971,
          3.7660067372826562,
          -16.546922944130817,
          -411.346566916605,
          -255.76030811675784,
          -389.83047620284634,
          2.0631910814642733,
          -211.9482390597796,
          -202.8207771999795,
          24.729121352715705,
          -431.5593463761995,
          17.23586947661736,
          -424.9140304124996,
          -19.4244948128139,
          -224.24928828409875,
          -235.08968760873992,
          13.416448338144933,
          -5.433301849213159,
          -209.61918306533218,
          -402.7176605195655,
          -218.59225202158953,
          -230.0002702480566,
          4.716266677714437,
          -219.074325862303,
          -209.9431604001757,
          -480.37498165280397,
          -408.0153501576554,
          -251.80316007825002,
          -240.65547418659932,
          -246.28287279416085,
          -199.54354211117808,
          -213.7499559441219,
          -223.91231408850828,
          -489.6313760461343,
          6.595550826032097,
          -224.04726289190467,
          -44.30913514011179,
          4.039643257643053,
          -408.2955976240843,
          -10.588409485543224,
          3.060193626835274,
          -210.6614621188724,
          -272.9948712034795,
          -230.53491249160732,
          -473.31027462226695,
          -33.154667795853584,
          -456.06066742492703,
          -204.42295725313363,
          -228.7843574519182,
          -423.23523689192234,
          -248.77605259877603,
          -254.43960549786365,
          36.03691039925113,
          -28.988502371315352,
          -220.28398031192728,
          -249.06476199086228,
          -470.6457615600618,
          -196.36558493535458,
          -472.2179714906667,
          -220.0259943773072,
          8.767048373261558,
          -223.71474898514847,
          -397.1542747505511,
          -221.10340057554487,
          -226.69869880352482,
          -440.49338999855377,
          15.199617173306713,
          16.3869276587138,
          -33.670985735092444,
          -217.63042795477577,
          -230.56730479187172,
          -263.05133514966155,
          -463.6763376118613,
          2.3677899674498253,
          1.803103104143293,
          -241.6597813408394,
          -224.87412827525685,
          -209.03923193200725,
          -467.0502437806237,
          -244.74854457302723,
          1.8203944532243936,
          -224.10712677509852,
          36.14116942125848,
          -454.027293962508,
          -23.020307803646293,
          -261.2792097008319,
          -239.61939480519672,
          -225.05068065159335,
          -209.63504149150836,
          -24.116656201667865,
          -429.95156199375947,
          -403.8192238571405,
          16.716684523779524,
          -227.2475625242977,
          -219.1872449957365,
          -220.20025741435938,
          12.789482972820748,
          -221.7970042227171,
          -3.4425345250592665,
          -229.46787175245015,
          -431.22876913166266,
          -232.0607827534977,
          -196.23966603308435,
          2.565361321713665,
          -443.2822583370358,
          -410.75597804319455,
          -449.69201210549477,
          -239.60148904742934,
          -236.30661046828288,
          -430.49638828775414,
          -77.83288296178532,
          -219.63982058026792,
          5.573421932665184,
          -461.8865375691317,
          -248.13879416391526,
          -437.8426771884016,
          -224.6463299537891,
          1.2868560770960378,
          -473.1371525628476,
          -229.91527078678178,
          -264.1301865932807,
          -232.9088725578983,
          -249.23397761840553,
          -243.39501494089362,
          21.396406300987593,
          -251.9771665895343,
          -419.7463233274164,
          -468.0125345747173,
          -244.71857496254836,
          -242.06733871671173,
          -80.63429997528793,
          -222.99013797847,
          -236.16180387172014,
          -205.39709616222197,
          -395.33185812835444,
          -27.704022230314507,
          35.53218650590165,
          -465.8499051223581,
          -210.74539649028577,
          50.88173118312058,
          -222.44754753314123,
          -1.7288277633562514,
          -26.114503343722436,
          -435.8294067369887,
          -217.01947509336665,
          -223.14391207025898,
          -469.31591285926027,
          -469.7025141416487,
          -195.56472217608143,
          -208.37357478213426,
          48.912788016467964,
          -196.57589313645178,
          -209.190703802939,
          54.86675999813412,
          -188.52502374085225,
          -221.83197591046178,
          67.19990546321358,
          51.21470884067986,
          27.106754062746354,
          -258.0189502160209,
          -215.89563355059056,
          -198.08362314465478,
          -181.79591679380712,
          -389.2589038812994,
          -482.2915839323034,
          -9.75960427386814,
          57.295499962861406,
          -185.65483503068677,
          -406.20226465231633,
          -216.78934532868504,
          40.27951707974045,
          -244.69759127444712
        ]
      ],
      "aoi": [
        [
          2.0817777777777775,
          2.156,
          2.1839999999999997,
          2.2208888888888887,
          2.2702222222222224,
          2.2213333333333334,
          2.2746666666666657,
          2.297777777777779,
          2.236444444444444,
          2.359555555555555,
          2.341777777777778,
          2.3542222222222215,
          2.37111111111111,
          2.4111111111111097,
          2.3079999999999994,
          2.352,
          2.278666666666667,
          2.3115555555555565,
          2.075555555555556,
          2.0835555555555563,
          2.129777777777778,
          2.070666666666667,
          2.135999999999999,
          2.061333333333334,
          2.0951111111111107,
          2.0684444444444456,
          2.079555555555556,
          2.0759999999999996,
          1.9919999999999993,
          2.0044444444444447,
          1.9737777777777779,
          1.9626666666666657,
          1.9995555555555555,
          2.0115555555555558,
          2.0413333333333346,
          2.017777777777777,
          2.0617777777777775,
          2.005333333333333,
          2.0822222222222235,
          1.9791111111111108,
          1.9391111111111112,
          1.9257777777777767,
          2.1022222222222218,
          2.0168888888888876,
          2.0599999999999996,
          2.0533333333333332,
          1.9635555555555562,
          1.9844444444444447,
          2.0124444444444447,
          2.0275555555555567,
          1.9955555555555557,
          2.0444444444444425,
          1.9484444444444446,
          2.0035555555555544,
          1.940888888888889,
          2.0404444444444447,
          1.9333333333333327,
          2.0022222222222226,
          2.0320000000000005,
          2.0337777777777784,
          2.023555555555556,
          1.9457777777777785,
          1.9902222222222212,
          1.936888888888889,
          1.9906666666666661,
          2.0200000000000005,
          2.025777777777778,
          2.032444444444445,
          1.9373333333333331,
          2.0004444444444442,
          1.9955555555555546,
          2.0288888888888903,
          2.0248888888888903,
          1.9857777777777785,
          1.929777777777778,
          1.9484444444444446,
          1.980444444444444,
          2.042222222222222,
          1.9968888888888898,
          1.910222222222222,
          2.049333333333333,
          1.991555555555556,
          1.9795555555555548,
          2.022222222222222,
          1.976888888888888,
          2.0248888888888907,
          1.9813333333333345,
          1.9968888888888894,
          2.0866666666666656,
          1.972888888888889,
          1.9764444444444451,
          1.9906666666666661,
          1.9902222222222217,
          1.969777777777778,
          1.9839999999999998,
          2.061333333333333,
          1.9484444444444435,
          1.8897777777777776,
          1.947555555555556,
          1.9662222222222239,
          1.968,
          1.9777777777777779,
          2.0048888888888903,
          2.047555555555556,
          2.0160000000000005,
          2.0133333333333336,
          2.0644444444444447,
          2.002666666666667,
          1.962666666666667,
          1.9564444444444447,
          1.9782222222222243,
          2.0,
          2.0035555555555553,
          1.9777777777777772,
          2.0515555555555554,
          1.9795555555555564,
          1.992444444444445,
          1.9679999999999995,
          1.9604444444444433,
          2.009777777777778,
          2.014666666666668,
          1.974666666666666,
          1.9715555555555557,
          1.9977777777777779,
          1.973777777777778,
          2.0448888888888885,
          2.003555555555556,
          1.9937777777777776,
          1.968,
          1.9626666666666666,
          2.0413333333333337,
          2.022222222222223,
          1.9795555555555575,
          1.9759999999999995,
          1.9773333333333334,
          2.039555555555556,
          1.9795555555555566,
          1.960444444444445,
          2.019111111111111,
          2.0528888888888885,
          1.9977777777777779,
          2.092888888888888,
          2.005333333333333,
          1.981333333333333,
          1.9999999999999996,
          1.9715555555555553,
          2.026222222222222,
          1.9644444444444447,
          1.9351111111111117,
          1.9799999999999995,
          1.999555555555556,
          2.026666666666667,
          2.017333333333333,
          1.9555555555555557,
          2.012444444444444,
          2.011111111111111,
          2.051111111111112,
          1.970222222222222,
          2.040888888888889,
          1.9573333333333338,
          1.9599999999999993,
          1.9942222222222215,
          1.9377777777777778,
          1.9675555555555548,
          1.9733333333333334,
          1.9582222222222219,
          1.9506666666666672,
          2.0026666666666673,
          1.9871111111111104,
          1.9799999999999995,
          2.0293333333333328,
          1.9755555555555566,
          1.9826666666666672,
          1.9622222222222225,
          1.987999999999999,
          1.9173333333333336,
          1.9902222222222223,
          1.975111111111111,
          2.039111111111111,
          1.9413333333333334,
          1.9315555555555561,
          1.9995555555555553,
          1.9271111111111123,
          1.9835555555555568,
          1.9764444444444451,
          2.0062222222222217,
          1.988,
          2.0533333333333332,
          1.9377777777777767,
          1.9577777777777783,
          2.02711111111111,
          1.9791111111111115,
          1.9813333333333325,
          1.9964444444444458,
          1.998222222222223,
          2.015555555555556,
          2.062222222222223,
          1.9866666666666666,
          1.9657777777777785,
          1.999111111111111,
          1.959555555555556,
          1.9168888888888895,
          2.0146666666666655,
          2.0244444444444443,
          2.0022222222222217,
          2.0484444444444443,
          1.9755555555555557,
          2.040888888888889,
          2.0217777777777775,
          1.9991111111111115,
          1.97288888888889,
          2.01688888888889,
          1.9902222222222228,
          1.9924444444444438,
          2.0559999999999996,
          1.9960000000000009,
          1.9142222222222225,
          1.9919999999999987,
          2.041777777777778,
          2.0408888888888894,
          1.9684444444444447,
          1.9928888888888894,
          1.989333333333332,
          1.992444444444444,
          2.0124444444444447,
          2.004,
          2.0031111111111115,
          2.012000000000002,
          1.9893333333333332,
          1.9346666666666663,
          1.980444444444445,
          2.0297777777777775,
          1.9817777777777772,
          1.9448888888888887,
          1.959555555555556,
          2.001333333333334,
          2.034222222222223,
          1.9893333333333347,
          1.9848888888888887,
          2.0377777777777766,
          1.956444444444445,
          1.9733333333333323,
          1.9742222222222219,
          1.9506666666666665,
          1.9671111111111104,
          1.9857777777777783,
          1.9857777777777785,
          1.9595555555555553,
          2.022666666666666,
          1.9826666666666661,
          1.9991111111111115,
          1.9733333333333334,
          1.9680000000000015,
          1.993777777777778,
          2.012888888888888,
          1.9622222222222228,
          1.9511111111111108,
          1.9568888888888898,
          1.98488888888889,
          1.9386666666666668,
          1.9835555555555557,
          1.9422222222222225,
          1.9853333333333334,
          2.0031111111111124,
          1.960444444444445,
          1.9862222222222223,
          1.9395555555555553,
          1.9751111111111115,
          1.9595555555555564,
          1.972,
          1.9746666666666661,
          2.014666666666667,
          1.993777777777778,
          1.967111111111112,
          2.054666666666667,
          2.0097777777777774,
          1.9786666666666675,
          1.9582222222222223,
          2.0457777777777784,
          2.0306666666666664,
          1.9475555555555555,
          1.994666666666667,
          2.018222222222222,
          1.9568888888888887,
          1.9751111111111115,
          2.0257777777777783,
          1.9244444444444446,
          1.9848888888888883,
          1.9719999999999998,
          1.9822222222222226,
          1.9955555555555542,
          1.978222222222223,
          2.005333333333333,
          1.9542222222222225,
          1.9697777777777772,
          1.998222222222224,
          1.9724444444444438,
          2.042666666666666,
          2.006666666666667,
          1.9542222222222219
        ],
        [
          2.195111111111111,
          2.2035555555555555,
          2.104444444444445,
          2.008000000000001,
          2.0635555555555567,
          2.0515555555555562,
          2.056444444444445,
          2.0386666666666655,
          2.043555555555556,
          2.0542222222222226,
          2.2800000000000007,
          2.363555555555555,
          2.416000000000001,
          2.35511111111111,
          2.3995555555555566,
          2.395555555555553,
          2.3622222222222224,
          2.369777777777778,
          2.132444444444445,
          2.0586666666666673,
          2.1173333333333333,
          2.043111111111111,
          2.0226666666666664,
          2.10888888888889,
          2.0604444444444443,
          2.032444444444445,
          2.0524444444444434,
          2.0697777777777775,
          1.991111111111112,
          2.0133333333333345,
          1.988444444444444,
          2.001777777777776,
          1.9853333333333327,
          2.020000000000001,
          2.017333333333333,
          2.013333333333334,
          2.024888888888888,
          1.9657777777777783,
          1.9417777777777785,
          1.9986666666666664,
          2.0462222222222217,
          1.99911111111111,
          2.0013333333333327,
          1.9880000000000007,
          2.029777777777777,
          2.0577777777777775,
          1.947555555555556,
          1.986666666666667,
          2.1457777777777776,
          2.084,
          2.0808888888888886,
          2.055555555555557,
          2.1022222222222218,
          2.0564444444444443,
          2.141333333333332,
          2.018222222222222,
          1.9777777777777772,
          1.9039999999999995,
          2.0226666666666655,
          2.0400000000000005,
          2.026222222222222,
          1.948000000000001,
          1.9915555555555557,
          2.0386666666666673,
          1.9848888888888887,
          1.9644444444444447,
          2.0057777777777765,
          1.9906666666666657,
          1.9706666666666677,
          1.9919999999999998,
          2.045777777777778,
          2.0195555555555567,
          1.9782222222222228,
          1.9906666666666657,
          2.0408888888888885,
          2.0555555555555554,
          1.940444444444445,
          1.9844444444444447,
          2.016,
          2.0106666666666673,
          1.9240000000000006,
          2.0564444444444443,
          1.9999999999999993,
          1.9662222222222239,
          1.986222222222222,
          1.9968888888888892,
          2.0480000000000005,
          1.984888888888889,
          2.0115555555555553,
          1.9773333333333343,
          2.029777777777778,
          1.9515555555555557,
          1.9871111111111115,
          1.9324444444444449,
          2.025777777777777,
          2.0391111111111124,
          1.9808888888888885,
          2.0106666666666673,
          1.9697777777777783,
          1.969333333333334,
          1.9968888888888892,
          2.026222222222224,
          1.9622222222222216,
          1.988,
          2.034222222222222,
          1.9448888888888898,
          1.97511111111111,
          1.9871111111111115,
          1.97288888888889,
          1.9884444444444458,
          2.020888888888889,
          2.0026666666666664,
          1.9671111111111126,
          1.989777777777778,
          2.007555555555555,
          2.0053333333333336,
          1.9897777777777783,
          1.955111111111111,
          1.9680000000000006,
          2.031111111111111,
          2.031999999999999,
          1.981777777777778,
          2.0097777777777774,
          2.025777777777779,
          2.017777777777778,
          1.9995555555555555,
          2.0137777777777783,
          2.027555555555556,
          1.9657777777777778,
          1.9835555555555553,
          1.9826666666666666,
          1.9560000000000006,
          2.039555555555556,
          1.9644444444444447,
          2.0124444444444447,
          2.0031111111111115,
          1.980888888888888,
          1.9213333333333324,
          2.0435555555555545,
          1.962222222222222,
          1.9915555555555557,
          1.928000000000001,
          1.987555555555555,
          1.9662222222222214,
          1.9688888888888896,
          1.954666666666666,
          1.9608888888888891,
          2.0200000000000014,
          2.01288888888889,
          2.0302222222222226,
          1.980444444444445,
          2.0213333333333345,
          1.960888888888889,
          2.015555555555556,
          1.9644444444444449,
          2.0008888888888894,
          1.9608888888888891,
          1.9453333333333334,
          1.980444444444444,
          2.0137777777777783,
          2.0266666666666677,
          1.9675555555555548,
          2.0440000000000005,
          1.9324444444444449,
          2.043555555555555,
          1.9884444444444456,
          1.9528888888888882,
          1.9857777777777783,
          1.9906666666666684,
          2.011999999999999,
          1.983999999999999,
          2.010666666666665,
          2.0128888888888876,
          1.954222222222222,
          1.9964444444444454,
          2.0008888888888894,
          1.9635555555555542,
          2.0355555555555545,
          1.9737777777777785,
          2.0222222222222226,
          1.9831111111111124,
          1.9328888888888884,
          2.0173333333333336,
          1.9831111111111122,
          2.0084444444444434,
          2.010666666666666,
          1.9755555555555566,
          2.0648888888888894,
          1.9951111111111102,
          1.9617777777777774,
          1.985333333333333,
          1.960444444444445,
          2.010666666666667,
          2.006222222222223,
          2.011111111111111,
          1.9697777777777772,
          1.9617777777777785,
          1.9248888888888882,
          2.052,
          2.030666666666666,
          1.9568888888888893,
          1.968444444444444,
          1.9288888888888884,
          1.9791111111111124,
          1.9826666666666666,
          1.9848888888888887,
          2.0275555555555553,
          1.9760000000000002,
          1.9991111111111124,
          2.003111111111111,
          2.0106666666666673,
          2.051999999999999,
          1.9937777777777774,
          2.0186666666666673,
          2.0084444444444447,
          2.070222222222222,
          2.075555555555556,
          1.9511111111111101,
          2.033333333333334,
          1.9946666666666661,
          1.9528888888888882,
          1.9893333333333343,
          2.0239999999999996,
          1.9093333333333335,
          1.9839999999999993,
          1.9639999999999997,
          1.9626666666666677,
          2.000444444444444,
          1.987111111111111,
          1.9977777777777783,
          1.9546666666666666,
          1.9720000000000004,
          1.9831111111111113,
          1.9479999999999995,
          2.0186666666666673,
          2.024444444444444,
          2.0315555555555553,
          1.9751111111111115,
          1.9524444444444438,
          2.0404444444444447,
          1.9897777777777772,
          2.0102222222222226,
          1.9377777777777776,
          1.9502222222222239,
          1.946666666666667,
          2.029777777777778,
          1.941777777777778,
          1.9746666666666666,
          1.9653333333333338,
          1.9977777777777783,
          1.9484444444444435,
          2.066222222222222,
          1.9551111111111117,
          2.0168888888888876,
          1.9786666666666657,
          2.0000000000000013,
          1.9315555555555548,
          2.04311111111111,
          1.9782222222222234,
          1.9444444444444446,
          1.972,
          1.9688888888888876,
          2.0057777777777783,
          2.0062222222222217,
          1.9600000000000004,
          1.9888888888888885,
          2.004444444444444,
          1.9653333333333327,
          1.936888888888889,
          1.951111111111112,
          1.9968888888888892,
          2.0151111111111115,
          2.064000000000001,
          1.9728888888888896,
          2.0004444444444442,
          2.017333333333333,
          2.055555555555557,
          1.9662222222222225,
          2.0111111111111115,
          2.0462222222222217,
          2.0328888888888894,
          1.986222222222223,
          1.9519999999999988,
          1.9924444444444445,
          2.0333333333333328,
          2.037333333333333,
          1.9542222222222219,
          1.9893333333333332,
          2.018666666666667,
          1.9133333333333327,
          2.006222222222222,
          2.01911111111111,
          1.9568888888888882,
          2.025777777777778,
          2.032888888888889,
          1.9777777777777772,
          2.0884444444444443,
          1.9791111111111115,
          1.973333333333333,
          2.071111111111111
        ],
        [
          2.1391111111111116,
          2.1457777777777776,
          1.9822222222222228,
          1.9857777777777785,
          1.9644444444444427,
          1.9795555555555553,
          2.189333333333334,
          2.247999999999999,
          2.3031111111111118,
          2.3346666666666676,
          2.23688888888889,
          2.3422222222222215,
          2.3302222222222224,
          2.380444444444445,
          2.312,
          2.3328888888888897,
          2.3560000000000003,
          2.2600000000000007,
          2.2817777777777777,
          2.3484444444444437,
          2.2751111111111113,
          2.3417777777777777,
          2.3608888888888893,
          2.2448888888888896,
          2.2866666666666657,
          2.3404444444444445,
          2.3293333333333335,
          2.3671111111111105,
          2.1382222222222214,
          2.0724444444444456,
          2.074666666666666,
          2.114666666666667,
          2.104444444444445,
          2.0724444444444448,
          2.121333333333333,
          2.1493333333333338,
          2.0955555555555567,
          2.048888888888889,
          2.0857777777777775,
          2.1124444444444457,
          2.124444444444444,
          2.0924444444444443,
          2.103111111111111,
          2.096,
          2.116444444444445,
          2.095555555555556,
          2.1111111111111116,
          2.116,
          2.1093333333333324,
          2.1435555555555554,
          2.131555555555556,
          2.094666666666666,
          2.0991111111111116,
          2.090666666666667,
          2.1066666666666665,
          2.041333333333334,
          2.1195555555555567,
          2.0697777777777775,
          2.0359999999999987,
          2.0964444444444443,
          2.1133333333333346,
          2.091555555555555,
          2.108444444444444,
          2.167555555555555,
          2.120888888888889,
          2.0791111111111107,
          2.105333333333333,
          2.1204444444444444,
          2.068888888888889,
          2.0697777777777784,
          2.0853333333333333,
          2.1044444444444443,
          2.0742222222222217,
          2.078666666666667,
          2.109777777777779,
          2.099111111111112,
          2.110222222222222,
          2.068888888888889,
          2.1266666666666687,
          2.0551111111111116,
          2.0906666666666673,
          2.0320000000000005,
          2.0133333333333336,
          2.1524444444444453,
          2.1226666666666665,
          2.0688888888888886,
          2.0617777777777784,
          2.055555555555556,
          2.1022222222222227,
          2.076888888888889,
          2.1288888888888895,
          2.1466666666666665,
          2.1511111111111103,
          2.134222222222223,
          2.1111111111111103,
          2.091111111111112,
          2.0444444444444447,
          2.0977777777777784,
          2.086222222222223,
          2.0720000000000005,
          2.0866666666666664,
          2.0959999999999996,
          2.0680000000000005,
          2.071555555555555,
          2.0751111111111116,
          2.059555555555557,
          2.0982222222222227,
          2.0875555555555563,
          2.062666666666667,
          2.0879999999999996,
          2.1559999999999993,
          2.0755555555555545,
          2.061333333333334,
          2.069333333333332,
          2.121333333333333,
          2.0995555555555563,
          2.1604444444444435,
          2.0902222222222226,
          2.1062222222222227,
          2.141777777777778,
          2.1515555555555554,
          2.088444444444445,
          2.029777777777779,
          2.033333333333333,
          2.163555555555556,
          2.0484444444444443,
          2.0880000000000005,
          2.1337777777777776,
          2.1204444444444435,
          2.095555555555555,
          2.095555555555555,
          2.045333333333333,
          2.163555555555556,
          2.0782222222222217,
          2.0928888888888904,
          2.0933333333333337,
          2.016888888888889,
          2.0831111111111102,
          2.090222222222222,
          2.0786666666666678,
          2.150666666666667,
          2.0773333333333337,
          2.088000000000001,
          2.1004444444444452,
          2.083555555555555,
          2.108,
          2.096,
          2.0888888888888886,
          2.1119999999999997,
          2.0937777777777784,
          2.1071111111111103,
          2.1075555555555563,
          2.081333333333332,
          2.148444444444444,
          2.0915555555555563,
          2.1124444444444457,
          2.097777777777778,
          2.100444444444446,
          2.0533333333333337,
          2.1057777777777775,
          2.082666666666667,
          2.0968888888888904,
          2.137777777777778,
          2.0631111111111125,
          2.1955555555555564,
          2.0795555555555554,
          2.119555555555556,
          2.129333333333335,
          2.091555555555556,
          2.053777777777777,
          2.136888888888889,
          2.1217777777777775,
          2.1262222222222213,
          2.0653333333333332,
          2.1062222222222218,
          2.0475555555555545,
          2.068444444444445,
          2.1231111111111107,
          2.1551111111111103,
          2.1284444444444457,
          2.072444444444445,
          2.1822222222222236,
          2.084000000000001,
          2.132444444444444,
          2.0799999999999996,
          2.044,
          2.1133333333333337,
          2.0942222222222227,
          2.1213333333333333,
          2.1066666666666665,
          2.076,
          2.0693333333333337,
          2.133777777777777,
          2.1200000000000014,
          2.065777777777779,
          2.1084444444444443,
          2.1297777777777784,
          2.0893333333333337,
          2.145777777777778,
          2.107555555555556,
          2.0866666666666673,
          2.085777777777778,
          2.120444444444444,
          2.1106666666666674,
          2.074666666666666,
          2.043555555555556,
          2.1164444444444444,
          2.1168888888888886,
          2.107555555555556,
          2.076444444444445,
          2.028888888888889,
          2.0782222222222226,
          2.118666666666668,
          2.1391111111111116,
          2.1017777777777784,
          2.0795555555555554,
          2.0715555555555554,
          2.1066666666666674,
          2.0791111111111107,
          2.0817777777777784,
          2.0582222222222226,
          2.0813333333333337,
          2.0639999999999996,
          2.1186666666666674,
          2.1062222222222213,
          2.076,
          2.093777777777778,
          2.0968888888888886,
          2.1493333333333338,
          2.1128888888888877,
          2.0319999999999996,
          2.104444444444445,
          2.0484444444444434,
          2.0848888888888877,
          2.0844444444444448,
          2.113333333333334,
          2.1155555555555567,
          2.1551111111111108,
          2.0773333333333333,
          2.131111111111111,
          2.097777777777777,
          2.0688888888888894,
          2.1399999999999992,
          2.0995555555555554,
          2.086666666666668,
          2.131555555555554,
          2.1657777777777785,
          2.137333333333333,
          2.0946666666666665,
          2.0875555555555567,
          2.107555555555556,
          2.0795555555555545,
          2.055111111111112,
          2.1471111111111107,
          2.130666666666668,
          2.164,
          2.098666666666668,
          2.106666666666667,
          2.1897777777777767,
          2.1080000000000005,
          2.084444444444444,
          2.0453333333333332,
          2.070222222222222,
          2.1231111111111107,
          2.098222222222224,
          2.2022222222222223,
          2.096888888888889,
          2.03111111111111,
          2.113777777777778,
          2.143111111111111,
          2.113777777777777,
          2.028,
          2.1186666666666674,
          2.0648888888888886,
          2.0622222222222204,
          2.0782222222222226,
          2.060888888888889,
          2.074222222222223,
          2.0680000000000005,
          2.0551111111111102,
          2.0795555555555554,
          2.036888888888889,
          2.0155555555555567,
          2.100444444444444,
          2.049333333333333,
          2.063111111111111,
          2.070666666666666,
          2.16088888888889,
          2.105777777777777,
          2.066666666666667,
          2.0337777777777775,
          2.064888888888888,
          2.0973333333333337,
          2.1004444444444443,
          2.05111111111111,
          2.0613333333333332,
          2.1008888888888886,
          2.1035555555555545,
          2.094666666666667,
          2.0982222222222227
        ]
      ],
      "ho_freq": [
        [
          0.312,
          0.21333333333333335,
          0.06666666666666667,
          0.06666666666666667,
          0.04,
          0.06,
          0.06666666666666667,
          0.013333333333333334,
          0.04666666666666667,
          0.04666666666666667,
          0.06,
          0.06,
          0.1,
          0.06666666666666667,
          0.08,
          0.07333333333333333,
          0.08,
          0.06,
          0.08666666666666667,
          0.06,
          0.05333333333333334,
          0.04,
          0.04,
          0.05333333333333334,
          0.04,
          0.04,
          0.04,
          0.03333333333333333,
          0.05333333333333334,
          0.06666666666666667,
          0.06,
          0.06,
          0.06666666666666667,
          0.06,
          0.05333333333333334,
          0.04,
          0.08,
          0.04,
          0.05333333333333334,
          0.05333333333333334,
          0.06,
          0.04666666666666667,
          0.08,
          0.06,
          0.096,
          0.14266666666666666,
          0.037333333333333336,
          0.04,
          0.13866666666666666,
          0.04,
          0.04666666666666667,
          0.15733333333333333,
          0.06,
          0.02,
          0.06666666666666667,
          0.076,
          0.03333333333333333,
          0.06,
          0.11066666666666666,
          0.058666666666666666,
          0.07733333333333334,
          0.05333333333333334,
          0.04,
          0.04666666666666667,
          0.04666666666666667,
          0.06,
          0.03333333333333333,
          0.05333333333333334,
          0.03333333333333333,
          0.05333333333333334,
          0.088,
          0.02,
          0.04666666666666667,
          0.05333333333333334,
          0.05333333333333334,
          0.02666666666666667,
          0.08,
          0.06666666666666667,
          0.03333333333333333,
          0.04666666666666667,
          0.1,
          0.03333333333333333,
          0.05333333333333334,
          0.03333333333333333,
          0.04,
          0.04666666666666667,
          0.04666666666666667,
          0.04,
          0.08,
          0.02,
          0.04,
          0.06666666666666667,
          0.05333333333333334,
          0.05333333333333334,
          0.06,
          0.06666666666666667,
          0.04,
          0.04,
          0.05333333333333334,
          0.04,
          0.06,
          0.04,
          0.06,
          0.108,
          0.03333333333333333,
          0.06,
          0.06266666666666666,
          0.06,
          0.05333333333333334,
          0.05333333333333334,
          0.03333333333333333,
          0.05333333333333334,
          0.084,
          0.04,
          0.07333333333333333,
          0.06266666666666666,
          0.06,
          0.04666666666666667,
          0.04,
          0.03333333333333333,
          0.076,
          0.06,
          0.02666666666666667,
          0.04666666666666667,
          0.04666666666666667,
          0.04,
          0.068,
          0.05333333333333334,
          0.06,
          0.06666666666666667,
          0.05466666666666667,
          0.03333333333333333,
          0.03333333333333333,
          0.068,
          0.05333333333333334,
          0.06,
          0.04,
          0.04,
          0.06666666666666667,
          0.05333333333333334,
          0.03333333333333333,
          0.06,
          0.06,
          0.076,
          0.04,
          0.03333333333333333,
          0.06,
          0.06,
          0.04,
          0.06666666666666667,
          0.05333333333333334,
          0.04,
          0.04666666666666667,
          0.04,
          0.06666666666666667,
          0.06,
          0.08666666666666667,
          0.08,
          0.06,
          0.06,
          0.05333333333333334,
          0.04666666666666667,
          0.03333333333333333,
          0.04,
          0.02666666666666667,
          0.04,
          0.04,
          0.02666666666666667,
          0.03333333333333333,
          0.07066666666666667,
          0.07333333333333333,
          0.04,
          0.068,
          0.08133333333333333,
          0.03333333333333333,
          0.02666666666666667,
          0.064,
          0.02,
          0.08,
          0.04666666666666667,
          0.04666666666666667,
          0.1,
          0.072,
          0.04,
          0.02666666666666667,
          0.04,
          0.03333333333333333,
          0.04,
          0.04666666666666667,
          0.05333333333333334,
          0.04666666666666667,
          0.04666666666666667,
          0.04,
          0.08,
          0.04,
          0.06,
          0.05333333333333334,
          0.06,
          0.07066666666666667,
          0.07733333333333334,
          0.05333333333333334,
          0.04,
          0.03333333333333333,
          0.05333333333333334,
          0.04666666666666667,
          0.06,
          0.04,
          0.13733333333333334,
          0.07333333333333333,
          0.04666666666666667,
          0.09333333333333334,
          0.06666666666666667,
          0.04666666666666667,
          0.04666666666666667,
          0.06666666666666667,
          0.05333333333333334,
          0.04666666666666667,
          0.04,
          0.04666666666666667,
          0.04,
          0.06666666666666667,
          0.04133333333333333,
          0.05333333333333334,
          0.02666666666666667,
          0.05333333333333334,
          0.06,
          0.03333333333333333,
          0.09733333333333333,
          0.04666666666666667,
          0.05333333333333334,
          0.02666666666666667,
          0.05333333333333334,
          0.04,
          0.05333333333333334,
          0.04,
          0.04666666666666667,
          0.02666666666666667,
          0.04666666666666667,
          0.06666666666666667,
          0.06,
          0.06666666666666667,
          0.03333333333333333,
          0.04,
          0.06,
          0.05333333333333334,
          0.08,
          0.04,
          0.06,
          0.05333333333333334,
          0.04666666666666667,
          0.04,
          0.02,
          0.04,
          0.04666666666666667,
          0.04,
          0.04666666666666667,
          0.06,
          0.06,
          0.04666666666666667,
          0.04666666666666667,
          0.03333333333333333,
          0.06,
          0.04666666666666667,
          0.06666666666666667,
          0.06,
          0.04666666666666667,
          0.05333333333333334,
          0.04666666666666667,
          0.07333333333333333,
          0.06,
          0.06666666666666667,
          0.05333333333333334,
          0.03333333333333333,
          0.04,
          0.06,
          0.06,
          0.05333333333333334,
          0.07333333333333333,
          0.05333333333333334,
          0.05333333333333334,
          0.03333333333333333,
          0.06666666666666667,
          0.04666666666666667,
          0.03333333333333333,
          0.07333333333333333,
          0.04,
          0.05333333333333334,
          0.06666666666666667,
          0.06,
          0.03333333333333333,
          0.04666666666666667,
          0.06,
          0.05333333333333334,
          0.07333333333333333,
          0.02666666666666667,
          0.03333333333333333,
          0.04,
          0.05466666666666667,
          0.04666666666666667,
          0.04666666666666667
        ],
        [
          1.0,
          0.984,
          0.052,
          0.04666666666666667,
          0.04666666666666667,
          0.07333333333333333,
          0.06,
          0.06666666666666667,
          0.04666666666666667,
          0.06666666666666667,
          0.05333333333333334,
          0.06666666666666667,
          0.04666666666666667,
          0.04666666666666667,
          0.06666666666666667,
          0.06,
          0.04666666666666667,
          0.04666666666666667,
          0.04,
          0.04666666666666667,
          0.05333333333333334,
          0.08,
          0.06666666666666667,
          0.04666666666666667,
          0.05333333333333334,
          0.06666666666666667,
          0.04666666666666667,
          0.06,
          0.03333333333333333,
          0.04666666666666667,
          0.04,
          0.06,
          0.08,
          0.06666666666666667,
          0.03333333333333333,
          0.013333333333333334,
          0.05333333333333334,
          0.04,
          0.06933333333333333,
          0.264,
          0.2693333333333333,
          0.29333333333333333,
          0.25333333333333335,
          0.3333333333333333,
          0.2986666666666667,
          0.34,
          0.21333333333333335,
          0.16666666666666666,
          0.04666666666666667,
          0.04666666666666667,
          0.06666666666666667,
          0.04666666666666667,
          0.02666666666666667,
          0.04,
          0.08,
          0.04,
          0.07333333333333333,
          0.05333333333333334,
          0.06,
          0.08,
          0.06,
          0.04666666666666667,
          0.04666666666666667,
          0.06,
          0.04666666666666667,
          0.04666666666666667,
          0.04666666666666667,
          0.03333333333333333,
          0.04666666666666667,
          0.04666666666666667,
          0.06666666666666667,
          0.06,
          0.05333333333333334,
          0.06,
          0.04,
          0.06,
          0.06666666666666667,
          0.08,
          0.05333333333333334,
          0.06666666666666667,
          0.07333333333333333,
          0.08,
          0.08,
          0.02666666666666667,
          0.03333333333333333,
          0.05333333333333334,
          0.08666666666666667,
          0.04666666666666667,
          0.04666666666666667,
          0.04,
          0.06,
          0.06,
          0.06,
          0.03333333333333333,
          0.07066666666666667,
          0.04666666666666667,
          0.02666666666666667,
          0.06,
          0.04,
          0.04,
          0.04666666666666667,
          0.06,
          0.06666666666666667,
          0.06,
          0.10133333333333333,
          0.058666666666666666,
          0.04,
          0.04,
          0.04666666666666667,
          0.04,
          0.06533333333333333,
          0.06,
          0.06133333333333333,
          0.06,
          0.06,
          0.02,
          0.04666666666666667,
          0.06,
          0.04,
          0.05333333333333334,
          0.04666666666666667,
          0.04,
          0.05333333333333334,
          0.06666666666666667,
          0.06,
          0.04,
          0.04666666666666667,
          0.05333333333333334,
          0.12933333333333333,
          0.06,
          0.04666666666666667,
          0.03333333333333333,
          0.04,
          0.04666666666666667,
          0.04666666666666667,
          0.06666666666666667,
          0.04666666666666667,
          0.05333333333333334,
          0.06933333333333333,
          0.05333333333333334,
          0.04666666666666667,
          0.07866666666666666,
          0.05333333333333334,
          0.03333333333333333,
          0.07866666666666666,
          0.06666666666666667,
          0.03333333333333333,
          0.05333333333333334,
          0.02,
          0.04666666666666667,
          0.06666666666666667,
          0.06133333333333333,
          0.013333333333333334,
          0.06,
          0.04666666666666667,
          0.04666666666666667,
          0.02666666666666667,
          0.04666666666666667,
          0.03333333333333333,
          0.06,
          0.06,
          0.04666666666666667,
          0.05333333333333334,
          0.04,
          0.02666666666666667,
          0.04,
          0.05333333333333334,
          0.05333333333333334,
          0.04666666666666667,
          0.09733333333333333,
          0.06,
          0.04666666666666667,
          0.068,
          0.05333333333333334,
          0.06666666666666667,
          0.04666666666666667,
          0.03333333333333333,
          0.05333333333333334,
          0.04666666666666667,
          0.04,
          0.09066666666666667,
          0.03333333333333333,
          0.02666666666666667,
          0.04,
          0.04,
          0.06,
          0.04,
          0.04,
          0.04,
          0.05333333333333334,
          0.06,
          0.07333333333333333,
          0.06666666666666667,
          0.04666666666666667,
          0.05333333333333334,
          0.04,
          0.06,
          0.06,
          0.06666666666666667,
          0.09066666666666667,
          0.02,
          0.04,
          0.06666666666666667,
          0.04,
          0.11066666666666666,
          0.04,
          0.02666666666666667,
          0.06666666666666667,
          0.02,
          0.04,
          0.05333333333333334,
          0.04666666666666667,
          0.03333333333333333,
          0.03333333333333333,
          0.04,
          0.04,
          0.06,
          0.06,
          0.04666666666666667,
          0.04,
          0.064,
          0.03333333333333333,
          0.04666666666666667,
          0.072,
          0.04,
          0.04666666666666667,
          0.04,
          0.04666666666666667,
          0.03333333333333333,
          0.04666666666666667,
          0.06,
          0.06266666666666666,
          0.05333333333333334,
          0.05333333333333334,
          0.04666666666666667,
          0.06666666666666667,
          0.08133333333333333,
          0.06666666666666667,
          0.04666666666666667,
          0.04666666666666667,
          0.07466666666666667,
          0.056,
          0.06,
          0.04666666666666667,
          0.06666666666666667,
          0.04666666666666667,
          0.07866666666666666,
          0.04,
          0.04,
          0.04,
          0.04666666666666667,
          0.03333333333333333,
          0.04666666666666667,
          0.02666666666666667,
          0.06,
          0.06666666666666667,
          0.07066666666666667,
          0.088,
          0.03333333333333333,
          0.08533333333333333,
          0.04,
          0.04,
          0.06,
          0.04666666666666667,
          0.02,
          0.02666666666666667,
          0.068,
          0.04666666666666667,
          0.04,
          0.03333333333333333,
          0.06666666666666667,
          0.03333333333333333,
          0.05333333333333334,
          0.04666666666666667,
          0.06266666666666666,
          0.03333333333333333,
          0.05466666666666667,
          0.06666666666666667,
          0.06,
          0.08266666666666667,
          0.05333333333333334,
          0.03333333333333333,
          0.04666666666666667,
          0.05333333333333334,
          0.05333333333333334,
          0.07466666666666667,
          0.04,
          0.02666666666666667,
          0.06666666666666667,
          0.04,
          0.06,
          0.06,
          0.06666666666666667,
          0.04,
          0.04,
          0.02,
          0.04,
          0.08666666666666667,
          0.068,
          0.03333333333333333
        ],
        [
          0.984,
          0.9973333333333333,
          1.0,
          1.0,
          1.0,
          1.0,
          1.0,
          0.04666666666666667,
          0.05333333333333334,
          0.06666666666666667,
          0.1,
          0.06,
          0.06666666666666667,
          0.06,
          0.04666666666666667,
          0.03333333333333333,
          0.07333333333333333,
          0.05333333333333334,
          0.04,
          0.04,
          0.02,
          0.05333333333333334,
          0.05333333333333334,
          0.06,
          0.06666666666666667,
          0.06,
          0.06666666666666667,
          0.06666666666666667,
          0.06,
          0.05333333333333334,
          0.06,
          0.04666666666666667,
          0.03333333333333333,
          0.04,
          0.08,
          0.04666666666666667,
          0.07333333333333333,
          0.06,
          0.06,
          0.04666666666666667,
          0.03333333333333333,
          0.02666666666666667,
          0.02666666666666667,
          0.03333333333333333,
          0.06,
          0.07333333333333333,
          0.04666666666666667,
          0.08666666666666667,
          0.06666666666666667,
          0.04666666666666667,
          0.04666666666666667,
          0.03333333333333333,
          0.06666666666666667,
          0.03333333333333333,
          0.04,
          0.04,
          0.03333333333333333,
          0.05333333333333334,
          0.06666666666666667,
          0.04666666666666667,
          0.07333333333333333,
          0.05333333333333334,
          0.06,
          0.06,
          0.04,
          0.05333333333333334,
          0.04666666666666667,
          0.04666666666666667,
          0.02666666666666667,
          0.05333333333333334,
          0.06666666666666667,
          0.04,
          0.05333333333333334,
          0.02666666666666667,
          0.04,
          0.04666666666666667,
          0.03333333333333333,
          0.06,
          0.05333333333333334,
          0.03333333333333333,
          0.06666666666666667,
          0.06666666666666667,
          0.08,
          0.09333333333333334,
          0.04,
          0.05333333333333334,
          0.31733333333333336,
          0.3,
          0.25333333333333335,
          0.30666666666666664,
          0.22266666666666668,
          0.18533333333333332,
          0.22266666666666668,
          0.308,
          0.24933333333333332,
          0.268,
          0.2866666666666667,
          0.164,
          0.04666666666666667,
          0.04,
          0.07333333333333333,
          0.04,
          0.03333333333333333,
          0.08666666666666667,
          0.06,
          0.05333333333333334,
          0.08,
          0.05333333333333334,
          0.05333333333333334,
          0.06,
          0.04666666666666667,
          0.06,
          0.04666666666666667,
          0.05333333333333334,
          0.04,
          0.08666666666666667,
          0.02666666666666667,
          0.06666666666666667,
          0.06666666666666667,
          0.06,
          0.06,
          0.06666666666666667,
          0.06666666666666667,
          0.06,
          0.04,
          0.05333333333333334,
          0.04666666666666667,
          0.04666666666666667,
          0.04,
          0.04666666666666667,
          0.02666666666666667,
          0.02,
          0.04666666666666667,
          0.07333333333333333,
          0.06,
          0.07333333333333333,
          0.07333333333333333,
          0.06666666666666667,
          0.06666666666666667,
          0.07333333333333333,
          0.04666666666666667,
          0.04666666666666667,
          0.06666666666666667,
          0.04,
          0.07333333333333333,
          0.08,
          0.06666666666666667,
          0.05333333333333334,
          0.06,
          0.05333333333333334,
          0.05333333333333334,
          0.05333333333333334,
          0.04,
          0.04666666666666667,
          0.04,
          0.06666666666666667,
          0.07333333333333333,
          0.04,
          0.05333333333333334,
          0.06,
          0.03333333333333333,
          0.04,
          0.07333333333333333,
          0.08,
          0.04,
          0.05333333333333334,
          0.06,
          0.06666666666666667,
          0.02666666666666667,
          0.04,
          0.02666666666666667,
          0.04,
          0.06666666666666667,
          0.013333333333333334,
          0.04,
          0.05333333333333334,
          0.05333333333333334,
          0.06,
          0.04666666666666667,
          0.04,
          0.07333333333333333,
          0.08666666666666667,
          0.04666666666666667,
          0.04,
          0.06,
          0.05333333333333334,
          0.05333333333333334,
          0.08,
          0.04666666666666667,
          0.08666666666666667,
          0.04,
          0.06666666666666667,
          0.06666666666666667,
          0.04,
          0.05333333333333334,
          0.04666666666666667,
          0.04666666666666667,
          0.04,
          0.09333333333333334,
          0.05333333333333334,
          0.05333333333333334,
          0.04,
          0.05333333333333334,
          0.05333333333333334,
          0.04666666666666667,
          0.03333333333333333,
          0.06,
          0.07333333333333333,
          0.05333333333333334,
          0.04666666666666667,
          0.06666666666666667,
          0.04,
          0.04666666666666667,
          0.04666666666666667,
          0.06,
          0.04,
          0.03333333333333333,
          0.04,
          0.06666666666666667,
          0.08,
          0.04666666666666667,
          0.05333333333333334,
          0.06,
          0.04666666666666667,
          0.06,
          0.06,
          0.05333333333333334,
          0.04,
          0.03333333333333333,
          0.05333333333333334,
          0.04666666666666667,
          0.07333333333333333,
          0.07333333333333333,
          0.03333333333333333,
          0.06666666666666667,
          0.03333333333333333,
          0.06666666666666667,
          0.04,
          0.04666666666666667,
          0.07333333333333333,
          0.08,
          0.04666666666666667,
          0.04,
          0.04,
          0.06666666666666667,
          0.06666666666666667,
          0.05333333333333334,
          0.04,
          0.04,
          0.05333333333333334,
          0.03333333333333333,
          0.06,
          0.06,
          0.07333333333333333,
          0.06666666666666667,
          0.06,
          0.02666666666666667,
          0.06,
          0.04666666666666667,
          0.06666666666666667,
          0.04,
          0.04666666666666667,
          0.06666666666666667,
          0.03333333333333333,
          0.06,
          0.06666666666666667,
          0.04,
          0.08666666666666667,
          0.08,
          0.07333333333333333,
          0.04,
          0.08,
          0.05333333333333334,
          0.04,
          0.04666666666666667,
          0.04,
          0.05333333333333334,
          0.04666666666666667,
          0.04666666666666667,
          0.04666666666666667,
          0.06,
          0.08666666666666667,
          0.04,
          0.06,
          0.07333333333333333,
          0.06,
          0.04666666666666667,
          0.05333333333333334,
          0.05333333333333334,
          0.04,
          0.02666666666666667,
          0.04666666666666667,
          0.04666666666666667,
          0.06,
          0.06,
          0.02,
          0.08,
          0.07333333333333333,
          0.04666666666666667,
          0.08
        ]
      ]
    },
    "MA-TD3": {
      "rewards": [
        [
          -282.60052993261064,
          -351.9911823646238,
          -354.934760390248,
          -432.0047171138221,
          -177.92836895245583,
          -502.2865341555708,
          -514.5451492737972,
          -693.5304461402004,
          -631.726259765227,
          -579.2234004979415,
          -495.54473827993667,
          -434.5437185496993,
          -516.2427233470631,
          -457.8365526706124,
          -400.1347583304766,
          -459.8424423089895,
          -426.6570883602194,
          -501.6973558025928,
          -462.62939682699886,
          -122.45016831893474,
          -27.93519485338192,
          -436.13221161748123,
          -214.33170039649326,
          -363.9706097753895,
          -444.67485499881445,
          -449.8822145776224,
          -309.3165781480014,
          -663.5803845638292,
          -593.5879920989119,
          -739.3823434845096,
          -204.89886771504558,
          -143.74803314867768,
          -295.0931101864375,
          -632.1715593032102,
          -191.72015699251946,
          -1078.7000141361666,
          -265.5183248872739,
          -529.6423655506038,
          -92.52007591864678,
          -88.79686285751144,
          -290.60183938887366,
          -114.12169871390448,
          -107.13129753544413,
          205.50990647749768,
          171.83331734792543,
          -97.34406620075903,
          -105.29273343742793,
          209.70294044571003,
          -115.35249778051791,
          184.99567777312558,
          -91.14478820477821,
          -428.45929460981506,
          209.4221256907146,
          202.96640269712395,
          -416.8219723374257,
          203.5998300342567,
          -106.3015771978144,
          -131.1489967963192,
          -125.28058945663913,
          217.28310867460004,
          -153.8962703293563,
          207.12058341012687,
          -350.35050104064976,
          -423.44123900490865,
          -109.49711600798051,
          -116.74104630491924,
          -143.99645032057347,
          -142.24329317318467,
          -122.40771152158425,
          -112.03391265016053,
          182.244999130777,
          -110.67050340242949,
          216.5656598576006,
          -109.70857333032554,
          -98.64522224353956,
          -424.476550841705,
          207.45132327723712,
          179.85074281050876,
          -139.39380685678316,
          198.0342999144293,
          183.84056340478404,
          -111.78038485482632,
          -102.29917303892934,
          201.22867411060452,
          -442.87075903534947,
          -88.63883914083824,
          207.302192980224,
          -132.3520408163458,
          -141.81198807154811,
          -120.15673416541898,
          193.336133152471,
          -103.84980817065329,
          211.15974546815215,
          -115.0391926723662,
          -335.4591749389877,
          192.46904887926183,
          -91.04137812741226,
          167.6993226346692,
          -94.94406137340452,
          -384.60367289397124,
          106.7762661925713,
          -82.93088800945081,
          203.71333209160912,
          54.131636689855064,
          -58.1683232663896,
          163.87077045524165,
          204.07837044189893,
          -93.52287305564536,
          -158.39096614681358,
          -115.25084123907085,
          -100.58985246311241,
          -117.59374618008287,
          -124.95946634706895,
          -112.55384018670863,
          -162.03031060482073,
          -355.6459597191904,
          -428.8341956268607,
          199.5111930954389,
          -124.37390275564671,
          203.11680479494825,
          -102.67015048045093,
          199.47941372749713,
          -339.39743291519096,
          -448.3701240382755,
          -135.06415416902877,
          -343.0014797091288,
          163.3413567102521,
          -89.66180766131691,
          -131.84912016136795,
          204.7527954990431,
          -442.8413171295348,
          174.9164609411529,
          207.1388428598832,
          -132.57223634003924,
          -135.64230252478347,
          -109.11501443484302,
          144.8163917826276,
          -119.06287347944706,
          -115.36641887612687,
          196.88051547173382,
          184.42943944725346,
          -118.42686502144674,
          192.24351622819424,
          -138.4359276049528,
          -104.74441253754452,
          -334.39113336891245,
          -435.5990492593785,
          -331.10354629699185,
          -107.0482519825169,
          -109.63363584971826,
          232.00549071021825,
          205.90189614342367,
          -100.60125231896487,
          -95.9273649189436,
          -429.62666409302926,
          -100.1522120138202,
          -329.3705992675532,
          -86.0956508153384,
          -425.4317538430422,
          207.51012911260457,
          205.47201108803011,
          -91.01549822775692,
          -122.86643836057681,
          -437.74295995022857,
          -663.842104177743,
          -122.47170048964794,
          -333.6860464252207,
          -105.55367673742647,
          -83.00465111072269,
          215.70822912724344,
          -418.4144526389326,
          -133.71628662001814,
          188.46682309670751,
          -114.03728775520173,
          -127.6186715249348,
          -112.91407837963422,
          -132.27792129454673,
          -99.86361174248287,
          217.37057212863095,
          -121.85979445032612,
          184.40808466018936,
          222.0974746917897,
          208.31203127460606,
          226.22576021619153,
          -443.57160891810184,
          -142.34997897224383,
          -131.15388766237865,
          195.5966230161863,
          221.86239859648623,
          -458.6868706626941,
          -438.2436293743807,
          -102.60389616762849,
          -425.184740644589,
          -105.75489423588154,
          -435.52475310823615,
          -108.03359453258882,
          213.0881330851141,
          -421.62624839499875,
          -86.6394253824454,
          213.0251622663295,
          -115.19665006887975,
          -93.27729280589575,
          191.94251570889543,
          207.94735281119318,
          167.6766648278473,
          -434.41660544999905,
          189.62518950499657,
          217.07328880663007,
          -123.89198324787277,
          211.324555271116,
          -102.61049587456142,
          -109.53455148302659,
          -117.258982896325,
          162.43976835668212,
          -133.99759918805938,
          -123.34857902754393,
          -116.46530827859577,
          -388.7258301161134,
          -37.097770826056646,
          215.77448545883865,
          151.02066940536753,
          -134.8493874727629,
          -149.8349160398646,
          -191.0472838419518,
          -77.95234832023613,
          -63.69919466160998,
          113.87738995137238,
          -153.37932657730636,
          115.16898085026483,
          -89.38349318161114,
          -309.3460697760522,
          -132.82928133300496,
          -113.69982285556956,
          -1.3232667829690246,
          -67.87296910514097,
          -88.95142232045136,
          -108.14801366843335,
          217.97456235990143,
          -131.99530150166095,
          -115.36429297726765,
          -373.9424738220729,
          -102.99434225752486,
          -552.221999270309,
          -1.6974184824756764,
          -124.10068679298634,
          -108.38161318762876,
          184.6654844687831,
          -107.88036759806424,
          -328.5246521582792,
          -122.79248164155912,
          208.60805539556654,
          199.3571607692873,
          -154.77496386202574,
          -105.04735251634868,
          -662.260123246881,
          -151.54769535633517,
          192.97176742038704,
          -100.13880234096077,
          197.88051624241567,
          -337.59594720293154,
          -141.63345799647357,
          -124.1955404369619,
          193.39183009325876,
          213.11630189570604,
          -111.60022691347757,
          214.40585563216027,
          -112.44210690153116,
          -325.99649223789186,
          -190.36035198585884,
          -644.8668552232779,
          -413.64392202797643,
          205.50509876888344,
          -124.7497420234146,
          190.2330559861036,
          -342.20261619825715,
          202.88980720666106,
          208.97930286885273,
          -126.77532270401143,
          209.96652005025413,
          -368.973168373717,
          -142.60352429056803,
          -113.58237421233491,
          -111.24872675715268,
          202.63627703043628,
          -115.60553175764659,
          -126.92574337544126,
          -121.36463032826502,
          -97.65292631901859,
          186.30106694015936,
          -108.17550398744463,
          -114.32550677124951,
          -387.5466781592269,
          197.8984178456082,
          -109.97428263131917,
          -126.0412890472505,
          -121.87602488314603,
          -431.1702407610609,
          -104.22996076545176,
          -98.08949256625505,
          -104.28394039897944
        ],
        [
          -373.38231376100646,
          -377.3620808678718,
          -471.9986392324669,
          -679.4968341290805,
          -397.56686484370357,
          -783.1559897632533,
          -395.61021658243646,
          -448.2174858631426,
          -508.29496385172314,
          -499.02992639130366,
          -516.8282303450935,
          -641.7168887754764,
          -471.70973779096215,
          -469.9052419001362,
          -408.3051467492689,
          -428.90463098605306,
          -447.00443709044214,
          -508.80447588538686,
          -431.70414850787836,
          -465.70391312138975,
          -443.90380110989037,
          -445.5036551396257,
          -483.50346389887955,
          -400.00420577864617,
          -435.3031949455817,
          -470.1030492389956,
          -462.3029313494429,
          -420.4029414815016,
          -447.6027238428613,
          -434.5028064797684,
          -427.6026476582972,
          -429.30242039545243,
          -516.1022849401363,
          -416.3022522800581,
          -438.00220987438337,
          -377.10208889360933,
          -452.20201784078364,
          -437.4019961394812,
          -467.60188822772943,
          -448.7018039855151,
          -380.1016460883592,
          -440.50129962227356,
          -626.4008509965671,
          -601.6007064016677,
          -609.9005221502927,
          -587.2004363170216,
          -579.200378700191,
          -617.4003179258606,
          -535.3002905110794,
          -569.3002704003426,
          -777.4002409663104,
          -579.9002351881974,
          -576.1002230734923,
          -621.8002108385606,
          -605.3002026193916,
          -614.4001940558613,
          -580.3001919083343,
          -596.4002024679675,
          -669.9001794038547,
          -632.8001739439878,
          -621.7001592139005,
          -647.9001765249081,
          -667.7001631532224,
          -672.3001662236162,
          -776.1001778651324,
          -646.9001628105542,
          -637.300173575712,
          -681.4001710658437,
          -569.8001666425071,
          -513.2001923744981,
          -613.4002043931118,
          -692.9002592374397,
          -637.2004737691944,
          -680.5296913796212,
          -380.6701722400156,
          -130.57209488969718,
          206.2136187266608,
          -100.69227743479443,
          -111.09072326738968,
          -125.15043517307757,
          217.30607570080593,
          155.02851194546278,
          -117.4189859634999,
          -119.61724997483236,
          -338.53371558553,
          167.7783436142205,
          -121.13316936236018,
          -340.6605971435673,
          213.46813211346648,
          215.62905250694138,
          -134.1138386579013,
          -344.1015597703089,
          195.52925425051072,
          221.4899744535907,
          -95.36738202149147,
          178.5332071287871,
          206.12598379850706,
          -415.48769864176796,
          198.1671045052973,
          -364.50933651295935,
          -131.36937619537233,
          -113.59729584764553,
          190.50952237406844,
          216.86376822674467,
          -102.77439719197598,
          -100.06858863345731,
          -421.5332330070106,
          216.08124366804137,
          -359.40226936213264,
          -114.6330885613076,
          170.47374317129814,
          -112.99231236471434,
          -114.24991985151628,
          -94.96337666462688,
          -422.5374606585077,
          -363.8541105086819,
          221.23126419738165,
          -125.79661077253542,
          -348.20632849724973,
          -317.6545397304411,
          200.01251903865773,
          -110.90495945752068,
          205.14767478321005,
          -356.03052418120143,
          -117.47950681178266,
          194.01503075553484,
          -116.40728841331298,
          205.989430722989,
          -122.22906668617955,
          -423.4879699975106,
          -356.25697337306445,
          -122.22843419611442,
          -103.5514430390406,
          -347.1703101523,
          218.27363372644862,
          -431.5881730818389,
          -116.43426112645983,
          208.44371885107324,
          -435.58337622799263,
          -96.77591619406765,
          -74.81777330826004,
          -113.10451390333208,
          -125.49678307507087,
          -106.78229604843389,
          -444.6407274335355,
          -127.87471939879057,
          223.36445039928523,
          -125.76297933958843,
          -357.9520392498846,
          -358.3924389794812,
          -123.68448994896464,
          -434.88859262486295,
          195.86865837338578,
          -91.57782231364723,
          -107.64489464347513,
          -115.33306994935602,
          -441.8190939657651,
          -107.90568826131415,
          -125.22626784141039,
          -89.54248714403515,
          -127.36680319828736,
          210.66301283096197,
          205.20868695968133,
          -100.2059845460895,
          218.6206515787628,
          209.66796805229959,
          -97.35495148803237,
          -126.78322081496462,
          201.6278002646587,
          -111.08065258499008,
          -97.06381579723954,
          -426.9989140913653,
          -71.64917788447919,
          -99.79607312855009,
          225.37638842859926,
          226.54376954276563,
          232.50566289151186,
          -142.22387714889342,
          -155.27008768128064,
          -108.4377813574657,
          214.68052767340882,
          -108.34645949593711,
          -114.20588732514648,
          -102.00284376816121,
          -350.6441923612439,
          -117.02133500705195,
          -112.68556669277243,
          211.23612488021055,
          -138.3795823346843,
          205.2418020937255,
          -442.2171736281651,
          -340.74795422026637,
          -109.6647103314176,
          -115.27574572170442,
          -96.04539778002975,
          -113.88396075359893,
          184.65021944794037,
          -101.20224925159685,
          -353.19708583835825,
          184.47191447325386,
          -133.95360749412325,
          -332.02081507836175,
          205.67309244068488,
          -427.05530400563015,
          -122.6969881187628,
          186.0923634951013,
          216.2269031400652,
          -108.25182102676658,
          -100.30661101395894,
          -119.17015317266211,
          -105.68009033814766,
          -108.11992310307298,
          -97.0009931548862,
          -320.2373232900737,
          -354.5736253399019,
          202.44263404209914,
          198.02928391555918,
          216.98589755673476,
          -107.91200692416282,
          -97.93401345723011,
          -108.80483734224504,
          -132.67229967682246,
          -96.69886366115685,
          -109.27914187323104,
          -115.80083223814154,
          -362.9088022023285,
          200.7029623530765,
          -112.02788709298137,
          -94.26212514353597,
          -115.5976724648241,
          220.0213615278967,
          198.44374732755463,
          -126.1345069035031,
          -417.54676807198945,
          197.60880887737622,
          -111.20456512595568,
          -357.56725635549276,
          -328.0732513955228,
          -111.31998344808308,
          -121.389344940687,
          -113.58713865590622,
          -104.46269004234776,
          -130.6555735037053,
          -133.15008082085743,
          -106.30039985992443,
          188.71692188011482,
          -122.69978150299639,
          -334.3584127322213,
          203.3225585600893,
          -110.6107403728987,
          -104.47541469872307,
          186.3702545958364,
          207.9217333287149,
          -129.85071089359846,
          -94.88017964629819,
          -146.64147415645607,
          -363.74312984163913,
          -138.2345858956344,
          205.70195218309314,
          -102.69318744321654,
          -112.09456188426489,
          212.80650526316995,
          -116.76272369833785,
          199.31613377056422,
          -112.03914341239985,
          214.4951679742403,
          -446.7636435881012,
          213.30773786784303,
          -90.56855153442748,
          -102.33331774219178,
          -422.54110342099744,
          -449.071458972522,
          -131.77968700042422,
          -426.5702452245568,
          198.6003073735475,
          217.99062665161188,
          212.15487323280905,
          -117.13320833786852,
          -116.36990331067186,
          -129.21203449527698,
          -101.42754484470314,
          -643.9955977245775,
          187.40196968132636,
          190.80871437972763,
          196.0228383095205,
          -110.1547864382216,
          -98.64418094220936,
          -103.42111540876382,
          -96.260644080262,
          -101.44852865155318,
          -107.41778323978424,
          190.39496187008004,
          -441.86454318254033,
          -128.97384489154544,
          -107.24447318234738,
          202.9201883845832,
          -455.00176911302896,
          181.77099553708462,
          195.58807215416164,
          192.52124857863575
        ],
        [
          -332.69706117010975,
          -330.8672140616267,
          -479.43834763776033,
          -388.19637695485915,
          -478.77946568479075,
          -380.92145575701437,
          -416.3101887570615,
          -458.30742124971647,
          -430.104539545237,
          -468.6035034127132,
          -430.302580002348,
          -520.3022472644225,
          -471.2018674773328,
          -471.7011388189763,
          -399.70143095674035,
          -404.8009308371556,
          -407.9006861722188,
          -445.7005647815581,
          -464.0005617140951,
          -397.4004389029598,
          -466.90039633660473,
          -470.30037117075204,
          -430.7003793614129,
          -454.50028405131684,
          -440.90025153915815,
          -440.6002265544729,
          -444.2002073993951,
          -460.20018863472865,
          -477.40016012553133,
          -401.70013870376215,
          -456.2001289932412,
          -378.1001028458779,
          -419.7001019318567,
          -446.80007638153523,
          -499.5200889339238,
          -785.002605443165,
          -639.5017186001126,
          -648.4006168226679,
          -669.8003481603167,
          -696.4002655985257,
          -622.6002182334711,
          -634.2001792422544,
          -580.7001562320442,
          -570.3001363036585,
          -625.0001196886444,
          -564.8001080446793,
          -543.5000916092748,
          -600.7000845615321,
          -540.6000771475585,
          -571.1000692169673,
          -613.400061083088,
          -575.9000613813531,
          -664.1000571775869,
          -533.5001345278652,
          -639.300219081701,
          -565.2001459700227,
          -589.3000817543457,
          -654.5000721853813,
          -552.6000555705156,
          -538.5000453034571,
          -545.3000440881309,
          -517.0000374112947,
          -648.10003213617,
          -535.7000310967062,
          -667.4000269135076,
          -615.3000254497867,
          -640.0000194976408,
          -485.72006448552196,
          -447.8002099385991,
          -445.0001154277609,
          -401.2000590139355,
          -418.20004397805496,
          -473.2000332805134,
          -454.800028391498,
          -407.3000243304078,
          -417.7000209594125,
          -485.0000191279685,
          -420.0000167545413,
          -523.800016015334,
          -488.3000148385692,
          -448.6000137068157,
          -452.50001279905206,
          -426.20001209095136,
          -445.5000111184101,
          -413.8000107767108,
          -408.2000103629126,
          -396.50000980415473,
          -444.80000927444485,
          -410.8000090163337,
          -474.2000085766268,
          -402.2000083503932,
          -430.00000799564754,
          -482.900007636479,
          -432.50000740409166,
          -506.7000072572635,
          -469.2000070320785,
          -456.1000068052961,
          -403.40000624397567,
          -407.7000065853016,
          -382.00000637897637,
          -463.9000062766573,
          -455.5000059217687,
          -447.2000057918443,
          -422.1000058272402,
          -422.20000569968784,
          -427.600005723697,
          -426.00000572897426,
          -393.5000056520866,
          -409.2000055596223,
          -422.70000536734466,
          -419.2000054222341,
          -430.6000053652274,
          -416.0000053020467,
          -446.2000053238669,
          -415.5000052264253,
          -416.10000506804744,
          -375.00000504819576,
          -419.8000049877902,
          -385.9000049884187,
          -424.100004867007,
          -433.90000489747814,
          -426.40000479743964,
          -458.6000046224934,
          -404.80000472664545,
          -414.9000046037414,
          -399.6000045832873,
