{
  "config": {
    "altitude_km": 550.0,
    "n_satellites_visible": 10,
    "min_elevation_deg": 25.0,
    "carrier_freq_ghz": 1.67,
    "p_max_dbm": 40.0,
    "n_platoons": 5,
    "n_priorities": 3,
    "priority_weights": [
      4.5,
      2.5,
      0.5
    ],
    "tau_s": 1.0,
    "tau_ac": 0.04,
    "n_ac": 50,
    "n_safe": [
      5,
      10,
      50
    ],
    "epsilon": [
      0.01,
      0.05,
      0.2
    ],
    "p_bg": 0.42,
    "ho_delay_mean_ms": 225.0,
    "ho_delay_std_ms": 25.0,
    "ho_period_s": 15.0,
    "n_episodes": 300,
    "episode_slots": 150,
    "eval_episodes": 50,
    "n_seeds": 3,
    "update_interval": 4,
    "nn_safety_coeff": 0.35,
    "nn_safety_warmup_env_steps": 12000,
    "nn_safety_shield_urgency": 1.35,
    "nn_safety_shield_power_floor": 0.5,
    "w_power": 0.02,
    "w_handover": 0.3,
    "kappa1": 1.0,
    "kappa2": 0.5,
    "kappa3_m1": 2.0,
    "kappa3_m2": 1.0,
    "kappa1_m3": 0.5,
    "kappa4": 0.1,
    "kappa5": 0.3,
    "rmin_m1": 0.8,
    "rmin_m2": 0.5,
    "sinr_noise_floor": 0.05,
    "interference_coupling": 0.6,
    "t_pre_s": 3.0,
    "output_dir": "outputs",
    "output_run_id": "run_20260417_125706_tou_ac_0_04"
  },
  "convergence": {
    "SafeScale-MATD3": {
      "rewards": [
        [
          -667.5705880531652,
          -510.88009030017906,
          -529.2552689921943,
          -714.9966350391759,
          -663.2237170558118,
          -530.1838443358089,
          -432.7845249238544,
          -451.5465423673966,
          -9.631078872976882,
          82.0664286371163,
          -186.6923966723231,
          -358.6979446510865,
          129.44909698756274,
          -188.6005566884322,
          -152.45852036339403,
          -174.73526602752466,
          -171.06596722693664,
          -177.67341763625404,
          -457.58177094062194,
          -227.56043507080832,
          -347.31432460885964,
          -321.9974910050721,
          -292.562357171253,
          -369.3263708086018,
          -417.50180021788833,
          -269.76879595160966,
          -314.0747308360037,
          -177.1510018072157,
          -118.05602868240096,
          -111.63236448044569,
          -52.268166663101866,
          -448.5747012646176,
          -489.752349283514,
          -224.36589445203862,
          -180.0971451469222,
          -261.60746343899905,
          19.43646072245798,
          -249.09296494633122,
          -241.59135014749387,
          -403.8045799036491,
          -650.2268214851691,
          -241.55110706850274,
          -232.2066047550366,
          -221.66862798517784,
          -235.6140857119154,
          -264.48790582192515,
          -190.377493240968,
          -385.03737780417526,
          -214.23145860535362,
          -30.93712937138083,
          -243.84500341633256,
          -491.7223885080923,
          18.147876248020104,
          -165.96631602940226,
          -223.7129220643225,
          -197.88129960747736,
          -6.064914654823578,
          -3.9030783581688118,
          -494.48676956924623,
          -109.57403312818677,
          -41.83798297871017,
          102.07261944996827,
          -199.40593692734484,
          -440.48311744160895,
          132.67316208747758,
          -267.7605905146854,
          -243.78206832378558,
          -96.59750813713617,
          -157.69303817733936,
          -55.04456978052855,
          52.270424483265224,
          -432.7067591045214,
          -209.92238221201777,
          -197.75019623354248,
          -324.84800257104143,
          53.126632832842816,
          -171.21214873200935,
          -10.450412752721789,
          -228.0369002654723,
          -163.66496403140198,
          -42.840298541484735,
          -70.5123254937426,
          -167.438977627799,
          -164.80319205823582,
          -191.39372846409918,
          -184.6305363815835,
          131.50888061830656,
          -66.37730755659264,
          105.23925640268064,
          31.263048424811974,
          -140.8763797986306,
          -72.37022655117981,
          -149.92825275620166,
          -5.326086970773359,
          -129.10456915420104,
          -241.41774681421202,
          -123.88297251208824,
          -35.103964506072316,
          -118.07547087185823,
          -260.6775894261449,
          -69.97086991753189,
          -118.67162061083398,
          -128.93330471499988,
          -398.6480291009764,
          43.66244666841934,
          -287.27376673972304,
          127.59394110455956,
          -461.7489620951895,
          -84.40796570539156,
          -146.80567703594014,
          -211.30026006835143,
          -168.08833413736875,
          -121.66261951154785,
          199.01269715643994,
          -114.39476519503224,
          -167.22197368491683,
          -53.083045173450714,
          -168.85284127499244,
          67.8765094680669,
          -87.4204636914367,
          -103.73048726977213,
          -310.0120009432321,
          -129.62435976378697,
          -130.19107801282837,
          -118.3057374997744,
          113.39896180828067,
          54.046788434334694,
          -309.3107676114256,
          -111.7343874583442,
          -154.59638103946224,
          -50.90272281861773,
          -70.09659562204787,
          -110.07308705335171,
          -126.22657450311884,
          -134.91277163772514,
          -80.79135789688478,
          -338.87167398949555,
          118.18810476916539,
          -61.20848715701122,
          5.755724144271121,
          -131.5829530970001,
          49.416607267596326,
          -188.10908916076983,
          -127.35306740586786,
          -283.16636992617447,
          -108.81095580337931,
          -68.42289047712912,
          16.728730822794166,
          -134.87494506043367,
          45.602988843849,
          54.991692037391985,
          -25.871939458228546,
          -98.23015004090796,
          -247.93309479034286,
          -97.84485241592435,
          44.66484560492411,
          20.21756617151659,
          -26.997005177941276,
          -177.37191062149913,
          -39.806357348516926,
          -93.70085564419132,
          22.845018415355124,
          -66.8725907839488,
          -152.7478137117946,
          30.99307286010736,
          -189.2605941801706,
          221.28363186441507,
          -4.968872696983301,
          141.56928386223393,
          -77.86779167705419,
          -331.67648949641904,
          130.89966492071366,
          -47.424887340894806,
          -147.74969414324215,
          -233.9556466086001,
          -79.66210741683543,
          4.939965745962874,
          135.4129803109679,
          26.02814037869769,
          -94.8401678813817,
          -206.29879190256153,
          -409.96985703068316,
          -179.0321909876291,
          105.92722866914839,
          -97.76840000448878,
          47.398847815635996,
          -203.7830118500766,
          116.50040913290749,
          -343.1703218794244,
          -171.08508396171746,
          -125.40953676368657,
          -203.25125334998089,
          31.61514044041991,
          -105.75564882193439,
          -3.750595162066043,
          -58.37403190442698,
          200.55095855811444,
          204.8356658628415,
          -107.78358658033531,
          -141.19955039949147,
          -109.62567923593284,
          -333.7735639972182,
          -122.90727583605766,
          -444.26434377273813,
          4.0292518085767135,
          193.86286258630543,
          194.6485012600594,
          -123.7694507175052,
          141.70994749211076,
          -443.74327945953763,
          -117.70305683236218,
          -100.7038311075967,
          -143.35150121543393,
          203.32224605377135,
          202.31604505554785,
          -357.4224668132558,
          -34.27949184788275,
          -114.08336633236904,
          83.88541903476882,
          5.016758913307409,
          199.27666460992376,
          101.5839073820605,
          -388.1151636297083,
          77.31674803668784,
          214.72604360486983,
          -241.62411357936364,
          -194.58569010226427,
          -220.54812321942012,
          193.1333759173846,
          25.29343399652234,
          -109.99594485792709,
          -330.98411770313805,
          -229.06187367466916,
          -493.28587790337366,
          201.45613862645664,
          -653.0595710401046,
          -108.28397419244146,
          -125.72316985073749,
          202.69092578929175,
          -476.55188106858577,
          -376.32956708243944,
          -66.22512045696868,
          14.206338808083043,
          -398.42226625910365,
          -126.43954310007967,
          -125.60631918192497,
          -160.47327810786854,
          214.89219734486744,
          167.36774766629551,
          -220.47305930160647,
          25.645697941978863,
          -304.1382093864212,
          -113.05688384022966,
          -76.52150167005088,
          -110.46260869944358,
          -124.24969784618185,
          -115.84069223857706,
          -150.92298298939528,
          28.92842818276201,
          -430.99794633310705,
          208.76166711744693,
          -125.75472638396435,
          -120.24185230007812,
          -127.14632467305759,
          50.70431738978962,
          -111.39357821602607,
          -119.27021487967922,
          -318.39319369085854,
          -247.1827430995398,
          -392.43616576138396,
          -101.7813718663827,
          179.32297828081127,
          206.52382896822607,
          -123.92848277076327,
          -114.42687940549845,
          -406.96657429037435,
          -332.3258071587047,
          -122.95785854018119,
          -445.1878978245036,
          -115.35666050667312,
          -118.53878337375473,
          -355.84031953859323,
          194.42801176865794,
          -387.45443627816474,
          -14.027501507446159,
          -444.0602069061026,
          69.92777826236008,
          -110.44315345923577,
          -168.88622886741146,
          -109.34397410931545,
          -346.4752874192347,
          218.40039830880298,
          73.46330429110706,
          210.85976444508992,
          219.3657844924742,
          93.04622017658134,
          -129.4740285917835,
          120.04213616394287,
          -101.89948347688639,
          -437.64329755967253
        ],
        [
          -365.47614636552464,
          -593.01206894489,
          -457.4952931528305,
          -472.91306554572037,
          -526.2742834956747,
          -578.0561602883919,
          -642.5944551954532,
          -629.9410018975162,
          -497.2608177100905,
          -544.8234181241864,
          -374.9919643767423,
          -423.60698751788186,
          -402.61580347647185,
          -49.07016464015564,
          -442.7646354438289,
          -692.081423306684,
          -640.0223269577896,
          -589.006722623894,
          -663.0470232643132,
          -642.4471874537368,
          -591.8470244370254,
          -649.3974146823508,
          -667.2661683327686,
          -674.2301036455115,
          -676.2550841263524,
          -696.167772232099,
          -611.1923209521066,
          -671.2764930083434,
          -226.27699392490632,
          -5.1274427636557744,
          -167.9712215705663,
          16.966412044104434,
          -209.63615039086812,
          -161.21508451044858,
          -169.3222691121488,
          -373.1529708150127,
          -28.359080901080347,
          -81.51507650712824,
          -106.64809510940756,
          -115.64719448781531,
          204.394451883318,
          121.52644924368475,
          16.542328732995568,
          -78.96459067780688,
          -150.595471374138,
          -140.94067593942486,
          -83.42791271507095,
          -193.80823240784684,
          -183.46833297987314,
          -41.798108696283435,
          -198.87857222157095,
          -78.82283176649172,
          -220.95350832954165,
          -10.25857905400894,
          65.41810441556184,
          -98.00056626696214,
          122.91415554281974,
          -107.07126992996918,
          -352.3966147535627,
          -101.38292290902436,
          -337.74066217935723,
          -124.69478459062604,
          -113.7654254504424,
          -427.061989349255,
          -123.15360214457995,
          -341.9350663055131,
          -130.33918204843246,
          -100.88235682570948,
          -122.72845070450616,
          -430.81650993428923,
          -114.63664202901204,
          -112.79557680886849,
          -69.65022193351167,
          -41.01819169831304,
          -82.11357054596763,
          -122.42969438540723,
          191.654191430101,
          -104.06137013742448,
          -62.784458086037446,
          194.18358644185176,
          -96.90143712580709,
          190.39828273167103,
          -138.25922641058042,
          -105.1029425386266,
          210.4164698606968,
          -151.62022640921364,
          -427.5000881839317,
          208.83885867353703,
          -109.91020143116826,
          -93.05350403485254,
          -130.76510854746869,
          -135.2739159359412,
          -349.16411498083954,
          -113.01185719998874,
          -150.2433329522193,
          219.4675495625098,
          221.2454552616708,
          215.8035235738697,
          -333.9189151417897,
          207.0397022429436,
          -109.19898649142323,
          197.5304255226842,
          -99.76994528942659,
          -421.7659463294793,
          -330.86717790323115,
          -437.7398252545136,
          -98.13574659971017,
          -100.60665668510862,
          -111.14333710725182,
          -363.34619963665455,
          206.85847913182215,
          -128.28896117893328,
          -112.7185209216071,
          -105.42128851725282,
          -108.52648965007327,
          -340.4820220923504,
          205.50599060327593,
          -111.95945718368152,
          -105.76653572430926,
          -116.34883732525589,
          199.7087764653064,
          -646.9299556789691,
          -111.69868696957144,
          -432.9354202902976,
          -114.01825294672244,
          -116.54452651219212,
          -429.54973336587403,
          -110.14254210491029,
          -421.5112429562536,
          -330.57424476621964,
          -110.97570184687281,
          203.63007862605463,
          -115.61107928157166,
          198.33390833931972,
          -103.70535133117606,
          221.51391693770455,
          -123.86165979103748,
          -123.44942773167732,
          215.55725414811496,
          -352.583891012824,
          -454.8928297113489,
          -117.85341735110126,
          -333.6365659680924,
          -109.79730094620638,
          -479.2329667932054,
          -350.4567488903766,
          214.67180083116787,
          -429.06516643617454,
          181.7021491910394,
          -407.1761919142575,
          -88.94765368476835,
          -106.96553865614146,
          173.91692111073377,
          -102.90601152384376,
          -140.7107404118763,
          -106.29312283145038,
          -142.32113471899424,
          -416.3700849114581,
          -92.56967279673336,
          -420.89003505393185,
          -369.4061496876438,
          230.88207587522984,
          222.54972952985895,
          206.49337015435663,
          -121.43182207210255,
          -656.9732772825099,
          203.30154333764884,
          -124.48990451189668,
          -90.19335432923079,
          191.18063623835943,
          194.27226951476234,
          -111.1030187973663,
          -121.0479859954407,
          -436.3420274524512,
          184.67196353922085,
          -124.24445907815661,
          -337.065270432268,
          203.64121973090118,
          -126.16080112895906,
          -113.89450369756506,
          229.42462485619617,
          -335.73476513878916,
          -430.754151000775,
          -114.20249449691012,
          -447.73158354819606,
          -113.92247326193973,
          -345.99688040178046,
          -121.6966751112442,
          198.4984727269455,
          -406.9441498234332,
          221.28571227034612,
          -105.52839949243635,
          218.50206867844358,
          -124.23969079480219,
          203.97970272754816,
          206.62301958049187,
          198.7922025267639,
          219.97043526558136,
          -113.97947276796395,
          -138.45797464770848,
          204.84019254883458,
          -112.52581774671113,
          -438.5342896087562,
          -125.10046023742896,
          -335.6001085527454,
          -98.46927500295827,
          189.73261196655355,
          -428.33215783286846,
          206.05231871642218,
          -109.05194274406514,
          186.38294293959535,
          -100.19617980207313,
          -103.17263559619738,
          -433.00291194780885,
          -347.09705408640576,
          -111.93281856084057,
          -110.65182704659688,
          -437.1805161938691,
          211.26875854373682,
          -99.07426448947082,
          207.29968479072497,
          -116.58715591887031,
          -110.72674675006803,
          -116.54007313259532,
          -121.96762841017822,
          203.53125697950185,
          185.52800386675617,
          -128.79299754354892,
          205.0267782244027,
          -124.95450362884583,
          198.99461487586967,
          -106.35213477946866,
          -358.05659857375514,
          -352.89194437254724,
          -438.18399803880226,
          -102.01244008313068,
          -128.76707274659685,
          -126.52669750919617,
          -110.1288930038901,
          -442.967123508239,
          -458.1713942675183,
          207.39782086553154,
          220.6842518320742,
          -78.84129972621032,
          203.24135263177723,
          -96.38543775773448,
          194.2942421260629,
          -480.74110105959386,
          -100.4496785576967,
          -423.6465760979331,
          -112.09241417510042,
          -441.95406569418964,
          210.18645101455104,
          -346.66775739713097,
          -549.2362919426482,
          214.24289209772937,
          -132.1335846295863,
          -97.3723148057596,
          207.32926682656316,
          -98.98126777495371,
          -82.5268617037811,
          -123.83375440003053,
          226.92947531448894,
          -148.17717726543236,
          -112.70161532858465,
          -99.62347756889284,
          -358.93787161578945,
          216.7469982037732,
          -145.46068380613272,
          204.71657649754025,
          -129.49122506654936,
          -138.0248939443398,
          -110.9620606340733,
          184.79810816892356,
          -107.5232491034969,
          -346.2586187460201,
          -104.29312878371566,
          -103.37898746514426,
          -430.08664429492364,
          -426.4524348221891,
          -84.82383701311213,
          203.9557602237066,
          154.33829974980284,
          -208.02187109611182,
          -187.49989169531037,
          -186.1298417424853,
          -213.61174071557048,
          -413.93729932338726,
          -192.9055788588032,
          86.15998151902009,
          -166.34957575956096,
          138.52137073489982,
          -355.662772493245,
          -132.63329045541843,
          -446.59960238436366,
          -134.34496356722872,
          162.21585823344108,
          158.62060921740837,
          -120.97867295063435,
          -109.98162393899258
        ],
        [
          -208.4202786075099,
          -348.6119158517708,
          -361.2659805400043,
          -440.40664224530497,
          -594.6179979295617,
          -449.6315316959585,
          -462.40792450746,
          -326.7519031508946,
          -155.9040544157527,
          -143.21844217016204,
          191.72327304200044,
          -110.54340262389768,
          -109.5200956807431,
          -116.70452362816226,
          -111.99914150301792,
          -87.51113774261327,
          178.47028120761323,
          -433.8600568667708,
          199.3241953428538,
          -120.8829568090678,
          182.67490227208043,
          -141.71623127737863,
          -345.54996638163095,
          -245.38624616855222,
          -423.8813130003185,
          -368.761372266216,
          -2.153615112184998,
          -586.8891622650182,
          -149.3572334874078,
          -748.2789916927716,
          -397.0137080010064,
          -195.28882848986325,
          176.8626709996679,
          -483.9100037393168,
          -448.9128837643846,
          -423.3841964051076,
          203.79105683252396,
          -440.6528059106268,
          -86.27321072257878,
          196.42876886760396,
          -87.84594163637155,
          210.4908762494903,
          -104.9793404789454,
          -113.075689948658,
          -428.8842293188069,
          -421.5701346662589,
          228.5328172510285,
          226.05248676702993,
          -122.92861505243744,
          -124.33414725279087,
          -88.01327577973538,
          -425.9185032220898,
          -118.10762295186498,
          -438.33030474840126,
          -115.80710305168842,
          221.8480375524026,
          -103.99001830404785,
          -422.3819058333561,
          -109.28698116512462,
          -676.8520115601472,
          -103.48147139616098,
          -151.85943170146305,
          -100.09048328266957,
          222.3710634736298,
          -129.63539769427254,
          204.10818587138056,
          -440.13822743048115,
          -348.1668592757396,
          216.4620823308318,
          -370.1894039344634,
          -421.5288858385212,
          -109.09015642993047,
          -440.0430007120902,
          -134.11346653222193,
          -132.92032724416268,
          231.04751012351878,
          -354.45395099129695,
          215.18275441778988,
          -113.48748055978587,
          -152.78320486191666,
          -326.9021021500354,
          201.4592688791807,
          -103.0782235563416,
          -332.2343148233496,
          199.44218790862323,
          -145.16184792912088,
          -88.1634159394038,
          183.00989216220643,
          -118.57232962685548,
          -113.42287181442742,
          -678.614612668816,
          -345.8908579192743,
          -108.29404905689393,
          -108.68485634552718,
          233.42036457758843,
          208.7803614169763,
          -426.32942349601495,
          219.98186726476473,
          -315.0778757017282,
          198.27614918083304,
          196.93718906458227,
          214.35920426231942,
          180.07664169783544,
          187.18417235097843,
          -127.18665551132347,
          -126.16413405537534,
          -363.0400791455578,
          -119.37388934738068,
          214.82688640006646,
          194.92910578347406,
          -430.7480618010068,
          -454.1261594512671,
          239.75614756661204,
          -115.18735685300176,
          197.78744092473664,
          -114.88122968324471,
          -102.83948467511311,
          205.98695966169834,
          200.2324162768248,
          -429.34497356311124,
          -337.83146232335514,
          -88.43834127480031,
          186.85367259635112,
          181.06646922983805,
          -101.97487301732681,
          -348.50651578500936,
          -131.33096619467503,
          -335.61401072226244,
          184.6776136878024,
          -93.45606799416518,
          -126.42924862777713,
          -100.53040276931561,
          -102.392783237376,
          197.14660748956746,
          -107.78712998523162,
          -106.42250203635965,
          211.69398316448058,
          -338.2204617425947,
          -639.3338708637934,
          215.0464313584242,
          -434.3664910990906,
          -128.10958100561564,
          -106.50007546991104,
          -85.7944975528704,
          -115.00045617804041,
          202.45099648596704,
          -413.61715028373095,
          -103.12452032214229,
          194.54508299642234,
          223.48429820383174,
          222.2365383152647,
          201.58634151544092,
          -113.73334036406102,
          -104.47860277075318,
          -97.3292727410423,
          -109.33000790694419,
          -109.40443611402846,
          204.91482964959474,
          212.72150018977885,
          -105.96395156116026,
          -99.17123733438206,
          213.16336807577622,
          -92.0546881272651,
          -106.46684209261942,
          -120.99757989128555,
          -425.26135717552523,
          -104.15450199008279,
          -140.6854852756608,
          -104.74438742171311,
          211.60386744647923,
          -412.8221443534487,
          -345.25309501446606,
          200.5120489955984,
          -88.7888939621381,
          216.147512174903,
          192.93630424179358,
          230.62697050137007,
          -99.04829987067687,
          -111.28100662511443,
          -383.35906762159846,
          185.27842873682374,
          -344.761796140762,
          -101.85872702167842,
          -110.57702320286886,
          -444.6244682684545,
          -102.73660439702448,
          -97.68633000008298,
          -324.65819765719084,
          194.02572709971528,
          210.2372261578761,
          -345.8559677195039,
          223.0892828364127,
          -118.74329509117051,
          -108.62392919681135,
          188.8454777858635,
          203.05597298705823,
          209.38953803608055,
          -122.72624575894216,
          -128.8792137906863,
          -105.82499459159668,
          222.1032699077783,
          -137.34151074129488,
          184.84145259378136,
          -436.999742521602,
          -101.18107231535728,
          -438.20084138300126,
          -121.94200117961671,
          -111.33469302904118,
          -116.32273362839072,
          -441.3925649691073,
          157.1421956642299,
          -104.42514137372463,
          -105.62790824492906,
          -102.7717052916617,
          -97.97472054611673,
          223.3443084401158,
          -128.02914262931122,
          -336.41656026458384,
          -329.73962750516057,
          -423.53968227472404,
          210.99233846430033,
          180.6479192544212,
          -118.4517847462838,
          -111.00898101940643,
          -110.00137734719918,
          205.85075830290938,
          215.09668596033538,
          -459.32274549587163,
          -659.3820342978221,
          205.82149482824178,
          213.589176157155,
          -120.29745342180064,
          215.7272117165933,
          -132.91803521639588,
          -433.77231797504083,
          -116.90442317079031,
          -94.51708754165264,
          218.71674790971318,
          -153.27891307579836,
          213.0865592905136,
          -108.06319631409795,
          -433.53165291913757,
          199.93242128328615,
          -116.64451376728339,
          -125.79694472676304,
          -115.85512281080359,
          -103.6876641736236,
          199.53572789366632,
          -423.5506433845315,
          -121.74152167855449,
          211.5685764550418,
          212.2736717334001,
          220.7430878719606,
          -433.21288688659183,
          -127.94261300447631,
          -147.8565252722414,
          -427.2025436902447,
          223.6078510443892,
          209.2105672593534,
          -102.31249666585919,
          -116.39563070927812,
          219.63248563505311,
          -111.46007966072357,
          -126.47510393752998,
          201.72595319100023,
          218.55617212547003,
          -131.7605920417718,
          -109.12015086557538,
          205.61804916025542,
          -105.35484549014225,
          220.5457622459639,
          -352.229668945641,
          205.81726481998993,
          -134.92797935351211,
          -108.96052816960373,
          -130.05801107330626,
          -98.13937276163861,
          -139.42354957624744,
          -118.77537089278252,
          -111.0641523098339,
          -84.6869817694745,
          -112.84161675512696,
          -356.6629737513144,
          201.61149446575214,
          -108.41655304538088,
          -116.73857993877229,
          176.1112326073985,
          -114.52831515347346,
          -355.1352065865493,
          -90.24483277598479,
          205.31907379971022,
          -101.38036113045848,
          -108.21105134225625,
          -125.82553425605255,
          -97.85413467361585,
          -91.45732785349809,
          -112.92448636773692,
          -103.47355980830228,
          -430.94291882277867,
          -339.41140199534505
        ]
      ],
      "aoi": [
        [
          2.324444444444445,
          2.3008888888888896,
          2.264,
          2.3355555555555534,
          2.366666666666664,
          2.3097777777777786,
          2.230666666666667,
          2.0213333333333328,
          1.987111111111112,
          2.0355555555555553,
          2.0208888888888894,
          1.9444444444444453,
          1.9884444444444447,
          2.035555555555555,
          1.9662222222222223,
          2.038222222222222,
          1.9960000000000007,
          2.037333333333333,
          1.9915555555555553,
          2.0071111111111115,
          2.0542222222222213,
          2.0524444444444447,
          2.0048888888888894,
          2.0524444444444443,
          2.073777777777778,
          2.0262222222222217,
          2.001777777777778,
          2.0617777777777784,
          1.9453333333333331,
          1.9982222222222223,
          1.9808888888888878,
          2.102666666666666,
          2.1208888888888886,
          2.0662222222222226,
          2.117777777777778,
          2.110666666666667,
          2.0253333333333337,
          2.1022222222222227,
          2.092444444444443,
          2.1151111111111107,
          2.052,
          2.116000000000001,
          2.0577777777777784,
          2.088444444444445,
          2.078666666666667,
          2.083555555555556,
          2.0004444444444442,
          2.0000000000000013,
          2.075555555555555,
          2.073777777777779,
          2.1146666666666674,
          2.0795555555555554,
          2.0804444444444457,
          2.0760000000000005,
          2.0973333333333333,
          2.0755555555555554,
          2.072000000000001,
          2.085333333333334,
          2.133777777777779,
          2.071555555555556,
          2.042222222222223,
          2.0613333333333346,
          2.0493333333333323,
          2.059555555555556,
          1.9848888888888894,
          2.0013333333333345,
          2.003111111111112,
          1.922222222222222,
          2.0102222222222226,
          1.972000000000002,
          1.971555555555556,
          2.040000000000001,
          1.942666666666668,
          1.9902222222222212,
          2.0093333333333336,
          2.0026666666666677,
          1.9920000000000004,
          1.9893333333333332,
          1.9773333333333334,
          1.986666666666667,
          2.0004444444444442,
          2.0266666666666655,
          2.029777777777777,
          2.0137777777777783,
          2.0244444444444456,
          2.0097777777777783,
          1.9995555555555566,
          2.0546666666666664,
          2.0311111111111106,
          2.041333333333334,
          1.9795555555555566,
          1.9813333333333345,
          2.03288888888889,
          2.044888888888889,
          1.9688888888888885,
          1.9799999999999989,
          1.9831111111111124,
          1.9857777777777774,
          1.965333333333333,
          1.992,
          1.9320000000000002,
          1.9653333333333338,
          2.03911111111111,
          1.987111111111112,
          1.9248888888888893,
          1.9888888888888896,
          1.9746666666666681,
          2.0164444444444447,
          2.0186666666666677,
          2.0106666666666673,
          1.9884444444444456,
          1.985333333333334,
          2.005333333333333,
          1.9639999999999997,
          1.941333333333334,
          2.0004444444444442,
          1.972,
          2.0413333333333346,
          1.9462222222222225,
          1.9902222222222228,
          1.9977777777777772,
          2.008888888888889,
          1.993333333333334,
          2.0137777777777774,
          1.9311111111111123,
          1.9617777777777776,
          1.980444444444445,
          1.9933333333333334,
          1.9759999999999998,
          2.0200000000000005,
          1.991111111111112,
          1.9866666666666675,
          2.0453333333333332,
          1.9733333333333325,
          1.9946666666666673,
          1.959555555555556,
          1.9271111111111114,
          1.9511111111111108,
          1.953777777777778,
          1.959555555555556,
          2.0048888888888894,
          2.0053333333333327,
          2.0533333333333346,
          1.98088888888889,
          2.0422222222222235,
          1.922222222222223,
          1.9644444444444427,
          1.9875555555555566,
          2.0044444444444456,
          1.9764444444444442,
          1.9706666666666677,
          1.9968888888888898,
          1.9835555555555553,
          1.992444444444444,
          1.9688888888888896,
          1.9511111111111112,
          1.9604444444444449,
          1.9364444444444435,
          2.0564444444444447,
          2.0048888888888894,
          1.9937777777777776,
          1.9937777777777776,
          2.0168888888888885,
          1.9324444444444442,
          1.9888888888888898,
          1.9471111111111108,
          1.9680000000000002,
          2.0093333333333327,
          1.9488888888888887,
          2.0506666666666677,
          1.9742222222222219,
          1.9582222222222223,
          1.9328888888888893,
          2.014666666666667,
          2.0377777777777766,
          2.008888888888889,
          1.9697777777777783,
          1.968444444444445,
          1.9893333333333338,
          1.9688888888888887,
          1.9888888888888887,
          1.9395555555555555,
          2.002666666666667,
          1.9693333333333327,
          1.975111111111111,
          2.0053333333333323,
          2.056,
          1.9844444444444438,
          1.998222222222223,
          2.0026666666666677,
          2.006222222222222,
          1.9946666666666673,
          1.9933333333333325,
          1.9795555555555548,
          1.9568888888888891,
          1.9351111111111117,
          1.994222222222223,
          1.9848888888888898,
          1.9835555555555562,
          2.058222222222222,
          1.999111111111111,
          1.9444444444444453,
          1.9942222222222215,
          2.0253333333333323,
          1.9782222222222217,
          1.999111111111112,
          2.0004444444444442,
          2.0186666666666677,
          1.9684444444444444,
          2.0204444444444447,
          2.005333333333333,
          1.9853333333333327,
          2.0431111111111107,
          1.9880000000000007,
          2.0026666666666664,
          2.0146666666666664,
          1.9719999999999998,
          2.0004444444444442,
          1.975111111111111,
          2.0231111111111115,
          1.9924444444444445,
          2.0200000000000005,
          2.0195555555555558,
          1.9786666666666668,
          1.9831111111111113,
          1.993777777777778,
          1.9857777777777779,
          1.9724444444444442,
          1.992000000000001,
          2.0120000000000013,
          2.002222222222224,
          2.0128888888888894,
          1.9799999999999989,
          2.029333333333335,
          1.987999999999999,
          1.9706666666666663,
          1.971555555555556,
          2.0186666666666673,
          1.986666666666666,
          1.986666666666668,
          1.9782222222222223,
          1.9648888888888894,
          1.9808888888888878,
          1.9199999999999997,
          2.0435555555555562,
          1.955555555555554,
          1.9822222222222228,
          1.9742222222222219,
          1.9991111111111115,
          1.9960000000000013,
          1.9595555555555544,
          1.955999999999999,
          1.974666666666667,
          1.9719999999999986,
          1.9742222222222225,
          1.9813333333333325,
          2.005777777777777,
          2.0311111111111124,
          1.9719999999999998,
          1.9982222222222228,
          1.986222222222223,
          1.9937777777777774,
          1.9897777777777776,
          1.9942222222222226,
          1.999111111111111,
          1.9960000000000002,
          2.006222222222222,
          1.9488888888888902,
          2.018222222222222,
          1.934222222222222,
          1.9795555555555564,
          2.049777777777778,
          2.0111111111111106,
          2.027111111111112,
          2.026666666666667,
          1.9528888888888885,
          2.0075555555555553,
          2.045333333333333,
          2.0315555555555562,
          1.9755555555555557,
          2.0422222222222217,
          1.9960000000000007,
          2.0333333333333337,
          1.9679999999999995,
          1.9568888888888882,
          2.0413333333333346,
          1.9333333333333338,
          1.9835555555555557,
          1.9897777777777788,
          1.9622222222222225,
          1.9884444444444442,
          1.9777777777777779,
          1.9737777777777779,
          1.9653333333333343,
          1.9591111111111104,
          1.9688888888888896,
          2.025333333333333,
          1.9142222222222236,
          1.984444444444445,
          2.0231111111111106
        ],
        [
          2.2835555555555556,
          2.2568888888888887,
          2.2257777777777785,
          2.2257777777777794,
          2.2857777777777777,
          2.29288888888889,
          2.3324444444444454,
          2.2977777777777777,
          2.1542222222222214,
          2.0688888888888886,
          2.0671111111111116,
          2.0653333333333355,
          2.0786666666666673,
          2.0462222222222217,
          2.083555555555556,
          2.3635555555555543,
          2.443111111111112,
          2.4177777777777774,
          2.386222222222222,
          2.3657777777777773,
          2.3533333333333317,
          2.464444444444443,
          2.460000000000001,
          2.3666666666666663,
          2.393333333333334,
          2.4057777777777787,
          2.3328888888888897,
          2.3608888888888897,
          2.0795555555555567,
          2.0808888888888886,
          2.044444444444445,
          2.0040000000000004,
          2.0066666666666664,
          1.9968888888888887,
          1.9568888888888891,
          1.9813333333333345,
          1.9986666666666684,
          1.9662222222222219,
          1.978222222222223,
          1.993333333333334,
          1.999111111111111,
          1.993333333333334,
          2.013333333333334,
          2.047555555555555,
          2.02488888888889,
          1.9733333333333323,
          2.043111111111112,
          1.9462222222222219,
          2.0164444444444447,
          1.9639999999999993,
          2.0084444444444456,
          2.0297777777777783,
          1.9706666666666672,
          2.0706666666666678,
          1.9244444444444437,
          2.0475555555555554,
          1.9324444444444444,
          1.9582222222222216,
          1.9680000000000002,
          1.9684444444444444,
          1.9791111111111108,
          2.0071111111111115,
          1.9897777777777772,
          1.970222222222222,
          1.9937777777777774,
          1.9711111111111101,
          1.9960000000000002,
          1.9604444444444455,
          2.0039999999999996,
          2.003111111111111,
          1.9924444444444454,
          1.9799999999999995,
          1.9284444444444435,
          1.9671111111111115,
          1.9937777777777776,
          1.9666666666666666,
          2.0111111111111115,
          1.940888888888888,
          1.8817777777777784,
          1.958222222222223,
          1.9640000000000009,
          2.005333333333333,
          2.067555555555556,
          1.946666666666667,
          2.009777777777777,
          1.9804444444444451,
          1.9400000000000004,
          1.986666666666667,
          1.9924444444444454,
          1.9466666666666659,
          2.032,
          2.0671111111111107,
          2.009333333333334,
          1.987555555555557,
          2.029777777777778,
          1.9542222222222214,
          1.9759999999999998,
          1.967111111111111,
          1.9684444444444444,
          1.9715555555555553,
          1.9653333333333354,
          2.0124444444444447,
          1.9662222222222223,
          1.9728888888888894,
          1.9715555555555568,
          2.00488888888889,
          1.9568888888888882,
          1.9648888888888882,
          1.9528888888888882,
          2.0399999999999996,
          1.9964444444444438,
          2.0373333333333337,
          1.9995555555555555,
          1.9968888888888878,
          1.979111111111113,
          1.9791111111111115,
          2.0057777777777765,
          1.978666666666668,
          1.9977777777777774,
          1.9737777777777763,
          2.0097777777777783,
          1.9613333333333345,
          1.9835555555555562,
          2.000444444444444,
          1.974222222222223,
          2.008888888888889,
          2.007555555555555,
          1.9826666666666677,
          1.9613333333333345,
          1.9591111111111115,
          1.9800000000000004,
          2.009333333333333,
          2.000444444444444,
          2.0159999999999987,
          1.972888888888889,
          1.9559999999999995,
          2.006666666666667,
          2.019111111111111,
          1.9742222222222237,
          1.9964444444444454,
          2.058222222222222,
          2.016444444444444,
          1.9893333333333325,
          1.9848888888888883,
          1.9986666666666664,
          1.9711111111111113,
          1.991111111111112,
          1.9688888888888898,
          2.0657777777777775,
          1.9173333333333327,
          1.9306666666666665,
          1.993333333333334,
          2.029333333333333,
          1.971555555555556,
          2.0173333333333345,
          1.9960000000000002,
          2.0244444444444447,
          1.9586666666666668,
          1.9551111111111106,
          1.9853333333333327,
          1.994222222222223,
          1.942222222222221,
          1.9560000000000006,
          1.9964444444444451,
          2.0097777777777774,
          1.9804444444444445,
          1.987111111111111,
          2.0604444444444447,
          1.9444444444444458,
          2.025333333333333,
          2.015111111111111,
          1.9862222222222214,
          2.0128888888888885,
          1.9800000000000006,
          2.0391111111111107,
          1.9977777777777768,
          1.979555555555556,
          2.0022222222222217,
          1.9680000000000006,
          2.0022222222222217,
          1.936888888888889,
          1.9848888888888887,
          1.9622222222222225,
          1.9884444444444442,
          2.0057777777777774,
          2.0013333333333336,
          2.0062222222222235,
          2.0377777777777784,
          2.0324444444444447,
          1.9400000000000004,
          1.9604444444444449,
          1.9644444444444447,
          1.9537777777777785,
          2.0057777777777774,
          2.014666666666666,
          1.991111111111112,
          2.0062222222222235,
          1.944888888888889,
          1.9866666666666664,
          2.004444444444444,
          1.9888888888888887,
          2.0022222222222226,
          1.9951111111111122,
          2.034222222222222,
          1.9933333333333334,
          1.963999999999999,
          2.031555555555556,
          1.9826666666666661,
          1.9995555555555555,
          1.9866666666666666,
          2.0057777777777783,
          1.9680000000000006,
          1.9622222222222228,
          1.9977777777777774,
          1.9924444444444454,
          1.9995555555555553,
          1.99911111111111,
          2.010222222222222,
          1.981777777777778,
          1.9573333333333343,
          1.96711111111111,
          1.9759999999999998,
          2.0013333333333327,
          1.9826666666666672,
          2.015111111111112,
          2.0324444444444456,
          2.0311111111111115,
          2.0239999999999996,
          2.0022222222222226,
          2.0088888888888894,
          1.9897777777777783,
          1.9848888888888883,
          2.0444444444444443,
          1.926666666666667,
          2.0053333333333336,
          1.974222222222222,
          2.042222222222223,
          2.0364444444444456,
          2.0035555555555544,
          2.0359999999999996,
          1.9999999999999996,
          2.0,
          1.963111111111111,
          1.9057777777777778,
          2.0124444444444443,
          1.9533333333333334,
          2.0302222222222217,
          2.0617777777777784,
          1.9595555555555553,
          1.9680000000000006,
          1.973777777777778,
          2.020444444444444,
          1.9271111111111097,
          2.0102222222222212,
          1.9613333333333332,
          1.9719999999999998,
          2.025777777777778,
          1.9444444444444438,
          1.9555555555555555,
          1.9595555555555564,
          1.9088888888888895,
          2.021777777777778,
          1.9195555555555552,
          1.9995555555555564,
          1.9835555555555557,
          1.9600000000000004,
          1.987111111111112,
          1.9595555555555564,
          2.0671111111111107,
          2.004888888888889,
          2.0302222222222226,
          2.0044444444444434,
          1.986222222222222,
          2.0262222222222213,
          1.9506666666666677,
          2.030666666666666,
          1.960888888888889,
          1.9853333333333334,
          1.9893333333333338,
          1.998666666666666,
          1.935555555555556,
          2.0177777777777774,
          1.988,
          2.048000000000001,
          2.031111111111111,
          2.0786666666666673,
          2.0911111111111107,
          2.0897777777777793,
          2.094666666666666,
          2.011111111111111,
          2.0502222222222226,
          2.0435555555555553,
          2.0444444444444447,
          2.0151111111111106,
          2.0302222222222226,
          1.9799999999999989,
          2.0084444444444447,
          2.044,
          2.026222222222222,
          1.988444444444444
        ],
        [
          2.0262222222222226,
          2.0342222222222235,
          2.231999999999999,
          2.2191111111111117,
          2.276444444444444,
          2.2404444444444445,
          2.29511111111111,
          2.1853333333333325,
          2.0142222222222235,
          2.054666666666667,
          2.000000000000001,
          1.9857777777777783,
          2.0004444444444442,
          2.0106666666666664,
          1.9835555555555562,
          1.9413333333333334,
          2.0244444444444447,
          1.982222222222222,
          1.9960000000000002,
          1.9751111111111102,
          2.041333333333333,
          2.0466666666666673,
          2.0084444444444443,
          1.9893333333333336,
          2.105777777777778,
          2.0653333333333332,
          2.0444444444444447,
          2.0213333333333323,
          1.9915555555555549,
          2.018222222222223,
          1.9857777777777768,
          2.0008888888888894,
          1.992888888888889,
          2.012444444444445,
          2.019555555555556,
          1.9857777777777779,
          1.9799999999999993,
          2.0048888888888885,
          1.9120000000000013,
          2.0284444444444456,
          1.929777777777776,
          1.9831111111111117,
          1.983555555555555,
          1.988000000000001,
          1.994666666666667,
          1.9577777777777778,
          1.9635555555555568,
          1.9524444444444444,
          1.9777777777777776,
          2.026666666666667,
          1.9435555555555561,
          2.013333333333333,
          2.0013333333333327,
          2.003555555555556,
          2.006666666666667,
          1.9511111111111112,
          1.9706666666666663,
          1.9657777777777778,
          1.947111111111111,
          2.0186666666666677,
          1.9444444444444464,
          2.027111111111111,
          1.967111111111111,
          1.9328888888888893,
          2.0484444444444447,
          2.005777777777778,
          2.0342222222222235,
          2.0253333333333328,
          1.9684444444444444,
          2.0235555555555558,
          2.012,
          1.967111111111112,
          1.9657777777777772,
          2.0355555555555553,
          2.0431111111111115,
          1.941777777777778,
          2.0004444444444442,
          1.9564444444444447,
          1.9751111111111115,
          2.0075555555555553,
          1.968000000000001,
          2.025777777777779,
          1.9573333333333331,
          1.9502222222222212,
          1.9804444444444436,
          2.026666666666666,
          1.9288888888888887,
          2.0453333333333323,
          2.0044444444444443,
          1.9888888888888887,
          2.0208888888888885,
          1.9848888888888878,
          1.9919999999999998,
          1.986666666666666,
          1.9240000000000002,
          1.979111111111112,
          1.9791111111111097,
          1.9568888888888887,
          1.9506666666666672,
          2.025333333333333,
          2.0004444444444447,
          1.959555555555556,
          2.0346666666666673,
          2.03911111111111,
          2.0413333333333328,
          2.0173333333333328,
          2.0404444444444447,
          1.985333333333333,
          1.9697777777777783,
          1.9982222222222223,
          1.9977777777777768,
          2.069333333333334,
          1.9146666666666665,
          1.9768888888888894,
          2.011999999999999,
          1.9937777777777774,
          1.9742222222222219,
          2.0031111111111115,
          2.0088888888888894,
          1.987999999999999,
          1.9888888888888892,
          1.928444444444445,
          2.0568888888888894,
          2.0653333333333337,
          1.9560000000000002,
          2.002222222222223,
          1.963999999999999,
          1.9866666666666675,
          2.038222222222223,
          1.9404444444444438,
          2.0137777777777788,
          1.9226666666666665,
          1.9808888888888896,
          2.0266666666666664,
          1.9782222222222228,
          1.9800000000000004,
          1.9724444444444442,
          1.998666666666666,
          1.9306666666666672,
          1.9804444444444436,
          1.993777777777778,
          2.040888888888889,
          1.986666666666667,
          1.9328888888888878,
          2.004,
          1.978666666666668,
          1.9288888888888887,
          1.9693333333333347,
          1.9764444444444442,
          1.9444444444444438,
          1.9911111111111108,
          2.011555555555556,
          2.007555555555556,
          1.9786666666666668,
          1.9728888888888905,
          1.9991111111111104,
          1.9862222222222234,
          1.9946666666666673,
          1.9635555555555562,
          1.9497777777777787,
          1.9328888888888898,
          1.963555555555554,
          1.95377777777778,
          1.9804444444444436,
          2.005777777777776,
          1.9817777777777787,
          1.9746666666666661,
          1.99911111111111,
          1.9893333333333347,
          1.9555555555555555,
          1.942666666666666,
          2.001777777777777,
          1.991111111111112,
          1.9191111111111108,
          1.9666666666666663,
          2.0377777777777797,
          1.9284444444444444,
          1.9488888888888891,
          1.9751111111111106,
          1.9764444444444442,
          2.039555555555555,
          1.98,
          1.9435555555555566,
          2.008888888888889,
          2.037333333333333,
          1.9902222222222212,
          1.970666666666668,
          1.9462222222222223,
          2.0417777777777784,
          1.981333333333333,
          2.012444444444445,
          1.9586666666666672,
          2.01688888888889,
          1.9968888888888887,
          2.031555555555555,
          2.0195555555555553,
          1.9711111111111117,
          2.0235555555555553,
          2.00888888888889,
          1.9422222222222232,
          1.9662222222222219,
          2.059111111111111,
          2.0297777777777792,
          2.004888888888889,
          1.9564444444444447,
          2.016444444444443,
          1.9920000000000004,
          1.9475555555555566,
          2.001777777777778,
          2.0115555555555553,
          2.0364444444444447,
          1.980444444444445,
          1.9857777777777774,
          1.9640000000000009,
          1.9506666666666679,
          1.9511111111111106,
          2.0306666666666664,
          1.9804444444444451,
          1.9515555555555568,
          1.9800000000000006,
          1.9653333333333334,
          2.023555555555556,
          2.006222222222222,
          2.001777777777778,
          1.9546666666666659,
          1.9648888888888898,
          1.98088888888889,
          2.0342222222222217,
          1.9857777777777785,
          2.008,
          1.9773333333333347,
          1.9964444444444447,
          1.9764444444444447,
          2.005777777777778,
          1.974222222222222,
          2.002222222222223,
          1.9391111111111115,
          1.9760000000000002,
          1.9724444444444444,
          1.9871111111111115,
          1.9915555555555569,
          1.976888888888888,
          2.007111111111111,
          2.0235555555555558,
          2.009333333333333,
          1.9968888888888892,
          1.9746666666666666,
          2.0271111111111106,
          1.96,
          1.9795555555555555,
          1.9742222222222219,
          1.9564444444444435,
          1.9413333333333336,
          2.005777777777778,
          2.0373333333333346,
          2.0217777777777775,
          1.973777777777777,
          1.9657777777777767,
          1.96,
          1.9777777777777767,
          1.9960000000000007,
          1.9297777777777776,
          1.991555555555556,
          1.9728888888888885,
          2.003555555555556,
          1.968444444444445,
          2.0417777777777775,
          1.9782222222222208,
          1.9831111111111102,
          1.9955555555555555,
          1.9555555555555557,
          2.007555555555556,
          1.9888888888888887,
          2.0684444444444465,
          1.992444444444445,
          2.0115555555555544,
          1.948444444444445,
          2.0413333333333323,
          2.0017777777777783,
          1.9684444444444447,
          1.909333333333333,
          1.986222222222222,
          1.9968888888888887,
          1.9826666666666677,
          1.999111111111112,
          1.9822222222222226,
          2.0008888888888894,
          1.9857777777777774,
          2.0164444444444443,
          1.9591111111111097,
          1.995111111111111,
          1.9595555555555568,
          1.9604444444444449,
          2.0124444444444443,
          1.9773333333333334,
          1.9320000000000002,
          1.9822222222222217,
          1.98,
          2.003555555555556,
          1.9724444444444449
        ]
      ],
      "ho_freq": [
        [
          0.9946666666666667,
          0.8706666666666667,
          0.029333333333333333,
          0.05333333333333334,
          0.04666666666666667,
          0.05333333333333334,
          0.03333333333333333,
          0.05333333333333334,
          0.496,
          1.0,
          1.0,
          1.0,
          1.0,
          1.0,
          1.0,
          1.0,
          1.0,
          1.0,
          1.0,
          1.0,
          1.0,
          1.0,
          1.0,
          1.0,
          1.0,
          1.0,
          1.0,
          1.0,
          0.312,
          0.4066666666666667,
          0.30933333333333335,
          0.292,
          0.3333333333333333,
          0.22,
          0.2866666666666667,
          0.39866666666666667,
          0.43466666666666665,
          0.348,
          0.292,
          0.43066666666666664,
          0.21333333333333335,
          0.17866666666666667,
          0.172,
          0.27066666666666667,
          0.32666666666666666,
          0.30933333333333335,
          0.236,
          0.224,
          0.252,
          0.20933333333333334,
          0.38,
          0.32666666666666666,
          0.31333333333333335,
          0.18,
          0.144,
          0.21333333333333335,
          0.31466666666666665,
          0.32,
          0.38133333333333336,
          0.24666666666666667,
          0.15733333333333333,
          0.20533333333333334,
          0.25333333333333335,
          0.288,
          0.22133333333333333,
          0.252,
          0.22266666666666668,
          0.272,
          0.25466666666666665,
          0.30933333333333335,
          0.25866666666666666,
          0.31333333333333335,
          0.204,
          0.22533333333333333,
          0.25733333333333336,
          0.27466666666666667,
          0.30533333333333335,
          0.332,
          0.23333333333333334,
          0.25733333333333336,
          0.25333333333333335,
          0.23333333333333334,
          0.328,
          0.2773333333333333,
          0.2853333333333333,
          0.18,
          0.24933333333333332,
          0.268,
          0.31733333333333336,
          0.3506666666666667,
          0.336,
          0.34933333333333333,
          0.30533333333333335,
          0.2813333333333333,
          0.3,
          0.43733333333333335,
          0.41733333333333333,
          0.29333333333333333,
          0.3626666666666667,
          0.2906666666666667,
          0.30533333333333335,
          0.37066666666666664,
          0.3466666666666667,
          0.36533333333333334,
          0.316,
          0.3293333333333333,
          0.45466666666666666,
          0.436,
          0.316,
          0.32133333333333336,
          0.3373333333333333,
          0.4093333333333333,
          0.38533333333333336,
          0.268,
          0.312,
          0.30533333333333335,
          0.29333333333333333,
          0.316,
          0.33066666666666666,
          0.2813333333333333,
          0.30533333333333335,
          0.316,
          0.36,
          0.37333333333333335,
          0.2813333333333333,
          0.3506666666666667,
          0.32133333333333336,
          0.20666666666666667,
          0.328,
          0.30533333333333335,
          0.30933333333333335,
          0.2813333333333333,
          0.2733333333333333,
          0.3893333333333333,
          0.31866666666666665,
          0.2853333333333333,
          0.4186666666666667,
          0.37466666666666665,
          0.31466666666666665,
          0.43866666666666665,
          0.304,
          0.32666666666666666,
          0.296,
          0.43866666666666665,
          0.3373333333333333,
          0.3546666666666667,
          0.24533333333333332,
          0.192,
          0.2613333333333333,
          0.216,
          0.252,
          0.248,
          0.248,
          0.18266666666666667,
          0.10533333333333333,
          0.14133333333333334,
          0.204,
          0.23866666666666667,
          0.172,
          0.18,
          0.16533333333333333,
          0.18533333333333332,
          0.13466666666666666,
          0.14,
          0.16,
          0.11333333333333333,
          0.04666666666666667,
          0.076,
          0.07333333333333333,
          0.112,
          0.10266666666666667,
          0.09333333333333334,
          0.08933333333333333,
          0.128,
          0.09333333333333334,
          0.06933333333333333,
          0.09066666666666667,
          0.07733333333333334,
          0.08266666666666667,
          0.09333333333333334,
          0.09466666666666666,
          0.05333333333333334,
          0.096,
          0.08,
          0.06666666666666667,
          0.06266666666666666,
          0.068,
          0.092,
          0.044,
          0.09466666666666666,
          0.048,
          0.08933333333333333,
          0.06,
          0.06533333333333333,
          0.14,
          0.06,
          0.06,
          0.06,
          0.06,
          0.048,
          0.06666666666666667,
          0.05333333333333334,
          0.08133333333333333,
          0.05466666666666667,
          0.064,
          0.036,
          0.06666666666666667,
          0.06666666666666667,
          0.05733333333333333,
          0.06,
          0.04,
          0.10666666666666667,
          0.08,
          0.06133333333333333,
          0.03333333333333333,
          0.050666666666666665,
          0.050666666666666665,
          0.08266666666666667,
          0.084,
          0.052,
          0.04,
          0.05466666666666667,
          0.064,
          0.05333333333333334,
          0.05333333333333334,
          0.08266666666666667,
          0.08666666666666667,
          0.06133333333333333,
          0.07333333333333333,
          0.07066666666666667,
          0.07333333333333333,
          0.06,
          0.06133333333333333,
          0.06,
          0.04,
          0.04666666666666667,
          0.05333333333333334,
          0.06,
          0.05333333333333334,
          0.04933333333333333,
          0.09466666666666666,
          0.048,
          0.08133333333333333,
          0.06133333333333333,
          0.04666666666666667,
          0.08133333333333333,
          0.07066666666666667,
          0.04,
          0.052,
          0.05733333333333333,
          0.07066666666666667,
          0.05733333333333333,
          0.08133333333333333,
          0.06666666666666667,
          0.07333333333333333,
          0.05733333333333333,
          0.06666666666666667,
          0.052,
          0.048,
          0.07333333333333333,
          0.06,
          0.06266666666666666,
          0.048,
          0.084,
          0.09066666666666667,
          0.04666666666666667,
          0.04,
          0.06666666666666667,
          0.06133333333333333,
          0.050666666666666665,
          0.048,
          0.06,
          0.06,
          0.05333333333333334,
          0.09066666666666667,
          0.06133333333333333,
          0.06,
          0.08,
          0.04666666666666667,
          0.05333333333333334,
          0.06666666666666667,
          0.05333333333333334,
          0.05333333333333334,
          0.096,
          0.05333333333333334,
          0.056,
          0.06933333333333333,
          0.07466666666666667,
          0.06933333333333333,
          0.04133333333333333,
          0.05333333333333334,
          0.05333333333333334,
          0.11733333333333333,
          0.05466666666666667,
          0.06266666666666666,
          0.09066666666666667,
          0.076,
          0.072,
          0.07333333333333333,
          0.07066666666666667
        ],
        [
          0.964,
          0.7586666666666667,
          0.04666666666666667,
          0.04,
          0.04666666666666667,
          0.03333333333333333,
          0.02666666666666667,
          0.03333333333333333,
          0.04,
          0.07333333333333333,
          0.06,
          0.06,
          0.872,
          1.0,
          1.0,
          1.0,
          1.0,
          1.0,
          1.0,
          1.0,
          1.0,
          1.0,
          1.0,
          1.0,
          1.0,
          1.0,
          1.0,
          1.0,
          0.3933333333333333,
          0.2693333333333333,
          0.31466666666666665,
          0.232,
          0.30933333333333335,
          0.26666666666666666,
          0.22666666666666666,
          0.336,
          0.3506666666666667,
          0.3253333333333333,
          0.17466666666666666,
          0.08666666666666667,
          0.05333333333333334,
          0.10266666666666667,
          0.24533333333333332,
          0.23066666666666666,
          0.252,
          0.15466666666666667,
          0.248,
          0.27066666666666667,
          0.25866666666666666,
          0.24666666666666667,
          0.25333333333333335,
          0.26266666666666666,
          0.276,
          0.236,
          0.2653333333333333,
          0.23733333333333334,
          0.084,
          0.04,
          0.05333333333333334,
          0.06,
          0.04666666666666667,
          0.04666666666666667,
          0.04666666666666667,
          0.04,
          0.03333333333333333,
          0.05333333333333334,
          0.06666666666666667,
          0.07333333333333333,
          0.07333333333333333,
          0.04666666666666667,
          0.04666666666666667,
          0.23333333333333334,
          0.264,
          0.272,
          0.26266666666666666,
          0.08,
          0.02666666666666667,
          0.03333333333333333,
          0.06666666666666667,
          0.07333333333333333,
          0.06,
          0.07333333333333333,
          0.06666666666666667,
          0.02666666666666667,
          0.08666666666666667,
          0.06,
          0.05333333333333334,
          0.06666666666666667,
          0.04,
          0.06,
          0.04666666666666667,
          0.08,
          0.03333333333333333,
          0.06,
          0.03333333333333333,
          0.06,
          0.03333333333333333,
          0.03333333333333333,
          0.06,
          0.06,
          0.06666666666666667,
          0.06,
          0.05333333333333334,
          0.05333333333333334,
          0.04666666666666667,
          0.06666666666666667,
          0.06,
          0.06,
          0.07333333333333333,
          0.03333333333333333,
          0.02666666666666667,
          0.06,
          0.06666666666666667,
          0.08666666666666667,
          0.08666666666666667,
          0.04,
          0.03333333333333333,
          0.04666666666666667,
          0.03333333333333333,
          0.04666666666666667,
          0.05333333333333334,
          0.04,
          0.06,
          0.05333333333333334,
          0.06,
          0.06,
          0.05333333333333334,
          0.06,
          0.02666666666666667,
          0.05333333333333334,
          0.04,
          0.04666666666666667,
          0.04,
          0.04666666666666667,
          0.06,
          0.06666666666666667,
          0.06,
          0.07333333333333333,
          0.05333333333333334,
          0.04666666666666667,
          0.02666666666666667,
          0.07333333333333333,
          0.06,
          0.05333333333333334,
          0.06666666666666667,
          0.04,
          0.03333333333333333,
          0.02,
          0.05333333333333334,
          0.04,
          0.04,
          0.07333333333333333,
          0.04,
          0.05333333333333334,
          0.02666666666666667,
          0.04,
          0.05333333333333334,
          0.06666666666666667,
          0.07333333333333333,
          0.07333333333333333,
          0.04666666666666667,
          0.04,
          0.03333333333333333,
          0.04666666666666667,
          0.04,
          0.06666666666666667,
          0.06,
          0.08666666666666667,
          0.05333333333333334,
          0.013333333333333334,
          0.04,
          0.06,
          0.02666666666666667,
          0.06,
          0.04666666666666667,
          0.06666666666666667,
          0.04666666666666667,
          0.04666666666666667,
          0.06,
          0.05333333333333334,
          0.03333333333333333,
          0.04666666666666667,
          0.06666666666666667,
          0.06666666666666667,
          0.07333333333333333,
          0.04666666666666667,
          0.04666666666666667,
          0.06666666666666667,
          0.05333333333333334,
          0.06666666666666667,
          0.08666666666666667,
          0.04666666666666667,
          0.06666666666666667,
          0.06,
          0.05333333333333334,
          0.05333333333333334,
          0.07333333333333333,
          0.07333333333333333,
          0.04666666666666667,
          0.04666666666666667,
          0.02666666666666667,
          0.05333333333333334,
          0.05333333333333334,
          0.04,
          0.06666666666666667,
          0.06666666666666667,
          0.06666666666666667,
          0.04,
          0.06,
          0.04,
          0.07333333333333333,
          0.06,
          0.04,
          0.07333333333333333,
          0.08,
          0.03333333333333333,
          0.04,
          0.05333333333333334,
          0.06,
          0.04,
          0.06,
          0.04666666666666667,
          0.07333333333333333,
          0.05333333333333334,
          0.08,
          0.06666666666666667,
          0.04,
          0.04,
          0.05333333333333334,
          0.04,
          0.06,
          0.04,
          0.03333333333333333,
          0.05333333333333334,
          0.05333333333333334,
          0.02666666666666667,
          0.05333333333333334,
          0.04,
          0.04,
          0.08666666666666667,
          0.04,
          0.06,
          0.08666666666666667,
          0.08,
          0.06666666666666667,
          0.04666666666666667,
          0.05333333333333334,
          0.03333333333333333,
          0.05333333333333334,
          0.06,
          0.07333333333333333,
          0.02666666666666667,
          0.04,
          0.06666666666666667,
          0.06,
          0.06,
          0.05333333333333334,
          0.05333333333333334,
          0.04666666666666667,
          0.07333333333333333,
          0.05333333333333334,
          0.04666666666666667,
          0.04,
          0.02,
          0.04666666666666667,
          0.03333333333333333,
          0.04,
          0.04,
          0.05333333333333334,
          0.06666666666666667,
          0.04,
          0.05333333333333334,
          0.04,
          0.03333333333333333,
          0.04666666666666667,
          0.07333333333333333,
          0.06666666666666667,
          0.05333333333333334,
          0.04666666666666667,
          0.07333333333333333,
          0.04666666666666667,
          0.04666666666666667,
          0.07333333333333333,
          0.02666666666666667,
          0.04666666666666667,
          0.05333333333333334,
          0.02666666666666667,
          0.03333333333333333,
          0.06666666666666667,
          0.03333333333333333,
          0.07333333333333333,
          0.04666666666666667,
          0.08666666666666667,
          0.07333333333333333,
          0.06666666666666667,
          0.04666666666666667,
          0.04666666666666667,
          0.03333333333333333,
          0.05333333333333334,
          0.07333333333333333
        ],
        [
          1.0,
          0.74,
          0.06666666666666667,
          0.05333333333333334,
          0.06666666666666667,
          0.04666666666666667,
          0.06,
          0.05333333333333334,
          0.04666666666666667,
          0.04666666666666667,
          0.08,
          0.06666666666666667,
          0.05333333333333334,
          0.04666666666666667,
          0.05333333333333334,
          0.06,
          0.06666666666666667,
          0.03333333333333333,
          0.04666666666666667,
          0.07333333333333333,
          0.06666666666666667,
          0.03333333333333333,
          0.04666666666666667,
          0.05333333333333334,
          0.05333333333333334,
          0.04,
          0.04666666666666667,
          0.04666666666666667,
          0.04,
          0.04666666666666667,
          0.07333333333333333,
          0.03333333333333333,
          0.06,
          0.04,
          0.04,
          0.02,
          0.05333333333333334,
          0.04666666666666667,
          0.04666666666666667,
          0.06,
          0.05333333333333334,
          0.05333333333333334,
          0.05333333333333334,
          0.03333333333333333,
          0.06,
          0.04,
          0.06,
          0.04,
          0.04,
          0.05333333333333334,
          0.05333333333333334,
          0.07333333333333333,
          0.07333333333333333,
          0.06,
          0.05333333333333334,
          0.02,
          0.06,
          0.04666666666666667,
          0.02666666666666667,
          0.05333333333333334,
          0.09333333333333334,
          0.05333333333333334,
          0.06,
          0.06,
          0.04,
          0.05333333333333334,
          0.05333333333333334,
          0.06666666666666667,
          0.08,
          0.06,
          0.07333333333333333,
          0.04666666666666667,
          0.02,
          0.04,
          0.04,
          0.04666666666666667,
          0.06666666666666667,
          0.05333333333333334,
          0.04666666666666667,
          0.05333333333333334,
          0.04666666666666667,
          0.06,
          0.08666666666666667,
          0.013333333333333334,
          0.06666666666666667,
          0.06,
          0.07333333333333333,
          0.04,
          0.06,
          0.07333333333333333,
          0.05333333333333334,
          0.04666666666666667,
          0.06,
          0.06,
          0.06666666666666667,
          0.05333333333333334,
          0.06,
          0.06,
          0.04666666666666667,
          0.08,
          0.05333333333333334,
          0.07333333333333333,
          0.013333333333333334,
          0.02666666666666667,
          0.04666666666666667,
          0.04,
          0.02,
          0.06666666666666667,
          0.05333333333333334,
          0.1,
          0.06666666666666667,
          0.04666666666666667,
          0.05333333333333334,
          0.04666666666666667,
          0.04666666666666667,
          0.06666666666666667,
          0.05333333333333334,
          0.08666666666666667,
          0.07333333333333333,
          0.06,
          0.05333333333333334,
          0.05333333333333334,
          0.04,
          0.05333333333333334,
          0.06666666666666667,
          0.04,
          0.04,
          0.02666666666666667,
          0.05333333333333334,
          0.04,
          0.05333333333333334,
          0.04,
          0.06,
          0.03333333333333333,
          0.08,
          0.06,
          0.04666666666666667,
          0.04666666666666667,
          0.04666666666666667,
          0.06,
          0.04666666666666667,
          0.06666666666666667,
          0.04,
          0.08,
          0.04,
          0.03333333333333333,
          0.05333333333333334,
          0.08,
          0.03333333333333333,
          0.04,
          0.06666666666666667,
          0.04,
          0.05333333333333334,
          0.06,
          0.06,
          0.06666666666666667,
          0.06666666666666667,
          0.04,
          0.08,
          0.05333333333333334,
          0.05333333333333334,
          0.02666666666666667,
          0.06,
          0.06,
          0.05333333333333334,
          0.04,
          0.06,
          0.04,
          0.04666666666666667,
          0.04,
          0.04,
          0.04666666666666667,
          0.05333333333333334,
          0.05333333333333334,
          0.03333333333333333,
          0.04,
          0.04666666666666667,
          0.013333333333333334,
          0.04,
          0.02666666666666667,
          0.05333333333333334,
          0.03333333333333333,
          0.06666666666666667,
          0.05333333333333334,
          0.06666666666666667,
          0.04666666666666667,
          0.06,
          0.05333333333333334,
          0.04,
          0.04,
          0.06666666666666667,
          0.04,
          0.02666666666666667,
          0.05333333333333334,
          0.06,
          0.04,
          0.03333333333333333,
          0.04666666666666667,
          0.03333333333333333,
          0.04,
          0.04,
          0.03333333333333333,
          0.07333333333333333,
          0.08,
          0.07333333333333333,
          0.08666666666666667,
          0.03333333333333333,
          0.06,
          0.05333333333333334,
          0.06666666666666667,
          0.05333333333333334,
          0.05333333333333334,
          0.08,
          0.05333333333333334,
          0.04,
          0.04666666666666667,
          0.06666666666666667,
          0.06666666666666667,
          0.04,
          0.03333333333333333,
          0.06666666666666667,
          0.04666666666666667,
          0.04,
          0.04666666666666667,
          0.04666666666666667,
          0.07333333333333333,
          0.06666666666666667,
          0.04666666666666667,
          0.07333333333333333,
          0.07333333333333333,
          0.08666666666666667,
          0.04666666666666667,
          0.03333333333333333,
          0.05333333333333334,
          0.04666666666666667,
          0.06,
          0.05333333333333334,
          0.05333333333333334,
          0.06666666666666667,
          0.04,
          0.05333333333333334,
          0.06,
          0.04,
          0.05333333333333334,
          0.09333333333333334,
          0.04666666666666667,
          0.02,
          0.07333333333333333,
          0.04,
          0.04666666666666667,
          0.03333333333333333,
          0.03333333333333333,
          0.06666666666666667,
          0.06666666666666667,
          0.03333333333333333,
          0.06666666666666667,
          0.03333333333333333,
          0.07333333333333333,
          0.04666666666666667,
          0.05333333333333334,
          0.05333333333333334,
          0.08,
          0.04666666666666667,
          0.02666666666666667,
          0.05333333333333334,
          0.05333333333333334,
          0.06666666666666667,
          0.05333333333333334,
          0.03333333333333333,
          0.04666666666666667,
          0.03333333333333333,
          0.04,
          0.04666666666666667,
          0.05333333333333334,
          0.06666666666666667,
          0.02666666666666667,
          0.06,
          0.06,
          0.06,
          0.04666666666666667,
          0.06666666666666667,
          0.04,
          0.04666666666666667,
          0.04,
          0.04,
          0.05333333333333334,
          0.06,
          0.07333333333333333,
          0.04,
          0.06,
          0.06,
          0.05333333333333334,
          0.04,
          0.04666666666666667,
          0.07333333333333333,
          0.06,
          0.03333333333333333,
          0.07333333333333333,
          0.08666666666666667,
          0.06
        ]
      ]
    },
    "MA-TD3": {
      "rewards": [
        [
          -444.93190246014285,
          -430.60744144669593,
          -377.14289475483474,
          -43.346326814092485,
          -376.6334162861424,
          -161.38726603368917,
          -307.98915931316424,
          -354.3542330036806,
          -278.232369872893,
          -248.37493562678483,
          -115.20132619764613,
          8.028221865039983,
          -59.30142187552962,
          -525.549973852097,
          -270.42851878313695,
          -24.795221072342407,
          28.851456812061866,
          -723.583071862779,
          -671.6240468451531,
          -555.1819562212519,
          -701.2144502778356,
          -655.1110081162955,
          -628.5648060789305,
          -564.7806987678773,
          -554.5457334292109,
          -275.2696719910024,
          75.53229923929241,
          -503.39161379530475,
          -234.69799973862717,
          -382.1617259218449,
          -87.89227821458903,
          -368.17689504309726,
          -272.5628949657925,
          -674.3571406610829,
          -31.605709068321183,
          -323.90382902612015,
          -376.9859439965966,
          -351.90571093974023,
          -378.6197938011253,
          -18.10258215892047,
          -601.1376488546091,
          13.36715805696435,
          26.290633106160893,
          -420.3160709867227,
          -57.45246847555082,
          -713.9940246404252,
          -438.47415325710625,
          18.420752903083674,
          -244.08491255513567,
          -286.73449513127713,
          42.96872159428241,
          177.34278078523238,
          -14.627263250270422,
          -59.39395172821598,
          -36.35300988238342,
          -232.9573013119008,
          -98.69846975891262,
          -60.39858295049526,
          -125.3975105112555,
          -45.39545151648328,
          9.713987570434375,
          -73.09734773695904,
          -192.90545199592688,
          3.3035790357674877,
          41.45474725078617,
          -4.524186388835161,
          -52.83782411126968,
          -125.38278918434304,
          -94.3604306227755,
          -206.0548123087496,
          -150.23312249887772,
          -37.31864541345699,
          -127.05094799669499,
          46.82562474181324,
          -113.02110532232194,
          -178.36331263174168,
          -142.77559071283548,
          -131.25464197915963,
          -5.807607746984665,
          -345.3368051994591,
          -202.74745835724687,
          -207.2913831752182,
          -95.14776729309877,
          -158.44520478845942,
          -5.514720435220575,
          8.821203841478539,
          -31.42274295236833,
          -123.70442561094761,
          -34.79857155012501,
          37.76768606036762,
          -59.830641518204835,
          -35.051436283206016,
          -168.83773925684966,
          33.475103269312214,
          -56.27603886052468,
          -112.6355756719816,
          -38.353361594652014,
          31.047239352423443,
          -14.31350345822488,
          -200.7808448638685,
          -61.21771930470301,
          -154.23408016092353,
          -180.85012783208163,
          -56.29855189610954,
          -55.773015448946936,
          -55.01714202484219,
          -66.23012703459271,
          -97.3296118086712,
          -171.25892257566565,
          -96.6751559866751,
          -7.118874497701866,
          13.941563817811321,
          -226.34883521460003,
          -93.7642217932385,
          -99.7732827153378,
          36.62971070678453,
          -167.36154638866043,
          -89.54975486375629,
          -171.65131173680638,
          6.8520590539852115,
          -32.701209231734644,
          -63.316425688868655,
          157.39157380822434,
          -100.05267647938537,
          -114.8274117134444,
          195.62953443686547,
          -112.90930639921864,
          184.0124429609038,
          -442.8430104599672,
          -114.1707974484157,
          163.48634430077462,
          -101.40300171744408,
          -409.1623027849513,
          233.82676876139703,
          224.69477690549652,
          -362.83946573742855,
          -433.3974319259922,
          -677.0800537652626,
          -110.63813278720988,
          208.47952869532986,
          -111.4602440569407,
          -119.94612493188755,
          205.74133267064707,
          222.59308874907006,
          -108.29192335038032,
          -435.0986310423793,
          -127.05959986233925,
          -92.76823909499544,
          -423.8658077875776,
          -138.3459956127624,
          -122.74765849891227,
          -109.13060730290998,
          -419.2812392077413,
          212.92250214106286,
          -117.11861172354344,
          -98.37749979631315,
          198.68683511021467,
          233.66934375091864,
          -431.6547220613953,
          215.31590930462238,
          -131.2269190573238,
          -323.31806682672413,
          220.1471188041219,
          -108.30398386977792,
          202.5907477769156,
          210.19576702255856,
          -351.67082688958703,
          -123.21209270604376,
          -419.853000376829,
          184.49859338776386,
          -430.96275459623905,
          -122.26773193522293,
          -124.64291616967033,
          184.24438709628993,
          224.36174362244134,
          -103.35430750930502,
          -102.64836942786403,
          -326.43815986541495,
          -348.3239004492858,
          -54.301033734537945,
          -30.568148841573628,
          20.00772703191846,
          -145.9642934553693,
          -120.80546910699611,
          -78.18552939506532,
          -2.0976959460443205,
          -176.7878892089928,
          -33.02825300889632,
          -98.71421269576868,
          -247.76399162918702,
          -96.4624408842064,
          -71.87833719203736,
          85.10426669919396,
          -154.23294647523846,
          -94.79835493478191,
          -43.02551482083449,
          81.16046949515128,
          -238.97751900434298,
          -314.63802552913603,
          -212.38533489205034,
          -22.463519175980412,
          12.776245511028728,
          52.877921106829284,
          -202.29953313971956,
          -89.22196159794395,
          124.8703687644192,
          -29.557498771984573,
          12.819565949794844,
          -91.71555354746712,
          189.284497444186,
          -232.7940909983201,
          25.360282060552013,
          -104.79872573653772,
          -115.80308851185926,
          -110.52012763913804,
          -200.92733359245648,
          -56.10714349845574,
          -11.56902957850493,
          -101.03834083741157,
          63.27089171860238,
          -96.04347570655835,
          -140.40589813084065,
          32.66969753792866,
          2.4520766744672327,
          -91.42424506846912,
          -271.0572153121219,
          -57.65367967762194,
          -140.62634695331212,
          -163.2195385210089,
          -131.06032737895012,
          -24.140277635962228,
          25.408627701030138,
          72.81392875729877,
          -41.770464286297184,
          -129.73346048052247,
          -82.79315233715407,
          33.290370247894806,
          -172.332582084412,
          -5.45087564909305,
          126.46029378090037,
          88.15094642783363,
          -495.81877140074926,
          -42.17762666475234,
          -286.13054850391535,
          -27.272933867522852,
          210.25987843499016,
          -42.80718192667927,
          -58.940701645661434,
          182.91263879963586,
          -310.1661992041427,
          -129.164273964818,
          -117.22772687509612,
          -120.06018954213936,
          -347.06214932931823,
          -112.06331255273274,
          -50.39916814367315,
          96.55560909395187,
          -331.1965921286361,
          143.12582103974196,
          67.60843044038525,
          212.5139712191175,
          -106.4511777524159,
          73.99423607624892,
          178.8076087262946,
          123.30348038860619,
          84.37797657798033,
          -152.00491239253031,
          -105.8945016485981,
          -96.76316268689722,
          28.493645324117054,
          235.9345976381935,
          -114.68849608682517,
          -145.47436765722028,
          -366.1414565843816,
          -156.1607227217227,
          -134.21533745813906,
          -345.2282373846562,
          -37.90110920213971,
          165.2055876572311,
          109.49516986922856,
          -124.72443184224024,
          226.08796439627298,
          3.746931043336403,
          -76.9724818866002,
          -120.79058645669427,
          -360.99464220426927,
          -0.24016240941333455,
          -104.05064129552426,
          -432.59369322535184,
          -103.72777284179557,
          187.86372324322048,
          -122.38544422250662,
          199.517190531515,
          -104.57273168958496,
          -108.1729056236436,
          -296.4945513457399,
          -99.06748731089954,
          -115.26076598794333,
          -80.1045618971259,
          -359.38993921363226
        ],
        [
          -508.40785828546433,
          -618.4826490673978,
          -265.14027034929234,
          -20.857009462123486,
          -33.63838479318083,
          -353.1348522495752,
          -389.6372967883769,
          -384.22395409603996,
          -243.66418739096986,
          175.18597596080693,
          -241.72801959878703,
          -18.05686832026799,
          -454.14105344262305,
          -437.3154167940213,
          -135.67851387718684,
          230.75617466141566,
          -114.48065585684144,
          -102.40125896710734,
          -430.7737361168373,
          -656.9595263198839,
          195.83641003562335,
          -98.15776889393668,
          -113.05295265892534,
          -103.64397676345345,
          225.14554238097776,
          -104.78835431063716,
          225.11263788868203,
          210.74249715101993,
          191.32195071950602,
          -113.98638753153668,
          -90.25179731783084,
          -110.36251434785486,
          -430.47194777039806,
          197.27236519137693,
          -441.7705431251889,
          -550.4914897537658,
          210.80017065433844,
          -101.82889085543832,
          -85.55163401307445,
          -129.18930178815478,
          -349.82878589086766,
          197.6029032385121,
          -85.91679385184754,
          -117.36728489941405,
          -123.40495453660422,
          206.25621558161018,
          -116.20707555976338,
          199.5007000531352,
          -102.9105070124391,
          -99.0352442002162,
          -130.67779269520042,
          211.38685381469668,
          -339.0555775598594,
          -124.24544837755806,
          208.86473690323552,
          -106.36109617206861,
          -104.7482964303953,
          177.08065533499925,
          218.02306318239826,
          -131.93557543527805,
          -120.82381121095847,
          -432.4304719790389,
          -432.5018199136364,
          -115.23717657923814,
          -98.24868631086036,
          -111.47689318768569,
          -100.35441268882074,
          187.48375184194643,
          -354.1025989952853,
          204.6875604539302,
          -95.88926233434564,
          227.52284203017334,
          -359.46188940751114,
          223.15379647229253,
          -112.9600582133154,
          -135.6375703744416,
          9.482928011747443,
          4.727613595657542,
          -24.18702307820424,
          -244.2392529774153,
          -114.95375484037702,
          -389.80664089973214,
          -110.16302548498587,
          -346.3880056081719,
          218.3908835436088,
          -155.82174380114154,
          174.98467548503328,
          200.50028869925012,
          211.38484830196157,
          -113.44602164164168,
          -409.20710641613783,
          -120.69321256663703,
          -115.52310463773162,
          -136.36703002010807,
          217.63883602884897,
          -120.94311272949999,
          -89.75894624030616,
          -428.57967085597903,
          215.58497951024074,
          -105.73632468238667,
          210.95497211576836,
          -121.81554142521945,
          -119.81563433346315,
          -128.4020992274986,
          -121.13602897915848,
          -125.21284128541343,
          -105.73898802253926,
          -130.75077156086007,
          -134.60266453679193,
          -421.16623530043205,
          196.3325959686056,
          192.64218494178016,
          198.3515244309225,
          -145.47762509673487,
          -106.38180659420621,
          -106.99711894252971,
          -433.6411270919859,
          -110.21186675459899,
          -108.92582981295091,
          207.67942487780084,
          -102.38501454725282,
          -150.92868139087173,
          -345.2681319907797,
          -472.00517270604905,
          204.9513596786052,
          212.4294114337497,
          -80.10831544881671,
          -413.0958724525777,
          -125.04890102394928,
          -99.40612192664234,
          -109.58536918243107,
          -424.97618842528,
          224.40835686950342,
          -127.9520791716538,
          -138.76750522562233,
          205.53692311183366,
          -432.6067182662817,
          194.89024074843087,
          -97.9523521248899,
          -114.34832596318839,
          196.42169788404354,
          -409.17898356919204,
          -335.304172769455,
          -413.39981788377764,
          -110.81745931118228,
          226.60171960120314,
          -115.61099973615724,
          230.1114509477458,
          190.80698965323663,
          -101.33327981696851,
          223.0298622678516,
          -124.89938436903424,
          -165.46544638920219,
          -171.89409222475697,
          -190.4663990945637,
          -12.430419012503009,
          -231.42322306976877,
          -107.149992296681,
          -164.1419431981348,
          28.674963886112188,
          -168.42789983914957,
          -152.37618061537103,
          -318.2250878085612,
          -200.5551434755974,
          -212.9700893229387,
          -237.69801552626086,
          -122.81711235832726,
          -175.14091071132248,
          -222.35902562468706,
          -60.92328504467916,
          -181.88829570521133,
          -206.12288488793277,
          -262.76477267939504,
          58.58908819244248,
          -310.2645237305526,
          -404.4995025406009,
          188.85635148051418,
          151.0455544634001,
          -148.8823864786547,
          -146.9696926884007,
          -419.29300453069465,
          -127.51069132845879,
          168.52233924546582,
          -384.54373811281454,
          -375.3984570422259,
          -447.21594642008307,
          -434.3223419199497,
          -354.2078023926364,
          -142.03550121618696,
          148.8549813969648,
          -435.3582275221906,
          212.5995818772815,
          -435.56637197141833,
          -118.36892605662743,
          -118.56166208745897,
          -118.06106072873638,
          -116.18964437938642,
          -147.20708753584586,
          193.65844156450797,
          222.61379334525733,
          -348.6884651050735,
          -100.27628501252188,
          -441.3079339901904,
          -351.2338202483045,
          -114.00499000961308,
          -101.87164741935084,
          -131.6564267826713,
          211.61652139658682,
          190.53152187116152,
          -111.04701235578092,
          192.08179784566678,
          -409.4370626923393,
          -121.81640345403298,
          202.6606156088351,
          168.86498554678536,
          -123.70145154117904,
          -410.251127525721,
          -139.84280802198575,
          -103.28541377643036,
          -93.59810667582543,
          -113.31606791698403,
          236.81826654263656,
          -99.9377767818126,
          202.4812496000943,
          219.2246365086995,
          -114.96644178202868,
          -135.5005024305105,
          -341.52343836993674,
          -137.78373698339072,
          -88.24234022234741,
          -112.72411469115846,
          -93.89669390091369,
          204.5170554642003,
          -374.63100836484693,
          228.60398177291728,
          -116.07889703364248,
          -120.98330166891338,
          -134.85919254538683,
          -368.5165109697313,
          -106.99941367592957,
          -110.69316001876513,
          226.2831928871874,
          -84.7462218981117,
          -431.52462271549,
          -93.3545060455741,
          181.8704232083915,
          -431.91366279594433,
          197.15728813834014,
          -102.7529950158587,
          -113.05449780657158,
          -89.98389141805914,
          209.60741023319193,
          235.4077097281786,
          -134.11816312910855,
          219.5153069604204,
          -108.04022805970769,
          -108.254560068219,
          -409.80975606527295,
          -357.2671503758329,
          -318.85030177761223,
          208.39275419874122,
          206.18469521774125,
          203.23064276286345,
          -340.2206808096677,
          -124.21644119343424,
          -120.23747534443416,
          202.55361092215145,
          -109.95250652566534,
          -119.60515770473026,
          204.88248485524272,
          -116.78301001678228,
          206.75734505630516,
          198.74445114457868,
          210.40030054594274,
          -98.96285321470206,
          -110.06776259097802,
          160.6975790697784,
          218.11907016916396,
          -318.6678445957326,
          220.45784808299365,
          208.68969850155082,
          -104.65608570471856,
          -104.8746507369753,
          192.17313087731074,
          171.0380848705512,
          229.66304118757762,
          203.0994306796586,
          -354.4451091496215,
          214.3038988130519,
          -106.03808946998855,
          -122.84586578764993,
          -145.8982231900684,
          -343.7564439301466,
          233.14049618497071,
          -433.9951925652513,
          228.07271031947886,
          188.4009961957019,
          -118.60070122327082,
          185.64827437944976,
          -119.92379641408888
        ],
        [
          -446.0992073823487,
          -370.1101816497393,
          -477.1685724458695,
          -503.17607585298657,
          -391.12026485782417,
          -438.31584208289144,
          -422.21392807073414,
          -406.7100334683338,
          -418.26803485478735,
          -524.9711495147423,
          -708.0127423729272,
          -735.6084115039209,
          -695.9056197836247,
          -559.6041602448538,
          -597.9034503546454,
          -666.2027929046137,
          -759.4023070337404,
          -766.201962383129,
          -648.0016466345359,
          -577.501431825481,
          -632.5012695095874,
          -576.9011286497724,
          -588.8009786881884,
          -669.1008392305503,
          -671.8407948878954,
          -469.1031756354857,
          -446.60372641306134,
          -418.5020445227759,
          -448.8014093495304,
          -444.1009362777123,
          -478.800787885602,
          -449.60075439041947,
          -401.3006196310515,
          -491.60055960380294,
          -448.700523146125,
          -547.5006485132404,
          -505.1004655970764,
          -397.70045020911226,
          -427.90042662760254,
          -450.0004036607138,
          -424.80043000553496,
          -408.4003723112162,
          -422.80035776395096,
          -456.5003440025825,
          -425.4003125042564,
          -447.9003000846786,
          -398.00027897610784,
          -386.8002878658882,
          -484.2002618915643,
          -448.0002525316037,
          -532.1002390930056,
          -395.90024015203886,
          -465.00020516312753,
          -408.6001833567007,
          -455.80018359194946,
          -466.5001659298964,
          -435.9001627196473,
          -425.2001582685096,
          -512.4001425505393,
          -430.4001382248289,
          -420.2001287714972,
          -439.2001284128059,
          -406.0001277161443,
          -418.4001340341634,
          -386.20011522347,
          -428.1001211466047,
          -387.0001150529894,
          -429.9001229783687,
          -415.70012074600845,
          -413.70011449152236,
          -413.10011282515313,
          -451.2001195378627,
          -418.4001146132915,
          -424.9001185173504,
          -440.20010581658687,
          -439.8001104695235,
          -441.5001139206078,
          -539.6000900340991,
          -416.3000969356859,
          -479.1001009399213,
          -443.5001081006209,
          -419.6000978647665,
          -396.70008271552905,
          -415.500077449431,
          -573.2610714775,
          -552.3031735887713,
          -418.95484005391444,
          -450.36840744150265,
          -115.42791569521056,
          -108.2020569483669,
          -109.03278976023566,
          -91.54764583365827,
          -425.7756220830536,
          -142.2632003260173,
          -111.80119881445671,
          -231.7261474131929,
          -89.41192922632628,
          -38.32349678369561,
          -57.35650908531252,
          -23.49901289161697,
          -111.22997367727885,
          -57.76492565002073,
          -431.070097883102,
          229.04928505577377,
          234.89313963936328,
          189.59140272305487,
          197.2641131234405,
          165.39797201613183,
          -97.18498569453062,
          -139.54113668076215,
          -438.3132491043296,
