{
  "config": {
    "altitude_km": 550.0,
    "n_satellites_visible": 10,
    "min_elevation_deg": 25.0,
    "carrier_freq_ghz": 1.67,
    "p_max_dbm": 40.0,
    "n_platoons": 5,
    "n_priorities": 3,
    "priority_weights": [
      4.5,
      2.5,
      0.5
    ],
    "tau_s": 1.0,
    "tau_ac": 0.02,
    "n_ac": 50,
    "n_safe": [
      5,
      10,
      50
    ],
    "epsilon": [
      0.01,
      0.05,
      0.2
    ],
    "p_bg": 0.42,
    "ho_delay_mean_ms": 225.0,
    "ho_delay_std_ms": 25.0,
    "ho_period_s": 15.0,
    "n_episodes": 300,
    "episode_slots": 200,
    "eval_episodes": 50,
    "n_seeds": 3,
    "update_interval": 4,
    "nn_safety_coeff": 0.35,
    "nn_safety_warmup_env_steps": 12000,
    "nn_safety_shield_urgency": 1.35,
    "nn_safety_shield_power_floor": 0.5,
    "w_power": 0.02,
    "w_handover": 0.3,
    "kappa1": 1.0,
    "kappa2": 0.5,
    "kappa3_m1": 2.0,
    "kappa3_m2": 1.0,
    "kappa1_m3": 0.5,
    "kappa4": 0.1,
    "kappa5": 0.3,
    "rmin_m1": 0.8,
    "rmin_m2": 0.5,
    "sinr_noise_floor": 0.05,
    "interference_coupling": 0.6,
    "t_pre_s": 3.0,
    "output_dir": "outputs",
    "output_run_id": "run_20260417_130245_episode_slots_200"
  },
  "convergence": {
    "SafeScale-MATD3": {
      "rewards": [
        [
          -577.4688128701581,
          -596.53005699622,
          -689.8407690175187,
          -694.4970103024853,
          -626.461028223078,
          -639.8263270726908,
          -19.270458208917482,
          -242.40102306610424,
          -248.32179387358087,
          -220.98020041650935,
          -539.2300453189783,
          -584.7920486512077,
          -594.8189577685192,
          -630.5526108513595,
          -650.9257074952892,
          -538.651534363445,
          -581.1704106439,
          -557.2773801205019,
          -546.6341955830867,
          -587.899727331607,
          -587.2859179127247,
          55.62398108434117,
          -509.2211893112966,
          -297.3687658760913,
          -609.8386777644598,
          -8.129196142709388,
          -338.344334938172,
          0.1292326646582973,
          -294.27482518903366,
          -622.7056632080485,
          -291.50303355725214,
          11.376173417409284,
          -547.2679058239366,
          12.525702244463893,
          3.6873408521361437,
          5.2396827711968434,
          10.5263703622464,
          12.566659570114545,
          -558.8907089612837,
          13.131770765417262,
          -316.45738487941,
          -537.1991102555514,
          -37.04648363702022,
          5.288400397415282,
          -354.01297084022553,
          -314.9107480296328,
          -6.409356779878182,
          -331.30731798860666,
          -253.82865794513762,
          -0.6051088243820111,
          17.737423892025895,
          -275.94949980040184,
          -338.3760033610736,
          -22.752039133555446,
          -369.13444814200716,
          -24.758874858615854,
          -354.06886321514685,
          -2.7470821362295395,
          -377.44149503997704,
          -303.6570044353377,
          20.689346364710428,
          -591.7118320641626,
          -23.225057713077288,
          -362.4454576072985,
          -329.20890242904363,
          29.1939718198147,
          -330.6832823606361,
          -7.052829141229643,
          33.47197496842036,
          -616.9175180363861,
          -654.6217698398386,
          -13.476311818872372,
          -320.3506825826815,
          -307.5560287302664,
          -332.73381111984116,
          -301.82321728043263,
          -304.5003826818235,
          -300.6878757149303,
          -302.70598312864513,
          -562.2925155586506,
          -0.5875715937734098,
          9.57054069036495,
          -312.55253110477673,
          -0.4235910610460747,
          -313.1402923221464,
          6.79256606785189,
          -568.3690967489164,
          -619.6294798386674,
          -647.0757885129822,
          -294.3919267554933,
          -635.5396425800188,
          -11.25023967488356,
          -353.0437841479003,
          -351.65920399065936,
          -338.28943860735114,
          -536.060343375646,
          -309.1684265165231,
          -639.9854330724562,
          -302.5909551764077,
          -612.9842728280008,
          -603.8163228104073,
          -317.75955012267724,
          -336.70065158778107,
          -11.148144833473625,
          -334.38034750064327,
          -619.661914930098,
          -44.166947840598795,
          -536.862267093218,
          -649.0708415914554,
          27.818542332032887,
          -243.98594757683858,
          -339.104359008572,
          -320.5923664925092,
          -315.43031109911306,
          -11.75939101207519,
          -301.0764954076423,
          -327.0094872599169,
          11.469023503641097,
          -327.1671651300141,
          -299.1999999546186,
          -634.4003026345407,
          29.986259186636868,
          -324.29897988761417,
          -313.4177179624876,
          -322.980395150692,
          -876.0521985622788,
          -297.1659996552522,
          -316.0980328870026,
          -10.547781860423868,
          -348.5883536796493,
          -560.8786829033653,
          -1.9908562441039424,
          -334.3746938942797,
          -312.4023758717789,
          -549.5548183177358,
          -554.1030841088319,
          -8.952300824610901,
          -358.6615618007513,
          -661.6711564645186,
          -760.4023451117027,
          -316.33299400956685,
          -31.608864259903463,
          -299.9050755085851,
          -299.8553241469069,
          -311.55500051571204,
          -41.176299609460386,
          -34.33223661591132,
          10.714585288208893,
          16.942931437725534,
          -575.7337954767182,
          -297.67724842608425,
          -322.99564214937226,
          -31.83753924697464,
          24.663953867836074,
          -324.9165274341323,
          -771.7358636154597,
          -1.8761709588709552,
          -350.66460336517775,
          -342.199482438707,
          -28.456801104497824,
          -45.03108180681518,
          -12.581553835533509,
          -572.4368794244236,
          -8.992464516003771,
          -346.83416668489053,
          -597.7915404383705,
          -315.8266221171669,
          -314.2189307696025,
          -939.9842807306607,
          -869.1314414894366,
          9.4258498415728,
          -552.4651771643423,
          -294.95297340879165,
          -307.07318692246577,
          -644.486696849519,
          20.814604405024916,
          -589.9030335785865,
          -590.7078534694347,
          -348.6963478621004,
          -286.3858443962559,
          -35.29293571520736,
          -315.2317467553637,
          -281.4777996848322,
          -269.49100254474695,
          -545.1626491906453,
          -24.179670544510703,
          5.283121886404854,
          -297.10425449672135,
          -304.3634880268292,
          -552.8623493771806,
          -308.0204037251311,
          -9.378781470454303,
          -346.69729612375033,
          -303.37084585572615,
          -549.492484763007,
          6.56303223920873,
          -364.42726988299376,
          -331.6216277862794,
          -292.1131130510037,
          -320.57533098229675,
          -591.248997497634,
          -17.71128080448505,
          -301.02580888851287,
          -344.1716321760029,
          -347.039787260284,
          19.359599179880153,
          -332.32469972041235,
          -291.31695031015335,
          -55.04427055978717,
          -313.45089024289314,
          -329.63797858656415,
          -288.5340518574393,
          -355.9849540925131,
          -340.08004128089647,
          -625.5334050607628,
          -340.58867134376567,
          -569.1064271094506,
          -313.65935051540964,
          4.139577761866468,
          -7.192714511859699,
          1.2354203622697826,
          -296.27361824362686,
          -3.2631394033415293,
          -18.96720324953978,
          -271.76041478947695,
          -370.7809731415919,
          -11.675386396832923,
          -640.8731716073427,
          -367.46134380087983,
          -299.54004493900396,
          -563.8760603648118,
          -290.38901008689305,
          -262.4014847407869,
          -633.4104099391285,
          -15.733633791030668,
          -306.4019138587998,
          -330.8056053094584,
          -554.5360613661973,
          -312.75544688330297,
          -317.0608033555699,
          -272.6822732668112,
          -324.5520063749398,
          -332.78078354680997,
          -1.3529385784052437,
          -318.6247543879943,
          -16.779038585844507,
          -292.7885792033697,
          -339.4061630441221,
          -650.2816706569954,
          -630.0138778039517,
          25.37291128166393,
          -8.58958141820887,
          -608.3987446893013,
          -330.63583407455104,
          -291.73439764790385,
          -325.95678915788585,
          -317.1111566874091,
          -340.06478342494535,
          -341.4463976721976,
          -368.81109267277407,
          -36.71945172107762,
          -19.705346352954304,
          -7.237228789525042,
          -5.600907713077901,
          -311.3441144892227,
          -303.259070683748,
          -296.0323319073156,
          -694.5328995765022,
          27.842613746729725,
          -350.95346838044185,
          -24.436433264625055,
          -301.9020016219539,
          -324.9700518933357,
          -298.86347838197463,
          8.329260094042393,
          -335.19623085341425,
          -635.0712905842316,
          -671.9720652420333,
          -666.2726054844181,
          -564.8983903828014,
          -24.837793107441215,
          -312.06109890976626,
          -619.827173816961,
          -32.67933267962081,
          1.9187489210613484,
          -285.4892092251503,
          -310.0783537223262,
          -335.28211830735955,
          -319.3448600012288,
          -41.12490832046557,
          -657.5495902562011,
          -29.89376357886793,
          -318.09836783369246,
          34.62142234434723,
          -672.1459564166477,
          -323.72852990836367,
          19.966195465584665,
          -24.54937621150316,
          -268.220472152878,
          -632.4434908424073
        ],
        [
          -555.1523497869831,
          -592.624178156282,
          -655.2941211823713,
          -801.6277683024791,
          -900.6455374148873,
          -866.5552215675757,
          -825.4227086289959,
          -724.5225353352527,
          -753.1189231627193,
          -858.7106303428084,
          -795.4075722698058,
          -796.4060758812443,
          -761.9046634823721,
          -571.0124179598772,
          -628.6208412663298,
          -609.974404952134,
          -569.313002786715,
          -581.0241304633681,
          218.22426641063234,
          -162.067273980003,
          -138.4872152885762,
          252.2339796572459,
          251.1227286343887,
          259.65414291827386,
          -172.43683467271558,
          -175.250255025304,
          -175.22717462538316,
          -279.830746635181,
          254.78134174831928,
          -180.9664934891085,
          -629.220664250815,
          -160.73338430770733,
          -169.93165767450623,
          -162.41342247106402,
          256.8189220772762,
          197.44078914835427,
          -475.076892772009,
          -142.7596911042944,
          214.6767403146548,
          275.20939571050843,
          -190.001278273783,
          278.7517017777848,
          -158.04439720394677,
          -145.57826686204083,
          -151.3828419564839,
          -148.14066026318613,
          283.69912832009095,
          -146.47221695751574,
          275.0204227620469,
          -138.95237835158335,
          -437.43772638454465,
          269.58763742942216,
          286.1020648333292,
          255.62267360773052,
          260.241409987978,
          -428.5258502675711,
          -598.1597942244396,
          -141.62998107506874,
          293.5714212920236,
          -470.2272261316871,
          -477.4320949589537,
          245.4365890875793,
          -602.7903709881059,
          -173.71261638400696,
          -600.8861805316396,
          242.02017085516258,
          -769.8110652638842,
          -574.0359210842275,
          278.4460854625511,
          255.22906569812565,
          -166.89730043371443,
          -138.1055718267456,
          288.94049939175653,
          -156.09117916504883,
          -574.9506917313767,
          -594.855338039486,
          295.30702384836457,
          274.8376870339993,
          235.52539333285375,
          281.6092613176746,
          303.30935173440673,
          -149.6696471467975,
          -143.7564137466555,
          -464.56047986990535,
          300.79350364015903,
          -143.28364313273067,
          -179.7457790347995,
          -145.13060993264966,
          -147.11796640270265,
          -167.7890763307242,
          -174.85040326997478,
          -160.59968223869276,
          -142.98429132206059,
          238.88061621968777,
          -135.91312894854337,
          -153.52439504059748,
          -161.34980579229847,
          -156.37830914053663,
          -568.5730947433098,
          276.86001124901634,
          291.44240535280085,
          -152.49200189379607,
          -160.06109393412382,
          293.19112755943314,
          266.7955500971669,
          -150.68194845173574,
          -141.3479765938105,
          -150.18867503165015,
          -177.24670196145175,
          284.8261831700083,
          260.13142372079636,
          262.30588085615886,
          -580.0137245196352,
          -152.2589854840476,
          -155.0395800368263,
          -156.12360259126638,
          -211.7950312429258,
          -179.6312742416485,
          -164.57920487856418,
          -143.9698551310336,
          -144.03289401381852,
          277.6568693306941,
          259.5825941256202,
          282.1113014468547,
          -157.68521386413482,
          257.0715144147184,
          -554.1049843493607,
          -163.40145940364584,
          -151.18698854205235,
          257.5022791584669,
          291.95389988012664,
          261.8106726526861,
          -567.5952377961803,
          -596.1590942598409,
          -896.4629004382925,
          280.8608356173267,
          -544.1255442039698,
          -154.8143739470804,
          261.1572263105652,
          -593.5825455455823,
          -438.53814585430786,
          273.41301181667563,
          -152.79243445433906,
          -601.1708058010507,
          297.1644951910419,
          -578.0613840294978,
          -158.6301345273182,
          -134.31955914031337,
          -563.8874488064683,
          -172.57880085370607,
          267.06275492784954,
          261.94411337919524,
          -156.34298836221083,
          -162.78688661555853,
          288.9009989129426,
          -159.40016554007917,
          -584.2389290431256,
          -168.52736961229917,
          -141.90646821941175,
          281.59850514598094,
          271.16885444744406,
          265.64799053891676,
          -123.98974720964624,
          -467.2312225636495,
          -145.40161771045686,
          275.9360589249288,
          -143.03499831352312,
          -746.6770897981821,
          -571.7810714622196,
          -126.23218978778893,
          -483.0597752885602,
          -466.15811288637906,
          -467.79609664117294,
          -156.02720863077448,
          -197.00635962007763,
          -596.2137278745607,
          270.29770469468554,
          -143.73689842238062,
          -178.22871119807814,
          281.2056148490308,
          -160.34472454568777,
          234.3087714907355,
          -125.41508433869134,
          -150.4499678354098,
          -142.42209537284407,
          -130.60049221433766,
          -132.4597322529159,
          -167.7442089551014,
          -442.57593038126043,
          262.0551863792767,
          -443.1131679418269,
          -168.2195306166061,
          -148.44371457159195,
          281.4300503145973,
          -135.48179800736256,
          -181.54036335961888,
          265.9046678370441,
          259.2455539417306,
          277.0820602356214,
          266.72102323490117,
          283.99375653209074,
          -137.30027337042372,
          281.3181862398619,
          -158.08334321515363,
          -169.07023970436657,
          -150.29111120045894,
          -148.057633977382,
          -154.10540480860965,
          259.5248681828971,
          -162.0439733634878,
          -200.41080090798707,
          -161.01655476841012,
          246.993303263003,
          -178.03210738757898,
          257.8752347996522,
          -573.1435027116548,
          294.31165171718663,
          290.3630357702751,
          273.1943317204098,
          -468.40727347114796,
          -576.8929741242301,
          279.9065085819416,
          269.49525448984986,
          -187.3454615231709,
          -139.34845262225403,
          244.3100773452058,
          -168.34629566964915,
          -169.61798176818698,
          245.9773731715456,
          -886.6893674810915,
          -458.54055473704005,
          245.52734099239143,
          285.13268126389266,
          -168.62991221073855,
          272.79103374345186,
          301.2859802919621,
          -611.4556137754171,
          -566.4818369611668,
          -170.85835397377647,
          270.1137010110045,
          -447.8758538688799,
          -136.91873190140794,
          -166.53978793100265,
          -172.1349206955235,
          -477.9750403525757,
          -207.6305122510044,
          281.11636326046465,
          -137.62038537267225,
          289.0275622713941,
          277.92788678263446,
          -137.34676606440362,
          -133.7415522096476,
          289.6831042682194,
          -139.17516971378296,
          272.3086194917736,
          -135.668505425603,
          278.218383336067,
          -206.1699102704031,
          -577.2642076111376,
          -154.93708639731253,
          -153.08169017144576,
          270.961002225988,
          -564.1236778462309,
          269.25848407291744,
          272.5375444598668,
          -145.59291049821604,
          233.9787710420595,
          -148.3835861469776,
          -146.15654103438624,
          262.4087922071934,
          -157.47506595235666,
          -141.37292942031013,
          -154.69003584819453,
          -178.21603995225962,
          272.9486880170445,
          -152.87441804273027,
          271.7383719121164,
          -153.0144157142553,
          288.1480651227015,
          -134.62718917055068,
          -146.58947233022212,
          -114.79383695670525,
          -164.29088915540603,
          -173.46851494881037,
          -136.52667709733436,
          -581.3278952666087,
          -456.90636816087056,
          -146.77472332398122,
          -143.45244447130398,
          -136.44915880145172,
          -576.5587646142453,
          -142.07465305865108,
          -148.36758783119993,
          -167.2859477837589,
          263.3984349779647,
          -193.9073023397461,
          -142.59515206988615,
          -155.04387537318524,
          -184.7119683314927,
          244.3032299001215
        ],
        [
          -576.0781462071167,
          -774.5232386946628,
          -852.7388774068144,
          -910.9133430835662,
          -804.9160337573493,
          -770.2067374454988,
          -751.1326078723773,
          -803.7241775338528,
          -688.1490517598552,
          -584.5357975666242,
          -668.3366050026592,
          -615.1323798808984,
          -583.2090604998873,
          -669.0253185167185,
          -760.8632247928306,
          -745.305053503059,
          -825.9058180191198,
          -871.1148330210729,
          -768.4119857422648,
          -749.5741943987268,
          -523.2482291395935,
          -262.95266462274014,
          47.404404780192614,
          275.88732885358803,
          -163.4927293089556,
          79.65386197270456,
          -245.17143164307976,
          -217.46962847889563,
          72.54478115272192,
          -293.93083972548334,
          -235.58528936840057,
          190.4296745594927,
          244.99141462087192,
          212.5836023978596,
          -583.2039511524777,
          220.781083301595,
          -158.2538683423165,
          -176.2506759004452,
          -499.1795726654178,
          -497.99363995276866,
          -154.20786832707824,
          -563.7311049061352,
          -223.5539366581106,
          151.8594318721843,
          -152.95928681130513,
          -755.1707079533186,
          142.55306151187125,
          287.72671199119713,
          -596.2551419005617,
          260.42018863624213,
          122.8571160508624,
          -229.0349477816022,
          -278.11524533133945,
          -604.3824262033777,
          -186.05550811306435,
          257.09575918759555,
          -146.17979319570966,
          200.43634985464024,
          -147.4907529457314,
          -567.9859336975576,
          -582.2975933644591,
          264.7314374724091,
          -217.11429828183174,
          192.2283753112585,
          -177.58150051673516,
          117.50239232846815,
          -186.57776460917586,
          -171.56686841026803,
          -455.53335285063804,
          295.5943376191739,
          -524.122531552781,
          -158.3120087541333,
          -252.5744748367005,
          -428.0639654981218,
          -589.2427032762007,
          274.46533107488386,
          -191.14745310101662,
          -185.76266856611824,
          185.99917629168255,
          -607.1251499848516,
          -569.1143803803811,
          -150.52160496774135,
          -163.57511836720226,
          -246.31818364581707,
          -210.50305605740692,
          -471.55565201475815,
          -207.8185007235972,
          -572.961753184314,
          -153.49249382118225,
          -144.04186971220614,
          -183.07569129400432,
          259.22460483987817,
          258.2182748934127,
          248.785616953949,
          -488.74974818302724,
          -561.9833708817766,
          163.63550442937557,
          -580.7299235851722,
          -160.02959895803008,
          -216.96989583332717,
          242.75255591188716,
          -169.2906726127825,
          -185.32130686639533,
          146.45962472174017,
          -161.08030942372994,
          -446.28189503647934,
          -169.7805333277306,
          273.0281765415334,
          -158.97896021150427,
          -157.10688954583532,
          -152.07988142065557,
          -193.47276658309204,
          -153.28947217142917,
          -160.08865140584146,
          -176.9140658583474,
          -177.79766299374145,
          -168.91419277120897,
          -151.99379255209936,
          -591.1443385957238,
          -152.27539825104665,
          -150.88425556546264,
          251.87025297574695,
          269.0083041521173,
          -149.0198975652121,
          -175.55286896022355,
          -162.67213192614406,
          -153.14250714860069,
          -607.2122470956105,
          -252.69128429000588,
          -130.27218511504222,
          267.21353886683613,
          -129.60194037656356,
          245.74264205372387,
          -861.5791398007551,
          286.9159490988997,
          -135.90604850923322,
          172.81887702799222,
          -134.46140612521964,
          231.57745529985195,
          -149.96359078812026,
          -605.0184323467547,
          -154.31637706293554,
          -142.76040883761664,
          253.33084499458818,
          -560.2988952251201,
          261.60824724432655,
          -149.6692540069176,
          189.72469183638773,
          -194.93452374760346,
          -573.7143953120726,
          282.3781151540508,
          256.66728264336007,
          -246.60251660787472,
          -116.38329318497134,
          -157.27943046080813,
          254.00708287232987,
          -193.9461872035719,
          -166.33474856276328,
          -458.8840752951189,
          -148.35421505666963,
          -175.88572202511813,
          -132.0027831605448,
          -462.8610494099789,
          289.9219801149354,
          -175.83272463067323,
          -205.55346813349465,
          262.5177122447071,
          -153.0818832653999,
          -887.1748801877511,
          -488.3424692802279,
          -187.10756375632255,
          -164.81099960032503,
          -596.9983932482683,
          253.7959124949226,
          -481.71114001248384,
          -750.7622215899047,
          -467.00596174757516,
          267.4489352049485,
          -615.5376252771867,
          227.69765884552586,
          243.82696150432315,
          -131.1695373127605,
          -481.58827969930223,
          -148.4139965730144,
          -232.03354594894736,
          -246.16619682796966,
          -158.21075466585302,
          -168.4809227609591,
          -176.55351180495862,
          -195.27806278623606,
          -190.75531165441842,
          -580.2959489512772,
          -197.940705329223,
          294.9982108821091,
          -147.71722719076337,
          -231.3363248905234,
          -485.042431427037,
          219.32200106273478,
          -230.0242704574643,
          -154.4594306636988,
          -183.85670936377417,
          -150.28381273194287,
          274.8263681901945,
          -585.2676065227622,
          -198.81531242437836,
          -457.6965070640046,
          237.55250664847003,
          233.49065936480258,
          287.42796490682133,
          -194.03834893435337,
          -566.4895672253806,
          260.10973373475474,
          193.08905565050108,
          255.7349675886234,
          278.248076443816,
          126.77624739979542,
          -239.92674587709053,
          -177.29849884828374,
          -463.2068225747161,
          167.8975711953291,
          -192.5358051158513,
          -600.4509062321179,
          146.8058948165138,
          -159.40841549111695,
          -167.55149786832004,
          -599.2453357298789,
          251.93995999106818,
          -601.1209858629875,
          69.70239658054884,
          230.2253781251865,
          -191.42111383392952,
          -440.9975625370248,
          177.5066884581331,
          -192.1653982634136,
          -266.10724549923646,
          -243.9475844532063,
          -225.7744334796175,
          -222.4292875520145,
          -222.7760268087767,
          189.3532160031556,
          -500.1712778149908,
          -218.49244041007148,
          -216.4651954106738,
          -215.68934479355295,
          -594.9832543337171,
          195.65988998685816,
          -201.95337648099851,
          -230.14074560648893,
          -190.02655325505856,
          -145.65710681541225,
          -202.88879572714524,
          244.86043141950523,
          93.4917562416154,
          -507.9718044827722,
          -521.9582085469449,
          -170.17377756990965,
          -245.29562531376413,
          -63.81559412134196,
          -64.07521271780082,
          -35.035944581887144,
          102.5975040023099,
          -440.36987010283684,
          -320.56289857713267,
          -82.76016694135176,
          -277.7002797773021,
          -58.32917293798208,
          -296.2164867213266,
          -45.45163532950458,
          91.18337303591598,
          -451.57239327466715,
          39.976702537509105,
          -276.51963071337735,
          71.14105343951519,
          -245.17402993732892,
          63.18226346564189,
          -511.1276238304133,
          43.84809375491173,
          -290.59560369670896,
          -245.4062529274434,
          -344.54824533440757,
          20.82930757633311,
          -424.1614803734388,
          -257.97031609517705,
          81.91671775781819,
          -263.24031964588977,
          -131.97299826657542,
          -421.26327665946866,
          -265.7188422626686,
          -149.56624248530477,
          -351.37244842927635,
          -325.1327307116076,
          97.90308056513264,
          -203.660096669723,
          -159.41765707534654,
          -285.7357895943482,
          -134.15468112098756,
          -222.7964749385849,
          219.69750043490097,
          -83.21651192023106,
          -168.51324586822426
        ]
      ],
      "aoi": [
        [
          2.1703333333333332,
          2.1483333333333343,
          2.243666666666666,
          2.2186666666666666,
          2.209333333333333,
          2.240999999999999,
          2.0450000000000013,
          2.0090000000000012,
          2.0053333333333323,
          2.005,
          2.2189999999999994,
          2.1796666666666673,
          2.2513333333333336,
          2.236999999999999,
          2.2916666666666656,
          2.1923333333333344,
          2.2376666666666667,
          2.210666666666666,
          2.2173333333333334,
          2.2649999999999997,
          2.2703333333333324,
          2.0756666666666663,
          2.0356666666666667,
          2.0530000000000004,
          2.1113333333333335,
          2.051333333333335,
          2.0636666666666663,
          2.1106666666666674,
          2.0736666666666657,
          2.0390000000000006,
          2.074,
          2.0696666666666674,
          2.0383333333333353,
          2.0760000000000005,
          2.0753333333333344,
          2.0809999999999995,
          2.0953333333333317,
          2.0503333333333345,
          2.072,
          2.089333333333334,
          2.067666666666666,
          2.072666666666669,
          2.099999999999999,
          2.0823333333333336,
          2.144333333333333,
          2.086333333333332,
          2.1000000000000005,
          2.083666666666668,
          2.081666666666669,
          2.0910000000000015,
          2.0853333333333337,
          2.0433333333333326,
          2.110333333333333,
          2.1196666666666664,
          2.1649999999999996,
          2.101333333333334,
          2.084000000000001,
          2.091666666666666,
          2.154000000000001,
          2.0496666666666674,
          2.042000000000001,
          2.103333333333333,
          2.047,
          2.1003333333333325,
          2.122999999999999,
          2.0743333333333327,
          2.115999999999999,
          2.0876666666666672,
          2.0606666666666675,
          2.058666666666667,
          2.107333333333334,
          2.0983333333333327,
          2.0686666666666667,
          2.0620000000000003,
          2.1323333333333334,
          2.046333333333333,
          2.0886666666666662,
          2.0813333333333333,
          2.0443333333333333,
          2.1050000000000004,
          2.0953333333333317,
          2.0796666666666668,
          2.085333333333334,
          2.100333333333332,
          2.043666666666667,
          2.0613333333333337,
          2.1153333333333335,
          2.049333333333335,
          2.068666666666667,
          2.0983333333333336,
          2.067333333333335,
          2.115,
          2.1373333333333346,
          2.073333333333334,
          2.1483333333333348,
          2.0486666666666675,
          2.0813333333333333,
          2.0956666666666663,
          2.0726666666666667,
          2.077333333333333,
          2.049666666666668,
          2.087333333333333,
          2.132333333333333,
          2.1266666666666665,
          2.0986666666666682,
          2.0909999999999997,
          2.1156666666666673,
          2.0530000000000013,
          2.079666666666667,
          2.0636666666666663,
          2.0273333333333357,
          2.133333333333333,
          2.1263333333333345,
          2.055,
          2.1136666666666666,
          2.069000000000001,
          2.1076666666666664,
          2.101666666666667,
          2.0893333333333333,
          2.0583333333333336,
          2.071666666666668,
          2.0700000000000016,
          2.0710000000000006,
          2.0859999999999994,
          2.129333333333335,
          2.038333333333333,
          2.1283333333333343,
          2.0779999999999994,
          2.088000000000001,
          2.1173333333333333,
          2.084666666666667,
          2.1043333333333347,
          2.1113333333333335,
          2.0803333333333334,
          2.0733333333333333,
          2.117666666666666,
          2.087666666666668,
          2.1350000000000002,
          2.117,
          2.0326666666666666,
          2.059999999999999,
          2.1453333333333338,
          2.0456666666666674,
          2.048333333333335,
          2.0663333333333336,
          2.085666666666668,
          2.1476666666666664,
          2.0426666666666664,
          2.0806666666666684,
          2.1020000000000003,
          2.0786666666666678,
          2.0680000000000014,
          2.1290000000000004,
          2.057000000000001,
          2.0673333333333357,
          2.099666666666667,
          2.0850000000000004,
          2.143666666666667,
          2.1463333333333336,
          2.121666666666668,
          2.110333333333333,
          2.0626666666666678,
          2.054333333333335,
          2.0793333333333335,
          2.1536666666666666,
          2.089000000000001,
          2.124333333333333,
          2.090666666666667,
          2.096666666666667,
          2.0563333333333342,
          2.0493333333333323,
          2.1006666666666676,
          2.0566666666666675,
          2.077666666666667,
          2.109,
          2.0556666666666663,
          2.098666666666668,
          2.1366666666666685,
          2.1176666666666675,
          2.068666666666668,
          2.109666666666668,
          2.0663333333333336,
          1.9999999999999993,
          2.060000000000001,
          2.094000000000001,
          2.1299999999999986,
          2.0753333333333335,
          2.050333333333333,
          2.047333333333334,
          2.069333333333334,
          2.0850000000000004,
          2.0976666666666666,
          2.1310000000000002,
          2.0670000000000015,
          2.068,
          2.0849999999999995,
          2.119666666666666,
          2.0886666666666676,
          2.059666666666667,
          2.1166666666666667,
          2.0583333333333336,
          2.1203333333333343,
          2.0833333333333344,
          2.131333333333335,
          2.0776666666666657,
          2.0813333333333346,
          2.13,
          2.033000000000001,
          2.102000000000001,
          2.093333333333335,
          2.1256666666666666,
          2.0516666666666676,
          2.0926666666666676,
          2.1226666666666674,
          2.066666666666668,
          2.077666666666666,
          2.110333333333335,
          2.1093333333333324,
          2.104333333333333,
          2.1063333333333336,
          2.062,
          2.0556666666666676,
          2.0740000000000007,
          2.114666666666668,
          2.065333333333334,
          2.163666666666666,
          2.1106666666666674,
          2.0849999999999995,
          2.0970000000000004,
          2.0763333333333343,
          2.0919999999999996,
          2.0773333333333364,
          2.0933333333333333,
          2.088333333333334,
          2.101666666666666,
          2.079,
          2.1296666666666666,
          2.0686666666666658,
          2.062000000000003,
          2.1136666666666675,
          2.0753333333333335,
          2.0896666666666666,
          2.102666666666667,
          2.105666666666666,
          2.092,
          2.1206666666666667,
          2.115,
          2.126333333333333,
          2.0896666666666652,
          2.063,
          2.064,
          2.083333333333333,
          2.074666666666667,
          2.099,
          2.074666666666667,
          2.128333333333334,
          2.080333333333332,
          2.1366666666666676,
          2.091999999999999,
          2.1140000000000003,
          2.1023333333333336,
          2.059666666666667,
          2.110333333333333,
          2.1066666666666674,
          2.0813333333333333,
          2.096999999999999,
          2.071666666666666,
          2.156,
          2.072,
          2.0613333333333337,
          2.0950000000000015,
          2.0720000000000005,
          2.0980000000000008,
          2.060000000000001,
          2.082000000000001,
          2.139333333333334,
          2.0850000000000013,
          2.097000000000001,
          2.1123333333333334,
          2.060999999999998,
          2.1390000000000002,
          2.104333333333333,
          2.0953333333333344,
          2.1140000000000003,
          2.1069999999999998,
          2.0340000000000003,
          2.059,
          2.109000000000001,
          2.0876666666666663,
          2.1273333333333344,
          2.155666666666668,
          2.082666666666667,
          2.0916666666666672,
          2.072666666666667,
          2.1169999999999995,
          2.100000000000001,
          2.041333333333333,
          2.1230000000000007,
          2.078000000000001,
          2.0789999999999993
        ],
        [
          2.174333333333332,
          2.2123333333333344,
          2.309,
          2.4129999999999994,
          2.385,
          2.414333333333333,
          2.4133333333333336,
          2.3173333333333326,
          2.36,
          2.338,
          2.364999999999998,
          2.2953333333333332,
          2.3276666666666674,
          2.275666666666667,
          2.2543333333333333,
          2.234,
          2.1910000000000007,
          2.2069999999999994,
          2.0286666666666657,
          2.014000000000001,
          1.9546666666666659,
          1.977666666666668,
          2.0120000000000005,
          1.996000000000002,
          2.0093333333333336,
          1.9856666666666678,
          2.0026666666666664,
          2.0813333333333346,
          2.0146666666666686,
          1.9853333333333338,
          2.0123333333333346,
          2.0000000000000004,
          1.980000000000001,
          1.9743333333333337,
          1.997,
          1.9659999999999993,
          1.9556666666666664,
          1.9653333333333343,
          2.0100000000000016,
          1.989000000000001,
          1.9993333333333327,
          1.957666666666667,
          2.0166666666666666,
          1.974666666666667,
          1.989666666666667,
          1.9683333333333335,
          1.9653333333333343,
          1.9796666666666674,
          1.9859999999999993,
          1.9343333333333346,
          1.9710000000000003,
          2.016333333333334,
          1.9630000000000012,
          2.0213333333333336,
          1.9880000000000013,
          1.9303333333333348,
          1.974666666666668,
          1.9733333333333336,
          1.950333333333334,
          1.9523333333333341,
          2.0166666666666666,
          2.0466666666666664,
          2.029000000000001,
          2.0116666666666667,
          2.034333333333333,
          2.0286666666666675,
          2.0056666666666683,
          2.010666666666666,
          1.9813333333333356,
          1.9880000000000004,
          2.0056666666666683,
          1.950000000000001,
          1.945,
          1.9973333333333332,
          1.9769999999999994,
          1.9996666666666676,
          1.9473333333333331,
          1.9796666666666665,
          1.9996666666666676,
          1.9643333333333346,
          1.9340000000000004,
          1.9849999999999992,
          1.963,
          1.9620000000000013,
          1.9366666666666663,
          1.9683333333333328,
          2.024,
          1.9750000000000016,
          1.967666666666666,
          2.0073333333333347,
          2.0503333333333336,
          2.0023333333333357,
          1.9610000000000007,
          2.043666666666668,
          1.968999999999999,
          2.0069999999999992,
          1.9760000000000002,
          1.9663333333333326,
          1.9503333333333341,
          1.9786666666666684,
          1.9466666666666685,
          1.9969999999999999,
          2.010333333333332,
          1.9350000000000005,
          2.005666666666668,
          2.006666666666667,
          1.9756666666666678,
          1.996000000000001,
          1.9990000000000003,
          1.9506666666666654,
          1.999,
          2.0149999999999992,
          1.9893333333333338,
          1.983000000000001,
          1.989,
          2.0026666666666677,
          1.9856666666666671,
          2.007666666666667,
          2.0260000000000016,
          1.9610000000000012,
          1.9860000000000015,
          1.957666666666667,
          1.9986666666666677,
          1.9786666666666677,
          2.0153333333333334,
          2.0026666666666673,
          1.9460000000000002,
          2.000999999999999,
          1.9880000000000009,
          2.0010000000000017,
          1.9386666666666668,
          1.9986666666666661,
          1.9623333333333348,
          1.9813333333333325,
          2.0229999999999997,
          1.9713333333333327,
          1.9373333333333336,
          1.9910000000000003,
          1.9829999999999999,
          2.032333333333334,
          1.967000000000001,
          1.987333333333335,
          1.986000000000002,
          2.033666666666667,
          1.9423333333333337,
          1.997666666666668,
          1.9826666666666681,
          1.9703333333333333,
          1.9813333333333356,
          1.9973333333333332,
          1.9870000000000005,
          1.9836666666666674,
          1.9903333333333335,
          2.023,
          1.9579999999999995,
          1.9836666666666676,
          1.9883333333333337,
          2.0210000000000004,
          1.9749999999999996,
          1.9690000000000019,
          1.9983333333333322,
          1.9606666666666663,
          1.9446666666666683,
          2.005000000000001,
          1.9499999999999995,
          1.9833333333333325,
          1.9743333333333337,
          1.9380000000000002,
          1.993333333333335,
          1.9483333333333337,
          2.041,
          1.972000000000001,
          1.9760000000000013,
          1.9970000000000006,
          2.000999999999999,
          2.0189999999999997,
          1.9533333333333343,
          1.9563333333333326,
          2.047999999999999,
          1.9666666666666668,
          2.0023333333333335,
          2.013666666666666,
          1.946666666666666,
          1.9726666666666677,
          1.9953333333333338,
          1.9546666666666674,
          1.9626666666666666,
          1.9950000000000008,
          1.9680000000000004,
          1.986333333333335,
          1.9800000000000002,
          1.9943333333333342,
          1.9816666666666674,
          1.956333333333334,
          1.9510000000000012,
          2.006333333333335,
          2.0056666666666687,
          1.9970000000000006,
          1.9833333333333352,
          2.025333333333334,
          1.967,
          1.9773333333333347,
          1.9726666666666666,
          1.9926666666666666,
          2.0253333333333328,
          1.9859999999999998,
          1.9820000000000007,
          1.9866666666666655,
          2.0026666666666677,
          1.9956666666666663,
          2.059,
          1.9943333333333337,
          2.0323333333333324,
          2.0556666666666663,
          2.027666666666667,
          1.9749999999999996,
          1.9610000000000007,
          1.963000000000001,
          1.9800000000000013,
          1.9696666666666658,
          1.9986666666666657,
          1.9716666666666673,
          1.9876666666666665,
          2.0353333333333343,
          1.9706666666666686,
          2.016666666666666,
          1.9956666666666691,
          1.9976666666666671,
          2.0323333333333347,
          1.935000000000001,
          1.966333333333335,
          1.9500000000000026,
          1.969666666666666,
          2.009666666666666,
          1.9753333333333327,
          1.9289999999999992,
          2.0516666666666676,
          1.9626666666666686,
          2.006333333333333,
          1.9916666666666674,
          1.9643333333333353,
          1.9463333333333335,
          2.010666666666666,
          2.0233333333333334,
          2.023666666666668,
          2.024333333333333,
          1.9680000000000026,
          1.9690000000000014,
          1.9426666666666663,
          1.9729999999999996,
          1.9563333333333344,
          1.9590000000000019,
          1.961666666666667,
          1.9596666666666667,
          1.9943333333333344,
          1.961666666666667,
          1.9726666666666686,
          2.028000000000002,
          1.9706666666666686,
          1.9936666666666667,
          1.9823333333333337,
          1.9843333333333353,
          1.956333333333335,
          1.9850000000000012,
          2.0000000000000004,
          1.9750000000000005,
          2.046666666666668,
          1.993333333333333,
          1.9540000000000008,
          1.990333333333335,
          1.9966666666666666,
          1.9743333333333342,
          1.9880000000000013,
          2.0149999999999992,
          1.987666666666666,
          1.9810000000000019,
          1.9736666666666665,
          2.0003333333333337,
          1.9733333333333354,
          1.9613333333333351,
          1.9683333333333326,
          1.937333333333335,
          2.004000000000001,
          1.9993333333333356,
          1.9726666666666675,
          2.0070000000000023,
          2.008000000000001,
          1.9680000000000015,
          1.9596666666666678,
          1.9540000000000008,
          2.009666666666666,
          1.9583333333333326,
          1.9900000000000009,
          2.009666666666668,
          1.986333333333335,
          1.9950000000000008,
          1.9793333333333332,
          2.009333333333334,
          2.0096666666666683,
          2.010666666666667
        ],
        [
          2.234666666666666,
          2.232333333333334,
          2.3196666666666674,
          2.3486666666666673,
          2.3053333333333335,
          2.3200000000000016,
          2.2843333333333327,
          2.3643333333333327,
          2.3019999999999983,
          2.276666666666666,
          2.295666666666667,
          2.26,
          2.2656666666666676,
          2.2826666666666657,
          2.353333333333333,
          2.357333333333332,
          2.413333333333333,
          2.402666666666667,
          2.4176666666666673,
          2.3063333333333333,
          2.097333333333333,
          2.0483333333333347,
          2.0536666666666674,
          1.9820000000000002,
          2.0050000000000003,
          2.044,
          2.03,
          2.035666666666667,
          2.047666666666666,
          2.119,
          2.0276666666666667,
          1.988666666666667,
          1.9803333333333333,
          2.072,
          1.9853333333333334,
          1.987000000000001,
          1.9943333333333333,
          2.0186666666666677,
          1.998666666666667,
          2.025666666666667,
          1.9330000000000018,
          1.9713333333333336,
          2.037666666666667,
          2.0439999999999996,
          2.003333333333333,
          2.009666666666668,
          2.0213333333333336,
          1.9363333333333352,
          2.0180000000000002,
          2.018,
          2.068999999999999,
          2.096,
          2.079,
          2.0013333333333336,
          2.0246666666666666,
          1.9876666666666662,
          1.966333333333334,
          2.0206666666666666,
          1.9766666666666677,
          1.9593333333333331,
          1.995666666666666,
          1.9706666666666677,
          2.0393333333333343,
          2.0393333333333343,
          2.038000000000001,
          2.037666666666667,
          1.992000000000001,
          2.025333333333333,
          1.9849999999999997,
          1.9336666666666673,
          2.0486666666666666,
          1.9903333333333335,
          2.08,
          1.9123333333333334,
          2.0126666666666675,
          1.9760000000000013,
          2.0493333333333332,
          2.0480000000000014,
          2.034000000000001,
          2.036,
          1.9823333333333344,
          1.988333333333334,
          2.0003333333333337,
          2.062333333333333,
          2.0260000000000007,
          2.0046666666666666,
          2.0003333333333346,
          1.9829999999999997,
          1.976000000000001,
          1.960000000000001,
          2.0486666666666666,
          2.006333333333333,
          2.0183333333333335,
          1.9990000000000006,
          2.039000000000001,
          1.953000000000001,
          2.0276666666666663,
          1.9773333333333334,
          1.9900000000000013,
          2.021,
          1.9816666666666654,
          1.953666666666667,
          2.0023333333333344,
          2.011333333333333,
          1.9986666666666677,
          1.97,
          2.029333333333334,
          2.002333333333334,
          1.991333333333334,
          1.970333333333334,
          1.9769999999999999,
          2.0016666666666683,
          2.009,
          2.0186666666666677,
          2.0473333333333326,
          2.034666666666667,
          2.006000000000001,
          1.9746666666666663,
          2.025333333333332,
          1.9946666666666675,
          1.9780000000000004,
          1.9973333333333354,
          1.9903333333333348,
          1.969000000000001,
          2.003666666666668,
          1.998000000000002,
          1.9780000000000006,
          2.0596666666666668,
          2.028666666666668,
          1.952666666666667,
          1.9790000000000012,
          1.9599999999999995,
          1.9980000000000004,
          1.9653333333333338,
          1.9466666666666683,
          1.9666666666666663,
          2.021333333333332,
          1.9516666666666669,
          2.055000000000001,
          1.9853333333333336,
          2.0553333333333335,
          1.9796666666666667,
          1.981333333333334,
          1.992000000000001,
          1.964333333333333,
          1.996333333333335,
          1.9693333333333332,
          2.0286666666666666,
          2.026666666666668,
          2.0123333333333333,
          1.981000000000001,
          1.9973333333333338,
          2.0246666666666675,
          1.923666666666667,
          1.9956666666666667,
          2.0310000000000006,
          2.031,
          1.9826666666666675,
          1.9916666666666663,
          1.9713333333333338,
          2.020000000000001,
          1.9563333333333335,
          2.001666666666667,
          1.9510000000000003,
          2.0123333333333338,
          2.023333333333334,
          1.9890000000000003,
          1.9630000000000007,
          1.9653333333333343,
          2.035666666666666,
          2.003333333333335,
          1.973000000000001,
          2.0466666666666677,
          2.003333333333334,
          2.0423333333333336,
          1.980666666666667,
          2.003666666666668,
          1.9743333333333322,
          2.043000000000002,
          2.0153333333333348,
          2.0523333333333333,
          1.9520000000000008,
          2.0119999999999996,
          1.9930000000000012,
          2.0163333333333338,
          2.0543333333333336,
          1.976333333333335,
          2.0189999999999997,
          2.034333333333335,
          2.0313333333333348,
          1.9449999999999996,
          1.9983333333333342,
          1.9986666666666684,
          1.933666666666668,
          1.9826666666666677,
          2.039666666666667,
          2.041000000000001,
          2.0033333333333343,
          2.0779999999999994,
          2.014666666666667,
          2.028999999999999,
          1.9780000000000009,
          1.9540000000000008,
          2.0043333333333346,
          2.025,
          1.9896666666666674,
          2.040333333333335,
          2.022666666666668,
          1.9610000000000014,
          2.0163333333333346,
          1.9816666666666671,
          1.9949999999999997,
          2.0150000000000006,
          2.019,
          1.9809999999999999,
          2.0599999999999996,
          2.0496666666666665,
          1.9933333333333336,
          1.984,
          2.0196666666666663,
          2.04,
          2.0280000000000014,
          2.0486666666666666,
          2.0060000000000016,
          1.9833333333333343,
          2.044333333333334,
          2.0070000000000006,
          2.0226666666666686,
          2.0836666666666663,
          1.995,
          2.025666666666667,
          1.9583333333333328,
          2.0413333333333337,
          2.0056666666666665,
          2.079333333333334,
          2.074666666666667,
          2.089333333333334,
          2.0303333333333327,
          2.0726666666666658,
          2.000333333333334,
          2.039333333333334,
          2.019333333333334,
          2.006333333333335,
          2.0393333333333334,
          2.042,
          2.035000000000002,
          2.025333333333334,
          2.0240000000000014,
          2.030666666666667,
          1.9673333333333347,
          2.0296666666666665,
          2.0330000000000013,
          2.081000000000001,
          2.082666666666668,
          2.089000000000001,
          2.059333333333334,
          2.0523333333333316,
          2.1290000000000013,
          2.041333333333334,
          2.080666666666666,
          2.004666666666667,
          2.081666666666668,
          2.109666666666665,
          2.0626666666666673,
          2.093666666666666,
          2.03,
          2.0829999999999993,
          2.013333333333334,
          2.063333333333333,
          2.0836666666666663,
          2.074,
          2.0843333333333347,
          2.0583333333333327,
          2.0493333333333337,
          2.101000000000001,
          2.1079999999999997,
          2.0596666666666676,
          2.088333333333334,
          2.090333333333333,
          2.0656666666666674,
          2.042,
          2.074666666666667,
          2.066333333333333,
          2.063333333333334,
          2.031333333333333,
          2.018000000000001,
          2.0206666666666666,
          2.072666666666667,
          1.9726666666666681,
          2.0230000000000015,
          2.0206666666666653,
          1.9943333333333342,
          1.9779999999999995,
          2.0009999999999994,
          1.9840000000000007,
          1.9853333333333323,
          1.9713333333333327,
          1.9346666666666679,
          2.028,
          2.0026666666666673
        ]
      ],
      "ho_freq": [
        [
          0.733,
          0.858,
          1.0,
          0.843,
          1.0,
          0.92,
          0.847,
          0.912,
          0.803,
          0.707,
          0.609,
          0.979,
          0.846,
          0.692,
          0.858,
          1.0,
          1.0,
          1.0,
          1.0,
          1.0,
          1.0,
          0.215,
          0.226,
          0.237,
          0.276,
          0.365,
          0.194,
          0.179,
          0.314,
          0.219,
          0.221,
          0.277,
          0.275,
          0.205,
          0.26,
          0.261,
          0.24,
          0.293,
          0.235,
          0.221,
          0.32,
          0.338,
          0.208,
          0.237,
          0.291,
          0.299,
          0.234,
          0.28,
          0.244,
          0.275,
          0.205,
          0.278,
          0.34,
          0.224,
          0.209,
          0.303,
          0.172,
          0.255,
          0.252,
          0.335,
          0.345,
          0.372,
          0.195,
          0.325,
          0.245,
          0.231,
          0.27,
          0.375,
          0.15,
          0.295,
          0.365,
          0.265,
          0.304,
          0.205,
          0.325,
          0.25,
          0.284,
          0.28,
          0.305,
          0.29,
          0.141,
          0.3,
          0.291,
          0.29,
          0.294,
          0.325,
          0.23,
          0.174,
          0.363,
          0.237,
          0.237,
          0.298,
          0.322,
          0.302,
          0.34,
          0.232,
          0.305,
          0.278,
          0.317,
          0.235,
          0.222,
          0.355,
          0.204,
          0.208,
          0.138,
          0.327,
          0.193,
          0.115,
          0.27,
          0.265,
          0.22,
          0.243,
          0.251,
          0.318,
          0.141,
          0.242,
          0.245,
          0.31,
          0.218,
          0.307,
          0.33,
          0.2,
          0.415,
          0.299,
          0.235,
          0.203,
          0.228,
          0.285,
          0.242,
          0.274,
          0.182,
          0.29,
          0.265,
          0.26,
          0.246,
          0.208,
          0.295,
          0.345,
          0.278,
          0.208,
          0.341,
          0.245,
          0.265,
          0.265,
          0.251,
          0.33,
          0.285,
          0.285,
          0.237,
          0.308,
          0.303,
          0.255,
          0.265,
          0.176,
          0.254,
          0.188,
          0.318,
          0.28,
          0.17,
          0.332,
          0.244,
          0.296,
          0.236,
          0.385,
          0.24,
          0.207,
          0.238,
          0.26,
          0.233,
          0.307,
          0.28,
          0.308,
          0.304,
          0.21,
          0.161,
          0.249,
          0.25,
          0.325,
          0.258,
          0.258,
          0.292,
          0.361,
          0.281,
          0.176,
          0.223,
          0.295,
          0.273,
          0.19,
          0.336,
          0.315,
          0.186,
          0.21,
          0.2,
          0.213,
          0.278,
          0.251,
          0.29,
          0.332,
          0.245,
          0.225,
          0.306,
          0.237,
          0.232,
          0.354,
          0.328,
          0.199,
          0.2,
          0.24,
          0.227,
          0.249,
          0.255,
          0.264,
          0.267,
          0.315,
          0.232,
          0.272,
          0.203,
          0.271,
          0.31,
          0.275,
          0.342,
          0.241,
          0.33,
          0.262,
          0.226,
          0.285,
          0.26,
          0.244,
          0.237,
          0.182,
          0.303,
          0.291,
          0.244,
          0.32,
          0.224,
          0.242,
          0.21,
          0.275,
          0.298,
          0.21,
          0.28,
          0.145,
          0.304,
          0.296,
          0.281,
          0.202,
          0.214,
          0.35,
          0.32,
          0.29,
          0.205,
          0.36,
          0.32,
          0.238,
          0.241,
          0.22,
          0.193,
          0.389,
          0.307,
          0.34,
          0.299,
          0.319,
          0.22,
          0.204,
          0.225,
          0.167,
          0.24,
          0.267,
          0.226,
          0.33,
          0.324,
          0.236,
          0.285,
          0.172,
          0.245,
          0.221,
          0.21,
          0.262,
          0.26,
          0.27,
          0.31,
          0.127,
          0.268,
          0.187,
          0.166,
          0.217,
          0.281,
          0.26,
          0.245,
          0.232,
          0.235,
          0.23,
          0.3,
          0.171,
          0.231,
          0.25,
          0.285,
          0.246,
          0.211,
          0.322
        ],
        [
          0.16,
          0.738,
          1.0,
          1.0,
          1.0,
          0.758,
          0.065,
          0.04,
          0.075,
          0.03,
          0.045,
          0.045,
          0.04,
          0.06,
          0.065,
          0.08,
          0.055,
          0.07,
          0.04,
          0.055,
          0.035,
          0.055,
          0.04,
          0.06,
          0.065,
          0.07,
          0.065,
          0.03,
          0.05,
          0.035,
          0.03,
          0.07,
          0.04,
          0.04,
          0.065,
          0.035,
          0.055,
          0.065,
          0.05,
          0.05,
          0.055,
          0.04,
          0.05,
          0.045,
          0.055,
          0.05,
          0.07,
          0.08,
          0.05,
          0.04,
          0.065,
          0.05,
          0.03,
          0.04,
          0.07,
          0.06,
          0.03,
          0.055,
          0.075,
          0.045,
          0.06,
          0.07,
          0.045,
          0.03,
          0.045,
          0.07,
          0.045,
          0.055,
          0.025,
          0.045,
          0.055,
          0.055,
          0.04,
          0.045,
          0.06,
          0.035,
          0.055,
          0.03,
          0.025,
          0.05,
          0.04,
          0.02,
          0.035,
          0.02,
          0.06,
          0.08,
          0.03,
          0.065,
          0.065,
          0.055,
          0.05,
          0.07,
          0.045,
          0.055,
          0.04,
          0.07,
          0.04,
          0.065,
          0.015,
          0.06,
          0.03,
          0.04,
          0.05,
          0.055,
          0.07,
          0.045,
          0.03,
          0.04,
          0.045,
          0.075,
          0.035,
          0.035,
          0.025,
          0.055,
          0.06,
          0.045,
          0.045,
          0.06,
          0.06,
          0.05,
          0.055,
          0.04,
          0.06,
          0.035,
          0.05,
          0.045,
          0.05,
          0.07,
          0.045,
          0.055,
          0.065,
          0.04,
          0.07,
          0.065,
          0.06,
          0.065,
          0.03,
          0.045,
          0.05,
          0.045,
          0.05,
          0.095,
          0.06,
          0.055,
          0.05,
          0.04,
          0.04,
          0.06,
          0.045,
          0.055,
          0.055,
          0.085,
          0.04,
          0.05,
          0.055,
          0.03,
          0.075,
          0.04,
          0.06,
          0.045,
          0.055,
          0.06,
          0.055,
          0.055,
          0.04,
          0.05,
          0.055,
          0.05,
          0.06,
          0.055,
          0.035,
          0.05,
          0.04,
          0.04,
          0.06,
          0.05,
          0.05,
          0.075,
          0.055,
          0.045,
          0.065,
          0.05,
          0.065,
          0.055,
          0.06,
          0.045,
          0.065,
          0.04,
          0.055,
          0.075,
          0.09,
          0.06,
          0.055,
          0.055,
          0.055,
          0.045,
          0.05,
          0.02,
          0.055,
          0.055,
          0.035,
          0.05,
          0.065,
          0.05,
          0.06,
          0.035,
          0.06,
          0.05,
          0.07,
          0.05,
          0.075,
          0.06,
          0.085,
          0.045,
          0.075,
          0.06,
          0.06,
          0.05,
          0.045,
          0.035,
          0.07,
          0.04,
          0.03,
          0.045,
          0.06,
          0.05,
          0.065,
          0.035,
          0.045,
          0.055,
          0.055,
          0.07,
          0.065,
          0.08,
          0.035,
          0.055,
          0.045,
          0.05,
          0.07,
          0.05,
          0.05,
          0.05,
          0.045,
          0.065,
          0.045,
          0.06,
          0.04,
          0.06,
          0.03,
          0.055,
          0.055,
          0.045,
          0.065,
          0.055,
          0.075,
          0.075,
          0.065,
          0.045,
          0.045,
          0.06,
          0.04,
          0.055,
          0.035,
          0.04,
          0.025,
          0.055,
          0.035,
          0.05,
          0.05,
          0.06,
          0.055,
          0.055,
          0.06,
          0.035,
          0.04,
          0.05,
          0.045,
          0.04,
          0.06,
          0.045,
          0.06,
          0.065,
          0.07,
          0.04,
          0.07,
          0.06,
          0.08,
          0.055,
          0.05,
          0.055,
          0.045,
          0.045,
          0.075,
          0.065,
          0.055,
          0.04,
          0.065,
          0.08,
          0.065,
          0.035
        ],
        [
          0.421,
          0.795,
          1.0,
          1.0,
          1.0,
          1.0,
          1.0,
          1.0,
          1.0,
          1.0,
          0.961,
          0.9,
          0.06,
          0.06,
          0.065,
          0.025,
          0.055,
          0.06,
          0.055,
          0.03,
          0.055,
          0.045,
          0.07,
          0.055,
          0.045,
          0.055,
          0.055,
          0.035,
          0.045,
          0.06,
          0.07,
          0.025,
          0.04,
          0.045,
          0.045,
          0.04,
          0.04,
          0.05,
          0.055,
          0.05,
          0.015,
          0.06,
          0.06,
          0.055,
          0.065,
          0.05,
          0.065,
          0.05,
          0.055,
          0.035,
          0.07,
          0.07,
          0.065,
          0.065,
          0.055,
          0.055,
          0.045,
          0.075,
          0.035,
          0.07,
          0.045,
          0.035,
          0.085,
          0.065,
          0.025,
          0.075,
          0.06,
          0.04,
          0.055,
          0.04,
          0.075,
          0.055,
          0.07,
          0.045,
          0.055,
          0.035,
          0.065,
          0.07,
          0.07,
          0.055,
          0.035,
          0.06,
          0.06,
          0.075,
          0.08,
          0.04,
          0.085,
          0.035,
          0.06,
          0.04,
          0.04,
          0.045,
          0.045,
          0.065,
          0.065,
          0.06,
          0.04,
          0.04,
          0.04,
          0.065,
          0.06,
          0.065,
          0.06,
          0.075,
          0.045,
          0.045,
          0.05,
          0.05,
          0.045,
          0.08,
          0.055,
          0.065,
          0.045,
          0.045,
          0.055,
          0.03,
          0.03,
          0.05,
          0.03,
          0.06,
          0.05,
          0.065,
          0.045,
          0.05,
          0.05,
          0.06,
          0.045,
          0.05,
          0.08,
          0.055,
          0.06,
          0.065,
          0.06,
          0.055,
          0.05,
          0.055,
          0.075,
          0.05,
          0.03,
          0.03,
          0.085,
          0.055,
          0.055,
          0.045,
          0.045,
          0.045,
          0.035,
          0.06,
          0.065,
          0.055,
          0.045,
          0.055,
          0.08,
          0.055,
          0.05,
          0.04,
          0.065,
          0.045,
          0.03,
          0.045,
          0.07,
          0.025,
          0.04,
          0.045,
          0.07,
          0.06,
          0.045,
          0.055,
          0.055,
          0.07,
          0.065,
          0.05,
          0.07,
          0.045,
          0.065,
          0.075,
          0.045,
          0.045,
          0.055,
          0.05,
          0.03,
          0.035,
          0.06,
          0.045,
          0.065,
          0.065,
          0.03,
          0.05,
          0.06,
          0.07,
          0.06,
          0.07,
          0.065,
          0.055,
          0.05,
          0.045,
          0.05,
          0.06,
          0.07,
          0.045,
          0.055,
          0.055,
          0.055,
          0.05,
          0.04,
          0.05,
          0.045,
          0.055,
          0.03,
          0.06,
          0.05,
          0.055,
          0.06,
          0.05,
          0.04,
          0.06,
          0.07,
          0.055,
          0.065,
          0.065,
          0.03,
          0.05,
          0.055,
          0.03,
          0.035,
          0.06,
          0.035,
          0.04,
          0.065,
          0.035,
          0.05,
          0.04,
          0.06,
          0.05,
          0.085,
          0.07,
          0.05,
          0.07,
          0.055,
          0.06,
          0.045,
          0.065,
          0.055,
          0.055,
          0.06,
          0.05,
          0.04,
          0.055,
          0.04,
          0.03,
          0.07,
          0.03,
          0.06,
          0.084,
          0.058,
          0.102,
          0.082,
          0.077,
          0.077,
          0.062,
          0.058,
          0.103,
          0.061,
          0.053,
          0.076,
          0.05,
          0.061,
          0.054,
          0.051,
          0.074,
          0.074,
          0.07,
          0.061,
          0.054,
          0.062,
          0.049,
          0.069,
          0.055,
          0.052,
          0.067,
          0.061,
          0.063,
          0.09,
          0.065,
          0.059,
          0.052,
          0.062,
          0.074,
          0.09,
          0.062,
          0.073,
          0.066,
          0.081,
          0.063,
          0.06,
          0.062,
          0.071,
          0.057,
          0.066,
          0.075
        ]
      ]
    },
    "MA-TD3": {
      "rewards": [
        [
          -412.58267231901164,
          -327.1191142192889,
          -888.7121195400185,
          -879.7285199274544,
          -867.0634492720864,
          -642.8749783814568,
          -1015.2176870507042,
          -945.910380234537,
          -903.5102255327236,
          -708.7073856390767,
          -675.0086338748587,
          -571.0095087430844,
          -568.5071612273364,
          -613.90562340156,
          -633.0035624048098,
          -616.8032984433277,
          -580.3025886741889,
          -583.4022015394808,
          -563.0020629310908,
          -565.5017168767367,
          -564.9014554561161,
          -655.8809606166321,
          -734.4007583200189,
          -819.6004978973544,
          -735.3003236864625,
          -750.3002355452668,
          -659.5001930193228,
          -808.6001570465162,
          -649.1001362561207,
          -765.000120367192,
          -883.9001076887769,
          -857.8000993115819,
          -739.3000872038997,
          -755.8000791480495,
          -698.3000730187026,
          -717.7000664772521,
          -720.5000613298358,
          -795.4000572315642,
          -858.2000544914064,
          -663.3000507060153,
          -977.5000483435151,
          -724.900045736724,
          -895.1000433060433,
          -841.3000414000527,
          -812.200040181072,
          -755.7000375032175,
          -848.3000357749363,
          -855.4000337817857,
          -804.9000320793864,
          -872.4000301241516,
          -777.4000281588167,
          -831.800026744843,
          -784.8000253491908,
          -810.4000240532094,
          -818.3000232752388,
          -795.8000223839298,
          -711.9000218066255,
          -801.6000211352823,
          -794.1000208191783,
          -799.0000199925108,
          -778.5000196054862,
          -863.0000191050636,
          -800.2000188682797,
          -868.7000185110335,
          -762.0000180122195,
          -752.1000178395727,
          -866.8000173350767,
          -765.2000170812029,
          -726.900016413655,
          -885.300016386512,
          -779.6000161638558,
          -742.8000158725183,
          -742.1000157586997,
          -761.0000155577276,
          -785.20001568975,
          -809.8000155792699,
          -738.3000155106207,
          -852.60001584288,
          -844.9000154803657,
          -801.500016058837,
          -721.1000165896858,
          -933.7000168364858,
          -845.500018137393,
          -869.2000207531119,
          -844.2000347368056,
          -548.6430922685431,
          -581.0116338180394,
          -602.6106526234613,
          -612.6072228142195,
          -624.0041975756037,
          -607.7040606022227,
          -709.4037724174915,
          -631.7023968722267,
          -666.9015592583959,
          -574.2012186322575,
          -571.0010664689366,
          -554.2009211532969,
          -605.6007834941146,
          -573.7006763743975,
          -593.8006011867624,
          -531.5005639722469,
          -606.1005545680647,
          -582.4005210750656,
          -559.4004923257775,
          -585.0004772434639,
          -565.6004502778711,
          -578.6004383100611,
          -590.4004222279399,
          -590.6004229120988,
          -599.3004056408979,
          -538.5003887436488,
          -566.5003550926098,
          -558.2003766078708,
          -546.9003745368709,
          -622.5003854475946,
          -568.0003820720758,
          -570.4004054904833,
          -580.3004082875079,
          -650.1004133897412,
          -550.4004348862518,
          -536.8005201411027,
          -566.5005783802414,
          -564.9006125579937,
          -528.7006202552647,
          -550.2005691265423,
          -655.6005919681324,
          -546.6006277829042,
          -582.9006111000441,
          -560.3005601848573,
          -617.700523856444,
          -544.800493937971,
          -581.300441707871,
          -550.6004209979943,
          -605.600392846217,
          -565.5003720577508,
          -561.100348023391,
          -564.1003207825444,
          -556.6002988238437,
          -524.5002729687833,
          -506.40023370862093,
          -567.1002049661539,
          -536.8001647906608,
          -518.200166288718,
          -585.4001444912374,
          -572.1001350209799,
          -574.600128373085,
          -563.6001259344691,
          -586.8001235369126,
          -612.2001267040528,
          -598.3001267941854,
          -563.2001286216133,
          -568.5001318220259,
          -558.3001358240521,
          -568.6001408889763,
          -568.2001482014737,
          -626.9001516184024,
          -580.0001597481252,
          -649.8001601058506,
          -621.5001682353154,
          -590.2001725553287,
          -581.2001860780606,
          -593.8002117849292,
          -613.9002378414247,
          -653.1002577685255,
          -573.1002685957994,
          -637.9002679005963,
          -568.8002795502658,
          -587.7003491127759,
          -577.7004839518783,
          -554.1008359237227,
          -599.2023209822795,
          -577.1162869859263,
          -506.74316467705427,
          -164.61463898723176,
          -274.9623958362232,
          88.85710584675648,
          -257.3927819848669,
          94.2738343534518,
          -278.06402517399516,
          -257.5136805658924,
          73.14579864561277,
          -362.32661511253605,
          -264.41720526737856,
          -633.628043945277,
          -264.51968002657225,
          -298.6118536585438,
          -275.42575396774583,
          -280.027976662844,
          93.92049848779155,
          -253.9523831184555,
          97.37584280063614,
          -269.40725438743925,
          -283.28835176751346,
          -458.38961840072585,
          -461.7874812349528,
          234.7418800251552,
          -142.66513825508358,
          280.02974848439374,
          253.7067307297653,
          -152.54339624353022,
          262.47514142328265,
          -174.44488522825992,
          276.84549909955905,
          268.7823698267037,
          -135.94007560758095,
          -128.23916944868242,
          -173.26831846142318,
          -156.62569683787805,
          270.72942955361026,
          -450.7387651199976,
          240.79212592060324,
          -155.55070685964967,
          -174.1420486467532,
          -145.53854436538734,
          -135.46727041738475,
          273.13774667467743,
          276.5811452831147,
          296.9213717669728,
          -152.94896563923226,
          -448.5646106842561,
          -145.07212428002947,
          -146.01434602821047,
          -146.5760041663399,
          -139.0377197661628,
          284.05575914403124,
          -531.217519825806,
          -451.8500287871417,
          -170.41136779972328,
          -130.38454252703497,
          -145.49704815139498,
          -144.3179150918673,
          -154.82344156705724,
          -156.72737934873666,
          -140.33014284142195,
          -158.09793838021466,
          -161.69919992110206,
          -159.81960245411778,
          -149.89869356196263,
          285.1810247600695,
          300.2621962810488,
          -458.8724292228345,
          -614.5091448289814,
          267.74157186979414,
          278.4044817195784,
          -134.22542946404297,
          -143.24064858313244,
          -150.82462524770676,
          -135.92212575279947,
          -152.04476382670427,
          -574.8953368039384,
          -139.37499845939973,
          -573.0288295481257,
          255.73613372258262,
          284.2571403921493,
          277.4769326378143,
          -156.6164309735394,
          -166.901723487122,
          -563.7667499305711,
          258.86019134552663,
          -154.2594001192136,
          244.3813627867877,
          -163.31021738577866,
          -155.7677673708537,
          -575.6386721296623,
          -153.0082055556224,
          252.83500867071191,
          -133.72137030295494,
          -460.5016017061557,
          -568.1124013644858,
          -127.47625415787245,
          -472.20465241222166,
          -175.99806894970467,
          -158.5013050988675,
          -150.29072955800518,
          -176.4720890125431,
          249.5952648485507,
          -164.75456670608352,
          -148.0950507919053,
          -168.42652356911452,
          -152.0684539362307,
          -138.36069527421597,
          -552.2247606005922,
          273.7536410983818,
          -146.82471286215218,
          -165.44403072111086,
          -176.5462461741767,
          -132.42358586729807,
          -587.0088469973974,
          -124.56094792941525,
          -168.8989108223328,
          -140.33091144589756,
          -160.1436392972507,
          -139.38618047089022,
          286.0936491238657,
          -154.356148695919,
          258.81908194840696,
          275.1289427121152,
          -161.05186452806433,
          289.1571878779075,
          -151.18505172573424
        ],
        [
          -586.4126525251258,
          -314.560324992189,
          -549.1282306895823,
          -567.1963043942877,
          -664.3729105408033,
          -813.6257202485592,
          -747.2379782134726,
          -801.322097527007,
          -775.6137564831682,
          -723.5094837509203,
          -851.7068796729707,
          -755.0049977115266,
          -753.1036732596555,
          -672.3034804943338,
          -564.2060187603118,
          -557.6036313049889,
          -583.4021218552052,
          -572.0016192986621,
          -546.701306062468,
          -571.7010508953293,
          -506.1009056797377,
          -580.5008223625482,
          -552.7007125200518,
          -581.300681701421,
          -573.9006262899351,
          -589.5005817544927,
          -612.3006099012391,
          -620.3005638392793,
          -585.5005094864539,
          -721.4403561191516,
          -890.2005488451163,
          -822.4012300103819,
          -810.4052197121105,
          -885.192726799038,
          -476.569370819825,
          -877.5202899049782,
          -583.81906769493,
          -538.9110894115502,
          -972.0812534596156,
          -628.8842475588536,
          -815.7588398769217,
          -830.3406532228195,
          -658.9786571767954,
          -617.7386572285362,
          -480.83864162097746,
          -136.10936981563768,
          -843.9193395514221,
          -384.6758993641901,
          -940.5076739427404,
          -1003.3011079591907,
          -413.7984438134885,
          -157.09292447136292,
          -177.11548836467523,
          -605.8220523449781,
          243.2545129547908,
          -160.29582246881927,
          -148.1162836936468,
          -415.4260632570462,
          -618.3480298347844,
          -149.1633528261034,
          116.08223734992508,
          -338.29820847149244,
          254.46429614364072,
          269.66422963102275,
          -297.6565470855966,
          269.6894180202507,
          -317.4005502439499,
          253.50227133083607,
          -544.9184268961149,
          -146.18080511147082,
          -156.33882895101448,
          -152.06089202652885,
          -555.6244034318878,
          294.391064759893,
          -137.09678192109942,
          -168.92912594721489,
          -887.5042916443582,
          -154.4073223757863,
          -868.0912036908022,
          -132.4293520715278,
          -553.2224735195008,
          -137.89823539232862,
          264.9494465409329,
          -565.2784045098671,
          -446.1576305305387,
          -176.6757720953767,
          -150.25764951993563,
          276.53689738639144,
          289.8133902959211,
          -132.80518209576752,
          -170.10813298963365,
          -145.820945492887,
          273.9041116767263,
          -156.6968469828997,
          -147.41529594877167,
          -154.40045284616605,
          254.61424340064053,
          -150.45702986940336,
          -128.9185142506086,
          266.8759863758721,
          280.35296144967924,
          -488.9864565871698,
          257.5785517055259,
          -166.42914934312486,
          -155.25470319328554,
          274.80080331154755,
          282.80244431054587,
          286.9069384102029,
          -149.8172365632427,
          -129.9372269182249,
          272.21743738195,
          -155.66586212696185,
          -139.31321732174635,
          -154.52293891191354,
          -141.62255319124588,
          259.4761705074,
          -181.70733392879833,
          -142.7131953564461,
          -132.57084881104174,
          -152.69774985870794,
          252.02644633996286,
          275.6714815783904,
          -155.82302119291376,
          -136.55942163657403,
          -153.46658556079905,
          -168.50267775416572,
          272.63888798385955,
          253.26095106494768,
          -579.7597124591732,
          -149.55512741139137,
          -162.7772190135931,
          -145.9682333550233,
          -171.6941210893528,
          287.53550295692156,
          -120.0141153817786,
          -166.52248071387277,
          -143.23284055454263,
          254.72542120667413,
          -577.1571854216719,
          -175.30053840789893,
          -135.24525666563633,
          -581.7451706002553,
          -186.57778794156846,
          -456.0120606419108,
          -146.0261676488033,
          295.94305642805386,
          -138.65776163583197,
          295.29817279878006,
          -139.6788930761234,
          -584.4859061527474,
          -172.6163211733684,
          -152.4506021507289,
          -574.5231372908036,
          267.2789003851377,
          -148.4481350806193,
          289.57954668903693,
          271.08509480555443,
          -195.35830736809777,
          206.77193092180642,
          277.6326460683916,
          -150.41383985572347,
          -155.8120505417198,
          -137.11649503969684,
          -880.7976938025959,
          -129.89730342863248,
          -156.6366747111016,
          -148.28246800434422,
          -426.9932050021083,
          285.72532852019685,
          -462.3615256032212,
          290.4036902249504,
          -577.5272033733379,
          275.2049516612629,
          -880.9927851303407,
          -153.09181447235858,
          -167.25133617667754,
          -160.76320523891252,
          -441.42462518836,
          -151.83782438241505,
          -118.32303624837198,
          -165.16576487062335,
          272.37527730251327,
          -572.3510603858948,
          270.8934580822241,
          -143.93487424922162,
          -182.77963404024678,
          273.54273620009604,
          273.6031253201318,
          254.35235771949218,
          -151.47933692361156,
          -174.58048491068456,
          -151.6447848836224,
          -134.80681399077474,
          -591.0458445258366,
          293.7322839017054,
          -565.4734923508267,
          269.0028436182015,
          -165.69913336542328,
          -140.57580154148587,
          -156.3873554137741,
          232.01550466167618,
          275.6389738106243,
          -155.58367288643606,
          292.1103784831232,
          -143.08742660257917,
          -138.10933274019803,
          -146.91333880140726,
          -554.7434778122646,
          258.11533620581014,
          -157.95968777731565,
          245.35166858125655,
          299.1685720581249,
          278.8558315946746,
          284.67344464572074,
          -882.6175430229098,
          -157.54985817700657,
          -176.69297477679524,
          -131.63086467865213,
          270.2840582196032,
          260.1080355079158,
          -166.2999501357082,
          248.5361812603422,
          -162.7578661957015,
          266.7046219562753,
          250.81823994740952,
          -561.722446503043,
          -145.33316752861782,
          -562.0375234977347,
          -165.47508457291042,
          -158.29881834575374,
          -162.86987509957982,
          -150.8789589356846,
          279.99156737634735,
          246.24347937324654,
          -143.93753935657415,
          -449.8702685213266,
          275.68527299730346,
          -155.67928111791207,
          -178.75869418599265,
          -146.6376757593136,
          -142.0605184343305,
          -168.1509452994882,
          -568.4596554464724,
          -158.34533524372748,
          -151.06185877098562,
          -612.1673951785157,
          -477.93209129399924,
          -167.443751857089,
          -155.59015975402085,
          -154.56976849043215,
          -146.41070711982528,
          -148.26183127515012,
          275.2333112480177,
          -127.4793258845756,
          -183.28970264629035,
          280.3190262352161,
          -202.91571065911955,
          -151.34123293496313,
          -192.11243195172983,
          259.5143037324015,
          -164.05884555688678,
          280.70919584928583,
          -164.38153844019783,
          259.47311351727666,
          275.3919447571027,
          -595.131060509925,
          -448.14153640728796,
          256.2488107928302,
          -147.76354203670445,
          270.1420470317469,
          -159.23528023495547,
          -144.71888611500583,
          -140.5313708704643,
          -191.49703229362348,
          253.21589039428113,
          -440.76178640541923,
          -154.55802941236118,
          304.0667700273018,
          -150.73165548222389,
          253.52463298716205,
          -160.56446057517363,
          -147.6715078386946,
          -176.19482903758808,
          -488.86392938314924,
          289.9620554624521,
          284.8797339940914,
          270.26230911275934,
          -162.23763815405772,
          -136.60002117860887,
          -142.32010428259605,
          221.74831607046315,
          -139.7200845336127,
          278.38122656360133,
          -147.5190757794474,
          -146.22597836081778,
          -452.1228222391983,
          -565.9306406616672,
          -554.1178553541272,
          271.88442686456284,
          279.3705309949925
        ],
        [
          -731.5603325792284,
          -971.3851370029388,
          -688.5526614662842,
          -897.5597043324606,
          -706.20223872025,
          -1028.7370152294852,
          -854.920516328878,
          -848.1239254217794,
          -830.9256964334322,
          -608.1399776559452,
          -668.7172060554506,
          -623.7070161322192,
          -637.7042762121092,
          -586.103345290799,
          -605.9024612388862,
          -522.7018906515857,
          -589.0015001563568,
          -513.80123819524,
          -591.0010531417423,
          -650.7009278963557,
          -645.6007793431207,
          -565.2006688155503,
          -607.4005752386703,
          -522.300512252348,
          -631.5004444856144,
          -607.1003934019114,
          -645.5003819572197,
          -599.9003124627966,
          -612.40027357967,
          -586.8002370374004,
          -562.8002147689812,
          -587.600195699617,
          -615.1001785949744,
          -550.6001596073457,
          -630.7001425198791,
          -564.3001298857419,
          -677.9001180827136,
          -589.8001068198046,
          -585.4000980097142,
          -571.3000914064344,
          -586.7000810056306,
          -576.100073609028,
          -672.700067631982,
          -594.1000614432073,
          -544.6000558961478,
          -567.9000510946539,
          -589.5000495137994,
          -567.000044596029,
          -651.8000414021232,
          -537.2000380448228,
          -525.3000363883709,
          -569.1000328600039,
          -587.1000303488809,
          -552.100028644297,
          -552.1000264211945,
          -582.1000242561647,
          -581.7000229901261,
          -506.20002110889675,
          -583.10001995186,
          -583.6000190398813,
          -560.2000180205486,
          -549.2000160276381,
          -535.0000149133382,
          -543.4000145000418,
          -673.5000133298984,
          -614.8000126064891,
          -525.7000115442368,
          -596.4000112210741,
          -542.1000103523183,
          -604.5000094576479,
          -643.2000096202885,
          -573.8000087624221,
          -578.700008268322,
          -632.8000075300216,
          -591.4000070808581,
          -538.4000067648076,
          -568.1000063969329,
          -621.5000059363495,
          -591.2000059088168,
          -530.4000056850138,
          -602.3000051547369,
          -609.4000047590614,
          -568.8000046016319,
          -547.1000046233605,
          -592.9000043317722,
          -634.2000039208006,
          -596.4000037341854,
          -594.6000036901868,
          -562.1000035079251,
          -569.5000032454712,
          -563.900003347644,
          -570.400003017912,
          -596.3000030308676,
          -585.2000026976748,
          -564.9000027037515,
          -573.3000026416643,
          -567.5000025220215,
          -598.9000023797403,
          -564.6000021865316,
          -516.2000020404096,
          -576.500002026051,
          -556.3000020167051,
          -564.8000018323056,
          -628.0000017830592,
          -544.9000017528151,
          -558.400001665846,
          -671.8000016420322,
          -538.1000015169934,
          -559.4000014331131,
          -513.2000014903642,
          -544.3000012901732,
          -539.1000013099883,
          -538.4000012576342,
          -537.0000011916965,
          -573.0000011383845,
          -654.4000010981179,
          -621.6000010915035,
          -615.0000010206007,
          -565.400001055281,
          -636.5000009543573,
          -591.4000008950876,
          -555.5000009020416,
          -580.0000008422078,
          -665.1000008384359,
          -586.5000007807269,
          -604.9000007979547,
          -591.900000717806,
          -585.8000007650272,
          -524.5000006257958,
          -618.8000007110952,
          -684.5000006430336,
          -554.0000005815942,
          -602.8000006334004,
          -571.4000006075962,
          -640.8000005146249,
          -528.4000005348042,
          -566.3000004966757,
          -572.7000005391776,
          -635.0000004632252,
          -641.3000004850495,
          -570.600000481388,
          -556.9000004531243,
          -553.3000004410613,
          -604.1000004311747,
          -539.1000004786982,
          -535.1000004253605,
          -587.90000037994,
          -561.9000004033204,
          -603.4000003617278,
          -619.8800002855393,
          -664.2600003488963,
          -611.7600009433194,
          -584.560001515323,
          -550.5000017051066,
          -594.560001624049,
          -642.2200023241568,
          -592.4400018862054,
          -591.3600031419041,
          -628.3000018387875,
          -650.8000033633474,
          -566.4000026571437,
          -591.9000014656361,
          -692.640000950575,
          -541.680005007025,
          -631.7000144648949,
          -551.5000085369109,
          -566.0000059687081,
          -560.860007816086,
          -573.9200056824596,
          -674.120004215874,
          -593.6800041290529,
          -495.7800035862698,
          -650.7400030306438,
          -657.4800036073501,
          -600.5400024734497,
          -645.0200019036657,
          -622.300001721114,
          -586.3600016332938,
          -643.0800015566849,
          -557.5200016806942,
          -533.940001470052,
          -534.300001434009,
          -617.480001471411,
          -594.0000014677306,
          -633.3800015326876,
          -607.8000014258673,
          -553.3000013363695,
          -611.0800010315041,
          -549.280000855441,
          -568.4200009295755,
          -578.880001046342,
          -640.1000009329852,
          -531.8200009253457,
          -610.8000009631344,
          -561.600000950084,
          -604.4200010153596,
          -597.2000010302808,
          -645.840001132914,
          -576.9000011396366,
          -573.6400011743306,
          -575.3000008830799,
          -666.1000008282533,
          -545.4000008220121,
          -578.2400008101931,
          -630.0000008045574,
          -608.7200009028644,
          -528.8800006722704,
          -569.5000007120517,
          -613.040000720342,
          -558.8800008991876,
          -640.2000006853324,
          -573.4000006139537,
          -585.9000007794631,
          -571.0000007048865,
          -553.6200006363551,
          -585.2200006391338,
          -554.0000005708736,
          -531.9800005021449,
          -572.4400006262085,
          -606.0200007739268,
          -565.4200004936056,
          -610.5000005747264,
          -558.680000581292,
          -569.9200004433668,
          -552.5600004320935,
          -509.90000050783215,
          -612.06000063721,
          -554.0000006034444,
          -571.5000004058036,
          -534.5000003377099,
          -600.6600003183497,
          -560.7600003974095,
          -582.2000003482325,
          -660.6000003491082,
          -573.5600003743223,
          -604.760000396828,
          -599.500000373141,
          -525.5600003466852,
          -620.3200001905328,
          -530.5000002701973,
          -551.020000235449,
          -591.9000002045983,
          -522.8000001570565,
          -540.400000131538,
          -687.4800002022305,
          -540.86000018534,
          -535.6000001592337,
          -623.9800002042557,
          -584.7200002008561,
          -576.2000001415859,
          -583.200000183265,
          -600.2000001447469,
          -586.9000001512172,
          -598.1200001705103,
          -547.2000001169598,
          -640.460000157935,
          -622.0000001661248,
          -586.1000002100849,
          -552.4600001823989,
          -542.7400002128333,
          -703.9800002564439,
          -585.9800002032185,
          -632.8000001885428,
          -594.4600002178571,
          -621.400000188285,
          -630.2600002148316,
          -590.8600002474748,
          -606.7200002135249,
          -578.5200003753266,
          -554.0800001391966,
          -543.0000002041706,
          -669.1000001844267,
          -545.6200001614081,
          -593.5600002258764,
          -539.3200000499149,
          -598.6200000475086,
          -611.1000000919328,
          -582.9800001719129,
          -572.7200001182362,
          -624.4000000660818,
          -597.5600000883587,
          -605.4000000936613,
          -557.8600001988523,
          -590.1200000984647,
          -555.0000000678203,
          -532.8200000666644,
          -547.6000001095887,
          -594.7600001151274,
          -581.2400001529614,
          -604.9400001448304,
          -647.6000001031157,
          -598.920000091252,
          -540.820000109148,
          -572.9800001380539,
          -606.520000133834,
          -587.6000000922272,
          -628.7000000555933,
          -670.620000049096,
          -529.8200000644126,
          -541.9400000243149
        ]
      ],
      "aoi": [
        [
          2.061333333333334,
          2.071000000000001,
          2.067666666666668,
          2.0356666666666667,
          2.097333333333334,
          2.261000000000001,
          2.332,
          2.451666666666666,
          2.4503333333333317,
          2.348666666666667,
          2.276666666666667,
          2.273999999999999,
          2.2333333333333343,
          2.2896666666666676,
          2.3003333333333327,
          2.239666666666666,
          2.231666666666667,
          2.2896666666666685,
          2.226999999999999,
          2.212000000000001,
          2.2466666666666657,
          2.2426666666666675,
          2.3226666666666658,
          2.314333333333333,
          2.309333333333333,
          2.3003333333333327,
          2.3166666666666655,
          2.336333333333333,
          2.243666666666667,
          2.340666666666666,
          2.3123333333333322,
          2.341666666666666,
          2.2433333333333327,
          2.3706666666666667,
          2.277333333333332,
          2.323333333333333,
          2.298333333333333,
          2.3263333333333325,
          2.2826666666666666,
          2.270000000000001,
          2.342333333333332,
          2.314999999999999,
          2.3243333333333336,
          2.3356666666666674,
          2.3663333333333334,
          2.333999999999999,
          2.3919999999999977,
          2.3343333333333316,
          2.345666666666667,
          2.334333333333334,
          2.3773333333333335,
          2.3680000000000008,
          2.345,
          2.316333333333334,
          2.359333333333335,
          2.3696666666666655,
          2.3306666666666658,
          2.3113333333333337,
          2.3646666666666674,
          2.3166666666666655,
          2.400666666666668,
          2.2953333333333337,
          2.335,
          2.410666666666667,
          2.305333333333333,
          2.3216666666666654,
          2.332666666666667,
          2.3463333333333334,
          2.307333333333332,
          2.3639999999999985,
          2.3320000000000003,
          2.3043333333333327,
          2.301333333333332,
          2.299666666666667,
          2.2886666666666655,
          2.3576666666666672,
          2.334666666666669,
          2.3393333333333337,
          2.408999999999999,
          2.3290000000000006,
          2.3409999999999997,
          2.378333333333333,
          2.3520000000000003,
          2.3479999999999994,
          2.3663333333333316,
          2.2146666666666666,
          2.293000000000001,
          2.265999999999999,
          2.2746666666666666,
          2.276333333333333,
          2.2633333333333328,
          2.2370000000000005,
          2.3119999999999994,
          2.2510000000000003,
          2.2656666666666667,
          2.2356666666666687,
          2.2366666666666672,
          2.257666666666669,
          2.219666666666666,
          2.2943333333333342,
          2.1993333333333314,
          2.245666666666666,
          2.273333333333335,
          2.227000000000001,
          2.2769999999999997,
          2.2330000000000005,
          2.2780000000000005,
          2.228666666666666,
          2.2336666666666662,
          2.2769999999999997,
          2.215333333333334,
          2.2226666666666657,
          2.239333333333333,
          2.1963333333333344,
          2.3120000000000003,
