{
  "config": {
    "altitude_km": 550.0,
    "n_satellites_visible": 10,
    "min_elevation_deg": 25.0,
    "carrier_freq_ghz": 1.67,
    "p_max_dbm": 40.0,
    "n_platoons": 5,
    "n_priorities": 3,
    "priority_weights": [
      4.5,
      2.5,
      0.5
    ],
    "tau_s": 1.0,
    "tau_ac": 0.02,
    "n_ac": 50,
    "n_safe": [
      5,
      10,
      50
    ],
    "epsilon": [
      0.01,
      0.05,
      0.2
    ],
    "p_bg": 0.42,
    "ho_delay_mean_ms": 225.0,
    "ho_delay_std_ms": 25.0,
    "ho_period_s": 15.0,
    "n_episodes": 400,
    "episode_slots": 150,
    "eval_episodes": 50,
    "n_seeds": 3,
    "update_interval": 4,
    "nn_safety_coeff": 0.35,
    "nn_safety_warmup_env_steps": 12000,
    "nn_safety_shield_urgency": 1.35,
    "nn_safety_shield_power_floor": 0.5,
    "w_power": 0.02,
    "w_handover": 0.3,
    "kappa1": 1.0,
    "kappa2": 0.5,
    "kappa3_m1": 2.0,
    "kappa3_m2": 1.0,
    "kappa1_m3": 0.5,
    "kappa4": 0.1,
    "kappa5": 0.3,
    "rmin_m1": 0.8,
    "rmin_m2": 0.5,
    "sinr_noise_floor": 0.05,
    "interference_coupling": 0.6,
    "t_pre_s": 3.0,
    "output_dir": "outputs"
  },
  "convergence": {
    "SafeScale-MATD3": {
      "rewards": [
        [
          -637.8645959717422,
          -459.7399830657499,
          -528.5786233634,
          -435.3885951612554,
          -426.62208777859416,
          -424.6044954952654,
          -447.9950804351851,
          -437.8656366150544,
          -471.3212823427851,
          -492.8140028232809,
          -439.61113506442274,
          -477.70749945352935,
          -420.10410425597286,
          -387.2031743358069,
          -417.40324442514185,
          -412.8042590218013,
          -501.40829002862836,
          -521.5882859037789,
          -460.3386994303043,
          -412.6867118812749,
          -458.41021977086723,
          -415.39499732384724,
          -440.85057001723095,
          -395.5435427342481,
          -444.2624884716721,
          -424.0986636303921,
          -426.7854239327778,
          -419.03534261885306,
          -219.45314416583855,
          -238.5792436652449,
          -224.41357188250277,
          -461.84480773157713,
          -208.44869233623388,
          105.02906595364884,
          -175.98052994976223,
          214.06362233106827,
          -103.54890453492628,
          209.58816046136232,
          222.95938333531015,
          -118.5440359695621,
          -116.60982153541187,
          -126.85866582421593,
          209.0472529855932,
          202.912692422056,
          -674.296988024637,
          -147.8622554106777,
          -113.24725339071563,
          -108.60312279052849,
          -103.25951632781404,
          -434.0562969613075,
          -119.86463074481578,
          -103.76024735442799,
          -115.04795910459602,
          -98.47073318983946,
          -90.47731753900301,
          -132.4318077024883,
          -118.2735329033866,
          -130.417711207389,
          -80.4039937125976,
          -653.1105118572812,
          211.15428859402775,
          -451.43867894591364,
          -133.87409616660935,
          -121.33611534800662,
          -110.7612792082298,
          -441.5589089814917,
          -441.13872814631105,
          157.72871831687243,
          -122.70593494165105,
          -128.08033903194482,
          216.0299133113861,
          207.89615279863017,
          -103.72823330730598,
          192.79786920987675,
          -112.86035203083743,
          -105.50480865463159,
          -442.05158647742525,
          -448.01830144177006,
          -436.7971780086444,
          -121.9692792790187,
          -441.6229209473698,
          -117.4214384155739,
          -130.47046973780547,
          -123.67134054842525,
          -151.7482153625796,
          -487.6914717824974,
          -142.02760265678927,
          -387.9222655452207,
          -129.7438799963394,
          209.95619038694244,
          204.75602004264186,
          221.08923484678925,
          215.85421011926226,
          -117.02180249874586,
          -424.7949482952484,
          -111.41483422125158,
          202.8097817982687,
          -344.61400073409317,
          -115.38208325896042,
          207.02880699443995,
          193.6896689243338,
          205.64290665030703,
          195.71584128527377,
          174.88821777147683,
          -382.60301520011495,
          -141.87839881587809,
          -121.48510038749247,
          -119.26101619755622,
          -116.13240326830496,
          -111.71614001866796,
          201.61897758094244,
          211.43018205918372,
          209.36506324904354,
          -119.1898611090046,
          180.2556062860572,
          -144.16203281664514,
          -652.20800078575,
          -353.8232758398392,
          195.13749659808343,
          197.8036080044422,
          -125.9646703618973,
          -89.37175043639142,
          -106.15703180913631,
          -110.78626328389159,
          -105.27513299828108,
          -122.39438339594538,
          -150.36714298626742,
          -93.84127506496128,
          -101.30622646579963,
          -128.25551056012577,
          -135.01432902456608,
          222.56066640146312,
          -119.00401822848089,
          -335.4582183524797,
          -111.2204477383556,
          219.7439707900873,
          213.11941799137603,
          -636.7675767045605,
          210.40782608230955,
          184.53540199579788,
          -104.08215757709267,
          -114.71662099770757,
          214.46152229211313,
          -121.31771619407924,
          -111.97223408260737,
          -127.65739912259801,
          216.37639047717903,
          -347.9438644628533,
          -451.2699218445582,
          -109.69786809884923,
          191.12221332762275,
          -126.56591560728364,
          -351.94950158424274,
          -92.46150316086764,
          -111.35509379078731,
          208.13868010213787,
          -129.89496751088208,
          -112.0945316339209,
          -93.64957892356921,
          -110.99135845087517,
          176.9525382371579,
          -100.22424767860825,
          -93.75732345763238,
          -92.66663956302445,
          -99.2143083488216,
          -106.5601344454999,
          -107.74484214445047,
          -97.21742844542206,
          -104.24176755092519,
          -104.43983711908172,
          -360.33583147442005,
          -673.6339115614226,
          -119.69638730354401,
          -140.15109932154027,
          -98.78804426284033,
          -115.3899884096262,
          -112.73717504114754,
          -147.86946918659913,
          -109.27751596757574,
          -440.008066848164,
          190.9846052620086,
          -108.78501271752573,
          -411.7282700524668,
          -109.00726497415558,
          -110.4621791398468,
          -111.29883604596634,
          -327.34744149230056,
          -361.8955261043321,
          -90.44953861408533,
          -132.85474497019297,
          202.87445806603952,
          -121.07664369872577,
          196.33484518121116,
          -425.2514021175841,
          -432.9243334828096,
          -424.9778062435507,
          -339.68106676957143,
          -428.64716155165377,
          -86.476720109753,
          -98.84904234185353,
          -140.82960025050647,
          -414.90702544758824,
          -352.07362461672506,
          -113.74607023673533,
          -344.87241324883985,
          -112.18874905125004,
          -104.67548548638015,
          -426.81337395596216,
          -124.84082691412382,
          -352.2843899647483,
          -113.23357320908241,
          -444.6754201178125,
          189.72888804464432,
          -96.7463117482496,
          190.2660062645418,
          -111.72998870898218,
          -111.82772406014378,
          -110.49499659976217,
          125.85569764679528,
          -123.72691553775454,
          -107.97584130976938,
          201.2751424095159,
          -148.2506057596709,
          -431.50750666011845,
          -129.76212341091554,
          -432.2215923059789,
          -118.88115114197127,
          201.71752058401842,
          -125.28753589637795,
          -112.47628848617529,
          -118.61006818146096,
          191.20151267953426,
          186.1495323030517,
          177.77522746093177,
          -315.9409947125764,
          -102.62350279757686,
          124.67384280391032,
          -342.5006949051429,
          207.52375448712664,
          -99.00656908452838,
          -119.00103748860943,
          -450.4518399044517,
          -441.92013552212916,
          210.81274630864763,
          -120.51219252271204,
          -125.15769560981653,
          -122.79976113209553,
          -427.75664187241154,
          -104.40405647313291,
          -449.9826732666758,
          -112.76313417611303,
          192.96590992451235,
          -89.48431137181318,
          -371.25188248699146,
          -121.21800086375472,
          -177.1539091528523,
          204.60095359435073,
          -337.44123028170105,
          -110.11638481644114,
          -116.91258278810746,
          -103.83966304313954,
          190.2524990637816,
          -109.36391723089903,
          199.24711299266198,
          210.7758239254542,
          217.42411346250873,
          -123.0453621260349,
          -99.81702515503363,
          -348.0332790278022,
          -452.386872859536,
          -427.59941323651316,
          195.16921250183958,
          -111.33122717500925,
          -99.54788051962848,
          192.89690544731567,
          184.8105360448807,
          -124.85131045548499,
          -111.87808604524844,
          -142.1657402057194,
          197.62372651478907,
          -195.3186767390933,
          -207.092246749905,
          191.89365848904694,
          -116.34245365392682,
          141.62980495947784,
          -120.5965304009684,
          -102.76082202600911,
          -113.96274983687115,
          -62.480307394720406,
          -415.09539040550385,
          -156.33627284598808,
          203.83751666643656,
          188.1004913297604,
          214.29340522972691,
          -323.47367461552693,
          -103.2264043036702,
          -338.1178931148424,
          -423.77690745038626,
          153.71547497364156,
          -107.74541766078849,
          202.7585715562706,
          -342.29165203546154,
          -128.28010132927463,
          -107.57470389708905,
          -348.29803777032436,
          186.9099573821744,
          218.1670775263691,
          -435.1976859536722,
          -147.10742540870683,
          -93.04923994813784,
          -112.84185371207302,
          -151.00009955310915,
          -108.3981235124992,
          218.63168758128018,
          -367.2222148354815,
          -143.95126614948666,
          213.84940401552538,
          205.3085335644525,
          196.68301451132618,
          -129.71623223633836,
          -106.01320804393931,
          -101.98989041291708,
          -318.47925898548084,
          -105.43692716430225,
          -126.30021481817101,
          -97.04171357479758,
          -99.26774385938651,
          -557.0913837538463,
          -108.47904235074434,
          -448.6661778364878,
          -425.4619978278067,
          -148.9557343538105,
          -110.19996519820486,
          -120.91797955086868,
          -432.01130014899866,
          -102.74439487798114,
          -330.2059314602294,
          -131.61969440090613,
          -121.41460465687088,
          -344.7876522742439,
          -116.00878725747464,
          -128.80500302135016,
          -123.99295821255724,
          -102.27612548743464,
          -141.26265439441028,
          -98.81512939102265,
          -444.5208320227615,
          180.76396549475595,
          -129.81426705445026,
          -438.8436980372483,
          188.19913757800848,
          231.267802264862,
          216.63060991690116,
          -117.75753955125,
          207.7187814977289,
          190.14708885534802,
          165.91700076727167,
          -567.9809149853857,
          181.91663025898683,
          -152.28031661328183,
          -133.40861610300408,
          -120.72866960379935,
          -437.8606267308745,
          -123.59527985859752,
          -113.77257107355324,
          208.28466435168698,
          -111.46507458880704,
          196.3794972278886,
          -124.9319484515696,
          -107.48590777624639,
          -103.79050331894378,
          188.98017854828342,
          -423.8843180477878,
          212.86746099063865,
          -118.81898296174117,
          -110.64325924034304,
          219.8583459826088,
          -103.21274719470854,
          -90.38207912013888,
          -435.131645386459,
          -672.0512243508481,
          -171.36305981118267,
          -121.62446360510533,
          123.75448656480975,
          -447.9183413669078,
          -125.51891321582634,
          -418.27976933546176,
          -112.82378520439626,
          -121.34606216222224,
          -118.2974738575198,
          -111.32163043432838,
          -198.11530514123245,
          -126.61664335260822,
          -99.7408555693673,
          -106.4241754903027,
          -147.80143764344047,
          -130.4197957206395,
          205.13960154061752,
          196.2162846925328,
          -353.354949452009
        ],
        [
          -700.3379827357082,
          -829.8855382237124,
          -660.5932686218558,
          -537.6517148374745,
          -655.0973608858783,
          -587.6759417811196,
          -538.5585325370893,
          -505.2928736789203,
          -397.5181948410113,
          -494.6127170110842,
          -455.1100765725184,
          -437.40859473659,
          -412.80745838870763,
          -407.40557394035807,
          -596.1736317040702,
          -632.0389598342072,
          -713.2226683190543,
          -532.3115959932046,
          -513.8091750276639,
          -662.506759517039,
          -666.7059783501966,
          -613.9052252179372,
          -612.2046941995727,
          -645.6043665021552,
          -528.4043413275695,
          -603.4040775940966,
          -560.9041522048841,
          -607.503692922796,
          -423.8712917786554,
          -224.07832537423965,
          -226.17748527004093,
          3.236107895234656,
          -220.70678552532567,
          -512.0274018728963,
          -470.887962259445,
          -234.22581619073821,
          8.936144292665107,
          105.86155012781738,
          -108.60822789254165,
          -155.30017464560026,
          -107.02622500604224,
          195.68656400890052,
          192.3734117744183,
          -338.01770631105774,
          -118.74903853747026,
          -107.54865893743344,
          -109.85507921325978,
          200.24463460951824,
          -119.97453524140846,
          -436.07624942137164,
          -92.94526778833811,
          -445.314798127605,
          -98.90094775564224,
          -115.97337396708662,
          210.05336683134195,
          214.99923198036842,
          229.57226725568617,
          -314.7450641461112,
          -110.19102220077164,
          198.74309410345612,
          -109.8201698018685,
          -130.3315499255624,
          -439.11009160214473,
          201.81077530012016,
          -116.436144355163,
          -354.1319761667586,
          -125.49438095734897,
          182.2654861921426,
          -107.00551953115524,
          -118.12939416314653,
          -120.86898453279683,
          -112.86903069337738,
          -123.10366075002129,
          -98.52696091025766,
          -131.36056365590457,
          204.69558342793223,
          -90.83636567529005,
          -125.50846957749452,
          -159.013469141877,
          -433.2632527239804,
          -115.15949013825637,
          185.51262994930124,
          -437.8403807778235,
          -423.89299717001717,
          -340.2657511754231,
          171.84464210950767,
          -109.47138044669612,
          -119.8522191245046,
          219.36731561974753,
          200.59526676739762,
          -119.96944391718354,
          -117.61774597402405,
          -108.99619438188925,
          -123.89952618595679,
          -108.98663533286548,
          -127.07205437962375,
          -112.40497648160208,
          -109.51179883255007,
          205.75299432367456,
          -109.81547273871999,
          -353.24044797544997,
          207.9684944424805,
          -105.10159347765249,
          -106.46509735912595,
          -114.78232232231366,
          -441.60251563970337,
          -430.3482618600103,
          -412.7396160814819,
          -121.21561694153785,
          -133.4803479399162,
          197.0955387939494,
          188.99429097416535,
          -415.61231194012595,
          -123.64747280702102,
          208.20992889668688,
          -108.95820999605691,
          207.24986646398227,
          -109.67248114732998,
          -96.21808990292477,
          -111.79610498083483,
          191.46149105984816,
          211.87110591257323,
          -345.0066141535546,
          165.5875930417858,
          201.5503380180349,
          -102.03431058630876,
          -123.98956263398777,
          186.25736527577,
          -137.7761310049176,
          -115.00815748551756,
          220.2218607473556,
          -101.97375956886944,
          184.37837783894767,
          -119.39603063195689,
          -137.79813465761913,
          230.28168351188108,
          -110.78374223947691,
          -127.40392713079929,
          206.61753152746144,
          202.15438911363552,
          -120.27629373266983,
          -92.62184322701184,
          -119.26920610733507,
          -113.2406325921265,
          -338.5988699314791,
          -104.32298337596649,
          195.97229951535644,
          -119.80604479104538,
          -137.12061363538623,
          -111.44536804387356,
          219.95827181454078,
          -130.7820432121607,
          -97.45188196942472,
          -319.39964134769036,
          -454.9888457028043,
          -149.14537536360237,
          -129.08267435942304,
          -101.71723797596808,
          -104.9978817589916,
          188.83433091713735,
          -424.4259619146576,
          211.22064519930643,
          -417.0795915889615,
          -347.12625261772297,
          -110.95940966920953,
          -446.7325724398282,
          220.78942905950893,
          220.05119227383884,
          218.0550659924109,
          -109.11139973091677,
          194.95342929173756,
          -114.57472527750863,
          220.38176447027593,
          186.00742451023564,
          -116.58329613297254,
          -101.63907625387989,
          -113.13582256156907,
          195.34968203802384,
          -128.4360706561749,
          190.9884967661455,
          -90.58633298594461,
          -108.85731398458108,
          197.78348150526688,
          -133.8017709195493,
          -334.60675481308033,
          -91.56109488433812,
          212.98474077326247,
          -360.9852116673532,
          216.37005006045172,
          206.9395708152316,
          -92.43694960479077,
          223.4659944904431,
          210.13447499382414,
          -113.8255516427897,
          -351.2237570912458,
          -145.09625321029563,
          -123.04771783255676,
          -118.10436634602,
          187.5708668211453,
          214.6469827202638,
          -107.48002697121741,
          -360.6931575761759,
          202.9369872359241,
          -87.61758631147156,
          -364.23044773720176,
          -331.11021744517456,
          -111.57002825349352,
          200.29971888820776,
          -103.63023248117602,
          -98.60027813175772,
          -102.48914247481801,
          203.84405396668524,
          -104.28407698915107,
          184.06985567957085,
          202.42259772946983,
          -113.75693971463178,
          -132.54478441461143,
          204.27829843878376,
          219.60504606674718,
          -121.23732272145928,
          -141.1830199480995,
          -109.23616289759929,
          205.24191473176484,
          -103.57167562335393,
          -111.9859548837585,
          221.24440310675917,
          -110.20479627925,
          -125.39794494507943,
          203.98627858681604,
          -102.50819601442947,
          -118.72614119397437,
          233.65408824081715,
          -107.31878742069956,
          -425.89797472006944,
          -116.49058074975288,
          206.44302839035853,
          -132.29902144483796,
          -106.813904671366,
          -356.54993167763183,
          -133.2199641811541,
          -132.8723609816645,
          -91.12380044303693,
          -338.1842590816888,
          -124.55001273096772,
          194.03446682839203,
          -104.14476085683555,
          193.1276027529183,
          -131.88935958467033,
          -135.101447633858,
          192.57343752811218,
          -113.81406783688278,
          -445.7249564658472,
          -127.36364663072413,
          -115.4453853598226,
          -346.0893075049758,
          195.08550031230484,
          -105.14462146879272,
          -121.44171296769268,
          -108.28820520814601,
          -436.1443691063502,
          -341.46967714209933,
          -115.22477754028633,
          189.81428346353047,
          -118.55014706624193,
          197.95889300716092,
          -147.18481095900052,
          197.3561330269972,
          -125.46297797601046,
          195.7355337298809,
          -133.52413524820832,
          -129.4151191714296,
          -136.68727781067102,
          -427.3755755991803,
          -132.6688411681784,
          213.7128226059504,
          -126.61822233369966,
          189.7267890561441,
          199.14929716088065,
          -113.70644187545031,
          -106.16869334221724,
          -100.45050119561577,
          -360.51758584492075,
          193.29792329494003,
          -111.03664294644332,
          -412.60990020025304,
          -142.62806502442234,
          -101.23914042478525,
          -112.95090387370317,
          -119.57611186423861,
          -101.60056777772195,
          -442.43361625156786,
          -134.7526129163917,
          -540.7877291854328,
          188.66672180539615,
          -117.64386531752776,
          -100.847217473981,
          -433.6040139236737,
          -102.04764363301491,
          -441.31757225973007,
          -430.97887774006114,
          -126.15825143872149,
          -119.68106722714383,
          203.51966721316003,
          -122.35109139299247,
          -129.09764282174035,
          -108.18211222091047,
          219.07901492707495,
          -100.09266694819918,
          -127.72154685895903,
          -117.07102605111231,
          -113.74479687033782,
          -441.356366659022,
          -111.18792575657031,
          -128.76742214812563,
          199.27583248713034,
          -341.0190250551322,
          214.66607659644436,
          -365.0126223783735,
          -102.74049577770526,
          184.0165477754368,
          -97.64977600196718,
          -113.48181777879994,
          187.9121512999715,
          -84.3804263545942,
          -115.14518463766281,
          -432.53902271053613,
          209.42580171974748,
          -110.82819201784936,
          182.3930627855731,
          -101.33925131343014,
          -114.42147989103239,
          -124.99517419669132,
          -104.62596213880123,
          -109.95446423728849,
          -109.28488081997439,
          -348.63638261504883,
          -438.1647562735874,
          -155.72498190601038,
          -95.46672008768259,
          205.11934620900647,
          189.1910875883751,
          213.50442855418225,
          -130.14585436326695,
          225.20808517221775,
          209.71297672284896,
          -411.58468868256847,
          203.9357645147146,
          208.8157812117942,
          -434.6663579876312,
          221.88202151851047,
          -101.98106307971918,
          -401.3230002601375,
          -346.1715886690431,
          198.12186292387318,
          -327.2773660757663,
          -131.08273054522653,
          -120.05411085977863,
          -112.92128337701979,
          216.3459433662361,
          -96.79664247289533,
          167.92521320487327,
          197.35438292726792,
          -433.02309457381057,
          -337.27055308779194,
          -131.23055835536172,
          201.24628551005543,
          -433.43994256909485,
          200.67918924354134,
          -346.64961800637684,
          -106.93924100389268,
          -132.82570610663188,
          -131.02306957633377,
          -138.3694068905978,
          -93.2762267620758,
          -108.69145950251188,
          -117.54413790485528,
          -432.8601247085648,
          -105.17999013367212,
          -116.35634701266054,
          -122.82499548372668,
          170.27997799297825,
          -113.04381114354904,
          -130.34619208027846,
          -122.97905700145232,
          195.4792709545701,
          185.0076494203316,
          222.65729257459753,
          -129.30016813582782,
          190.56090588142098,
          136.8873405476125,
          -102.49839101616564,
          -119.62488830072529,
          210.86507380593264,
          -458.39217948546303,
          -103.86237604056136,
          -123.60848292196633,
          -339.38176954603955,
          -100.19052428326398,
          -430.48597601271223,
          -111.72880169691427
        ],
        [
          -465.4095001068028,
          -525.5184291022746,
          -549.3043006852259,
          -220.9485071242406,
          -588.3591293607369,
          -611.1978777370302,
          -597.913317700257,
          -543.9130810125039,
          -685.7031292367554,
          -615.428222678911,
          -17.034073420075906,
          -523.4530835549848,
          -368.62484376122046,
          -590.0121007653267,
          -335.05552984336373,
          -405.50911283183046,
          -185.15801051468938,
          -99.96479613723871,
          -642.0355069927577,
          -108.75562632415902,
          -276.21802210089686,
          -401.6955707392531,
          -470.0392987346336,
          -343.6532760236251,
          -339.8459191675089,
          -382.21252147480794,
          -361.5202023557623,
          -341.0714591980196,
          175.39063219815176,
          -0.15506894211566236,
          -45.005090671406975,
          -114.15560950296413,
          -111.06337711567967,
          -173.31426112637067,
          -2.047247019667602,
          -220.50577409032914,
          -463.47961415621137,
          -556.7044898319922,
          -12.801185519795196,
          -564.6657483264271,
          -199.3767175736775,
          5.061290698152608,
          -159.66304410282035,
          -261.13274106143024,
          -307.66154006754783,
          -172.8615445097595,
          -100.94833295447332,
          -87.70975899267671,
          -119.56394235837301,
          -265.2007112030347,
          -76.9262237882748,
          -442.3498266810143,
          -110.06567582781746,
          -435.9169833759062,
          -138.2627182081884,
          104.40576804254538,
          -55.208144524593145,
          -106.0001940701279,
          -100.10894219000019,
          -275.61591123095917,
          -0.22769543855037488,
          -116.93228332399227,
          -129.9482342062089,
          43.94408080768781,
          -235.17570592902152,
          -357.5820651509208,
          -270.7877630757787,
          142.6267961008342,
          -110.18855966324772,
          -176.86836191875656,
          -92.45881073020176,
          78.78180100847996,
          -8.077758499508684,
          -429.88853044377737,
          204.13599969010198,
          -267.8584573635173,
          -57.70433688398888,
          29.416548834477943,
          154.9143756669658,
          -227.89564652243402,
          -120.71373523714836,
          -39.25864855721696,
          -43.90229082775245,
          -103.30110478938492,
          -12.54186069681043,
          -386.4523455066756,
          -36.97381151661186,
          27.511707428049032,
          -153.3864536315658,
          -472.1141532957985,
          -395.38921683615297,
          -138.4198555626638,
          -216.4961308037089,
          143.42825058070744,
          174.83347034821873,
          92.21987371531893,
          -403.93384315674564,
          -259.5633790859025,
          9.80155394533762,
          33.22604383513049,
          -338.2679130052282,
          101.22316763028574,
          83.00138589771237,
          -95.47535413267474,
          47.33948448107868,
          -366.9513491107722,
          -245.39238302740964,
          -173.60863664888836,
          -242.42218324599776,
          -117.95639618769475,
          -157.9953101589573,
          -137.23858367979057,
          -138.96303759494336,
          -286.1776739823781,
          -107.41173623773635,
          -94.89151592399661,
          -332.16208929131795,
          -214.29260706957604,
          93.91043903920014,
          -116.05828617001096,
          -175.24874067176037,
          -35.28230145303007,
          -195.12197736378087,
          150.20726370509274,
          -205.14996534760624,
          -162.78500110073995,
          -3.840939169943966,
          -375.01447991732744,
          57.063879667531474,
          -134.02489798290736,
          -162.10174790596798,
          -252.20925321791046,
          -21.741997521292806,
          -252.43132776011868,
          4.784351787718347,
          -184.12399569762223,
          -127.4023770753197,
          150.22098139119973,
          -28.10728107321554,
          -152.83173898123508,
          20.075564523787186,
          35.22657870193509,
          162.2187884870577,
          176.86750376631616,
          -69.91479739996076,
          -176.52883088189466,
          -345.3307473603039,
          200.26713709706343,
          -139.03255768212964,
          -349.4402976996834,
          -97.92933375990008,
          -450.881180376457,
          181.2469235857171,
          -128.04048123913506,
          -112.03510836816142,
          -130.93912221498869,
          -118.75026099978847,
          173.85981544423083,
          -123.61468500872435,
          198.12563957704856,
          -449.42735673796835,
          -101.44156048486748,
          -112.43982674326881,
          124.04202639025245,
          187.71588542263862,
          197.91299627812924,
          -430.01243219284504,
          -115.72899518893588,
          -170.06420627651067,
          -646.5779940119909,
          -119.42747341778417,
          -369.35687399397597,
          202.7863033275771,
          199.87134027661844,
          -365.32958440987653,
          215.02290896843067,
          193.9353775693322,
          -133.33641926731036,
          -93.98351242884996,
          -127.15308601171655,
          -138.86042482788812,
          187.71877614820608,
          -96.02115821156816,
          -104.3204609103438,
          -105.90640305163863,
          -96.98420279020607,
          -90.98514065733647,
          -99.29827770833654,
          203.05556992404763,
          -110.1554742560809,
          196.7381335847039,
          -144.10300817830324,
          -110.50583417018869,
          220.39411922113558,
          -148.81094666315636,
          -432.3093666986455,
          -106.44282975222039,
          -102.94182450453087,
          -443.18451049190344,
          198.27198589979636,
          -424.26919545739486,
          -433.05213078612496,
          -106.57387096218426,
          -560.4734322649504,
          -103.50726550927794,
          206.06552008704193,
          -99.90617797860033,
          -93.4367728170293,
          -126.85030087189456,
          -101.2696264739326,
          196.43323322533374,
          -107.04098447521629,
          -99.4538612518063,
          181.1774771731265,
          -140.2174068031396,
          -106.45585669417864,
          198.73326652515794,
          -415.4486864681584,
          -125.00896208633094,
          162.18678391480282,
          -122.06163960206449,
          -105.52443555905286,
          -314.65607106469133,
          -123.45086908782423,
          181.61770931129405,
          -109.21717839648252,
          -114.18627386649983,
          -126.29059280306724,
          196.5097913561136,
          -436.2413644985141,
          170.00785901145784,
          -417.6929691574908,
          -422.2532898960825,
          215.73159329052274,
          -96.47044177283549,
          -105.75339364613154,
          -414.5149234808797,
          -123.59021077486453,
          -113.60444643008739,
          -114.70335399005158,
          -426.0363514281914,
          -88.5396185864228,
          -118.57714249007618,
          -107.66130600383299,
          189.26519089189202,
          -356.1261055646329,
          -150.53218295809833,
          -130.96186571510782,
          205.3226797765742,
          -104.95607678544192,
          -111.96850449809631,
          192.183347733472,
          -116.62688842847628,
          -113.62985904995033,
          -123.24225144500639,
          -110.12933115412471,
          -435.93062234788266,
          207.790036431931,
          205.18456196209098,
          226.121737583779,
          -125.05251813805008,
          200.86514121842336,
          -106.3009262062124,
          -451.9845672636644,
          -129.31894890775524,
          -442.19526830644804,
          -44.23167224566118,
          -125.37426600592548,
          215.2045535596274,
          -126.25279561352147,
          -447.8822937688972,
          -120.36960411994649,
          203.48099455634446,
          212.2352742356477,
          -114.78952380666078,
          -563.8369558405844,
          -340.54506722698045,
          203.84894749651656,
          -339.812932471187,
          -112.25075894240139,
          -132.46478409619206,
          -102.85007976841823,
          -347.8548167843767,
          -132.7455465472797,
          -116.85108321459118,
          -100.22003670882088,
          177.66462419164122,
          -128.59970398199104,
          145.57207386794173,
          204.77098255609897,
          -333.88433403323734,
          -102.1657026059313,
          -114.04250414955577,
          -427.77028796470836,
          -421.0664430728042,
          -368.10598517618587,
          -106.87545048008089,
          197.57233333641437,
          -127.08713707815346,
          -96.34365166086315,
          203.0070928299106,
          -437.0280557732808,
          183.60994712324975,
          -112.41090771955801,
          213.89564791279824,
          -101.23539445523996,
          -105.26831393570353,
          -108.77483503735807,
          -341.2020043746891,
          -96.61986890846221,
          -349.8409107920373,
          -118.75024007433647,
          -116.69128649360921,
          -106.2459604251668,
          -348.67932998534815,
          211.02107401214226,
          191.46235560027486,
          -111.93857729103753,
          204.47103111496256,
          -120.55076495020523,
          -337.41329297259085,
          -122.51613032948914,
          -115.47332897956703,
          -138.96422248281877,
          -117.64893846076794,
          -111.3171672167448,
          -112.25639442818158,
          -122.03259092905276,
          211.86075008778866,
          225.11097066263105,
          -118.4532207734178,
          -96.20240279073415,
          -132.86021887046064,
          -120.50336737051813,
          -102.68610794792316,
          -108.22275295400058,
          -87.77214114362968,
          -320.1396958517544,
          -122.99468628820055,
          -104.91403759075732,
          -98.02679342796377,
          -423.541346737758,
          235.67303001529362,
          -318.91120830847433,
          -116.56152374209067,
          -107.13909693273035,
          228.57281082188177,
          -124.10130768587814,
          201.57612321358562,
          214.1177756653603,
          -110.62434578499816,
          -125.88402772045677,
          -110.08114232616639,
          -107.38586879431853,
          -99.9261580711547,
          -110.92757662948037,
          192.66611334467797,
          -105.82033726496923,
          -98.62083151092892,
          -335.3035439215942,
          -439.9766962659739,
          -657.9184128940545,
          -372.17617695970387,
          197.82210117096147,
          -447.2291472096216,
          -109.1220838479132,
          186.6789123590281,
          -103.54186313659666,
          -96.34776927645075,
          -122.04369809155553,
          -432.375715695837,
          -142.1647716284889,
          -113.9297428667379,
          207.4429748256148,
          -88.41194311000802,
          -115.35883449096775,
          -111.14250437568572,
          217.8506252890512,
          -135.3836581554592,
          203.1751268397546,
          189.9360231775273,
          -117.01465505557444,
          -105.51928373467663,
          -105.95501112679278,
          -347.08341703389425,
          -130.72880263292166,
          183.9024678281924,
          -126.81073768236581,
          -120.95910584253116,
          -89.7030663543292,
          -97.62510911138327,
          -128.41170260948908,
          -363.03401326778345,
          -353.3243066253557,
          -110.06100797227461,
          199.44875176276204,
          -337.86498452034755,
          201.0199537053762,
          220.19258443213644,
          198.24597934613752
        ]
      ],
      "aoi": [
        [
          2.203111111111111,
          2.143555555555556,
          2.2488888888888883,
          2.2746666666666653,
          2.2422222222222232,
          2.233777777777779,
          2.2826666666666666,
          2.2591111111111104,
          2.3120000000000016,
          2.3040000000000003,
          2.2844444444444454,
          2.2884444444444445,
          2.241777777777779,
          2.2213333333333334,
          2.2417777777777785,
          2.2746666666666675,
          2.3279999999999994,
          2.288,
          2.2573333333333325,
          2.216888888888889,
          2.2235555555555555,
          2.241333333333333,
          2.1866666666666665,
          2.2022222222222223,
          2.2733333333333325,
          2.2795555555555556,
          2.222666666666666,
          2.2497777777777785,
          2.0693333333333332,
          2.0653333333333346,
          2.068444444444445,
          2.0386666666666677,
          2.096888888888889,
          2.010666666666667,
          2.06,
          1.9364444444444442,
          1.968444444444445,
          1.9764444444444436,
          1.9568888888888891,
          1.9955555555555555,
          2.0075555555555544,
          1.993333333333333,
          1.9822222222222226,
          1.9884444444444447,
          2.0226666666666673,
          2.023111111111111,
          1.9977777777777772,
          1.9706666666666661,
          1.9742222222222225,
          1.9920000000000004,
          2.011999999999999,
          1.9848888888888883,
          1.9791111111111124,
          1.9600000000000004,
          1.9404444444444449,
          2.0124444444444447,
          2.0159999999999987,
          2.031555555555556,
          1.898222222222222,
          1.9835555555555562,
          1.9671111111111115,
          2.0440000000000005,
          2.0151111111111106,
          1.9951111111111113,
          1.972,
          2.017777777777779,
          2.001777777777778,
          2.0573333333333337,
          1.9902222222222221,
          2.0048888888888894,
          1.959111111111112,
          1.9862222222222226,
          1.9693333333333327,
          1.9844444444444447,
          1.9866666666666675,
          1.9511111111111101,
          2.0084444444444447,
          2.0528888888888885,
          2.0031111111111115,
          2.00711111111111,
          2.015111111111112,
          1.9951111111111113,
          2.002222222222222,
          1.9439999999999997,
          1.9964444444444447,
          2.0275555555555553,
          1.9888888888888892,
          1.9888888888888892,
          2.001333333333334,
          1.9715555555555553,
          1.987555555555555,
          1.9626666666666666,
          1.9635555555555562,
          1.9746666666666666,
          1.986222222222223,
          1.988,
          1.9937777777777774,
          1.9773333333333338,
          1.968,
          1.9906666666666673,
          2.0124444444444447,
          1.9973333333333338,
          1.9439999999999993,
          2.068444444444444,
          2.0724444444444448,
          2.003555555555555,
          2.0044444444444443,
          1.9942222222222221,
          1.977777777777779,
          1.9924444444444438,
          1.9928888888888878,
          1.9844444444444447,
          1.9782222222222223,
          1.9960000000000018,
          2.0257777777777783,
          2.025333333333333,
          2.0031111111111124,
          2.0075555555555553,
          1.9822222222222226,
          2.0000000000000004,
          1.995111111111111,
          1.9511111111111112,
          1.9466666666666679,
          1.9773333333333338,
          1.9608888888888885,
          1.993777777777779,
          2.0417777777777775,
          1.9382222222222223,
          1.9422222222222205,
          2.0413333333333346,
          2.0177777777777783,
          1.94088888888889,
          2.022222222222222,
          1.9742222222222214,
          1.9902222222222234,
          1.9608888888888891,
          1.9466666666666659,
          1.9360000000000002,
          1.9702222222222217,
          2.0097777777777783,
          1.9608888888888891,
          1.9848888888888894,
          1.9777777777777776,
          1.9391111111111115,
          1.9848888888888887,
          1.9906666666666673,
          1.9462222222222225,
          1.9915555555555553,
          2.030222222222222,
          1.9697777777777787,
          2.026222222222223,
          2.013333333333334,
          2.029777777777777,
          1.965333333333333,
          1.962666666666667,
          1.9835555555555562,
          2.0035555555555553,
          2.006222222222222,
          1.9551111111111106,
          1.9946666666666661,
          2.0377777777777784,
          1.9657777777777774,
          1.9386666666666652,
          1.92888888888889,
          1.9720000000000004,
          1.970666666666668,
          2.000000000000001,
          1.9751111111111121,
          1.9622222222222232,
          1.9728888888888885,
          1.963999999999999,
          2.0142222222222226,
          2.008444444444446,
          2.003111111111111,
          1.9182222222222232,
          1.9911111111111113,
          1.9911111111111104,
          2.0453333333333332,
          1.9782222222222217,
          1.9831111111111124,
          2.020888888888889,
          1.972,
          1.9568888888888891,
          1.9675555555555555,
          1.9919999999999998,
          1.9817777777777787,
          1.9546666666666677,
          2.0484444444444434,
          1.9408888888888889,
          2.026222222222222,
          1.9746666666666681,
          1.9968888888888887,
          2.0195555555555558,
          1.978222222222223,
          2.0035555555555566,
          1.9688888888888885,
          2.0013333333333327,
          2.0120000000000013,
          1.9546666666666674,
          1.9635555555555573,
          2.0488888888888894,
          1.9368888888888895,
          1.994222222222222,
          1.9773333333333354,
          1.9866666666666655,
          1.9759999999999998,
          1.9422222222222225,
          1.9786666666666664,
          2.0035555555555566,
          1.9773333333333338,
          1.9959999999999996,
          1.9466666666666659,
          1.9911111111111097,
          1.955111111111111,
          2.0133333333333336,
          1.9746666666666666,
          1.9808888888888878,
          1.994222222222223,
          2.0377777777777784,
          2.0,
          1.9706666666666661,
          2.0035555555555558,
          2.0688888888888886,
          1.9648888888888887,
          1.98088888888889,
          2.001333333333333,
          2.009333333333333,
          1.9879999999999995,
          2.0017777777777774,
          1.980444444444445,
          1.986666666666666,
          1.9955555555555566,
          1.9813333333333325,
          2.0275555555555553,
          1.9355555555555544,
          1.9440000000000006,
          2.035111111111112,
          1.993333333333334,
          1.9742222222222237,
          1.954222222222222,
          1.9653333333333327,
          2.012888888888888,
          1.9995555555555555,
          1.9719999999999989,
          2.016444444444444,
          1.9777777777777779,
          2.0164444444444434,
          2.0004444444444447,
          1.9817777777777772,
          1.9888888888888892,
          1.9791111111111124,
          2.0275555555555553,
          1.9333333333333333,
          2.036444444444445,
          2.006666666666666,
          2.004444444444445,
          1.963555555555555,
          1.9591111111111112,
          1.9831111111111122,
          1.9915555555555564,
          1.9622222222222216,
          2.046666666666667,
          1.98488888888889,
          1.9884444444444436,
          1.980444444444444,
          1.9560000000000002,
          2.009777777777777,
          1.9391111111111115,
          2.0079999999999987,
          2.03288888888889,
          1.9546666666666654,
          1.998222222222222,
          1.9844444444444442,
          1.9662222222222223,
          2.004,
          2.0186666666666655,
          2.0346666666666664,
          1.9488888888888884,
          2.070222222222222,
          2.005777777777778,
          1.9502222222222212,
          1.999555555555556,
          2.0026666666666664,
          2.0035555555555553,
          2.031111111111111,
          2.0164444444444447,
          1.969777777777778,
          1.9582222222222216,
          2.0524444444444456,
          1.944888888888889,
          2.011111111111111,
          1.9826666666666666,
          2.036000000000002,
          1.949777777777778,
          1.946666666666667,
          1.942222222222221,
          1.9942222222222237,
          1.9706666666666661,
          2.0511111111111107,
          1.9942222222222226,
          2.0017777777777783,
          1.9813333333333345,
          2.0364444444444456,
          1.9928888888888896,
          1.9920000000000004,
          2.033777777777777,
          1.923111111111111,
          2.013333333333334,
          2.0671111111111116,
          1.9515555555555557,
          2.010666666666667,
          2.016000000000001,
          1.9653333333333343,
          1.9542222222222219,
          2.0408888888888894,
          2.0257777777777783,
          1.96088888888889,
          1.9391111111111103,
          1.992444444444446,
          2.0333333333333328,
          1.9426666666666657,
          1.9306666666666676,
          1.94,
          1.9911111111111102,
          2.023111111111111,
          1.9724444444444438,
          1.9573333333333323,
          1.967555555555557,
          1.9791111111111113,
          2.0248888888888885,
          1.9662222222222219,
          2.0337777777777775,
          1.978666666666667,
          2.0088888888888885,
          2.009333333333332,
          1.9702222222222223,
          1.9453333333333334,
          1.9902222222222217,
          2.0226666666666677,
          1.9622222222222232,
          1.9884444444444447,
          2.0164444444444447,
          2.004444444444445,
          1.9582222222222216,
          2.027111111111112,
          1.9559999999999986,
          2.0173333333333328,
          2.011555555555556,
          2.034666666666666,
          2.0168888888888903,
          2.0084444444444443,
          1.9191111111111108,
          1.936000000000001,
          1.978222222222223,
          1.964888888888889,
          1.9946666666666673,
          2.0106666666666677,
          2.036444444444444,
          2.0039999999999996,
          2.0573333333333337,
          1.9875555555555555,
          2.028,
          2.017333333333333,
          2.013333333333333,
          1.9999999999999993,
          1.9648888888888882,
          1.980000000000001,
          1.9306666666666672,
          1.9644444444444442,
          2.0053333333333336,
          1.9813333333333347,
          2.013333333333333,
          1.9680000000000006,
          1.9577777777777783,
          2.0115555555555558,
          1.9902222222222221,
          1.9462222222222223,
          1.9604444444444449,
          1.916444444444445,
          1.9991111111111108,
          2.031111111111113,
          2.037333333333333,
          2.000000000000001,
          2.0093333333333323,
          2.0422222222222226,
          1.9893333333333352,
          1.953333333333333,
          1.9835555555555564,
          2.0080000000000013,
          2.0115555555555553,
          1.9808888888888896,
          2.1022222222222227,
          2.024888888888889,
          1.939555555555557,
          1.9728888888888867,
          2.026666666666666,
          2.0235555555555553,
          1.9804444444444433,
          2.024,
          2.0186666666666677
        ],
        [
          2.331555555555555,
          2.3373333333333335,
          2.3751111111111114,
          2.276888888888889,
          2.3319999999999994,
          2.3320000000000003,
          2.300444444444444,
          2.2742222222222224,
          2.2044444444444444,
          2.2533333333333325,
          2.2737777777777786,
          2.2302222222222228,
          2.254222222222223,
          2.245333333333333,
          2.316444444444444,
          2.282222222222222,
          2.484444444444444,
          2.3679999999999994,
          2.3808888888888897,
          2.4008888888888893,
          2.414666666666666,
          2.395555555555556,
          2.4257777777777765,
          2.347111111111113,
          2.3475555555555547,
          2.3515555555555547,
          2.367555555555556,
          2.3906666666666663,
          2.058666666666667,
          2.0573333333333323,
          2.0862222222222226,
          2.1075555555555563,
          2.102666666666667,
          2.1822222222222205,
          2.130666666666667,
          2.1311111111111116,
          2.066222222222222,
          2.059111111111111,
          1.9195555555555543,
          2.0093333333333327,
          1.974222222222222,
          2.019555555555556,
          1.9822222222222214,
          1.9915555555555557,
          1.9982222222222235,
          1.984444444444445,
          1.9893333333333338,
          1.9799999999999995,
          1.9862222222222226,
          1.9991111111111108,
          1.9493333333333343,
          2.019111111111111,
          1.9493333333333331,
          1.9826666666666657,
          1.942666666666668,
          1.9764444444444458,
          1.9315555555555561,
          1.9222222222222232,
          1.9684444444444444,
          2.009333333333334,
          1.9764444444444447,
          2.0306666666666673,
          2.0124444444444447,
          1.9884444444444442,
          1.9942222222222221,
          2.0186666666666673,
          2.0186666666666673,
          2.0311111111111106,
          1.9795555555555553,
          1.9835555555555562,
          2.0,
          1.993333333333333,
          2.008000000000001,
          1.9511111111111108,
          1.9955555555555542,
          2.006666666666667,
          1.9342222222222218,
          2.012444444444444,
          2.0004444444444456,
          1.9937777777777776,
          1.9973333333333338,
          2.0084444444444443,
          2.008444444444446,
          1.9737777777777792,
          1.994666666666667,
          2.069333333333334,
          1.986666666666667,
          2.000888888888888,
          1.9506666666666665,
          1.9848888888888883,
          1.9893333333333332,
          1.9902222222222212,
          1.971555555555556,
          2.0297777777777792,
          1.929777777777778,
          2.0266666666666646,
          1.9977777777777774,
          1.9666666666666666,
          1.975111111111111,
          1.9862222222222223,
          2.0146666666666664,
          1.9671111111111104,
          1.9688888888888885,
          1.9515555555555542,
          1.9928888888888894,
          2.0235555555555553,
          2.0048888888888885,
          1.9502222222222227,
          2.0031111111111124,
          2.0391111111111115,
          2.001777777777778,
          1.9951111111111102,
          1.9475555555555564,
          1.9960000000000002,
          1.992444444444444,
          1.9875555555555549,
          1.967111111111112,
          1.9697777777777792,
          1.9404444444444449,
          1.9835555555555557,
          2.018222222222222,
          1.9640000000000002,
          1.9871111111111115,
          2.0382222222222217,
          1.9946666666666677,
          1.9644444444444449,
          2.0279999999999982,
          1.992888888888889,
          1.9857777777777779,
          1.9751111111111115,
          1.9466666666666674,
          1.975555555555555,
          2.040000000000001,
          1.9862222222222226,
          2.0017777777777783,
          1.94,
          1.9671111111111126,
          1.9862222222222223,
          1.9831111111111124,
          2.001777777777778,
          2.008888888888889,
          1.9546666666666666,
          2.004444444444445,
          2.0004444444444447,
          1.9666666666666666,
          1.9888888888888887,
          2.0039999999999996,
          2.0102222222222212,
          2.003555555555556,
          1.962222222222222,
          1.9404444444444449,
          2.010222222222222,
          1.9422222222222232,
          1.9248888888888886,
          2.0275555555555553,
          2.0146666666666664,
          2.035555555555555,
          1.9728888888888882,
          2.0008888888888894,
          2.0191111111111106,
          1.9591111111111112,
          1.9684444444444447,
          1.9520000000000002,
          1.9902222222222232,
          1.9893333333333327,
          2.032888888888889,
          1.9124444444444437,
          1.9373333333333347,
          1.9546666666666654,
          1.9826666666666672,
          2.018666666666667,
          1.9835555555555557,
          1.9586666666666668,
          2.024000000000001,
          1.9951111111111117,
          1.9657777777777772,
          1.9835555555555553,
          1.9697777777777772,
          2.0275555555555544,
          2.0262222222222226,
          1.9528888888888896,
          1.9657777777777783,
          2.0,
          2.016,
          1.9813333333333336,
          1.935111111111111,
          1.9724444444444449,
          2.030666666666666,
          1.9639999999999997,
          1.9706666666666688,
          1.9315555555555552,
          1.9431111111111117,
          1.975111111111111,
          1.998666666666667,
          2.0297777777777775,
          2.066666666666667,
          1.9777777777777783,
          1.9968888888888887,
          2.028888888888889,
          1.9759999999999995,
          1.9599999999999982,
          2.031555555555556,
          2.0022222222222217,
          1.9346666666666674,
          2.06,
          1.9644444444444447,
          1.99511111111111,
          2.0124444444444447,
          1.9635555555555564,
          1.9515555555555546,
          1.973333333333334,
          1.9955555555555546,
          1.963111111111111,
          2.0226666666666673,
          1.9888888888888887,
          1.9773333333333332,
          2.016,
          1.9951111111111106,
          1.9324444444444453,
          1.9959999999999996,
          2.0262222222222217,
          1.9893333333333338,
          2.0053333333333323,
          1.949777777777777,
          1.9839999999999998,
          1.9453333333333342,
          1.9648888888888894,
          2.015555555555556,
          1.993777777777778,
          1.9577777777777787,
          2.013333333333333,
          1.9071111111111119,
          1.967111111111111,
          1.9902222222222228,
          2.0177777777777792,
          1.9764444444444438,
          2.041777777777777,
          1.9742222222222214,
          2.028444444444444,
          2.037777777777777,
          1.9951111111111122,
          1.938666666666666,
          1.9644444444444442,
          1.9960000000000007,
          2.0066666666666664,
          1.9408888888888878,
          1.9888888888888885,
          2.035111111111111,
          2.0337777777777784,
          2.0248888888888894,
          2.0,
          2.032888888888887,
          2.0084444444444443,
          1.978666666666666,
          2.0168888888888894,
          2.0262222222222226,
          1.967111111111111,
          2.0057777777777788,
          1.9599999999999995,
          2.0257777777777775,
          1.9831111111111124,
          1.9857777777777783,
          1.9840000000000002,
          2.0155555555555558,
          2.0222222222222217,
          2.0422222222222213,
          1.9951111111111117,
          2.013777777777778,
          2.0231111111111115,
          2.0386666666666664,
          2.0248888888888894,
          2.0520000000000005,
          1.939111111111112,
          2.0435555555555576,
          1.9711111111111097,
          2.0208888888888894,
          2.0084444444444443,
          2.0053333333333327,
          1.986222222222222,
          1.9702222222222212,
          1.9648888888888878,
          2.0293333333333337,
          2.00711111111111,
          1.968444444444444,
          1.954666666666667,
          2.048,
          1.9515555555555573,
          2.001333333333334,
          1.9906666666666673,
          1.954666666666666,
          2.0071111111111115,
          2.045777777777778,
          1.943111111111111,
          2.029777777777777,
          2.0191111111111115,
          1.9662222222222219,
          1.973333333333333,
          1.957777777777779,
          1.993777777777778,
          1.9853333333333345,
          2.028,
          1.9946666666666673,
          1.9804444444444436,
          2.0231111111111115,
          2.031555555555556,
          1.9639999999999986,
          1.9377777777777776,
          1.9533333333333338,
          2.0346666666666673,
          1.9319999999999988,
          2.022222222222223,
          2.022666666666666,
          1.9822222222222228,
          2.011555555555556,
          1.983555555555555,
          1.995555555555555,
          1.9782222222222219,
          2.0164444444444447,
          1.9631111111111113,
          2.0302222222222226,
          1.9519999999999993,
          2.0017777777777774,
          2.010666666666667,
          1.903111111111111,
          1.9888888888888887,
          2.0004444444444465,
          1.9684444444444458,
          1.9857777777777779,
          1.9924444444444445,
          1.9377777777777776,
          2.0026666666666677,
          2.028444444444445,
          1.9555555555555557,
          1.9946666666666666,
          1.9742222222222214,
          2.000888888888889,
          1.9848888888888905,
          2.0186666666666664,
          1.946666666666667,
          1.9600000000000004,
          2.0191111111111106,
          1.9542222222222225,
          2.024,
          1.9462222222222225,
          1.9688888888888876,
          1.9546666666666659,
          2.002222222222222,
          1.9777777777777763,
          1.975555555555555,
          1.9475555555555555,
          1.9599999999999995,
          1.9182222222222223,
          2.0235555555555567,
          2.0066666666666655,
          1.9355555555555561,
          2.034666666666668,
          2.022222222222223,
          1.9382222222222216,
          1.9528888888888878,
          1.950222222222222,
          2.0151111111111115,
          1.9893333333333336,
          1.9764444444444438,
          1.9946666666666673,
          2.006666666666667,
          2.0013333333333327,
          1.9857777777777779,
          1.9835555555555568,
          1.9711111111111113,
          1.992,
          2.0159999999999996,
          2.012,
          2.0533333333333332,
          1.9391111111111128,
          1.9622222222222216,
          1.9626666666666661,
          1.9835555555555553,
          1.9595555555555553,
          1.9782222222222239,
          2.028888888888889,
          2.047111111111111,
          1.9702222222222228,
          1.9822222222222226,
          2.0115555555555553,
          1.980444444444445,
          1.9875555555555555,
          1.9586666666666672,
          2.0480000000000005,
          2.0142222222222226,
          2.0177777777777792,
          1.9693333333333327,
          1.9960000000000009,
          1.980888888888889,
          2.036444444444444,
          1.9480000000000004,
          2.0053333333333336,
          1.9720000000000009,
          1.9653333333333343,
          1.9888888888888896,
          1.977777777777779
        ],
        [
          2.203111111111111,
          2.235555555555555,
          2.096444444444443,
          2.205333333333334,
          2.278666666666667,
          2.3155555555555565,
          2.325777777777778,
          2.3022222222222215,
          2.3928888888888893,
          2.319111111111111,
          2.1475555555555563,
          2.0613333333333332,
          2.043111111111111,
          1.998222222222222,
          2.02,
          2.0693333333333332,
          2.121333333333332,
          2.121333333333334,
          2.0235555555555553,
          2.109777777777778,
          2.0226666666666686,
          2.0653333333333346,
          2.106666666666666,
          2.04,
          2.060888888888888,
          2.1035555555555563,
          2.0644444444444456,
          2.059111111111111,
          1.985777777777779,
          2.007111111111112,
          1.963111111111111,
          1.9506666666666668,
          1.966666666666666,
          2.0444444444444456,
          2.067555555555556,
          2.0884444444444434,
          2.079555555555555,
          2.0751111111111125,
          2.1044444444444457,
          2.034666666666667,
          2.0635555555555554,
          2.1008888888888886,
          2.066222222222222,
          2.0586666666666664,
          1.9795555555555555,
          2.0053333333333336,
          2.038666666666667,
          1.9906666666666668,
          1.9875555555555562,
          1.9755555555555555,
          1.9937777777777776,
          1.9951111111111106,
          1.9720000000000009,
          2.035111111111112,
          2.028888888888888,
          2.0084444444444456,
          1.9271111111111114,
          1.9844444444444442,
          2.0137777777777774,
          1.960444444444445,
          2.029777777777778,
          2.0262222222222217,
          1.9817777777777776,
          2.0306666666666664,
          2.152888888888889,
          2.0257777777777775,
          2.0346666666666677,
          2.0319999999999996,
          2.0057777777777788,
          2.0039999999999996,
          2.0097777777777774,
          1.9777777777777772,
          1.9560000000000002,
          2.021333333333334,
          1.9542222222222234,
          1.9728888888888885,
          2.025333333333333,
          1.929777777777777,
          2.0253333333333337,
          2.0133333333333345,
          1.998666666666666,
          2.0186666666666655,
          1.9880000000000007,
          2.0177777777777774,
          2.0182222222222226,
          2.0933333333333324,
          1.9924444444444445,
          2.042222222222223,
          2.0173333333333336,
          2.090666666666668,
          2.106666666666665,
          2.0004444444444442,
          2.0084444444444447,
          2.0520000000000014,
          1.9777777777777783,
          1.9715555555555546,
          2.0288888888888885,
          1.9062222222222227,
          1.9973333333333327,
          2.0257777777777775,
          1.9791111111111113,
          2.0195555555555544,
          1.9466666666666668,
          2.012888888888889,
          2.0217777777777775,
          1.9804444444444445,
          2.0222222222222226,
          2.0457777777777775,
          2.0759999999999996,
          1.9759999999999995,
          2.0391111111111107,
          2.0097777777777783,
          1.9662222222222219,
          1.9217777777777776,
          1.9755555555555573,
          1.986222222222222,
          1.9675555555555555,
          1.986222222222222,
          2.0706666666666673,
          1.9559999999999995,
          2.0386666666666673,
          2.0448888888888894,
          2.048000000000001,
          2.030666666666668,
          2.090222222222222,
          2.041333333333333,
          1.9933333333333336,
          1.998666666666666,
          2.035111111111112,
          1.9991111111111115,
          2.0173333333333336,
          2.0653333333333332,
          1.9768888888888894,
          1.9733333333333325,
          1.9671111111111115,
          2.0808888888888886,
          1.9724444444444438,
          1.984888888888889,
          2.0328888888888894,
          2.0471111111111115,
          1.9795555555555566,
          2.0164444444444443,
          1.9382222222222216,
          1.9973333333333338,
          2.03911111111111,
          2.108,
          1.975999999999999,
          1.9906666666666675,
          1.9911111111111128,
          2.015555555555555,
          1.955555555555555,
          2.0497777777777784,
          1.9964444444444436,
          1.9919999999999998,
          1.967555555555555,
          1.999111111111111,
          1.9791111111111115,
          2.0688888888888894,
          2.011999999999999,
          1.9995555555555553,
          2.0524444444444456,
          1.947111111111111,
          1.9702222222222217,
          2.044,
          2.0151111111111106,
          1.9422222222222225,
          2.0004444444444442,
          1.9933333333333345,
          2.0235555555555544,
          1.9835555555555557,
          2.0013333333333327,
          2.06311111111111,
          1.9946666666666681,
          1.9302222222222225,
          2.0724444444444443,
          1.9453333333333331,
          2.0017777777777783,
          2.031555555555556,
          1.9400000000000008,
          2.009777777777778,
          2.028000000000001,
          1.9813333333333345,
          1.9417777777777776,
          1.9688888888888896,
          1.967555555555554,
          1.9626666666666666,
          1.9244444444444437,
          1.9391111111111103,
          2.0044444444444443,
          1.980888888888888,
          2.0088888888888894,
          2.0208888888888894,
          1.9724444444444444,
          1.921333333333333,
          2.0791111111111116,
          1.9697777777777783,
          1.975999999999999,
          1.9831111111111113,
          2.021777777777778,
          1.9928888888888905,
          1.975111111111111,
          2.0062222222222235,
          1.9844444444444453,
          2.0075555555555558,
          1.963111111111111,
          1.9844444444444438,
          1.942666666666667,
          1.9306666666666668,
          2.0320000000000014,
          1.965777777777779,
          1.975111111111111,
          1.9982222222222228,
          1.9364444444444446,
          1.994666666666667,
          2.002222222222223,
          1.9671111111111104,
          1.993777777777779,
          1.9435555555555561,
          2.014666666666667,
          2.0648888888888886,
          2.0226666666666664,
          1.9480000000000004,
          1.9195555555555557,
          2.006666666666667,
          2.0151111111111097,
          1.998222222222223,
          2.022666666666666,
          2.0217777777777783,
          2.007111111111112,
          1.9991111111111115,
          2.0079999999999987,
          1.9755555555555555,
          1.9391111111111115,
          1.9520000000000008,
          1.9413333333333345,
          1.9555555555555562,
          1.9222222222222216,
          1.9831111111111102,
          2.0146666666666664,
          2.004888888888889,
          1.978666666666666,
          1.9293333333333336,
          2.002666666666667,
          1.981333333333333,
          1.9826666666666666,
          2.027111111111111,
          2.0013333333333336,
          2.0222222222222226,
          1.9964444444444438,
          1.9493333333333351,
          1.9711111111111113,
          1.984888888888889,
          2.000888888888888,
          1.9982222222222235,
          2.003111111111112,
          1.9964444444444442,
          2.0053333333333327,
          1.980888888888889,
          1.9795555555555564,
          1.9293333333333336,
          2.0253333333333345,
          2.0,
          1.9635555555555557,
          2.0226666666666673,
          2.042666666666667,
          2.031111111111111,
          1.9466666666666668,
          2.020000000000001,
          1.9524444444444442,
          1.9857777777777785,
          2.0208888888888876,
          2.0119999999999996,
          2.0017777777777765,
          1.9733333333333325,
          1.9995555555555555,
          1.999555555555556,
          1.9959999999999998,
          1.9777777777777779,
          1.9857777777777783,
          1.9782222222222219,
          1.9893333333333347,
          1.9608888888888891,
          2.004444444444445,
          1.9893333333333336,
          2.004444444444445,
          1.9706666666666677,
          1.9982222222222223,
          2.0075555555555558,
          2.0404444444444443,
          1.960444444444444,
          1.9715555555555557,
          1.9626666666666672,
          2.0013333333333323,
          1.9924444444444445,
          1.9755555555555573,
          2.039555555555557,
          1.9822222222222226,
          1.9857777777777779,
          2.0315555555555544,
          1.9639999999999997,
          2.0057777777777765,
          2.011111111111111,
          2.050666666666665,
          2.002666666666667,
          1.9657777777777774,
          1.9573333333333336,
          1.9306666666666672,
          1.987111111111111,
          1.9937777777777792,
          1.9537777777777785,
          2.0053333333333345,
          2.006222222222222,
          2.016,
          1.9555555555555557,
          1.999555555555556,
          1.975999999999999,
          2.012000000000001,
          1.9768888888888887,
          1.9977777777777783,
          2.022666666666667,
          1.9857777777777783,
          1.9746666666666661,
          1.9986666666666675,
          2.0342222222222213,
          1.9951111111111122,
          1.9831111111111113,
          1.9671111111111108,
          1.9986666666666664,
          1.9897777777777776,
          1.9564444444444442,
          1.9773333333333332,
          1.952888888888889,
          2.029777777777778,
          1.990222222222224,
          1.95377777777778,
          1.984888888888889,
          1.9133333333333338,
          1.9257777777777778,
          2.01511111111111,
          1.98088888888889,
          1.9502222222222223,
          1.9697777777777772,
          1.9160000000000001,
          1.9293333333333336,
          1.961333333333333,
          1.9644444444444447,
          1.928444444444444,
          2.02,
          1.9813333333333318,
          1.9568888888888891,
          1.974222222222222,
          2.016444444444445,
          1.9840000000000004,
          1.9577777777777778,
          1.9577777777777783,
          1.993777777777778,
          2.0204444444444443,
          1.97288888888889,
          1.96088888888889,
          1.9728888888888894,
          2.0142222222222212,
          2.0026666666666673,
          2.0426666666666673,
          1.981333333333334,
          2.034222222222223,
          1.9706666666666661,
          2.0115555555555558,
          1.9657777777777778,
          1.9577777777777776,
          1.9871111111111115,
          1.9893333333333338,
          2.05688888888889,
          1.9853333333333327,
          2.010666666666667,
          1.9182222222222216,
          2.0057777777777783,
          1.9773333333333338,
          1.9328888888888893,
          2.0475555555555554,
          1.9942222222222241,
          1.9955555555555555,
          1.9888888888888885,
          1.9777777777777779,
          1.9795555555555548,
          1.9999999999999996,
          2.0284444444444447,
          2.0337777777777784,
          1.9986666666666668,
          2.0226666666666673,
          1.9231111111111132,
          1.9653333333333338,
          2.0088888888888894,
          1.9346666666666665,
          1.9848888888888883,
          1.979111111111112,
          2.010222222222223,
          1.9697777777777772,
          1.985333333333333,
          1.9524444444444453,
          2.0213333333333323
        ]
      ],
      "ho_freq": [
        [
          0.9826666666666667,
          1.0,
          1.0,
          1.0,
          0.244,
          0.07333333333333333,
          0.06666666666666667,
          0.05333333333333334,
          0.04666666666666667,
          0.04666666666666667,
          0.02666666666666667,
          0.04666666666666667,
          0.06666666666666667,
          0.06666666666666667,
          0.04666666666666667,
          0.04666666666666667,
          0.05333333333333334,
          0.05333333333333334,
          0.10666666666666667,
          0.04666666666666667,
          0.04666666666666667,
          0.05333333333333334,
          0.05333333333333334,
          0.04666666666666667,
          0.06,
          0.06666666666666667,
          0.05333333333333334,
          0.04666666666666667,
          0.04666666666666667,
          0.04666666666666667,
          0.05333333333333334,
          0.05333333333333334,
          0.07333333333333333,
          0.06666666666666667,
          0.04666666666666667,
          0.03333333333333333,
          0.06666666666666667,
          0.06,
          0.05333333333333334,
          0.04,
          0.04,
          0.04666666666666667,
          0.07333333333333333,
          0.06,
          0.06,
          0.08666666666666667,
          0.06666666666666667,
          0.02666666666666667,
          0.04666666666666667,
          0.05333333333333334,
          0.05333333333333334,
          0.06,
          0.07333333333333333,
          0.05333333333333334,
          0.07333333333333333,
          0.04,
          0.06,
          0.05333333333333334,
          0.04,
          0.06,
          0.06,
          0.07333333333333333,
          0.04666666666666667,
          0.04,
          0.04666666666666667,
          0.06666666666666667,
          0.02666666666666667,
          0.07333333333333333,
          0.04,
          0.06,
          0.05333333333333334,
          0.06666666666666667,
          0.04,
          0.05333333333333334,
          0.04666666666666667,
          0.05333333333333334,
          0.06,
          0.06666666666666667,
          0.04,
          0.04666666666666667,
          0.06666666666666667,
          0.05333333333333334,
          0.07333333333333333,
          0.04666666666666667,
          0.03333333333333333,
          0.04,
          0.04,
          0.04,
          0.04666666666666667,
          0.04666666666666667,
          0.03333333333333333,
          0.06,
          0.04,
          0.04,
          0.06666666666666667,
          0.06666666666666667,
          0.08,
          0.05333333333333334,
          0.04,
          0.06666666666666667,
          0.06,
          0.05333333333333334,
          0.04,
          0.06,
          0.05333333333333334,
          0.06666666666666667,
          0.07333333333333333,
          0.04666666666666667,
          0.03333333333333333,
          0.04,
          0.04,
          0.05333333333333334,
          0.04,
          0.05333333333333334,
          0.04,
          0.03333333333333333,
          0.07333333333333333,
          0.07333333333333333,
          0.02,
          0.04,
          0.04666666666666667,
          0.09333333333333334,
          0.05333333333333334,
          0.04,
          0.04,
          0.08,
          0.04,
          0.07333333333333333,
          0.09333333333333334,
          0.06666666666666667,
          0.07333333333333333,
          0.05333333333333334,
          0.05333333333333334,
          0.07333333333333333,
          0.06666666666666667,
          0.02666666666666667,
          0.05333333333333334,
          0.04666666666666667,
          0.08,
          0.04,
          0.03333333333333333,
          0.03333333333333333,
          0.03333333333333333,
          0.07333333333333333,
          0.04666666666666667,
          0.08,
          0.05333333333333334,
          0.02666666666666667,
          0.04666666666666667,
          0.08666666666666667,
          0.06666666666666667,
          0.05333333333333334,
          0.05333333333333334,
          0.07333333333333333,
          0.04666666666666667,
          0.06,
          0.03333333333333333,
          0.03333333333333333,
          0.06666666666666667,
          0.06,
          0.06,
          0.05333333333333334,
          0.04,
          0.05333333333333334,
          0.07333333333333333,
          0.04,
          0.07333333333333333,
          0.04,
          0.07333333333333333,
          0.07333333333333333,
          0.05333333333333334,
          0.02,
          0.04,
          0.05333333333333334,
          0.06666666666666667,
          0.03333333333333333,
          0.04,
          0.06,
          0.04666666666666667,
          0.04,
          0.05333333333333334,
          0.07333333333333333,
          0.07333333333333333,
          0.07333333333333333,
          0.05333333333333334,
          0.03333333333333333,
          0.05333333333333334,
          0.05333333333333334,
          0.04,
          0.04,
          0.06666666666666667,
          0.02666666666666667,
          0.04666666666666667,
          0.06,
          0.07333333333333333,
          0.06,
          0.07333333333333333,
          0.06666666666666667,
          0.06,
          0.07333333333333333,
          0.04666666666666667,
          0.02,
          0.06666666666666667,
          0.06,
          0.04,
          0.05333333333333334,
          0.04,
          0.04666666666666667,
          0.06,
          0.04,
          0.06666666666666667,
          0.06,
          0.06,
          0.06666666666666667,
          0.04666666666666667,
          0.04,
          0.06,
          0.02666666666666667,
          0.08666666666666667,
          0.06,
          0.05333333333333334,
          0.04666666666666667,
          0.08666666666666667,
          0.05333333333333334,
          0.05333333333333334,
          0.03333333333333333,
          0.03333333333333333,
          0.06,
          0.06666666666666667,
          0.05333333333333334,
          0.04666666666666667,
          0.04,
          0.08,
          0.06,
          0.06,
          0.06666666666666667,
          0.08666666666666667,
          0.03333333333333333,
          0.05333333333333334,
          0.05333333333333334,
          0.08,
          0.06,
          0.06,
          0.04666666666666667,
          0.03333333333333333,
          0.06666666666666667,
          0.06666666666666667,
          0.06,
          0.05333333333333334,
          0.04,
          0.05333333333333334,
          0.02,
          0.03333333333333333,
          0.06,
          0.05333333333333334,
          0.08,
          0.05333333333333334,
          0.05333333333333334,
          0.05333333333333334,
          0.02666666666666667,
          0.04666666666666667,
          0.06666666666666667,
          0.02666666666666667,
          0.06,
          0.04666666666666667,
          0.06,
          0.02666666666666667,
          0.04,
          0.04666666666666667,
          0.04,
          0.06,
          0.02666666666666667,
          0.07333333333333333,
          0.04666666666666667,
          0.04666666666666667,
          0.06,
          0.07333333333333333,
          0.06666666666666667,
          0.03333333333333333,
          0.06,
          0.10133333333333333,
          0.116,
          0.08266666666666667,
          0.06,
          0.12533333333333332,
          0.05333333333333334,
          0.02666666666666667,
          0.24,
          0.068,
          0.02666666666666667,
          0.15733333333333333,
          0.03333333333333333,
          0.05333333333333334,
          0.06666666666666667,
          0.07333333333333333,
          0.02666666666666667,
          0.08666666666666667,
          0.02,
          0.05333333333333334,
          0.06666666666666667,
          0.05333333333333334,
          0.05333333333333334,
          0.04666666666666667,
          0.04,
          0.06,
          0.06666666666666667,
          0.05333333333333334,
          0.09333333333333334,
          0.03333333333333333,
          0.06666666666666667,
          0.04666666666666667,
          0.05333333333333334,
          0.04666666666666667,
          0.02666666666666667,
          0.07333333333333333,
          0.08666666666666667,
          0.06,
          0.05333333333333334,
          0.02666666666666667,
          0.04666666666666667,
          0.04666666666666667,
          0.04666666666666667,
          0.05333333333333334,
          0.05333333333333334,
          0.06,
          0.07333333333333333,
          0.04666666666666667,
          0.02666666666666667,
          0.04,
          0.05333333333333334,
          0.03333333333333333,
          0.08666666666666667,
          0.04666666666666667,
          0.04,
          0.05333333333333334,
          0.06,
          0.02666666666666667,
          0.07333333333333333,
          0.06,
          0.03333333333333333,
          0.04,
          0.06,
          0.04666666666666667,
          0.07333333333333333,
          0.08666666666666667,
          0.05333333333333334,
          0.04666666666666667,
          0.04,
          0.02666666666666667,
          0.04,
          0.06,
          0.04666666666666667,
          0.05333333333333334,
          0.05333333333333334,
          0.06,
          0.06,
          0.06666666666666667,
          0.04666666666666667,
          0.06666666666666667,
          0.06,
          0.04,
          0.05333333333333334,
          0.08666666666666667,
          0.04666666666666667,
          0.06,
          0.04,
          0.06,
          0.08,
          0.07333333333333333,
          0.06,
          0.05333333333333334,
          0.06,
          0.05333333333333334,
          0.06,
          0.05333333333333334,
          0.02666666666666667,
          0.04666666666666667,
          0.02666666666666667,
          0.03333333333333333,
          0.05333333333333334,
          0.06,
          0.08,
          0.06,
          0.08666666666666667,
          0.05333333333333334,
          0.08,
          0.05333333333333334,
          0.04,
          0.07333333333333333,
          0.06666666666666667,
          0.04,
          0.08666666666666667,
          0.06,
          0.04666666666666667,
          0.04,
          0.05333333333333334,
          0.06,
          0.06,
          0.06666666666666667,
          0.04
        ],
        [
          0.04,
          0.07333333333333333,
          0.32666666666666666,
          0.2786666666666667,
          0.06,
          0.08,
          0.05333333333333334,
          0.06666666666666667,
          0.04,
          0.04,
          0.05333333333333334,
          0.06666666666666667,
          0.06666666666666667,
          0.03333333333333333,
          0.04666666666666667,
          0.08666666666666667,
          0.07333333333333333,
          0.02,
          0.08,
          0.03333333333333333,
          0.05333333333333334,
          0.06666666666666667,
          0.04666666666666667,
          0.04,
          0.06666666666666667,
          0.04,
          0.08,
          0.04,
          0.02666666666666667,
          0.02,
          0.02666666666666667,
          0.04666666666666667,
          0.06,
          0.04,
          0.03333333333333333,
          0.06,
          0.04666666666666667,
          0.07333333333333333,
          0.04666666666666667,
          0.05333333333333334,
          0.06666666666666667,
          0.06,
          0.04666666666666667,
          0.07333333333333333,
          0.06,
          0.04666666666666667,
          0.05333333333333334,
          0.04666666666666667,
          0.06,
          0.05333333333333334,
          0.07333333333333333,
          0.02666666666666667,
          0.03333333333333333,
          0.05333333333333334,
          0.08,
          0.05333333333333334,
          0.03333333333333333,
          0.03333333333333333,
          0.08,
          0.04666666666666667,
          0.08,
          0.03333333333333333,
          0.04666666666666667,
          0.02666666666666667,
          0.04,
          0.02,
          0.05333333333333334,
          0.06,
          0.07333333333333333,
          0.07333333333333333,
          0.02,
          0.05333333333333334,
          0.05333333333333334,
          0.04666666666666667,
          0.04666666666666667,
          0.04666666666666667,
          0.06666666666666667,
          0.06,
          0.05333333333333334,
          0.04,
          0.04666666666666667,
          0.04,
          0.06,
          0.07333333333333333,
          0.04666666666666667,
          0.04,
          0.04,
          0.06666666666666667,
          0.06,
          0.06,
          0.05333333333333334,
          0.05333333333333334,
          0.07333333333333333,
          0.04666666666666667,
          0.05333333333333334,
          0.05333333333333334,
          0.03333333333333333,
          0.02666666666666667,
          0.05333333333333334,
          0.08,
          0.06,
          0.05333333333333334,
          0.06666666666666667,
          0.02666666666666667,
          0.04,
          0.03333333333333333,
          0.06666666666666667,
          0.07333333333333333,
          0.07333333333333333,
          0.06666666666666667,
          0.05333333333333334,
          0.06,
          0.08,
          0.04666666666666667,
          0.03333333333333333,
          0.03333333333333333,
          0.05333333333333334,
          0.04,
          0.08,
          0.03333333333333333,
          0.07333333333333333,
          0.07333333333333333,
          0.04666666666666667,
          0.05333333333333334,
          0.05333333333333334,
          0.08,
          0.06,
          0.06,
          0.05333333333333334,
          0.05333333333333334,
          0.06,
          0.08,
          0.05333333333333334,
          0.04,
          0.07333333333333333,
          0.05333333333333334,
          0.04,
          0.04666666666666667,
          0.02666666666666667,
          0.06,
          0.03333333333333333,
          0.02666666666666667,
          0.04,
          0.10666666666666667,
          0.02666666666666667,
          0.05333333333333334,
          0.04,
          0.02666666666666667,
          0.04,
          0.04666666666666667,
          0.04666666666666667,
          0.03333333333333333,
          0.04,
          0.06666666666666667,
          0.03333333333333333,
          0.04666666666666667,
          0.04,
          0.04666666666666667,
          0.07333333333333333,
          0.06666666666666667,
          0.08,
          0.06666666666666667,
          0.03333333333333333,
          0.04,
          0.04,
          0.06,
          0.06666666666666667,
          0.04666666666666667,
          0.04,
          0.06666666666666667,
          0.06666666666666667,
          0.04666666666666667,
          0.07333333333333333,
          0.07333333333333333,
          0.05333333333333334,
          0.06,
          0.04,
          0.06666666666666667,
          0.02666666666666667,
          0.07333333333333333,
          0.04,
          0.04,
          0.07333333333333333,
          0.05333333333333334,
          0.05333333333333334,
          0.06666666666666667,
          0.06,
          0.05333333333333334,
          0.05333333333333334,
          0.06666666666666667,
          0.02666666666666667,
          0.06,
          0.08666666666666667,
          0.04666666666666667,
          0.08,
          0.08,
          0.04666666666666667,
          0.07333333333333333,
          0.03333333333333333,
          0.02666666666666667,
          0.05333333333333334,
          0.06666666666666667,
          0.03333333333333333,
          0.06666666666666667,
          0.06,
          0.08666666666666667,
          0.06,
          0.06,
          0.04666666666666667,
          0.04666666666666667,
          0.04,
          0.06,
          0.04666666666666667,
          0.03333333333333333,
          0.06666666666666667,
          0.04666666666666667,
          0.06666666666666667,
          0.04666666666666667,
          0.1,
          0.04,
          0.06,
          0.06666666666666667,
          0.03333333333333333,
          0.06,
          0.02666666666666667,
          0.04,
          0.06,
          0.05333333333333334,
          0.06,
          0.06,
          0.05333333333333334,
          0.05333333333333334,
          0.05333333333333334,
          0.06,
          0.06,
          0.04,
          0.06,
          0.07333333333333333,
          0.06,
          0.04666666666666667,
          0.06,
          0.06,
          0.05333333333333334,
          0.04666666666666667,
          0.06666666666666667,
          0.04666666666666667,
          0.04666666666666667,
          0.04,
          0.04,
          0.04,
          0.06,
          0.07333333333333333,
          0.06,
          0.06,
          0.05333333333333334,
          0.06666666666666667,
          0.04666666666666667,
          0.04666666666666667,
          0.04,
          0.05333333333333334,
          0.06,
          0.04666666666666667,
          0.04666666666666667,
          0.05333333333333334,
          0.06666666666666667,
          0.06,
          0.006666666666666667,
          0.03333333333333333,
          0.06,
          0.04,
          0.05333333333333334,
          0.05333333333333334,
          0.05333333333333334,
          0.06666666666666667,
          0.06,
          0.04,
          0.08,
          0.04,
          0.06,
          0.04666666666666667,
          0.05333333333333334,
          0.04666666666666667,
          0.06666666666666667,
          0.06666666666666667,
          0.06666666666666667,
          0.02666666666666667,
          0.04666666666666667,
          0.06,
          0.04,
          0.04,
          0.03333333333333333,
          0.04666666666666667,
          0.05333333333333334,
          0.08666666666666667,
          0.06666666666666667,
          0.06666666666666667,
          0.04,
          0.04,
          0.04666666666666667,
          0.06,
          0.03333333333333333,
          0.06666666666666667,
          0.07333333333333333,
          0.05333333333333334,
          0.04666666666666667,
          0.03333333333333333,
          0.06666666666666667,
          0.06,
          0.05333333333333334,
          0.04,
          0.05333333333333334,
          0.06666666666666667,
          0.03333333333333333,
          0.05333333333333334,
          0.04,
          0.04666666666666667,
          0.05333333333333334,
          0.03333333333333333,
          0.04666666666666667,
          0.02666666666666667,
          0.04666666666666667,
          0.05333333333333334,
          0.06666666666666667,
          0.04666666666666667,
          0.02666666666666667,
          0.05333333333333334,
          0.07333333333333333,
          0.06,
          0.02666666666666667,
          0.04666666666666667,
          0.05333333333333334,
          0.08,
          0.06666666666666667,
          0.06,
          0.04666666666666667,
          0.04666666666666667,
          0.04,
          0.013333333333333334,
          0.07333333333333333,
          0.04666666666666667,
          0.04,
          0.04,
          0.04,
          0.05333333333333334,
          0.05333333333333334,
          0.07333333333333333,
          0.04666666666666667,
          0.06666666666666667,
          0.03333333333333333,
          0.04,
          0.06,
          0.06,
          0.06,
          0.04666666666666667,
          0.08,
          0.04666666666666667,
          0.06666666666666667,
          0.04,
          0.06666666666666667,
          0.06,
          0.03333333333333333,
          0.03333333333333333,
          0.08,
          0.07333333333333333,
          0.02666666666666667,
          0.04666666666666667,
          0.04,
          0.02666666666666667,
          0.05333333333333334,
          0.06666666666666667,
          0.05333333333333334,
          0.04,
          0.04,
          0.04666666666666667,
          0.05333333333333334,
          0.02666666666666667,
          0.06666666666666667,
          0.05333333333333334,
          0.06,
          0.05333333333333334,
          0.04666666666666667,
          0.06,
          0.03333333333333333,
          0.03333333333333333,
          0.05333333333333334,
          0.06,
          0.03333333333333333,
          0.06666666666666667,
          0.06,
          0.05333333333333334,
          0.05333333333333334,
          0.05333333333333334,
          0.06,
          0.02,
          0.03333333333333333,
          0.06,
          0.02666666666666667,
          0.04666666666666667,
          0.05333333333333334,
          0.03333333333333333
        ],
        [
          0.9893333333333333,
          0.7933333333333333,
          0.03333333333333333,
          0.08,
          0.04,
          0.04,
          0.05333333333333334,
          0.08,
          0.06,
          0.05333333333333334,
          0.07333333333333333,
          0.04,
          0.06,
          0.06133333333333333,
          0.07466666666666667,
          0.09333333333333334,
          0.052,
          0.04666666666666667,
          0.06,
          0.05466666666666667,
          0.09333333333333334,
          0.09333333333333334,
          0.05333333333333334,
          0.058666666666666666,
          0.08,
          0.04933333333333333,
          0.06133333333333333,
          0.06666666666666667,
          0.08133333333333333,
          0.07866666666666666,
          0.08666666666666667,
          0.088,
          0.08,
          0.08133333333333333,
          0.08533333333333333,
          0.08533333333333333,
          0.05733333333333333,
          0.08533333333333333,
          0.06533333333333333,
          0.07733333333333334,
          0.04933333333333333,
          0.05733333333333333,
          0.076,
          0.07333333333333333,
          0.084,
          0.09066666666666667,
          0.216,
          0.10133333333333333,
          0.088,
          0.08133333333333333,
          0.09466666666666666,
          0.09466666666666666,
          0.10666666666666667,
          0.08133333333333333,
          0.08,
          0.07333333333333333,
          0.07333333333333333,
          0.09333333333333334,
          0.06933333333333333,
          0.07466666666666667,
          0.08133333333333333,
          0.084,
          0.08,
          0.07066666666666667,
          0.076,
          0.06133333333333333,
          0.06666666666666667,
          0.07733333333333334,
          0.06133333333333333,
          0.06933333333333333,
          0.048,
          0.06933333333333333,
          0.068,
          0.08,
          0.064,
          0.07333333333333333,
          0.07866666666666666,
          0.06933333333333333,
          0.07333333333333333,
          0.068,
          0.06133333333333333,
          0.07333333333333333,
          0.06133333333333333,
          0.06666666666666667,
          0.042666666666666665,
          0.09333333333333334,
          0.068,
          0.06533333333333333,
          0.06533333333333333,
          0.08,
          0.08,
          0.08133333333333333,
          0.09066666666666667,
          0.06133333333333333,
          0.068,
          0.050666666666666665,
          0.07466666666666667,
          0.064,
          0.058666666666666666,
          0.07466666666666667,
          0.06133333333333333,
          0.08,
          0.06933333333333333,
          0.03866666666666667,
          0.06266666666666666,
          0.036,
          0.06133333333333333,
          0.052,
          0.05466666666666667,
          0.044,
          0.07866666666666666,
          0.06933333333333333,
          0.06133333333333333,
          0.029333333333333333,
          0.06266666666666666,
          0.05466666666666667,
          0.058666666666666666,
          0.04666666666666667,
          0.08,
          0.056,
          0.08,
          0.056,
          0.1,
          0.06,
          0.07333333333333333,
          0.06666666666666667,
          0.05733333333333333,
          0.06133333333333333,
          0.06533333333333333,
          0.04133333333333333,
          0.04933333333333333,
          0.06133333333333333,
          0.052,
          0.07466666666666667,
          0.064,
          0.068,
          0.06933333333333333,
          0.06,
          0.056,
          0.06666666666666667,
          0.064,
          0.05333333333333334,
          0.05466666666666667,
          0.050666666666666665,
          0.06133333333333333,
          0.06666666666666667,
          0.07333333333333333,
          0.06,
          0.08,
          0.05333333333333334,
          0.05333333333333334,
          0.05333333333333334,
          0.04,
          0.04666666666666667,
          0.06,
          0.06,
          0.02,
          0.03333333333333333,
          0.05333333333333334,
          0.04,
          0.07333333333333333,
          0.03333333333333333,
          0.02,
          0.07333333333333333,
          0.05333333333333334,
          0.06666666666666667,
          0.05333333333333334,
          0.05333333333333334,
          0.06,
          0.08666666666666667,
          0.05333333333333334,
          0.05333333333333334,
          0.02666666666666667,
          0.04,
          0.06666666666666667,
          0.04,
          0.05333333333333334,
          0.03333333333333333,
          0.04666666666666667,
          0.03333333333333333,
          0.02666666666666667,
          0.04,
          0.05333333333333334,
          0.05333333333333334,
          0.05333333333333334,
          0.02666666666666667,
          0.04666666666666667,
          0.05333333333333334,
          0.02666666666666667,
          0.04,
          0.02666666666666667,
          0.08666666666666667,
          0.04666666666666667,
          0.03333333333333333,
          0.07333333333333333,
          0.04666666666666667,
          0.06666666666666667,
          0.05333333333333334,
          0.08,
          0.03333333333333333,
          0.03333333333333333,
          0.06666666666666667,
          0.06666666666666667,
          0.07333333333333333,
          0.07333333333333333,
          0.04,
          0.05333333333333334,
          0.02666666666666667,
          0.03333333333333333,
          0.04666666666666667,
          0.08,
          0.04666666666666667,
          0.02666666666666667,
          0.04666666666666667,
          0.06,
          0.06,
          0.04,
          0.03333333333333333,
          0.05333333333333334,
          0.07333333333333333,
          0.06,
          0.06666666666666667,
          0.05333333333333334,
          0.08,
          0.04,
          0.05333333333333334,
          0.04,
          0.04,
          0.05333333333333334,
          0.06666666666666667,
          0.08,
          0.03333333333333333,
          0.04,
