{
  "config": {
    "altitude_km": 550.0,
    "n_satellites_visible": 10,
    "min_elevation_deg": 25.0,
    "carrier_freq_ghz": 1.67,
    "p_max_dbm": 40.0,
    "n_platoons": 5,
    "n_priorities": 3,
    "priority_weights": [
      4.5,
      2.5,
      0.5
    ],
    "tau_s": 1.0,
    "tau_ac": 0.02,
    "n_ac": 50,
    "n_safe": [
      5,
      10,
      50
    ],
    "epsilon": [
      0.01,
      0.05,
      0.2
    ],
    "p_bg": 0.42,
    "ho_delay_mean_ms": 225.0,
    "ho_delay_std_ms": 25.0,
    "ho_period_s": 15.0,
    "n_episodes": 300,
    "episode_slots": 60,
    "eval_episodes": 10,
    "n_seeds": 2,
    "update_interval": 4,
    "nn_safety_coeff": 0.35,
    "nn_safety_warmup_env_steps": 12000,
    "nn_safety_shield_urgency": 1.35,
    "nn_safety_shield_power_floor": 0.5,
    "w_power": 0.02,
    "w_handover": 0.3,
    "kappa1": 1.0,
    "kappa2": 0.5,
    "kappa3_m1": 2.0,
    "kappa3_m2": 1.0,
    "kappa1_m3": 0.5,
    "kappa4": 0.1,
    "kappa5": 0.3,
    "rmin_m1": 0.8,
    "rmin_m2": 0.5,
    "sinr_noise_floor": 0.05,
    "interference_coupling": 0.6,
    "t_pre_s": 3.0,
    "output_dir": "outputs",
    "output_run_id": "run_20260417_163032"
  },
  "convergence": {
    "SafeScale-MATD3": {
      "rewards": [
        [
          -236.1752233560034,
          -307.82273192322737,
          -183.50589465756778,
          -329.97791830635833,
          -343.5452984143251,
          -162.2981266595477,
          -284.31712113888653,
          -220.97681190749688,
          -298.55347420637855,
          -169.85287568642312,
          -207.48786125125994,
          -192.59936811609265,
          -183.42790015164178,
          -187.23552353067072,
          -160.80146336677353,
          -164.41176466058695,
          -183.7782078078583,
          -179.27914719641456,
          -170.99233329387133,
          -214.03292303513766,
          -176.91436987055215,
          -187.81042168487048,
          -165.50881264405615,
          -157.50691909513986,
          -161.70575856037757,
          -193.70465399593806,
          -179.90422663157807,
          -282.2440132651375,
          -308.40470554588694,
          -238.50504246360873,
          -243.54492867358118,
          -200.80456216984237,
          -162.80443863560217,
          -156.5048793528898,
          -175.00314892336718,
          -208.90239866472982,
          -163.12263318120088,
          -164.9024346510101,
          -184.10256069453936,
          -195.30294224545412,
          -178.4628141445608,
          -178.72401350166214,
          -169.00461653325036,
          -193.70455708669633,
          -172.80357924197975,
          -170.10349504639908,
          -155.3029471499325,
          -173.80269763613327,
          -154.50221050597688,
          -172.00188497597736,
          -163.8017421652531,
          -167.5014678538771,
          -174.80152902540158,
          -156.60145438402122,
          -180.00143733863948,
          -178.3013583583502,
          -152.3012174416904,
          -149.50120877301043,
          -163.4011472504682,
          -167.201144265162,
          -166.50104466655446,
          -171.3011022762809,
          -171.50102846838462,
          -167.20095425573626,
          -200.90096881702016,
          -169.70095502603274,
          -208.40098409161664,
          -185.00089680647784,
          -210.50097708697646,
          -171.40085819988462,
          -7.146548920807014,
          -174.89487171185502,
          -92.4780986914658,
          -25.737584672186088,
          -85.81165032940643,
          -104.87580508644972,
          -109.89736424765863,
          -246.86409628665385,
          -24.215792225903705,
          -111.0999094652354,
          -107.8667017075089,
          -14.068736744887207,
          -97.23138286142259,
          -18.566923319422422,
          -79.04121502981823,
          -52.29656843384159,
          86.92282944776275,
          -39.04428059266643,
          -74.8509251771389,
          -56.18309475089711,
          -120.19222963249082,
          52.069589480808524,
          -26.366214075333758,
          -39.26633249244813,
          -57.41157594425504,
          -135.19991736070477,
          -41.07119150154371,
          -51.01715696998213,
          89.25772906053862,
          -43.111116048611485,
          -47.33981434373934,
          80.06950996470864,
          85.78793890570783,
          93.00294863177282,
          -51.43627428317808,
          78.82078902876468,
          86.96688428812723,
          -51.82412656714991,
          88.8547264306121,
          82.75969495798529,
          -46.835203494032825,
          -49.92847844304758,
          74.05792281847695,
          -35.58738766842117,
          93.62236766027705,
          -187.78324017786537,
          -36.36088604215184,
          -177.85478289930447,
          -23.67311389310157,
          75.63911111326868,
          -42.99233184114853,
          -144.416260384458,
          82.0750110465624,
          -50.24687103094765,
          -43.71164513860004,
          -38.66932840113444,
          -153.9563929940953,
          -39.62760951379927,
          93.0627123955024,
          -45.81735703842824,
          -53.66914980283518,
          -47.26134985393297,
          88.55178899191978,
          -42.44652840110721,
          78.13129565803067,
          88.5170957840054,
          -44.53011321314103,
          -171.1818190067307,
          -235.80402684126787,
          -44.359636108184816,
          -233.68370747307983,
          -55.240774138243964,
          -51.87479371278766,
          84.69832601600002,
          -52.590639398241386,
          84.39494234134568,
          -44.3342763800505,
          -35.41096450106244,
          -141.50887014739868,
          -58.64999318118696,
          -32.37776277509447,
          -45.20805196417295,
          -50.328480287011445,
          -144.03817253414564,
          -67.67898335955543,
          -185.28202988250098,
          -68.35123095252656,
          -41.73499323655223,
          52.748529196341465,
          -43.91061683136055,
          -178.3572935686318,
          93.28314560318566,
          -37.007490892871324,
          -40.53051950375559,
          -175.1793388128806,
          -47.64558338992508,
          83.69717386746301,
          -35.667594557706884,
          -207.25665256693992,
          -46.14671479285018,
          89.3244198744041,
          -51.32276893931065,
          -48.685072681065954,
          82.47003838512074,
          -33.27795031940699,
          85.31928570782075,
          -51.16075875972089,
          -130.49935866336168,
          -46.92371676322339,
          -166.18726984175672,
          -41.54543093179369,
          84.74152536662092,
          -175.9159556348347,
          41.1467261646295,
          -129.17050723718026,
          95.53952250161888,
          82.5939346510435,
          82.15804796117241,
          -44.75722533376815,
          -39.139349551274364,
          -44.68362019483288,
          -36.63881902062864,
          -180.17311644351972,
          76.55674653282784,
          86.39109542385656,
          -50.98340950923655,
          -55.328733988824695,
          -126.41894178747697,
          -134.92344811081836,
          -49.23705764669681,
          -44.72572964151249,
          76.92584043453847,
          63.00542612353073,
          -160.78682301351475,
          -34.91021341505754,
          -51.378446251756586,
          91.47391188368111,
          -51.13400107508692,
          -44.7559852462529,
          66.11252508831828,
          76.84885686530619,
          -58.19910704200647,
          -145.59548985605284,
          -38.19378407418599,
          -36.571669074283804,
          -45.410379302939376,
          -124.86942072601599,
          -131.60007498273433,
          -56.790660888720666,
          79.68199327949951,
          81.26821551155437,
          70.7641868322913,
          -50.70820919770347,
          96.58107403402282,
          -47.55946098814547,
          -174.49633824746763,
          -38.36318117171908,
          -138.38919771626246,
          -150.12919745741354,
          -140.71733499437207,
          -53.48246030625978,
          85.3546828620694,
          -40.823082435434735,
          -36.610319396050635,
          -49.79917356259831,
          -179.73221897406432,
          75.2957374354205,
          -38.01087142750455,
          81.44502326264589,
          -35.85429762840051,
          -49.96750458344082,
          -35.73087342165048,
          -59.176352322116315,
          84.13736300173451,
          -37.901601007820396,
          80.64452768971584,
          -50.413289503715504,
          -43.86011553195691,
          -45.30620267633087,
          -39.56296782856441,
          -57.657606956113185,
          83.85970779838048,
          -273.3934581234689,
          74.451447081113,
          -142.06284601548901,
          -51.69239960650966,
          -166.932239874012,
          -45.11809602900076,
          68.30463220055412,
          94.89409821691501,
          -256.15676614141444,
          -42.52102633932626,
          -166.08935709190115,
          -61.12779689721298,
          -37.97037938385737,
          -45.04419445981881,
          -54.108415234597864,
          -65.08524865764463,
          -136.62184962795715,
          78.76742255862997,
          90.56627583988589,
          -34.48024444886743,
          80.14072371021709,
          -46.09935867211868,
          89.62421531331107,
          86.85284726060709,
          -175.2736551938634,
          -41.751682718683284,
          82.57077404715207,
          -37.11934682928313,
          66.50545338405414,
          -28.679561267117098,
          -39.277602756813835,
          -42.237219287802205,
          -183.46408660603328,
          -36.41107757627193,
          82.42614304875701,
          -42.31829506809029,
          -137.18434580797765,
          -50.78817030598648,
          89.57804531520311,
          86.89721268333673,
          81.19450290639665,
          -41.96829057735164,
          -45.57150368045146,
          -49.40803225639681,
          91.64940555289783,
          84.97421715109478,
          81.42356461386044,
          -46.02847211924713
        ],
        [
          -180.10049704186258,
          -182.0507992929818,
          -344.6150739453819,
          -231.98364970744083,
          -291.65294263758096,
          -133.56008025457933,
          -151.71780603394606,
          -176.47618555422883,
          -173.06405900730562,
          -203.6368897566844,
          -167.41256479728477,
          -152.71901133944732,
          -174.11679629923594,
          -150.72138256211028,
          -168.00908933099123,
          -201.20901448048537,
          -174.00724904747184,
          -155.7058400606984,
          -172.00463217164136,
          -147.20455084467108,
          -182.6039772772171,
          -147.80332060519794,
          -159.90294709831434,
          -227.60267250171304,
          -135.80234041031727,
          -169.1021586106905,
          -188.80193863772578,
          -202.10183564718034,
          -179.9015039397028,
          -187.10147532476444,
          -168.60135786080272,
          -222.601351163493,
          -170.00111935891996,
          -162.10110910816803,
          -156.20102188012882,
          -149.30100290779902,
          -173.7009417638701,
          -149.10090924968557,
          -180.60088874298538,
          -172.30080829365406,
          -155.2008460740583,
          -173.40075531925993,
          -186.70076360184908,
          -160.70081297114342,
          -155.7006797696564,
          -168.30081953353263,
          -203.0008719302699,
          -244.70085464510447,
          -143.3008613922881,
          -165.6009123946358,
          -172.5009887021075,
          -186.60102067275676,
          -166.20101096866745,
          -180.10109170140998,
          -196.00166543743256,
          -169.4160352230287,
          -185.98088907796202,
          -121.36030532806555,
          -146.74297180018337,
          -55.9280145017743,
          -131.76945728717158,
          -113.32235547996059,
          -217.70208157939322,
          -51.78426882642259,
          -174.64951578097515,
          -182.7855308621912,
          -37.49219177875252,
          70.84359498434357,
          90.47407971328181,
          -84.57106446507063,
          76.23616277363301,
          76.323345279731,
          -56.669633224741055,
          -39.613453158428534,
          -62.02565591608583,
          -48.25754539563397,
          -43.81507971851773,
          -43.762355387659795,
          -37.933649500321316,
          -160.06814207253393,
          -76.30847702113265,
          75.49588974116647,
          -42.333703553519015,
          -49.350453927824944,
          76.18211959199365,
          76.90351841032995,
          -182.4342576953535,
          93.14918217984123,
          -36.23100750908048,
          78.52812022766491,
          -41.06669317045155,
          -31.65333216562888,
          -26.60358859269854,
          79.52327017075568,
          -47.305807787823795,
          76.15897907264016,
          -157.89275156751762,
          -146.9730447721494,
          -178.91378765890084,
          -138.05051281238485,
          -46.69433509707709,
          83.51493880813615,
          -43.25552089661275,
          -49.7773784554787,
          73.544505831657,
          -132.53940044364654,
          -234.41625782071364,
          86.17056981107038,
          -170.74704653087807,
          -28.201253411903714,
          -174.0140469404887,
          -159.07421126027495,
          -43.14616498408603,
          -52.09984338226346,
          -256.9169040683105,
          80.66951760822207,
          -39.46857440794235,
          -52.58445836827296,
          -50.48480396205248,
          -186.5681151440309,
          -55.566666088654166,
          -161.61760637444928,
          -148.54393787623167,
          -217.63184766701409,
          -43.59626882182962,
          -45.00295791242877,
          -55.55490727076681,
          -45.670250888313596,
          -173.24765823957569,
          96.73588004277427,
          -134.27004648309907,
          -162.40260879181577,
          -35.132078248114084,
          -164.06400215049678,
          -50.69708508088245,
          -45.80601219295458,
          -52.6644074173264,
          -36.705583294055884,
          -52.000054080745215,
          -156.6361082619167,
          -35.92412411961496,
          75.25064164489451,
          -140.74912824361033,
          -51.80423582761469,
          -282.09373060237374,
          -38.06780592411547,
          -55.53540865716107,
          83.19374797270878,
          -57.20653440892859,
          82.25164877729092,
          84.17402483039474,
          74.50046397563374,
          -40.9358034870897,
          90.32094161396279,
          -52.719183550716444,
          85.20869631671509,
          -44.98634080492385,
          72.95599293890159,
          76.99879040740375,
          -37.81667741151399,
          86.02055870498101,
          -23.966929786524737,
          -46.23984915668386,
          -40.070781422969596,
          -40.971458281776435,
          80.4019072925408,
          86.36317025928284,
          78.99485323413757,
          -48.54135864224607,
          46.211114029457825,
          -25.536481122178785,
          -47.00938460961872,
          -37.00173947368128,
          -180.46772131576634,
          70.08524401717735,
          88.69375375881897,
          -177.90080357167787,
          -43.64001042410044,
          -55.222124914590395,
          -186.02592403967896,
          71.88817643681814,
          -258.71743049870156,
          80.74082802094001,
          80.09186295777556,
          -161.35051739618112,
          -54.18119426474499,
          78.68524675854361,
          84.61047065054903,
          -143.6729386076808,
          -146.49883808138023,
          91.14144724516528,
          70.77460305405772,
          67.25445973978228,
          -37.382050424771634,
          86.19949549604466,
          51.82916198134794,
          72.82960004853943,
          -31.286280505769547,
          62.771017712483214,
          -38.19083303367447,
          -130.0665169225027,
          -28.313415141054854,
          -48.51356586195409,
          -34.61670761623671,
          -48.02239190485961,
          -34.74933375375871,
          -38.707834265402084,
          50.740031430666356,
          -126.85436088456223,
          -160.0069943799566,
          -41.44581239253799,
          71.95339824895439,
          -50.47999437660469,
          92.31144289505937,
          -51.79752051386242,
          81.27681660157907,
          85.9111805812936,
          -52.83631310535527,
          93.85343645814841,
          -175.79867274500876,
          -44.35717503275205,
          89.31277910122641,
          99.61196797999098,
          73.16031514986288,
          -41.581122377085386,
          68.08236368833776,
          -43.65105910602553,
          -34.379675386642674,
          -34.82569153092425,
          -59.13211286891868,
          -51.14418923744568,
          -48.942850607850445,
          -54.00389059154658,
          78.40918984529353,
          -49.00728965969235,
          -164.26217070571983,
          -47.44462569345711,
          -42.257508304744256,
          -59.077202774163716,
          -50.53325976816803,
          -170.55359185262367,
          85.61127136837408,
          -266.83930588830833,
          -40.01373471129283,
          -47.538454962273406,
          -173.5788112420016,
          95.26263238676275,
          86.40525128840619,
          81.9989821053097,
          79.02142768245402,
          -44.76369653471149,
          -43.31911724951128,
          96.32662144328675,
          -40.17930328074162,
          84.29961069977263,
          -42.64513195043642,
          -52.21194969043326,
          -42.789952456983656,
          80.95088852930046,
          -257.0679154422117,
          74.86928125753805,
          -26.833147161395992,
          -44.81020296176906,
          -48.288623451801286,
          78.51308617866651,
          76.27003181510875,
          -139.0766563508251,
          -51.51865466392162,
          -48.21194201946455,
          81.58519054430485,
          -50.117209766834684,
          -36.66181426055071,
          -171.8550524638826,
          -54.014852856613516,
          85.77535375811688,
          -55.91942691354886,
          -46.06013490030073,
          -50.45501382587156,
          -38.72566071914706,
          -176.50284765739386,
          68.39522020070329,
          -38.047521575720324,
          -42.04627110053155,
          -39.61729428126734,
          -54.74763299997622,
          74.86015024522017,
          87.20088362882808,
          -172.17693890752787,
          84.73600988440049,
          89.27578422814452,
          -126.94977004756734,
          -176.09107590448326,
          -49.59198979331289,
          81.92678268948498,
          -54.5693497352953,
          -50.18217405966211,
          -56.05933283752877,
          76.19568952176115,
          86.19180004710138,
          -48.069158109692125
        ]
      ],
      "aoi": [
        [
          2.3344444444444448,
          2.3422222222222207,
          2.288888888888889,
          2.2933333333333334,
          2.3077777777777784,
          2.295555555555555,
          2.3233333333333337,
          2.2788888888888885,
          2.332222222222222,
          2.2255555555555557,
          2.255555555555556,
          2.2588888888888894,
          2.2188888888888885,
          2.2488888888888896,
          2.2144444444444447,
          2.2177777777777776,
          2.217777777777777,
          2.2311111111111113,
          2.268888888888889,
          2.315555555555555,
          2.3222222222222224,
          2.250000000000001,
          2.2455555555555557,
          2.213333333333333,
          2.283333333333334,
          2.235555555555555,
          2.308888888888889,
          2.1811111111111106,
          2.2888888888888888,
          2.372222222222222,
          2.2888888888888888,
          2.21,
          2.231111111111111,
          2.2455555555555557,
          2.2722222222222217,
          2.2933333333333326,
          2.1955555555555555,
          2.269999999999999,
          2.3766666666666665,
          2.312222222222222,
          2.251111111111112,
          2.247777777777778,
          2.293333333333334,
          2.2944444444444443,
          2.2055555555555557,
          2.296666666666667,
          2.2066666666666666,
          2.326666666666666,
          2.178888888888889,
          2.211111111111111,
          2.258888888888889,
          2.152222222222222,
          2.3299999999999996,
          2.2677777777777783,
          2.2688888888888887,
          2.3322222222222226,
          2.1955555555555555,
          2.1999999999999997,
          2.244444444444445,
          2.164444444444444,
          2.3188888888888894,
          2.2022222222222227,
          2.254444444444445,
          2.274444444444445,
          2.225555555555556,
          2.292222222222222,
          2.3,
          2.262222222222222,
          2.1788888888888893,
          2.231111111111111,
          2.1044444444444443,
          2.132222222222222,
          2.085555555555556,
          2.1655555555555552,
          2.026666666666667,
          2.112222222222222,
          2.1555555555555554,
          2.0711111111111116,
          2.1777777777777776,
          2.0855555555555556,
          2.166666666666666,
          2.123333333333333,
          2.072222222222223,
          2.072222222222222,
          2.1533333333333333,
          2.06,
          1.955555555555555,
          1.9855555555555557,
          1.9677777777777772,
          2.0322222222222224,
          2.0377777777777775,
          1.9244444444444435,
          2.0100000000000002,
          1.9699999999999998,
          1.9944444444444447,
          1.8944444444444444,
          2.024444444444445,
          1.9322222222222225,
          1.955555555555556,
          2.0055555555555555,
          2.032222222222222,
          1.9966666666666666,
          1.9799999999999995,
          1.9322222222222218,
          2.037777777777778,
          1.9888888888888887,
          1.9644444444444438,
          2.045555555555556,
          1.9433333333333331,
          1.985555555555556,
          2.035555555555556,
          1.9955555555555553,
          2.051111111111111,
          1.935555555555556,
          1.9222222222222218,
          2.0688888888888886,
          1.9399999999999997,
          2.0377777777777775,
          1.8777777777777775,
          1.9966666666666666,
          1.9388888888888887,
          2.038888888888889,
          2.008888888888889,
          1.9933333333333334,
          1.9711111111111115,
          1.9433333333333336,
          2.081111111111111,
          1.9511111111111112,
          1.9266666666666663,
          1.992222222222222,
          2.0555555555555554,
          1.9811111111111115,
          1.931111111111111,
          2.005555555555555,
          2.023333333333333,
          1.951111111111111,
          1.957777777777778,
          1.9744444444444442,
          2.0444444444444447,
          1.9777777777777776,
          2.036666666666666,
          1.9866666666666668,
          2.061111111111111,
          1.9677777777777778,
          2.0566666666666666,
          1.9755555555555555,
          1.9511111111111108,
          1.9411111111111115,
          1.9911111111111108,
          2.0400000000000005,
          1.9244444444444444,
          2.0211111111111113,
          2.043333333333333,
          1.9966666666666661,
          2.0755555555555554,
          2.036666666666667,
          1.9744444444444442,
          1.9411111111111117,
          2.0188888888888896,
          2.005555555555555,
          2.0488888888888894,
          1.94,
          1.9099999999999997,
          1.9477777777777778,
          2.028888888888889,
          2.012222222222222,
          1.9655555555555562,
          1.9222222222222218,
          2.1277777777777773,
          1.9544444444444449,
          1.958888888888889,
          1.992222222222222,
          2.0222222222222226,
          1.9888888888888896,
          1.9244444444444444,
          1.9444444444444449,
          2.0233333333333334,
          1.9677777777777785,
          1.9922222222222223,
          1.9355555555555557,
          1.9333333333333333,
          2.0044444444444443,
          2.0255555555555556,
          2.136666666666666,
          1.9066666666666663,
          1.9000000000000001,
          1.9555555555555548,
          1.953333333333334,
          1.978888888888889,
          1.9477777777777774,
          1.992222222222222,
          1.9200000000000002,
          2.043333333333334,
          2.032222222222223,
          1.9277777777777771,
          2.0477777777777773,
          2.034444444444444,
          1.9377777777777774,
          2.007777777777778,
          2.0277777777777777,
          2.0044444444444434,
          1.984444444444444,
          2.0222222222222217,
          2.0244444444444447,
          1.934444444444444,
          2.046666666666667,
          1.9577777777777776,
          2.034444444444444,
          1.9866666666666666,
          2.0077777777777777,
          1.9688888888888885,
          2.124444444444445,
          2.062222222222222,
          1.944444444444444,
          1.9122222222222218,
          1.9311111111111112,
          1.925555555555556,
          1.9522222222222216,
          2.04888888888889,
          2.005555555555556,
          2.0133333333333336,
          1.9288888888888882,
          1.9877777777777774,
          1.8877777777777778,
          2.0211111111111104,
          1.997777777777777,
          1.9499999999999995,
          2.014444444444444,
          2.032222222222222,
          2.0177777777777774,
          2.042222222222222,
          1.96,
          1.9655555555555562,
          1.922222222222222,
          1.9666666666666661,
          1.9277777777777776,
          2.046666666666667,
          1.9722222222222217,
          2.025555555555555,
          1.9300000000000002,
          2.037777777777778,
          1.9577777777777772,
          2.0344444444444445,
          1.953333333333333,
          1.9544444444444444,
          2.002222222222222,
          1.9966666666666673,
          1.8766666666666665,
          2.0033333333333325,
          1.9411111111111115,
          2.061111111111111,
          2.004444444444444,
          2.023333333333334,
          2.007777777777777,
          2.0177777777777774,
          2.006666666666667,
          1.9844444444444447,
          2.0100000000000007,
          2.1000000000000005,
          1.924444444444444,
          1.962222222222222,
          1.954444444444444,
          1.9655555555555557,
          2.061111111111111,
          1.9599999999999995,
          2.011111111111111,
          2.0500000000000003,
          2.04,
          1.9911111111111108,
          2.0088888888888885,
          1.925555555555555,
          1.9444444444444449,
          1.96,
          1.9811111111111097,
          1.9455555555555553,
          1.972222222222222,
          2.0033333333333334,
          1.9677777777777778,
          2.0177777777777774,
          1.965555555555556,
          2.0766666666666667,
          1.8877777777777778,
          1.9577777777777774,
          1.9888888888888885,
          2.0211111111111113,
          1.964444444444444,
          1.9855555555555562,
          1.9499999999999997,
          1.9933333333333332,
          2.0255555555555556,
          1.9722222222222217,
          1.9711111111111108,
          1.983333333333333,
          1.9933333333333332,
          1.9766666666666668,
          2.0266666666666664,
          1.9266666666666665,
          1.9555555555555557,
          1.9877777777777774,
          1.9866666666666666
        ],
        [
          2.221111111111111,
          2.206666666666666,
          2.391111111111111,
          2.2244444444444436,
          2.2944444444444443,
          2.2022222222222223,
          2.2355555555555555,
          2.1722222222222216,
          2.232222222222222,
          2.296666666666667,
          2.2511111111111104,
          2.2399999999999998,
          2.2455555555555553,
          2.1166666666666663,
          2.2600000000000007,
          2.3399999999999994,
          2.2711111111111117,
          2.128888888888889,
          2.262222222222223,
          2.1766666666666663,
          2.33,
          2.193333333333333,
          2.2322222222222226,
          2.1988888888888884,
          2.128888888888889,
          2.2744444444444443,
          2.2977777777777777,
          2.19,
          2.311111111111111,
          2.2611111111111115,
          2.315555555555555,
          2.3733333333333335,
          2.2544444444444443,
          2.1877777777777774,
          2.174444444444445,
          2.217777777777778,
          2.3422222222222215,
          2.2155555555555555,
          2.258888888888889,
          2.2277777777777783,
          2.1766666666666663,
          2.2644444444444445,
          2.342222222222222,
          2.221111111111111,
          2.197777777777776,
          2.261111111111111,
          2.341111111111111,
          2.324444444444444,
          2.1366666666666663,
          2.2544444444444447,
          2.246666666666667,
          2.3299999999999996,
          2.31,
          2.3166666666666678,
          2.263333333333333,
          2.254444444444444,
          2.3188888888888886,
          2.175555555555556,
          2.143333333333333,
          2.009999999999999,
          2.261111111111111,
          2.061111111111112,
          2.244444444444445,
          2.0377777777777784,
          2.0144444444444445,
          2.0277777777777772,
          1.937777777777778,
          1.962222222222222,
          1.9066666666666665,
          2.148888888888889,
          1.9811111111111104,
          1.9933333333333332,
          2.012222222222222,
          1.9577777777777774,
          2.079999999999999,
          2.018888888888889,
          1.995555555555555,
          1.9777777777777776,
          1.9366666666666668,
          1.932222222222222,
          2.146666666666667,
          2.0522222222222224,
          1.9666666666666663,
          2.014444444444444,
          2.014444444444445,
          2.019999999999999,
          2.0644444444444443,
          1.9366666666666654,
          1.9211111111111117,
          2.024444444444445,
          1.936666666666667,
          1.9011111111111103,
          1.8799999999999994,
          1.9988888888888894,
          2.006666666666667,
          2.0155555555555553,
          1.9211111111111114,
          2.0733333333333337,
          2.013333333333333,
          1.9899999999999998,
          2.001111111111111,
          2.0222222222222217,
          1.9899999999999998,
          2.0288888888888885,
          2.0500000000000003,
          1.9522222222222225,
          2.0300000000000002,
          1.957777777777777,
          1.9833333333333336,
          1.8866666666666667,
          2.0111111111111115,
          2.124444444444444,
          1.9788888888888887,
          2.0211111111111113,
          1.9555555555555555,
          2.006666666666667,
          1.952222222222222,
          1.994444444444444,
          2.036666666666667,
          2.071111111111112,
          1.9544444444444438,
          1.955555555555556,
          2.0477777777777777,
          1.975555555555555,
          2.0044444444444443,
          1.9777777777777779,
          2.011111111111111,
          2.001111111111111,
          1.9966666666666673,
          1.8955555555555559,
          1.9966666666666675,
          1.9300000000000006,
          1.9144444444444444,
          1.944444444444445,
          2.036666666666667,
          1.9788888888888891,
          2.0255555555555556,
          1.9611111111111112,
          2.0122222222222224,
          1.8844444444444441,
          1.9511111111111115,
          2.0655555555555556,
          2.0155555555555558,
          2.0388888888888896,
          2.1211111111111105,
          1.9555555555555562,
          2.0688888888888894,
          1.9566666666666666,
          2.06888888888889,
          1.9966666666666668,
          2.008888888888889,
          2.0466666666666664,
          1.9288888888888882,
          1.9322222222222218,
          2.051111111111111,
          1.9733333333333338,
          1.9999999999999998,
          2.0344444444444445,
          1.943333333333333,
          1.9222222222222223,
          1.9688888888888887,
          1.8711111111111103,
          1.982222222222223,
          1.9566666666666666,
          1.9777777777777779,
          2.013333333333333,
          1.9377777777777774,
          2.006666666666667,
          2.0088888888888885,
          1.9944444444444445,
          1.836666666666666,
          2.0211111111111104,
          1.9144444444444446,
          2.024444444444444,
          2.0044444444444434,
          1.9499999999999997,
          2.041111111111111,
          1.9788888888888891,
          2.0544444444444454,
          2.0600000000000005,
          2.0288888888888885,
          1.9611111111111117,
          2.0133333333333323,
          1.9822222222222226,
          1.9277777777777776,
          2.0455555555555556,
          2.012222222222222,
          1.982222222222222,
          2.0144444444444445,
          2.0799999999999996,
          1.888888888888889,
          2.072222222222222,
          2.0911111111111107,
          1.9477777777777774,
          1.9633333333333332,
          2.05,
          1.985555555555556,
          1.9133333333333324,
          2.061111111111111,
          1.952222222222222,
          1.9544444444444444,
          1.9100000000000001,
          2.019999999999999,
          1.935555555555556,
          2.007777777777778,
          1.8899999999999995,
          1.962222222222222,
          2.023333333333333,
          1.897777777777778,
          1.8955555555555554,
          1.9733333333333336,
          2.0744444444444436,
          2.0177777777777783,
          1.9066666666666667,
          2.0700000000000007,
          1.9866666666666668,
          1.9377777777777778,
          2.0644444444444443,
          1.915555555555556,
          2.0366666666666666,
          1.9688888888888882,
          1.9022222222222223,
          1.8744444444444446,
          2.023333333333333,
          1.948888888888888,
          2.03,
          1.9733333333333334,
          1.9288888888888882,
          1.8922222222222218,
          2.0633333333333335,
          1.998888888888889,
          1.9611111111111108,
          1.9922222222222217,
          2.0155555555555558,
          2.005555555555555,
          1.9111111111111112,
          2.005555555555555,
          1.996666666666667,
          2.1011111111111114,
          2.05111111111111,
          2.011111111111111,
          1.9944444444444442,
          2.0255555555555556,
          1.9477777777777776,
          1.9966666666666668,
          2.027777777777778,
          1.8833333333333326,
          1.9455555555555548,
          2.0122222222222224,
          2.006666666666667,
          1.9911111111111108,
          1.965555555555555,
          1.888888888888889,
          1.9433333333333331,
          1.9433333333333338,
          2.0055555555555555,
          2.0600000000000005,
          1.9444444444444449,
          1.9900000000000009,
          1.954444444444445,
          2.0177777777777774,
          1.8944444444444444,
          2.0011111111111104,
          2.0200000000000005,
          1.9999999999999996,
          2.006666666666666,
          1.978888888888889,
          2.0411111111111118,
          1.9988888888888892,
          1.99,
          2.008888888888889,
          1.913333333333333,
          1.9777777777777783,
          1.9566666666666666,
          1.956666666666667,
          2.0244444444444443,
          2.0322222222222224,
          2.0311111111111106,
          1.9466666666666665,
          2.0277777777777777,
          2.0644444444444447,
          1.936666666666667,
          1.9700000000000004,
          1.9411111111111117,
          2.088888888888889,
          2.02,
          1.9255555555555555,
          2.0122222222222224,
          1.9722222222222225,
          1.9466666666666659,
          1.9488888888888887,
          2.0222222222222217,
          1.95,
          1.9900000000000004,
          2.05,
          2.05,
          2.0377777777777775,
          2.0544444444444445,
          1.9333333333333333,
          2.0155555555555553
        ]
      ],
      "ho_freq": [
        [
          1.0,
          1.0,
          1.0,
          1.0,
          1.0,
          1.0,
          1.0,
          1.0,
          1.0,
          0.9766666666666667,
          0.8666666666666667,
          0.016666666666666666,
          0.08333333333333333,
          0.06666666666666667,
          0.06666666666666667,
          0.05,
          0.05,
          0.06666666666666667,
          0.06666666666666667,
          0.05,
          0.08333333333333333,
          0.03333333333333333,
          0.06666666666666667,
          0.03333333333333333,
          0.03333333333333333,
          0.05,
          0.06666666666666667,
          0.03333333333333333,
          0.016666666666666666,
          0.03333333333333333,
          0.06666666666666667,
          0.08333333333333333,
          0.03333333333333333,
          0.06666666666666667,
          0.03333333333333333,
          0.016666666666666666,
          0.05,
          0.03333333333333333,
          0.05,
          0.06666666666666667,
          0.016666666666666666,
          0.05,
          0.06666666666666667,
          0.05,
          0.06666666666666667,
          0.05,
          0.08333333333333333,
          0.05,
          0.03333333333333333,
          0.03333333333333333,
          0.03333333333333333,
          0.0,
          0.03333333333333333,
          0.11666666666666667,
          0.06666666666666667,
          0.05,
          0.03333333333333333,
          0.06666666666666667,
          0.08333333333333333,
          0.016666666666666666,
          0.03333333333333333,
          0.08333333333333333,
          0.03333333333333333,
          0.05,
          0.05,
          0.03333333333333333,
          0.1,
          0.06666666666666667,
          0.05,
          0.03333333333333333,
          0.05,
          0.08333333333333333,
          0.05,
          0.06666666666666667,
          0.05,
          0.0,
          0.05,
          0.03333333333333333,
          0.08333333333333333,
          0.0,
          0.03333333333333333,
          0.05,
          0.05,
          0.03333333333333333,
          0.03333333333333333,
          0.016666666666666666,
          0.016666666666666666,
          0.08,
          0.10666666666666667,
          0.09666666666666666,
          0.09,
          0.11666666666666667,
          0.12333333333333334,
          0.1,
          0.09333333333333334,
          0.11333333333333333,
          0.07,
          0.05,
          0.06666666666666667,
          0.03333333333333333,
          0.05,
          0.05,
          0.03333333333333333,
          0.016666666666666666,
          0.0,
          0.03333333333333333,
          0.05,
          0.03333333333333333,
          0.03333333333333333,
          0.05,
          0.08333333333333333,
          0.05,
          0.03333333333333333,
          0.05,
          0.08333333333333333,
          0.03333333333333333,
          0.016666666666666666,
          0.03333333333333333,
          0.05,
          0.08333333333333333,
          0.03333333333333333,
          0.016666666666666666,
          0.06666666666666667,
          0.05,
          0.03333333333333333,
          0.05,
          0.016666666666666666,
          0.03333333333333333,
          0.016666666666666666,
          0.1,
          0.1,
          0.03333333333333333,
          0.016666666666666666,
          0.03333333333333333,
          0.05,
          0.11666666666666667,
          0.05,
          0.016666666666666666,
          0.05,
          0.03333333333333333,
          0.03333333333333333,
          0.06666666666666667,
          0.06666666666666667,
          0.06666666666666667,
          0.06666666666666667,
          0.06666666666666667,
          0.03333333333333333,
          0.03333333333333333,
          0.08333333333333333,
          0.05,
          0.06666666666666667,
          0.03333333333333333,
          0.05,
          0.06666666666666667,
          0.05,
          0.03333333333333333,
          0.05,
          0.03333333333333333,
          0.08333333333333333,
          0.05,
          0.05,
          0.06666666666666667,
          0.03333333333333333,
          0.06666666666666667,
          0.08333333333333333,
          0.03333333333333333,
          0.05,
          0.05,
          0.08333333333333333,
          0.03333333333333333,
          0.06666666666666667,
          0.08333333333333333,
          0.05,
          0.08333333333333333,
          0.08333333333333333,
          0.05,
          0.06666666666666667,
          0.016666666666666666,
          0.08333333333333333,
          0.016666666666666666,
          0.05,
          0.016666666666666666,
          0.05,
          0.0,
          0.03333333333333333,
          0.05,
          0.03333333333333333,
          0.06666666666666667,
          0.03333333333333333,
          0.06666666666666667,
          0.05,
          0.08333333333333333,
          0.05,
          0.016666666666666666,
          0.03333333333333333,
          0.08333333333333333,
          0.03333333333333333,
          0.05,
          0.03333333333333333,
          0.03333333333333333,
          0.06666666666666667,
          0.05,
          0.016666666666666666,
          0.016666666666666666,
          0.05,
          0.03333333333333333,
          0.016666666666666666,
          0.05,
          0.05,
          0.06666666666666667,
          0.08333333333333333,
          0.03333333333333333,
          0.06666666666666667,
          0.016666666666666666,
          0.05,
          0.05,
          0.03333333333333333,
          0.05,
          0.016666666666666666,
          0.03333333333333333,
          0.03333333333333333,
          0.016666666666666666,
          0.08333333333333333,
          0.016666666666666666,
          0.05,
          0.016666666666666666,
          0.06666666666666667,
          0.03333333333333333,
          0.016666666666666666,
          0.08333333333333333,
          0.03333333333333333,
          0.016666666666666666,
          0.03333333333333333,
          0.03333333333333333,
          0.06666666666666667,
          0.05,
          0.0,
          0.06666666666666667,
          0.08333333333333333,
          0.016666666666666666,
          0.06666666666666667,
          0.016666666666666666,
          0.03333333333333333,
          0.03333333333333333,
          0.06666666666666667,
          0.05,
          0.05,
          0.06666666666666667,
          0.03333333333333333,
          0.05,
          0.03333333333333333,
          0.03333333333333333,
          0.05,
          0.06666666666666667,
          0.05,
          0.03333333333333333,
          0.1,
          0.03333333333333333,
          0.06666666666666667,
          0.08333333333333333,
          0.08333333333333333,
          0.06666666666666667,
          0.1,
          0.08333333333333333,
          0.06666666666666667,
          0.016666666666666666,
          0.016666666666666666,
          0.03333333333333333,
          0.03333333333333333,
          0.016666666666666666,
          0.05,
          0.03333333333333333,
          0.03333333333333333,
          0.016666666666666666,
          0.05,
          0.03333333333333333,
          0.05,
          0.05,
          0.06666666666666667,
          0.03333333333333333,
          0.05,
          0.03333333333333333,
          0.016666666666666666,
          0.03333333333333333,
          0.1,
          0.1,
          0.016666666666666666,
          0.03333333333333333,
          0.06666666666666667,
          0.05,
          0.06666666666666667,
          0.05,
          0.016666666666666666,
          0.06666666666666667,
          0.08333333333333333,
          0.08333333333333333,
          0.016666666666666666,
          0.0,
          0.03333333333333333,
          0.05
        ],
        [
          0.07,
          0.1,
          0.07,
          0.13333333333333333,
          0.27,
          0.05,
          0.016666666666666666,
          0.05,
          0.05,
          0.08333333333333333,
          0.03333333333333333,
          0.03333333333333333,
          0.05,
          0.08333333333333333,
          0.0,
          0.05,
          0.05,
          0.016666666666666666,
          0.0,
          0.06666666666666667,
          0.06666666666666667,
          0.03333333333333333,
          0.03333333333333333,
          0.05,
          0.06666666666666667,
          0.03333333333333333,
          0.06666666666666667,
          0.06666666666666667,
          0.03333333333333333,
          0.05,
          0.05,
          0.13333333333333333,
          0.016666666666666666,
          0.08333333333333333,
          0.03333333333333333,
          0.08333333333333333,
          0.08333333333333333,
          0.06666666666666667,
          0.03333333333333333,
          0.08333333333333333,
          0.08333333333333333,
          0.016666666666666666,
          0.05,
          0.08333333333333333,
          0.016666666666666666,
          0.05,
          0.03333333333333333,
          0.05,
          0.06666666666666667,
          0.05,
          0.1,
          0.03333333333333333,
          0.06666666666666667,
          0.06666666666666667,
          0.06666666666666667,
          0.08333333333333333,
          0.5666666666666667,
          0.9633333333333334,
          0.7833333333333333,
          0.1,
          0.6533333333333333,
          0.20666666666666667,
          0.14333333333333334,
          0.016666666666666666,
          0.05,
          0.016666666666666666,
          0.05,
          0.06666666666666667,
          0.05,
          0.06666666666666667,
          0.05,
          0.05,
          0.03333333333333333,
          0.05,
          0.05,
          0.03333333333333333,
          0.05,
          0.05,
          0.08333333333333333,
          0.08333333333333333,
          0.13333333333333333,
          0.06666666666666667,
          0.03333333333333333,
          0.05,
          0.016666666666666666,
          0.03333333333333333,
          0.1,
          0.03333333333333333,
          0.03333333333333333,
          0.05,
          0.03333333333333333,
          0.06666666666666667,
          0.05,
          0.016666666666666666,
          0.05,
          0.03333333333333333,
          0.06666666666666667,
          0.08333333333333333,
          0.016666666666666666,
          0.05,
          0.08333333333333333,
          0.08333333333333333,
          0.05,
          0.03333333333333333,
          0.05,
          0.03333333333333333,
          0.05,
          0.08333333333333333,
          0.05,
          0.03333333333333333,
          0.06666666666666667,
          0.03333333333333333,
          0.05,
          0.03333333333333333,
          0.06666666666666667,
          0.06666666666666667,
          0.06666666666666667,
          0.05,
          0.05,
          0.03333333333333333,
          0.03333333333333333,
          0.06666666666666667,
          0.11666666666666667,
          0.08333333333333333,
          0.08333333333333333,
          0.05,
          0.06666666666666667,
          0.05,
          0.05,
          0.06666666666666667,
          0.08333333333333333,
          0.03333333333333333,
          0.06666666666666667,
          0.05,
          0.05,
          0.05,
          0.016666666666666666,
          0.03333333333333333,
          0.03333333333333333,
          0.05,
          0.05,
          0.08333333333333333,
          0.06666666666666667,
          0.05,
          0.05,
          0.0,
          0.05,
          0.06666666666666667,
          0.06666666666666667,
          0.08333333333333333,
          0.05,
          0.06666666666666667,
          0.06666666666666667,
          0.03333333333333333,
          0.06666666666666667,
          0.016666666666666666,
          0.03333333333333333,
          0.05,
          0.05,
          0.05,
          0.05,
          0.05,
          0.06666666666666667,
          0.016666666666666666,
          0.1,
          0.05,
          0.05,
          0.05,
          0.06666666666666667,
          0.05,
          0.016666666666666666,
          0.06666666666666667,
          0.03333333333333333,
          0.06666666666666667,
          0.03333333333333333,
          0.05,
          0.05,
          0.05,
          0.03333333333333333,
          0.06666666666666667,
          0.06666666666666667,
          0.06666666666666667,
          0.06666666666666667,
          0.03333333333333333,
          0.06666666666666667,
          0.016666666666666666,
          0.03333333333333333,
          0.016666666666666666,
          0.1,
          0.016666666666666666,
          0.06666666666666667,
          0.06666666666666667,
          0.03333333333333333,
          0.06666666666666667,
          0.08333333333333333,
          0.06666666666666667,
          0.06666666666666667,
          0.06666666666666667,
          0.06666666666666667,
          0.016666666666666666,
          0.08333333333333333,
          0.08333333333333333,
          0.05,
          0.1,
          0.03333333333333333,
          0.05,
          0.06666666666666667,
          0.06666666666666667,
          0.03333333333333333,
          0.03333333333333333,
          0.03333333333333333,
          0.06666666666666667,
          0.06666666666666667,
          0.05,
          0.03333333333333333,
          0.05,
          0.03333333333333333,
          0.05,
          0.05,
          0.06666666666666667,
          0.03333333333333333,
          0.05,
          0.05,
          0.05,
          0.03333333333333333,
          0.016666666666666666,
          0.016666666666666666,
          0.05,
          0.03333333333333333,
          0.05,
          0.016666666666666666,
          0.03333333333333333,
          0.03333333333333333,
          0.05,
          0.016666666666666666,
          0.03333333333333333,
          0.05,
          0.05,
          0.05,
          0.05,
          0.05,
          0.05,
          0.0,
          0.05,
          0.05,
          0.1,
          0.06666666666666667,
          0.05,
          0.05,
          0.03333333333333333,
          0.03333333333333333,
          0.08333333333333333,
          0.05,
          0.03333333333333333,
          0.03333333333333333,
          0.08333333333333333,
          0.1,
          0.05,
          0.05,
          0.05,
          0.05,
          0.08333333333333333,
          0.08333333333333333,
          0.08333333333333333,
          0.03333333333333333,
          0.03333333333333333,
          0.05,
          0.03333333333333333,
          0.05,
          0.06666666666666667,
          0.03333333333333333,
          0.08333333333333333,
          0.05,
          0.06666666666666667,
          0.03333333333333333,
          0.05,
          0.06666666666666667,
          0.08333333333333333,
          0.05,
          0.03333333333333333,
          0.05,
          0.05,
          0.03333333333333333,
          0.06666666666666667,
          0.1,
          0.03333333333333333,
          0.06666666666666667,
          0.08333333333333333,
          0.05,
          0.1,
          0.08333333333333333,
          0.03333333333333333,
          0.1,
          0.016666666666666666,
          0.06666666666666667,
          0.08333333333333333,
          0.06666666666666667,
          0.06666666666666667,
          0.0,
          0.08333333333333333
        ]
      ]
    },
    "MA-TD3": {
      "rewards": [
        [
          -142.41541953699132,
          -296.3154409862209,
          -103.80937086791637,
          -318.0180793386173,
          -315.8963300233798,
          -46.12470969805311,
          -226.60099222714308,
          -77.15121447731732,
          -289.37293087653524,
          -226.5276216665917,
          -160.90740896537898,
          -293.6546437537015,
          -269.6228758547298,
          -219.78492233610697,
          -229.81667677411014,
          -143.71194678259522,
          -176.96340626172622,
          -71.32800217636107,
          -42.828244128628114,
          -137.65841206067617,
          88.15063733210056,
          -52.11983920949294,
          81.91839499014868,
          -45.42867460696738,
          -46.46788234753681,
          86.53275594312689,
          -168.52398490493871,
          -259.6043013948469,
          28.725915632409922,
          61.99449304160226,
          -143.84753912441127,
          -42.39530963456036,
          -172.03261772812783,
          -185.4351741627332,
          66.69581959743068,
          84.53526640472062,
          -52.2244807556983,
          -36.642905233249174,
          -40.483663074166884,
          77.02976241399809,
          88.1398427250289,
          -184.26954714819135,
          72.09215822407936,
          -36.999434435208144,
          85.40922071660765,
          96.30135884468442,
          -132.0675083018303,
          59.90287780474632,
          -174.33189332546036,
          -46.92535578066362,
          -40.109374667510885,
          -35.95930058872171,
          -45.05745575734876,
          81.34282915610457,
          -47.92634375689171,
          85.31725348878622,
          -49.03047248139882,
          -44.89943410518044,
          -256.432147054164,
          -68.98023681813345,
          94.05391001127533,
          -37.11729368577472,
          79.27814816096827,
          -55.33025066485697,
          82.0519678580397,
          76.52504922305928,
          -47.507337817236426,
          82.0067749901383,
          -45.931059603474935,
          -32.3268399665027,
          -165.03703682591726,
          93.3876864245152,
          65.28163474461712,
          -31.348902024320324,
          -32.251044363185756,
          -54.25641541257827,
          72.47714308716242,
          -40.07861381008733,
          81.27931215706268,
          87.47635265679436,
          94.29404069109471,
          98.69695840769633,
          -42.90802673976786,
          -128.3231149409942,
          -53.83235774077404,
          -45.94200782340143,
          -44.16832145301982,
          -56.39140664057235,
          -179.1806173170146,
          -49.272299255172236,
          -134.71562683241729,
          -169.91199856375775,
          78.77406793994501,
          78.88297051627418,
          -52.444189998372934,
          -130.6567301900083,
          -56.061203954540645,
          -30.697029635520213,
          94.01630724365599,
          -159.94128436725762,
          -172.08475801263617,
          99.8104995746766,
          88.84845961517607,
          61.54597926390916,
          81.57794038558815,
          -127.65730818871143,
          77.61025500344394,
          80.34685255381133,
          -35.086406820417814,
          98.53976264440128,
          -174.17922385215334,
          -46.32052015833407,
          -56.30906234143722,
          87.01423056285189,
          -45.82799293057343,
          -46.84280813103333,
          -34.368407505167966,
          -47.06415157603452,
          -44.54222800668033,
          -46.96573704439292,
          -48.97887848718324,
          87.42763171948947,
          -38.75129214624316,
          91.64887309100759,
          -55.495962275177455,
          -127.92450825684419,
          -46.02027744163951,
          -238.0490789305335,
          -25.347639200459916,
          -51.27610758018926,
          82.56093486004193,
          -46.75549753015866,
          -38.37321079223183,
          82.62575543629566,
          -176.57476997864052,
          74.41588205005016,
          -35.982382501244935,
          -46.089370591743794,
          -47.63199453603442,
          69.9337929738726,
          -51.612695113980685,
          -39.20559153105142,
          -57.32218090230395,
          -48.69127852354369,
          79.8322632234069,
          -132.83515075341012,
          85.59775134371708,
          -44.580705041262235,
          75.72051133520031,
          85.282695876643,
          -41.84208962379574,
          -48.85493316054912,
          -48.0235694979209,
          -55.9611970153475,
          -52.111057590999515,
          -43.1074486646354,
          -123.47402674995679,
          83.07206752207337,
          -45.54247162950395,
          85.64907521383373,
          -53.51311434787848,
          -46.85857947231184,
          -50.65475197889745,
          -42.29110223773674,
          -34.82384185905764,
          87.38387133495088,
          83.1404561393122,
          51.49083002037924,
          73.95841620992778,
          63.88498959129967,
          67.68355003825155,
          -173.69668955201632,
          77.12455548656467,
          69.8689042288191,
          -45.77181961187302,
          -34.1572382123408,
          -66.60260523505627,
          -44.974973918810896,
          80.57092001499414,
          -42.046137856591606,
          83.70340229331234,
          84.14432457990549,
          66.34950123315535,
          -42.587043834379564,
          -204.41444612598227,
          76.32655471802283,
          -221.794502351732,
          -53.57267099431464,
          -44.448378233789164,
          -35.35269900243075,
          79.86499249210142,
          87.35059191110636,
          -123.16143481242642,
          90.30476097453608,
          81.80695453542289,
          -165.01181290020332,
          75.14856997770082,
          94.83095840435546,
          -175.17455517531573,
          -219.77050801561813,
          -217.1437854582549,
          -44.661443804856496,
          74.50838505569307,
          82.81923852599029,
          67.65874697983637,
          81.46851732741732,
          77.33898074834943,
          -162.34994076817222,
          -32.37894733459005,
          -65.96114860761722,
          76.43399916977506,
          -36.98420371570805,
          -48.4131202369142,
          -52.2277203494711,
          85.15086865505288,
          -42.11520173492054,
          -129.84832584795126,
          -178.74596452736023,
          -50.57643413062117,
          -172.2993278276276,
          84.82307139482477,
          -45.36308402183482,
          82.93864086855179,
          92.17372590769882,
          -57.98173150995588,
          -49.363563367700664,
          -142.55073608525785,
          72.17677377132951,
          -40.53726623877152,
          -65.41619583861389,
          -58.34865492667842,
          94.28996855190297,
          -32.178640849688584,
          -43.954768962423096,
          -40.425225995014166,
          -76.73576536195218,
          75.11305086589152,
          -43.33132440571022,
          -173.3883756045191,
          -174.4890337227908,
          -170.98095494255472,
          73.79956037298297,
          -84.18479950810529,
          -122.39232786476146,
          -53.023377152845455,
          91.34213003610436,
          77.37513011940153,
          -57.83974039183813,
          -125.50639067706994,
          72.16767710977557,
          -53.69319034268477,
          -51.775929862449544,
          -36.6064602364194,
          -46.08453162560541,
          -44.24461296395671,
          -47.280652804780715,
          86.23004086407059,
          90.39894080369686,
          -53.44260363322272,
          -47.046433659372084,
          92.42994832004749,
          -59.68386970770238,
          -164.57690457445537,
          92.35922263018716,
          -171.10371582540768,
          81.47052869779307,
          -29.09627064260353,
          -41.4234399072362,
          87.83887145101197,
          88.37191644466402,
          -47.70161854084117,
          72.43266203165416,
          89.1073959840549,
          44.019756910168155,
          97.22680588290655,
          76.62144034342634,
          100.65488957196108,
          88.1335984893741,
          -36.58859908922094,
          -44.49858142694455,
          -46.77118323693789,
          -168.20379843885152,
          -171.9064393678099,
          -186.35804098859506,
          -36.51665450798024,
          -46.116185303769896,
          -56.240549338876434,
          -300.1927815320964,
          -49.945960643005755,
          -187.46900299969434,
          -43.90800824573134,
          -34.44518388796769,
          82.14102602782009,
          -169.98764644517888,
          -50.46637478644263,
          -56.91913448626281,
          -146.1527939327592,
          -133.71838778305477,
          -42.12614146720809,
          87.14719573952883
        ],
        [
          -139.21848876746225,
          -57.00573327330039,
          -158.48180467489186,
          -117.25525852584613,
          -142.38620436487716,
          -164.3680630908373,
          -193.1080517035088,
          -167.8991413301807,
          -210.10422282425134,
          -290.9179419030174,
          -222.0477474198161,
          -232.62012184257728,
          -262.31686262827424,
          -262.6595223108486,
          -219.01214083792587,
          -356.4121000072592,
          -248.01011326110026,
          -255.10937529744112,
          -214.309058610315,
          -260.50839775538617,
          -208.20832267422662,
          -278.5082720280902,
          -295.8081340235847,
          -268.1371818320176,
          -251.7824584488034,
          -263.37597754835974,
          -242.9776203947546,
          -205.72021236623698,
          -277.5055671787786,
          -240.61859518504642,
          -212.91693528187488,
          -266.31700979413284,
          -222.84688396033377,
          -277.47112195266396,
          -230.71979491585805,
          -189.988479451919,
          -179.01759360727445,
          -188.115785927824,
          -215.69998332384904,
          -234.15748899341241,
          -306.52559678372063,
          -218.3030321378631,
          -215.50028478637233,
          -280.07032594947935,
          -285.35778421913113,
          -333.08787694406425,
          -293.01227485981997,
          -168.00768898341346,
          -230.38331844430337,
          -234.67298988270437,
          -269.1573827632286,
          -174.00205303028275,
          -56.97314112623131,
          77.76552762168575,
          -55.66626076891525,
          70.6273526112051,
          85.16039639813576,
          -37.79057517773179,
          84.84009879869261,
          -43.71005383557685,
          84.88206068599173,
          68.61468528731258,
          79.26828892563225,
          -42.45180363283203,
          103.38358801099626,
          -48.71641859006807,
          71.04755286997558,
          69.9266170137407,
          78.907232477378,
          -134.77749849799312,
          -54.69567742594518,
          -53.75909212305064,
          -170.08080193360496,
          -41.29851137939066,
          -42.60543238182654,
          77.48489563932978,
          -131.11603317714804,
          -31.30027599230749,
          78.53320896562742,
          68.7658752484761,
          -41.38336660117941,
          -45.48098469662696,
          -128.64545627614925,
          -32.24810070115811,
          -59.04443194317113,
          -50.97721917075724,
          -53.58434029969818,
          -175.95106848814643,
          -63.56133528222327,
          -177.43798351915987,
          92.36720266651979,
          -48.478044082858915,
          -44.74395985944413,
          -43.681294724950384,
          -171.19021974200365,
          65.911480847682,
          -37.04253738518998,
          -34.68817849697935,
          -57.813235117249285,
          -169.82668041267294,
          88.89923285159048,
          -50.94298866568987,
          67.665230657669,
          -179.8416745760333,
          -45.17039300279723,
          -55.959625295892046,
          -136.07958390014684,
          -167.87117135437208,
          -42.414667735095236,
          -34.611438409365334,
          -53.27135384313762,
          85.96998127992563,
          -60.5634534491916,
          79.20835623194837,
          87.87592667526069,
          66.36903605929211,
          -42.1916968733589,
          -170.89263248578382,
          -41.97889442454225,
          -229.56108007235406,
          -56.507531638030756,
          -38.97421982772009,
          79.69276039735325,
          -128.56243440748696,
          -42.71884829468473,
          -129.27785656045302,
          -71.03792428377825,
          -37.59060585571608,
          -57.93857913605502,
          -46.88443984098664,
          -57.0392412106396,
          -139.30971749327398,
          105.270611336385,
          -59.62700060558175,
          -52.09073440967982,
          64.17234518151122,
          -34.242015226329166,
          -41.15593185502122,
          73.99633870760235,
          -131.00873335363897,
          -35.51773788319941,
          -48.9249106212764,
          -29.51258760976928,
          -134.34099817259926,
          -57.98362290934282,
          -165.02546574546918,
          -36.59102087564777,
          92.60337878514004,
          71.96508668064597,
          98.92593281683463,
          -41.16925089594516,
          -44.760565756756684,
          -41.10764632462953,
          91.99697761630668,
          -162.2319574457958,
          -167.81796961319444,
          -35.18616854184561,
          94.07282988971855,
          79.34662782700705,
          74.98000979315178,
          84.46781627694645,
          -40.08338149212487,
          80.18824466410592,
          -49.49744854063699,
          -76.33122396700756,
          -53.76726719307565,
          -39.219343197713506,
          -50.433996598692175,
          -44.20877705866114,
          82.50715345809762,
          -48.348061279081975,
          -39.91476355026697,
          -45.900196629833566,
          -43.85162682336674,
          -36.805531896088084,
          -56.64324689824089,
          -135.5532106325025,
          -40.70965186644185,
          84.77438117974876,
          -62.32473454172058,
          62.10596375834151,
          -45.244068089032496,
          -176.14632763676315,
          -173.14181838727032,
          -127.3306161123432,
          -42.04248532719359,
          -51.598998106554774,
          70.83358984595178,
          78.55734059992842,
          -57.60909719952008,
          -51.854191671693,
          -41.89131290428625,
          -30.104380663762143,
          -44.02411196419666,
          68.64146654962596,
          -87.25498473773207,
          -51.752105353372436,
          88.50862653411814,
          68.85612507621332,
          -134.17571933209067,
          88.54243840209381,
          -39.698702273779105,
          -47.40550023788594,
          70.50765124056088,
          -72.55215626864752,
          64.20344442804881,
          -60.40249796070218,
          -39.82113093972352,
          81.5270494111476,
          83.67656798763456,
          -32.60087229158143,
          -178.29364214453898,
          -37.85044576200066,
          -52.279977366598786,
          64.95744498107842,
          -49.521008387774046,
          71.26557715591719,
          -46.06353321116009,
          -32.83351756532886,
          -46.48126719680043,
          -60.19927866320648,
          -58.38893145008059,
          -48.95068257243866,
          -54.016383929604395,
          -172.76365617203118,
          -39.10004547458659,
          68.40688265862664,
          98.16139619689403,
          -167.19937123140264,
          76.95327214593112,
          -51.21036467225065,
          -42.78441567141211,
          -158.06108598649817,
          70.46922029499336,
          -42.454419041483824,
          -37.61944772568541,
          -45.60014746459099,
          -35.74060770811894,
          -43.63773386463581,
          -239.52575025274734,
          -40.23419071832311,
          -54.53269943341615,
          -43.979290904926245,
          90.72933329046421,
          84.27992163255331,
          -33.8535872775879,
          67.87754353104118,
          -38.17270129106133,
          -174.169138679736,
          93.0707349816175,
          85.77559772489595,
          90.60093923838937,
          -49.924593360552976,
          -32.24009985975746,
          85.60285630628604,
          97.58595047996975,
          -47.84961841662882,
          -33.27255700459719,
          95.21259052302013,
          -35.38309960579229,
          -50.023885578642926,
          -41.26515883242056,
          -173.43278400371346,
          -131.5012911911539,
          -59.382888489681065,
          -41.97123912348612,
          -35.79223406176672,
          -48.17315443307294,
          79.47117176982316,
          -164.8824615863337,
          72.87593387427493,
          -48.24118644741196,
          -34.99025460313933,
          -172.26697349164976,
          -185.93562133096404,
          -53.467941663183616,
          -46.46661626109308,
          -159.05487858282504,
          84.38683232825868,
          -53.33588759383577,
          -129.73079418282407,
          -39.81413083700968,
          -40.09585192419867,
          -43.693576834101094,
          -45.20590650283686,
          -52.94450283529389,
          -52.18388291150717,
          -27.691313324837985,
          -50.00658517727707,
          70.32462854754651,
          -39.437265268632814,
          -149.13945219903155,
          -38.321882420359344,
          74.46905001377183,
          -49.28130459801587,
          -28.729756032188384,
          -48.9247879002923,
          88.0008709227057,
          -40.777372052895146,
          -38.60129574495042
        ]
      ],
      "aoi": [
        [
          2.183333333333333,
          2.241111111111111,
          2.1599999999999997,
          2.187777777777778,
          2.1722222222222225,
          2.092222222222222,
          2.1222222222222227,
          2.0711111111111116,
          2.1766666666666663,
          2.1588888888888893,
          2.0422222222222226,
          2.0044444444444443,
          2.0488888888888885,
          2.0988888888888892,
          1.9611111111111101,
          2.0177777777777774,
          2.0877777777777777,
          2.038888888888889,
          1.962222222222222,
          1.9822222222222223,
          1.9111111111111108,
          1.9999999999999996,
          1.9844444444444445,
          2.0111111111111106,
          1.9899999999999998,
          1.8855555555555559,
          1.99,
          2.1244444444444444,
          2.0444444444444443,
          2.1077777777777786,
          2.0244444444444443,
          1.952222222222222,
          1.9722222222222219,
          2.071111111111111,
          2.073333333333334,
          1.9633333333333336,
          2.0355555555555553,
          1.9544444444444442,
          1.9966666666666664,
          2.022222222222222,
          1.9399999999999993,
          2.0633333333333335,
          2.0388888888888888,
          1.88,
          1.9933333333333336,
          1.902222222222222,
          1.9533333333333338,
          2.0966666666666662,
          1.994444444444444,
          1.9888888888888887,
          1.94,
          1.9522222222222223,
          2.0,
          1.9622222222222228,
          2.0111111111111106,
          1.9822222222222223,
          2.0422222222222226,
          2.0,
          1.9711111111111106,
          2.131111111111111,
          1.9066666666666665,
          1.902222222222222,
          2.0088888888888894,
          2.036666666666667,
          1.9933333333333334,
          2.0211111111111104,
          2.0133333333333336,
          1.9566666666666668,
          1.9855555555555549,
          1.9222222222222227,
          1.9744444444444447,
          1.8922222222222222,
          2.048888888888888,
          1.8811111111111107,
          1.8800000000000003,
          2.026666666666667,
          2.037777777777778,
          1.98,
          1.9977777777777777,
          1.961111111111111,
          1.9122222222222223,
          1.9100000000000001,
          1.9977777777777772,
          1.9566666666666666,
          2.051111111111112,
          1.9822222222222217,
          2.0166666666666666,
          2.101111111111111,
          2.0444444444444447,
          2.007777777777777,
          1.997777777777778,
          1.961111111111111,
          1.9888888888888887,
          1.9955555555555553,
          2.0433333333333334,
          1.8977777777777785,
          2.0488888888888885,
          1.852222222222222,
          1.9066666666666672,
          1.9044444444444446,
          1.9966666666666668,
          1.887777777777777,
          1.9388888888888887,
          2.076666666666667,
          1.9488888888888887,
          1.9155555555555552,
          2.0222222222222226,
          1.9899999999999998,
          1.9088888888888875,
          1.9044444444444444,
          1.986666666666667,
          1.9999999999999996,
          2.0411111111111113,
          1.9844444444444447,
          2.005555555555555,
          1.9688888888888891,
          1.911111111111111,
          1.9677777777777772,
          2.02,
          2.014444444444444,
          2.008888888888889,
          1.9377777777777778,
          1.948888888888889,
          1.9444444444444442,
          2.0355555555555553,
          1.941111111111111,
          2.008888888888889,
          2.078888888888889,
          1.8700000000000006,
          2.0222222222222217,
          2.011111111111111,
          1.96,
          1.9700000000000002,
          2.0122222222222224,
          1.9955555555555555,
          2.0222222222222217,
          1.9422222222222214,
          1.9877777777777779,
          2.0444444444444443,
          2.025555555555555,
          2.03,
          1.958888888888889,
          2.0722222222222224,
          2.0288888888888894,
          1.977777777777777,
          1.9777777777777774,
          1.9466666666666668,
          1.994444444444444,
          2.0111111111111115,
          1.9566666666666663,
          1.9533333333333331,
          2.007777777777778,
          1.9999999999999998,
          2.0166666666666675,
          1.9788888888888887,
          1.9811111111111108,
          1.8944444444444448,
          2.0011111111111113,
          1.984444444444444,
          1.956666666666666,
          2.0177777777777774,
          2.006666666666667,
          2.037777777777778,
          1.9777777777777776,
          1.9333333333333333,
          1.9599999999999997,
          1.9866666666666666,
          2.0122222222222224,
          2.0722222222222215,
          2.0211111111111113,
          2.054444444444445,
          1.9899999999999998,
          2.0222222222222226,
          2.017777777777777,
          1.9588888888888887,
          1.9200000000000002,
          1.9888888888888892,
          2.017777777777778,
          2.015555555555555,
          1.9722222222222225,
          1.9222222222222227,
          1.9666666666666675,
          1.9477777777777776,
          1.9600000000000002,
          2.0277777777777772,
          2.0377777777777784,
          1.9766666666666668,
          2.0411111111111113,
          2.002222222222222,
          1.9011111111111112,
          1.9877777777777779,
          1.9888888888888885,
          1.9155555555555555,
          1.9333333333333331,
          2.002222222222222,
          1.9688888888888885,
          2.0211111111111113,
          1.9077777777777774,
          2.0211111111111113,
          1.9800000000000006,
          1.9177777777777776,
          2.016666666666667,
          1.9988888888888885,
          1.986666666666667,
          2.0611111111111113,
          2.0011111111111104,
          2.0233333333333343,
          1.9222222222222214,
          1.9266666666666667,
          2.1077777777777778,
          2.0366666666666666,
          1.9499999999999997,
          1.9933333333333334,
          2.0122222222222224,
          1.933333333333334,
          1.9611111111111108,
          1.9200000000000002,
          2.0155555555555553,
          2.037777777777778,
          1.9622222222222212,
          2.003333333333333,
          2.012222222222222,
          2.0133333333333336,
          1.9077777777777778,
          2.0244444444444434,
          2.0366666666666666,
          2.018888888888889,
          2.0566666666666666,
          1.9555555555555553,
          2.0000000000000004,
          2.0444444444444443,
          1.896666666666667,
          1.924444444444444,
          1.9877777777777783,
          1.9544444444444444,
          2.0600000000000005,
          2.012222222222223,
          1.9644444444444444,
          2.0277777777777777,
          1.9966666666666666,
          1.9988888888888878,
          2.0444444444444447,
          2.0799999999999996,
          1.8955555555555559,
          2.028888888888889,
          1.9122222222222223,
          2.035555555555555,
          2.0722222222222224,
          1.9077777777777778,
          2.053333333333333,
          2.0388888888888883,
          2.086666666666667,
          1.9433333333333331,
          2.0222222222222213,
          1.996666666666667,
          1.9966666666666666,
          1.9511111111111112,
          1.9733333333333334,
          1.9433333333333327,
          1.9888888888888887,
          1.9233333333333331,
          2.066666666666667,
          1.9677777777777783,
          1.9333333333333327,
          1.992222222222222,
          1.9977777777777777,
          1.8755555555555559,
          1.9988888888888887,
          1.951111111111111,
          1.9655555555555553,
          2.0099999999999993,
          2.054444444444444,
          1.882222222222222,
          2.0755555555555554,
          1.8877777777777778,
          2.0222222222222213,
          1.8655555555555556,
          1.9488888888888891,
          1.9488888888888891,
          1.9877777777777779,
          2.0300000000000002,
          1.9633333333333325,
          1.994444444444445,
          2.1055555555555556,
          1.9322222222222225,
          2.0077777777777777,
          2.032222222222222,
          2.0466666666666664,
          2.0044444444444447,
          2.062222222222222,
          1.9766666666666668,
          1.8988888888888884,
          1.997777777777778,
          1.9211111111111108,
          2.0044444444444443,
          2.0544444444444436,
          2.0677777777777773,
          1.9888888888888892,
          1.961111111111111,
          1.9411111111111115
        ],
        [
          2.0522222222222224,
          2.014444444444444,
          2.1288888888888886,
          2.1388888888888897,
          2.1888888888888887,
          2.3133333333333335,
          2.305555555555555,
          2.2933333333333334,
          2.336666666666667,
          2.284444444444445,
          2.367777777777777,
          2.258888888888889,
          2.3766666666666665,
          2.397777777777778,
          2.3288888888888892,
          2.4522222222222223,
          2.4066666666666676,
          2.306666666666667,
          2.387777777777779,
          2.361111111111111,
          2.433333333333333,
          2.47,
          2.483333333333333,
          2.301111111111111,
          2.355555555555556,
          2.362222222222222,
          2.268888888888889,
          2.3144444444444443,
          2.4033333333333333,
          2.2966666666666664,
          2.3833333333333333,
          2.333333333333333,
          2.395555555555556,
          2.3766666666666665,
          2.428888888888889,
          2.2411111111111115,
          2.316666666666667,
          2.215555555555555,
          2.3133333333333326,
          2.3455555555555563,
          2.408888888888889,
          2.3000000000000003,
          2.3399999999999994,
          2.3166666666666673,
          2.35,
          2.388888888888889,
          2.2855555555555553,
          2.21,
          2.281111111111111,
          2.177777777777778,
          2.311111111111111,
          2.2777777777777777,
          1.9811111111111106,
          2.001111111111111,
          2.0766666666666667,
          2.0422222222222226,
          1.9711111111111108,
          1.9522222222222214,
          1.9744444444444444,
          1.9800000000000002,
          1.9633333333333327,
          2.0866666666666664,
          1.9955555555555549,
          2.0177777777777774,
          1.8488888888888881,
          1.9800000000000004,
          1.9788888888888891,
          2.0688888888888886,
          2.02,
          1.9944444444444442,
          2.0055555555555555,
          2.0455555555555556,
          1.9933333333333327,
          1.9299999999999993,
          2.0155555555555553,
          1.9866666666666668,
          1.9555555555555553,
          1.9155555555555561,
          1.965555555555556,
          2.013333333333333,
          1.9466666666666668,
          1.9922222222222223,
          1.9666666666666666,
          1.9033333333333329,
          2.083333333333333,
          2.035555555555555,
          2.0044444444444447,
          2.020000000000001,
          2.0988888888888892,
          2.0211111111111113,
          1.9466666666666663,
          2.03,
          1.9322222222222218,
          1.97,
          2.032222222222222,
          2.0488888888888885,
          1.936666666666667,
          1.916666666666667,
          2.0455555555555556,
          1.969999999999999,
          1.968888888888888,
          1.9833333333333334,
          2.0322222222222215,
          2.0344444444444436,
          2.0288888888888894,
          2.0144444444444445,
          1.9944444444444451,
          1.9466666666666665,
          1.98,
          1.9377777777777778,
          2.0477777777777773,
          1.9555555555555553,
          1.9966666666666661,
          1.987777777777778,
          1.9522222222222216,
          2.02,
          2.0233333333333325,
          2.0033333333333343,
          1.9377777777777776,
          2.0066666666666655,
          2.0833333333333335,
          1.9566666666666666,
          2.008888888888889,
          1.942222222222223,
          1.9899999999999993,
          1.9366666666666668,
          2.0355555555555562,
          1.9288888888888889,
          2.0822222222222226,
          1.981111111111111,
          2.06,
          2.027777777777777,
          1.8555555555555556,
          2.0044444444444447,
          2.0200000000000005,
          2.1100000000000003,
          1.8944444444444442,
          1.9677777777777776,
          2.0077777777777777,
          1.9544444444444447,
          1.9222222222222223,
          2.036666666666666,
          1.881111111111111,
          1.9655555555555548,
          2.0822222222222213,
          1.954444444444444,
          1.9433333333333336,
          1.924444444444444,
          2.0622222222222217,
          1.9188888888888889,
          2.0099999999999993,
          1.9977777777777772,
          1.9677777777777776,
          1.9244444444444442,
          1.9299999999999993,
          1.9822222222222219,
          1.9444444444444453,
          1.9222222222222223,
          1.9988888888888887,
          2.0111111111111115,
          1.9711111111111115,
          1.9544444444444444,
          1.9966666666666666,
          2.023333333333333,
          2.0011111111111117,
          2.0688888888888886,
          1.9477777777777774,
          2.0111111111111106,
          2.01,
          1.9499999999999997,
          2.04,
          1.9644444444444447,
          2.0211111111111117,
          1.972222222222222,
          1.947777777777778,
          2.0077777777777777,
          1.9866666666666668,
          1.9811111111111115,
          1.9533333333333331,
          2.1033333333333335,
          2.0511111111111107,
          2.016666666666666,
          2.002222222222222,
          1.9233333333333333,
          1.9322222222222218,
          1.987777777777777,
          2.015555555555556,
          2.0844444444444448,
          1.921111111111111,
          2.0044444444444443,
          2.0311111111111115,
          1.9711111111111115,
          1.9177777777777776,
          2.0011111111111117,
          2.106666666666667,
          2.1977777777777785,
          1.9688888888888882,
          1.961111111111111,
          2.0733333333333337,
          1.9577777777777776,
          1.9377777777777778,
          1.9799999999999995,
          2.002222222222222,
          2.07,
          2.118888888888889,
          2.1066666666666665,
          2.085555555555555,
          1.994444444444444,
          1.9944444444444445,
          1.9877777777777772,
          1.9322222222222216,
          2.0444444444444447,
          1.9622222222222223,
          2.052222222222222,
          2.0877777777777777,
          2.006666666666667,
          2.05,
          1.9988888888888898,
          1.9333333333333333,
          1.993333333333333,
          2.092222222222223,
          2.0488888888888885,
          1.9922222222222215,
          2.0188888888888887,
          1.994444444444444,
          1.96,
          2.0877777777777777,
          1.9144444444444442,
          1.9211111111111108,
          2.032222222222222,
          2.0488888888888885,
          1.9488888888888884,
          1.9255555555555555,
          2.0733333333333333,
          2.0122222222222224,
          1.993333333333333,
          1.9844444444444445,
          1.938888888888889,
          1.9922222222222226,
          1.998888888888889,
          1.9477777777777772,
          2.0477777777777777,
          1.965555555555555,
          1.9333333333333331,
          1.9577777777777776,
          1.8944444444444444,
          2.0511111111111116,
          1.9366666666666663,
          2.0155555555555558,
          1.9244444444444442,
          1.949999999999999,
          1.9111111111111108,
          2.0477777777777777,
          1.9266666666666667,
          1.9433333333333338,
          1.901111111111111,
          2.0,
          1.9266666666666667,
          1.8988888888888895,
          1.9400000000000006,
          2.0277777777777777,
          1.9822222222222223,
          1.9977777777777777,
          1.9444444444444455,
          2.0966666666666667,
          1.9944444444444447,
          1.943333333333334,
          2.0000000000000004,
          2.0233333333333334,
          1.921111111111111,
          2.002222222222223,
          2.0422222222222217,
          1.9355555555555548,
          1.9800000000000006,
          2.0288888888888885,
          2.023333333333334,
          1.9933333333333327,
          1.9177777777777776,
          1.9944444444444445,
          2.0322222222222224,
          1.962222222222222,
          2.0011111111111117,
          1.9755555555555557,
          1.9722222222222228,
          1.997777777777778,
          2.0044444444444443,
          2.028888888888889,
          1.8800000000000003,
          2.0022222222222217,
          2.087777777777778,
          1.9522222222222223,
          2.0311111111111106,
          1.9911111111111117,
          2.04,
          2.032222222222222,
          1.868888888888889,
          2.048888888888888,
          1.917777777777778,
          1.9288888888888887,
          1.9600000000000002
        ]
      ],
      "ho_freq": [
        [
          1.0,
          1.0,
          1.0,
          1.0,
          1.0,
          1.0,
          1.0,
          1.0,
          1.0,
          1.0,
          1.0,
          1.0,
          1.0,
          1.0,
          1.0,
          0.7033333333333334,
          0.016666666666666666,
          0.05,
          0.08333333333333333,
          0.05,
          0.05,
          0.06666666666666667,
          0.016666666666666666,
          0.06666666666666667,
          0.06666666666666667,
          0.03333333333333333,
          0.03333333333333333,
          0.05,
          0.03333333333333333,
          0.03333333333333333,
          0.05,
          0.016666666666666666,
          0.016666666666666666,
          0.06666666666666667,
          0.05,
          0.03333333333333333,
          0.016666666666666666,
          0.1,
          0.05,
          0.08333333333333333,
          0.06666666666666667,
          0.0,
          0.03333333333333333,
          0.0,
          0.03333333333333333,
          0.03333333333333333,
          0.03333333333333333,
          0.05,
          0.03333333333333333,
          0.016666666666666666,
          0.0,
          0.06666666666666667,
          0.03333333333333333,
          0.016666666666666666,
          0.06666666666666667,
          0.05,
          0.05,
          0.06666666666666667,
          0.08333333333333333,
          0.06666666666666667,
          0.06666666666666667,
          0.06666666666666667,
          0.08333333333333333,
          0.1,
          0.06666666666666667,
          0.03333333333333333,
          0.05,
          0.06666666666666667,
          0.05,
          0.06666666666666667,
          0.1,
          0.06666666666666667,
          0.03333333333333333,
          0.03333333333333333,
          0.05,
          0.016666666666666666,
          0.016666666666666666,
          0.03333333333333333,
          0.05,
          0.03333333333333333,
          0.05,
          0.05,
          0.016666666666666666,
          0.05,
          0.03333333333333333,
          0.03333333333333333,
          0.0,
          0.03333333333333333,
          0.016666666666666666,
          0.06666666666666667,
          0.11666666666666667,
          0.05,
          0.06666666666666667,
          0.05,
          0.08333333333333333,
          0.05,
          0.016666666666666666,
          0.05,
          0.03333333333333333,
          0.03333333333333333,
          0.03333333333333333,
          0.05,
          0.016666666666666666,
          0.08333333333333333,
          0.05,
          0.06666666666666667,
          0.03333333333333333,
          0.03333333333333333,
          0.016666666666666666,
          0.08333333333333333,
          0.05,
          0.08333333333333333,
          0.03333333333333333,
          0.06666666666666667,
          0.03333333333333333,
          0.05,
          0.016666666666666666,
          0.13333333333333333,
          0.016666666666666666,
          0.03333333333333333,
          0.016666666666666666,
          0.06666666666666667,
          0.06666666666666667,
          0.06666666666666667,
          0.03333333333333333,
          0.1,
          0.08333333333333333,
          0.03333333333333333,
          0.0,
          0.08333333333333333,
          0.06666666666666667,
          0.05,
          0.06666666666666667,
          0.03333333333333333,
          0.05,
          0.08333333333333333,
          0.08333333333333333,
          0.016666666666666666,
          0.03333333333333333,
          0.016666666666666666,
          0.08333333333333333,
          0.05,
          0.03333333333333333,
          0.0,
          0.03333333333333333,
          0.03333333333333333,
          0.03333333333333333,
          0.05,
          0.03333333333333333,
          0.06666666666666667,
          0.06666666666666667,
          0.08333333333333333,
          0.05,
          0.05,
          0.06666666666666667,
          0.06666666666666667,
          0.05,
          0.05,
          0.016666666666666666,
          0.05,
          0.03333333333333333,
          0.11666666666666667,
          0.05,
          0.06666666666666667,
          0.03333333333333333,
          0.05,
          0.05,
          0.06666666666666667,
          0.05,
          0.016666666666666666,
          0.05,
          0.03333333333333333,
          0.03333333333333333,
          0.06666666666666667,
          0.06666666666666667,
          0.08333333333333333,
          0.016666666666666666,
          0.05,
          0.05,
          0.06666666666666667,
          0.0,
          0.06666666666666667,
          0.05,
          0.05,
          0.06666666666666667,
          0.03333333333333333,
          0.05,
          0.03333333333333333,
          0.06666666666666667,
          0.05,
          0.08333333333333333,
          0.06666666666666667,
          0.03333333333333333,
          0.05,
          0.06666666666666667,
          0.05,
          0.03333333333333333,
          0.06666666666666667,
          0.1,
          0.05,
          0.06666666666666667,
          0.03333333333333333,
          0.1,
          0.0,
          0.03333333333333333,
          0.03333333333333333,
          0.016666666666666666,
          0.06666666666666667,
          0.06666666666666667,
          0.05,
          0.016666666666666666,
          0.05,
          0.06666666666666667,
          0.03333333333333333,
          0.05,
          0.06666666666666667,
          0.08333333333333333,
          0.06666666666666667,
          0.08333333333333333,
          0.06666666666666667,
          0.1,
          0.06666666666666667,
          0.03333333333333333,
          0.05,
          0.08333333333333333,
          0.08333333333333333,
          0.03333333333333333,
          0.06666666666666667,
          0.016666666666666666,
          0.03333333333333333,
          0.03333333333333333,
          0.06666666666666667,
          0.03333333333333333,
          0.05,
          0.06666666666666667,
          0.05,
          0.05,
          0.03333333333333333,
          0.03333333333333333,
          0.016666666666666666,
          0.05,
          0.05,
          0.05,
          0.05,
          0.05,
          0.03333333333333333,
          0.05,
          0.05,
          0.03333333333333333,
          0.05,
          0.03333333333333333,
          0.05,
          0.05,
          0.05,
          0.06666666666666667,
          0.016666666666666666,
          0.06666666666666667,
          0.016666666666666666,
          0.08333333333333333,
          0.03333333333333333,
          0.05,
          0.05,
          0.1,
          0.05,
          0.06666666666666667,
          0.06666666666666667,
          0.08333333333333333,
          0.0,
          0.05,
          0.03333333333333333,
          0.03333333333333333,
          0.06666666666666667,
          0.08333333333333333,
          0.03333333333333333,
          0.08333333333333333,
          0.06666666666666667,
          0.03333333333333333,
          0.03333333333333333,
          0.05,
          0.06666666666666667,
          0.05,
          0.03333333333333333,
          0.03333333333333333,
          0.08333333333333333,
          0.03333333333333333,
          0.06666666666666667,
          0.06666666666666667,
          0.0,
          0.08333333333333333,
          0.05,
          0.05,
          0.05,
          0.016666666666666666,
          0.03333333333333333,
          0.08333333333333333,
          0.06666666666666667,
          0.03333333333333333,
          0.05,
          0.016666666666666666,
          0.1
        ],
        [
          0.37,
          0.5866666666666667,
          0.37333333333333335,
          0.7733333333333333,
          0.9866666666666667,
          1.0,
          1.0,
          1.0,
          1.0,
          1.0,
          0.08666666666666667,
          0.05,
          0.03333333333333333,
          0.05,
          0.03333333333333333,
          0.06666666666666667,
          0.05,
          0.05,
          0.03333333333333333,
          0.11666666666666667,
          0.08333333333333333,
          0.03333333333333333,
          0.03333333333333333,
          0.0,
          0.06666666666666667,
          0.016666666666666666,
          0.05,
          0.03333333333333333,
          0.06666666666666667,
          0.03333333333333333,
          0.03333333333333333,
          0.03333333333333333,
          0.05,
          0.03333333333333333,
          0.016666666666666666,
          0.08333333333333333,
          0.05,
          0.016666666666666666,
          0.016666666666666666,
          0.03333333333333333,
          0.06666666666666667,
          0.06666666666666667,
          0.06666666666666667,
          0.08333333333333333,
          0.05,
          0.05,
          0.03333333333333333,
          0.05,
          0.05,
          0.05,
          0.08333333333333333,
          0.05,
          0.05,
          0.06666666666666667,
          0.08333333333333333,
          0.06666666666666667,
          0.05,
          0.06666666666666667,
          0.03333333333333333,
          0.06666666666666667,
          0.05,
          0.016666666666666666,
          0.03333333333333333,
          0.03333333333333333,
          0.05,
          0.06666666666666667,
          0.08333333333333333,
          0.0,
          0.05,
          0.0,
          0.05,
          0.06666666666666667,
          0.05,
          0.05,
          0.05,
          0.05,
          0.06666666666666667,
          0.05,
          0.05,
          0.05,
          0.06666666666666667,
          0.05,
          0.03333333333333333,
          0.05,
          0.03333333333333333,
          0.06666666666666667,
          0.06666666666666667,
          0.05,
          0.05,
          0.03333333333333333,
          0.05,
          0.06666666666666667,
          0.03333333333333333,
          0.016666666666666666,
          0.06666666666666667,
          0.05,
          0.05,
          0.11666666666666667,
          0.0,
          0.06666666666666667,
          0.03333333333333333,
          0.016666666666666666,
          0.03333333333333333,
          0.03333333333333333,
          0.06666666666666667,
          0.016666666666666666,
          0.08333333333333333,
          0.06666666666666667,
          0.08333333333333333,
          0.03333333333333333,
          0.03333333333333333,
          0.05,
          0.08333333333333333,
          0.03333333333333333,
          0.08333333333333333,
          0.08333333333333333,
          0.03333333333333333,
          0.05,
          0.08333333333333333,
          0.08333333333333333,
          0.08333333333333333,
          0.016666666666666666,
          0.06666666666666667,
          0.05,
          0.08333333333333333,
          0.08333333333333333,
          0.03333333333333333,
          0.05,
          0.05,
          0.06666666666666667,
          0.06666666666666667,
          0.03333333333333333,
          0.05,
          0.03333333333333333,
          0.05,
          0.0,
          0.06666666666666667,
          0.03333333333333333,
          0.08333333333333333,
          0.05,
          0.06666666666666667,
          0.1,
          0.08333333333333333,
          0.03333333333333333,
          0.05,
          0.06666666666666667,
          0.0,
          0.05,
          0.0,
          0.03333333333333333,
          0.03333333333333333,
          0.03333333333333333,
          0.06666666666666667,
          0.03333333333333333,
          0.03333333333333333,
          0.03333333333333333,
          0.06666666666666667,
          0.06666666666666667,
          0.05,
          0.06666666666666667,
          0.03333333333333333,
          0.016666666666666666,
          0.03333333333333333,
          0.03333333333333333,
