{
  "config": {
    "altitude_km": 550.0,
    "n_satellites_visible": 10,
    "min_elevation_deg": 25.0,
    "carrier_freq_ghz": 1.67,
    "p_max_dbm": 40.0,
    "n_platoons": 5,
    "n_priorities": 3,
    "priority_weights": [
      4.5,
      2.5,
      0.5
    ],
    "tau_s": 1.0,
    "tau_ac": 0.02,
    "n_ac": 50,
    "n_safe": [
      5,
      10,
      50
    ],
    "epsilon": [
      0.01,
      0.05,
      0.2
    ],
    "p_bg": 0.42,
    "ho_delay_mean_ms": 225.0,
    "ho_delay_std_ms": 25.0,
    "ho_period_s": 15.0,
    "n_episodes": 300,
    "episode_slots": 60,
    "eval_episodes": 10,
    "n_seeds": 2,
    "update_interval": 4,
    "nn_safety_coeff": 0.35,
    "nn_safety_warmup_env_steps": 12000,
    "nn_safety_shield_urgency": 1.35,
    "nn_safety_shield_power_floor": 0.5,
    "w_power": 0.02,
    "w_handover": 0.3,
    "kappa1": 1.0,
    "kappa2": 0.5,
    "kappa3_m1": 2.0,
    "kappa3_m2": 1.0,
    "kappa1_m3": 0.5,
    "kappa4": 0.1,
    "kappa5": 0.3,
    "rmin_m1": 0.8,
    "rmin_m2": 0.5,
    "sinr_noise_floor": 0.05,
    "interference_coupling": 0.6,
    "t_pre_s": 3.0,
    "output_dir": "outputs",
    "output_run_id": "run_20260417_181611"
  },
  "convergence": {
    "SafeScale-MATD3": {
      "rewards": [
        [
          -8.019667166825172,
          -261.1785141830277,
          19.804012259460087,
          -203.84148084644335,
          -249.31570027296658,
          -86.34822699233531,
          -83.98107883816155,
          -198.77804593523916,
          -175.8912105354236,
          -245.17956955749443,
          -169.51187776772935,
          -209.83339422249293,
          -217.00758023598166,
          -254.8074244830074,
          -272.7064553215211,
          -254.10607601136144,
          -199.40591107666404,
          -223.1059326066403,
          -252.2084082113012,
          -274.4057903287278,
          -287.70560406207215,
          -219.60563173135012,
          -225.00625279639786,
          -250.80574663111628,
          -235.40623938569627,
          -275.50546219636465,
          -281.6055391752263,
          -305.20544908162407,
          -210.70534786128263,
          -277.10556429989816,
          -209.8055327194816,
          -219.8055418434408,
          -248.1057673685457,
          -224.00629774981795,
          -207.6078525829595,
          -333.2149408286874,
          -293.36528206517073,
          -251.07051952885232,
          -267.4789550224942,
          -214.78976043210952,
          -307.4656039086171,
          -237.28287715494258,
          -182.64967565184978,
          -50.25786231491381,
          -173.02709326398252,
          -27.78813828911796,
          -70.7220890123842,
          -24.599401143441618,
          -114.55570043662668,
          -1.9565646545168374,
          -192.33390277367874,
          -41.36731003503083,
          -52.51836639408714,
          -40.63137763667949,
          85.57348117673975,
          86.3486348395925,
          67.00062366748531,
          -136.11689856499788,
          -51.807202010184355,
          -35.260118922174286,
          -36.92578658540547,
          81.34904880707411,
          -45.45729364375248,
          -56.582565483938254,
          -41.51581043907276,
          -54.83227653120229,
          -42.911639550782624,
          -60.028669331607105,
          -138.66084830355447,
          -33.40388131757216,
          -41.01347887793874,
          89.13461098896225,
          -31.44472883297194,
          -137.55343032102095,
          -44.68062823123042,
          84.7330483429653,
          -58.66893055259484,
          80.86355757503962,
          -34.293038522581455,
          -40.87637794763286,
          -40.19889126955079,
          -188.6544213986747,
          84.3650507959579,
          -56.18861969168029,
          -45.714317063038585,
          -31.3309993615589,
          56.662199013466214,
          75.58778993197171,
          -167.40227927250362,
          -168.09868760108805,
          64.85565187875628,
          -35.21711417200649,
          -163.93865269324218,
          -166.11113434493518,
          -151.45320327319803,
          -263.48200357057925,
          -32.170761360167724,
          -43.13800997964148,
          -55.570223984990704,
          -45.3530459593953,
          82.899143368377,
          -33.021135843171415,
          -161.3192907743056,
          -28.946911922406972,
          75.48019568146759,
          -40.342252429984526,
          -31.342657557612565,
          -52.88506709737153,
          -51.00237008279897,
          71.58696367110237,
          -48.226448396912886,
          -153.55031398899393,
          -32.945485166571466,
          95.5540973849941,
          69.9198647043577,
          -184.18281193369114,
          -46.76416654663405,
          -40.42695204175926,
          -59.42401461890825,
          81.47972653435615,
          83.43338520791873,
          -44.72188549054949,
          81.93769538406802,
          -125.96564997199177,
          -46.75833398234753,
          -38.62136988964752,
          -36.90979033549133,
          61.319379096261976,
          -29.765542152897332,
          -36.96652037138525,
          88.2719224368271,
          -50.96040445246441,
          82.25702085681424,
          -47.86854221944836,
          -32.81216409709408,
          -37.10248738213947,
          -132.49941179775706,
          -41.11214204372283,
          81.98370997473872,
          -45.03212516144469,
          -172.36188167637815,
          84.41556011904443,
          84.88669305845555,
          -37.19671995850581,
          -175.43127586731455,
          -28.1396315716654,
          -34.19925620311395,
          -66.6435974289063,
          91.36626282539382,
          -45.24764742676407,
          -178.7150000706702,
          -48.106315586761994,
          -172.87018894736784,
          82.94131068053588,
          -45.1506467001965,
          88.12758802399907,
          -48.14623658543353,
          84.41955967646092,
          -43.096454366170015,
          -41.868020572073,
          -40.41587813144722,
          -41.45002447869355,
          -45.663173355108334,
          91.60117697481056,
          77.37228946431941,
          82.07459552738354,
          -34.206085212243835,
          -53.9762876537677,
          -47.77068060921937,
          -43.76330103720362,
          -44.501454335187084,
          -58.60558987795832,
          -44.20620074028675,
          -227.4681419410579,
          -45.50837662952249,
          -34.056437658562665,
          93.28152803915911,
          -41.40162035574693,
          96.18296870959512,
          -44.480896586573486,
          -56.886115958725505,
          -44.88668325887621,
          -63.48004879759119,
          -160.69768156599181,
          -56.98872333622976,
          76.47738292653219,
          87.50053223588226,
          -38.74781013527527,
          -127.3298860930389,
          -181.25353643230298,
          -46.056375197797706,
          -50.848731582018196,
          -39.986939025324695,
          -43.51073110952194,
          -34.66905150508531,
          -175.26512112189712,
          -49.699994868450155,
          -174.2933545388639,
          89.85740338163517,
          -60.038179429024474,
          -179.4210056254957,
          86.0638237379443,
          -124.09339308912722,
          -190.2772269290223,
          -42.653178468219565,
          -50.537162796914735,
          -144.04997720876923,
          -142.58967406667375,
          -39.63861246328915,
          88.46810654464582,
          -130.17368076080993,
          -156.71237654725903,
          -42.21136300802668,
          -134.1978706995287,
          -56.07364023523907,
          -256.52591829328276,
          -48.03953472976379,
          -41.726513028906076,
          61.114270756833506,
          -42.60161286731231,
          87.07803362075904,
          -38.37492898543521,
          30.572433668566227,
          -48.455402918585044,
          -264.99028871677615,
          -41.52353878807058,
          -40.99458326262798,
          -182.7211640301463,
          76.20341765398766,
          -42.12524558621497,
          -38.13913172718019,
          -44.55509758046121,
          -40.146965584843365,
          -65.39675164660446,
          -137.9785180749746,
          -56.2936040255173,
          -52.84515499244921,
          -45.254399335427145,
          61.00743336814827,
          72.57061571844672,
          78.99516556205492,
          85.04872029193348,
          -40.5852617523132,
          -45.28024698701612,
          81.29824786374495,
          79.64494040884297,
          90.56867973455297,
          -35.86019741739695,
          -164.36938046740173,
          -134.85828715894442,
          -184.60747320971186,
          82.14204799900043,
          -43.92343809648934,
          83.49775773929915,
          -49.6793647355406,
          -66.2816589778023,
          -54.32403250253543,
          -46.373315896866515,
          -36.34003594435611,
          -39.06249082950275,
          83.86639319203084,
          -38.527011788610466,
          -34.98544596669812,
          -34.67386469909301,
          -180.47174663163528,
          -56.61864517110173,
          80.64563097571762,
          -48.79366038488179,
          -41.36711158787132,
          88.79856152825106,
          -41.44985974727597,
          69.14558216332185,
          -71.79148383921843,
          -42.43369212806269,
          -35.93226881349701,
          -45.52865949315303,
          -32.779189112796615,
          -43.465531854766965,
          -35.21019100088177,
          -37.597221384171625,
          -41.476003306755025,
          -31.751886214574085,
          -180.81288972826349,
          -40.14182831393766,
          -37.65384540552577,
          -42.63007922594095,
          -142.08447988690855,
          -238.5728464322195,
          82.02619681890623,
          -55.11084716384246,
          86.32536634545012,
          -173.39102772368247,
          -145.46450710571676,
          -45.4857075460949,
          80.55605393565516,
          77.15024940180828,
          -60.389866644679614,
          -42.91807591640441,
          82.8889173738415,
          66.68365282513979
        ],
        [
          -84.55438766488848,
          -141.16695504345748,
          -204.7111184914381,
          -146.29922206409964,
          -187.1400292612469,
          -287.8989266699843,
          -233.69882027416796,
          -205.64557732886053,
          -223.65550699348094,
          -225.53143596889564,
          -229.46066648733597,
          -214.42112039049323,
          -225.50884275677237,
          -319.30676417921507,
          -259.8057970133144,
          -262.0051936391733,
          -231.80406141259738,
          -249.00372909069193,
          -235.70311265637653,
          -218.30284957742327,
          -286.6023529631195,
          -303.3021172461501,
          -222.60200507021253,
          -349.10175938034115,
          -222.20147546954763,
          -226.80140051163906,
          -245.30116999280486,
          -217.40109376252911,
          -230.50103904339727,
          -226.30089999355752,
          -189.60090336036242,
          -263.30080627957364,
          -253.80075567653594,
          -256.60062350553846,
          -240.80061992781378,
          -250.3005561599468,
          -266.40051007024863,
          -242.50049267834473,
          -246.2004487328251,
          -232.8004014661247,
          -220.00039829822168,
          -224.9003831314488,
          -296.3003250916807,
          -244.90032800916853,
          -197.60028338808158,
          -222.6002845585035,
          -237.300251640465,
          -223.60023693107107,
          -341.3002220002763,
          -307.400203948792,
          -251.70018755718576,
          -306.5001718451257,
          -226.80015030496722,
          -224.10013201287993,
          -308.1001192846449,
          -271.6001046233988,
          -183.5801004318999,
          -160.6001996546586,
          -161.50031728806482,
          -155.7003190277114,
          -163.50029288769557,
          -184.80022785308665,
          -154.00018309094247,
          -159.20014460404752,
          -169.00011655531125,
          -169.80009985860937,
          -173.30009097112458,
          -221.60007958873254,
          -154.10007050241262,
          -205.40006592152875,
          10.131091558857422,
          -78.75688364540527,
          -109.22342726119778,
          0.7953509564606733,
          -16.512007693160925,
          -14.230877139581619,
          -78.81930685685606,
          -85.45173191362767,
          -20.890919443141865,
          -8.237714915968171,
          -88.86982172743843,
          -88.77943242923004,
          -81.0498101397851,
          -89.36082901195206,
          -156.13255807319086,
          -89.73450159125801,
          -191.30145929884856,
          -116.05443365262501,
          -4.694204075423033,
          -161.95848303639391,
          -53.0687535261587,
          -98.54656202748764,
          -104.3432050917168,
          -112.71426124417708,
          -74.80304705374732,
          -98.76073336821675,
          -42.790653245926144,
          -80.14273444401849,
          -3.5842152175937825,
          -38.866595918052475,
          -171.66911468799165,
          -188.3298550888182,
          -245.2539933110343,
          -14.018934568404081,
          -265.871237551409,
          -0.49767657304546775,
          -91.13928509342904,
          -77.26354416749471,
          -101.41005263715303,
          -159.34362345477956,
          -8.375088851237576,
          -261.7476311060883,
          -108.70918575017981,
          81.85740743548266,
          -44.77262635356385,
          -38.540153891561964,
          -43.0198300058399,
          -37.09515980884007,
          -52.55546953027066,
          -48.677373695118206,
          -40.93648540662635,
          -63.95339378110199,
          -174.16776708630124,
          -58.94571376663789,
          -45.53313680736326,
          -163.9485862189399,
          74.36606160416041,
          -38.505201136477815,
          -49.85310860292831,
          -76.12088246857083,
          -56.13411312786179,
          61.59984694549038,
          79.44970331807691,
          -49.1422347313482,
          62.85039554814892,
          41.80227078166462,
          -191.21128354777522,
          -47.171493231052814,
          -42.45851221116505,
          -57.31737457555883,
          -44.07515563157418,
          -42.64748172950528,
          52.93444753568657,
          -194.46108533585135,
          -67.67344540238061,
          60.727705700944206,
          -39.9308809427274,
          -50.141863072095894,
          -57.50475155019766,
          78.71847928061896,
          -168.88968892357386,
          72.50461425907649,
          69.92539995606973,
          -55.17144498507047,
          -155.13128557067182,
          -183.62131687777412,
          -167.748147104918,
          -45.99311724238007,
          -74.2756040505635,
          -114.6950816710222,
          35.19338988532003,
          70.86164934482488,
          -50.739182053736954,
          -50.2436858428784,
          84.2163420694993,
          48.53918508943242,
          -40.00015672536094,
          -213.39632599316238,
          64.91442518142016,
          81.66984836953864,
          58.192394658607455,
          -50.59196633913393,
          -51.186313671856624,
          -70.23122854481137,
          -48.52557914106877,
          -51.69138168977129,
          -160.56856175417857,
          -188.94632127129353,
          70.36827951146057,
          -168.5295982466061,
          -53.473151280328736,
          -43.07187249119745,
          -177.27674596036792,
          82.88503076948432,
          -48.667919757632134,
          -95.52026970505979,
          -54.466911635500374,
          -45.559448637081694,
          76.75707310873315,
          64.8300644932392,
          68.03648112096205,
          99.69395987570896,
          -36.56563155726225,
          -39.71450046574081,
          -61.46708977733016,
          -58.92913905049359,
          -50.30191111741065,
          -32.70170413793845,
          -168.333246438951,
          -47.55784181772154,
          -43.34413570889042,
          -54.58175664805928,
          -40.898779538779074,
          -123.93886209713904,
          -180.28692095973986,
          -44.09947003641706,
          -40.44252899796439,
          -224.4732198871528,
          -61.54179893864915,
          92.4808450645915,
          -45.50580357007714,
          -173.8974220513804,
          -52.31333423407513,
          70.91066929742698,
          67.62017184710365,
          82.76465996140799,
          96.75996263072602,
          -51.57097887923139,
          -52.38478281871071,
          -49.50462435887519,
          -30.028904811773494,
          98.67250862269873,
          -35.31158973700338,
          79.00518270269572,
          -30.854726255940232,
          -41.47505943777092,
          -43.48901421118426,
          -38.17287331229716,
          77.29351669503012,
          -267.571574121534,
          -44.674591653865434,
          -46.42042531732432,
          -43.6777770554569,
          80.64191954166985,
          -42.69649355768495,
          -177.36185573963292,
          -38.27872277894412,
          -144.0821689081812,
          -51.15258902912513,
          86.61066087336248,
          81.0933689370619,
          -157.41763122209898,
          -49.11266095402871,
          93.61485492202972,
          -48.485079628040005,
          -56.4178142359303,
          -42.8178854285818,
          -52.45692845651655,
          -42.08947571537074,
          77.07813576679395,
          77.37776712814262,
          89.9241875459142,
          90.77220854850792,
          93.35660534915097,
          64.92110206679679,
          84.80631311289876,
          -35.565824838808915,
          -48.58738867295199,
          -44.51127330922164,
          -35.31169385416168,
          75.83977403168991,
          -44.3899244103532,
          -30.741801290811527,
          -36.11042933663878,
          -35.68871831155513,
          82.68575358387703,
          -44.36388522113719,
          86.79928879393329,
          85.8315538909836,
          -166.16733293746466,
          -43.23884461694803,
          -143.4176526800092,
          92.69056409435936,
          82.43333384367794,
          -55.39570028213956,
          91.65201718013388,
          -41.820579994781355,
          -47.10297535455981,
          -54.744289490974126,
          94.45849652530667,
          71.20282336292101,
          -48.48766906002244,
          -43.19206040576771,
          72.20504198178092,
          -45.659798948068996,
          65.70212913312012,
          72.57309535915563,
          -165.9342831366023,
          -47.954975107195764,
          85.15588984895314,
          -122.38888502603439,
          -50.01814801205141,
          -52.71286924792913,
          -45.38941472685153,
          80.68089190598842,
          -32.515726954027755,
          -47.16900102165937,
          -32.47868409287368,
          75.85708081625815,
          79.04725501744001
        ]
      ],
      "aoi": [
        [
          1.9766666666666672,
          2.065555555555555,
          1.9933333333333338,
          1.9822222222222223,
          2.0555555555555554,
          2.0788888888888892,
          2.0566666666666666,
          2.1255555555555556,
          2.1377777777777776,
          2.1900000000000004,
          2.262222222222223,
          2.3777777777777773,
          2.4,
          2.4222222222222225,
          2.375555555555555,
          2.4344444444444453,
          2.350000000000001,
          2.437777777777778,
          2.3766666666666656,
          2.4500000000000006,
          2.463333333333333,
          2.3500000000000005,
          2.24,
          2.3255555555555554,
          2.457777777777777,
          2.5099999999999993,
          2.4633333333333325,
          2.6022222222222213,
          2.365555555555555,
          2.3922222222222222,
          2.2633333333333328,
          2.381111111111111,
          2.494444444444445,
          2.3166666666666678,
          2.366666666666667,
          2.4033333333333333,
          2.36111111111111,
          2.375555555555555,
          2.3377777777777777,
          2.3211111111111107,
          2.3888888888888884,
          2.362222222222222,
          2.2744444444444443,
          2.093333333333334,
          2.0711111111111107,
          2.0811111111111105,
          1.96,
          2.1255555555555556,
          2.075555555555556,
          2.003333333333333,
          1.951111111111111,
          1.9611111111111108,
          2.0444444444444443,
          1.9399999999999997,
          1.9855555555555557,
          1.943333333333333,
          2.0766666666666667,
          2.023333333333333,
          2.0122222222222215,
          1.9377777777777776,
          1.9433333333333331,
          1.9655555555555553,
          1.9944444444444445,
          2.0644444444444447,
          1.982222222222222,
          2.0,
          1.9655555555555553,
          2.0888888888888886,
          2.0222222222222226,
          1.9466666666666665,
          1.9488888888888884,
          1.9466666666666663,
          1.915555555555555,
          1.9644444444444447,
          1.9877777777777768,
          1.9700000000000009,
          2.0155555555555558,
          1.9788888888888891,
          1.9266666666666665,
          1.9488888888888887,
          1.9733333333333332,
          2.096666666666666,
          1.9588888888888891,
          2.0122222222222224,
          2.0211111111111113,
          1.9355555555555557,
          2.0622222222222226,
          2.001111111111111,
          1.905555555555556,
          1.9711111111111115,
          2.1066666666666674,
          1.9566666666666668,
          1.951111111111111,
          1.9788888888888887,
          1.8522222222222218,
          1.9788888888888885,
          1.9111111111111116,
          1.9644444444444449,
          2.093333333333333,
          1.9733333333333332,
          1.9588888888888891,
          1.9377777777777787,
          1.921111111111111,
          1.8655555555555556,
          2.0266666666666664,
          1.9733333333333334,
          1.9122222222222225,
          1.9722222222222219,
          2.035555555555555,
          2.0366666666666666,
          2.0233333333333334,
          2.0977777777777766,
          1.9066666666666663,
          1.9155555555555552,
          2.0344444444444445,
          2.0333333333333337,
          1.9711111111111113,
          1.9711111111111115,
          2.0655555555555556,
          1.9877777777777772,
          2.0011111111111113,
          2.016666666666667,
          1.9633333333333338,
          1.9044444444444437,
          1.9988888888888892,
          1.991111111111111,
          1.933333333333333,
          2.066666666666667,
          1.9222222222222216,
          1.9588888888888887,
          1.926666666666667,
          1.9988888888888887,
          1.9466666666666668,
          2.0233333333333325,
          1.9255555555555555,
          1.927777777777777,
          1.9833333333333334,
          1.971111111111111,
          1.9844444444444445,
          1.9688888888888885,
          2.0166666666666666,
          1.9977777777777779,
          1.9366666666666665,
          1.9011111111111114,
          2.0255555555555556,
          1.887777777777778,
          1.9288888888888895,
          2.0222222222222226,
          1.9355555555555557,
          1.9944444444444445,
          2.0100000000000002,
          2.0299999999999994,
          2.021111111111111,
          2.0144444444444445,
          1.9822222222222226,
          1.9544444444444444,
          2.0222222222222217,
          1.9866666666666661,
          1.9822222222222219,
          1.9577777777777778,
          1.9466666666666663,
          1.9522222222222223,
          1.9500000000000013,
          1.9533333333333334,
          2.0033333333333334,
          1.9655555555555557,
          1.923333333333333,
          2.082222222222222,
          2.004444444444444,
          1.9877777777777774,
          2.0066666666666664,
          2.08,
          1.9955555555555555,
          1.9844444444444442,
          1.9922222222222221,
          1.9033333333333333,
          1.923333333333333,
          1.9899999999999993,
          1.8833333333333333,
          2.0211111111111113,
          2.0177777777777766,
          1.9977777777777777,
          1.9444444444444442,
          1.9244444444444442,
          2.0455555555555556,
          2.011111111111111,
          1.9777777777777776,
          1.9688888888888887,
          1.9388888888888893,
          1.896666666666667,
          1.9522222222222223,
          2.0433333333333334,
          1.9000000000000001,
          1.9888888888888887,
          1.9233333333333331,
          1.9822222222222219,
          2.0333333333333337,
          2.003333333333334,
          1.966666666666666,
          1.9099999999999993,
          2.002222222222222,
          1.9811111111111113,
          1.9355555555555555,
          1.9722222222222225,
          1.9855555555555549,
          2.037777777777779,
          2.0422222222222226,
          1.9544444444444442,
          1.9433333333333338,
          1.9288888888888895,
          1.966666666666667,
          1.9200000000000004,
          1.9533333333333336,
          1.9699999999999995,
          2.1011111111111114,
          2.0422222222222213,
          1.9866666666666668,
          1.9922222222222221,
          1.9944444444444442,
          1.9911111111111104,
          1.9544444444444442,
          1.944444444444445,
          2.066666666666667,
          2.04,
          1.976666666666666,
          1.99,
          1.9588888888888893,
          2.0700000000000007,
          2.0466666666666664,
          1.9766666666666663,
          1.9233333333333331,
          2.017777777777777,
          1.966666666666666,
          2.093333333333333,
          1.9966666666666666,
          2.0811111111111114,
          2.042222222222222,
          1.9633333333333336,
          2.0711111111111102,
          2.0011111111111113,
          1.9477777777777778,
          1.9922222222222223,
          1.9644444444444447,
          1.998888888888889,
          2.0611111111111104,
          1.9922222222222223,
          1.9288888888888889,
          1.9344444444444437,
          1.9555555555555562,
          2.0188888888888887,
          2.0566666666666666,
          2.0388888888888883,
          1.986666666666667,
          2.01,
          2.01,
          1.9255555555555561,
          2.0355555555555553,
          1.996666666666667,
          1.9655555555555557,
          1.9422222222222216,
          1.96,
          1.944444444444444,
          1.9166666666666663,
          1.9088888888888886,
          1.9955555555555562,
          2.1011111111111105,
          2.0033333333333334,
          2.0477777777777777,
          1.9755555555555553,
          1.9299999999999997,
          1.9655555555555557,
          2.058888888888889,
          2.0033333333333325,
          1.9822222222222223,
          1.916666666666667,
          2.0,
          1.9155555555555557,
          2.0066666666666664,
          1.9377777777777776,
          1.9800000000000002,
          1.9611111111111112,
          1.9322222222222227,
          2.0411111111111113,
          1.9622222222222223,
          1.901111111111111,
          1.9677777777777774,
          2.014444444444445,
          2.06,
          1.9777777777777779,
          2.075555555555556,
          1.9722222222222223,
          1.9977777777777779,
          2.0400000000000005,
          2.0577777777777775,
          2.007777777777778,
          1.9566666666666668,
          2.074444444444444,
          1.9788888888888887,
          1.9955555555555549,
          2.0799999999999996
        ],
        [
          2.1599999999999997,
          2.0988888888888884,
          2.17888888888889,
          2.1222222222222222,
          2.266666666666667,
          2.3922222222222236,
          2.3844444444444455,
          2.334444444444445,
          2.3111111111111104,
          2.498888888888889,
          2.422222222222223,
          2.3888888888888897,
          2.4100000000000006,
          2.412222222222222,
          2.460000000000001,
          2.373333333333333,
          2.2977777777777777,
          2.4444444444444446,
          2.3977777777777773,
          2.331111111111112,
          2.39,
          2.400000000000001,
          2.3922222222222222,
          2.451111111111111,
          2.3588888888888886,
          2.3988888888888886,
          2.4455555555555555,
          2.4033333333333333,
          2.453333333333333,
          2.395555555555555,
          2.252222222222222,
          2.4277777777777767,
          2.37888888888889,
          2.396666666666667,
          2.3611111111111103,
          2.3155555555555556,
          2.388888888888889,
          2.534444444444445,
          2.432222222222223,
          2.3200000000000003,
          2.3555555555555547,
          2.321111111111111,
          2.3911111111111105,
          2.3844444444444433,
          2.2766666666666655,
          2.3944444444444444,
          2.392222222222222,
          2.3355555555555556,
          2.4099999999999997,
          2.447777777777778,
          2.3788888888888886,
          2.431111111111112,
          2.3655555555555554,
          2.451111111111111,
          2.3922222222222222,
          2.486666666666666,
          2.343333333333334,
          2.275555555555555,
          2.2800000000000002,
          2.224444444444445,
          2.246666666666667,
          2.2111111111111112,
          2.229999999999999,
          2.1388888888888884,
          2.228888888888889,
          2.2455555555555557,
          2.2866666666666666,
          2.2966666666666673,
          2.2233333333333336,
          2.281111111111111,
          2.023333333333333,
          2.0088888888888894,
          2.117777777777778,
          2.1155555555555554,
          2.1255555555555548,
          2.1700000000000004,
          2.284444444444445,
          2.087777777777777,
          2.0711111111111107,
          2.0844444444444443,
          2.068888888888888,
          2.0577777777777775,
          2.0277777777777777,
          2.1222222222222222,
          2.1033333333333326,
          2.1522222222222225,
          2.137777777777778,
          2.217777777777778,
          2.029999999999999,
          2.0688888888888886,
          2.1200000000000006,
          2.1822222222222227,
          2.1588888888888893,
          2.1399999999999997,
          2.042222222222222,
          2.126666666666667,
          2.1155555555555554,
          2.057777777777778,
          2.046666666666666,
          2.1544444444444446,
          2.106666666666667,
          2.088888888888889,
          2.1677777777777782,
          2.057777777777778,
          2.2055555555555557,
          2.126666666666667,
          2.145555555555555,
          2.0188888888888887,
          2.1111111111111107,
          2.1111111111111103,
          2.0688888888888886,
          2.1388888888888884,
          2.168888888888889,
          1.9977777777777788,
          1.9799999999999998,
          1.9600000000000002,
          1.9633333333333336,
          1.9199999999999997,
          2.0355555555555553,
          2.0211111111111104,
          1.9411111111111103,
          2.031111111111111,
          1.9755555555555557,
          2.052222222222222,
          1.9966666666666666,
          2.0211111111111113,
          1.9033333333333335,
          1.9566666666666668,
          2.021111111111111,
          2.0411111111111118,
          2.017777777777778,
          2.0255555555555556,
          1.9799999999999998,
          2.0011111111111117,
          2.0322222222222224,
          2.0477777777777773,
          2.063333333333334,
          1.9322222222222227,
          1.978888888888889,
          2.0611111111111113,
          1.9888888888888892,
          1.9700000000000004,
          2.0766666666666667,
          2.0377777777777775,
          2.102222222222222,
          2.0399999999999996,
          1.9655555555555553,
          1.917777777777779,
          2.055555555555556,
          1.944444444444444,
          2.006666666666667,
          2.0044444444444434,
          2.003333333333333,
          2.0422222222222217,
          2.0388888888888888,
          2.0477777777777777,
          1.94,
          2.0055555555555555,
          1.9677777777777778,
          1.8377777777777777,
          2.034444444444445,
          1.9588888888888887,
          1.993333333333332,
          2.0144444444444445,
          1.9988888888888887,
          1.9633333333333332,
          1.9588888888888893,
          2.0244444444444447,
          2.094444444444444,
          2.031111111111111,
          2.0733333333333337,
          2.0311111111111106,
          2.0500000000000007,
          2.121111111111111,
          1.9744444444444444,
          2.013333333333333,
          1.8888888888888884,
          1.9733333333333336,
          2.0533333333333332,
          1.903333333333333,
          1.9844444444444451,
          1.9144444444444446,
          2.0211111111111113,
          1.9700000000000002,
          1.9911111111111106,
          2.056666666666666,
          2.062222222222222,
          1.9777777777777774,
          2.0233333333333334,
          2.058888888888889,
          2.0266666666666655,
          1.8988888888888884,
          1.965555555555555,
          1.973333333333333,
          2.057777777777778,
          1.9811111111111113,
          2.073333333333333,
          1.9400000000000002,
          1.9755555555555562,
          2.024444444444444,
          2.002222222222222,
          2.0344444444444445,
          1.9322222222222225,
          1.923333333333333,
          2.062222222222222,
          2.003333333333333,
          1.9755555555555557,
          1.9766666666666663,
          2.0344444444444445,
          1.9377777777777778,
          1.9666666666666666,
          2.0033333333333334,
          2.016666666666666,
          2.1122222222222224,
          2.0666666666666664,
          1.9622222222222212,
          1.9088888888888893,
          2.035555555555556,
          2.0455555555555556,
          1.997777777777778,
          1.8911111111111112,
          1.896666666666666,
          1.9366666666666672,
          2.0133333333333336,
          1.8966666666666672,
          1.975555555555555,
          1.936666666666667,
          1.9611111111111112,
          2.03,
          2.031111111111111,
          2.003333333333334,
          2.006666666666667,
          2.0199999999999996,
          1.9866666666666668,
          1.9877777777777783,
          2.0200000000000005,
          1.95,
          2.0555555555555554,
          2.043333333333334,
          1.9988888888888887,
          1.9655555555555553,
          1.8844444444444446,
          1.9666666666666661,
          1.9055555555555557,
          1.924444444444444,
          2.0622222222222226,
          1.965555555555556,
          2.0122222222222224,
          1.958888888888889,
          2.035555555555555,
          2.016666666666667,
          1.941111111111112,
          1.9355555555555555,
          1.9422222222222216,
          1.9966666666666664,
          1.9677777777777774,
          1.9177777777777778,
          1.993333333333333,
          1.9833333333333334,
          1.941111111111111,
          2.072222222222222,
          2.0055555555555555,
          1.9088888888888884,
          1.9466666666666665,
          1.922222222222222,
          1.991111111111111,
          1.9922222222222223,
          2.0,
          1.9833333333333332,
          1.933333333333333,
          1.9411111111111106,
          2.0077777777777777,
          1.935555555555556,
          1.9622222222222225,
          2.0533333333333337,
          1.9666666666666666,
          1.971111111111111,
          2.0144444444444445,
          2.0499999999999994,
          1.9177777777777778,
          2.092222222222222,
          2.0044444444444443,
          1.966666666666667,
          2.0866666666666664,
          2.0100000000000002,
          2.0699999999999994,
          2.06,
          1.921111111111111,
          2.0044444444444434,
          1.945555555555555,
          1.9144444444444444,
          1.9877777777777774,
          2.048888888888889,
          1.99,
          2.014444444444444,
          1.937777777777778,
          2.0,
          1.906666666666667,
          2.0555555555555562,
          1.9600000000000004
        ]
      ],
      "ho_freq": [
        [
          1.0,
          1.0,
          1.0,
          1.0,
          0.8766666666666667,
          0.03333333333333333,
          0.06666666666666667,
          0.03333333333333333,
          0.05,
          0.05,
          0.08333333333333333,
          0.08333333333333333,
          0.0,
          0.03333333333333333,
          0.08333333333333333,
          0.03333333333333333,
          0.05,
          0.08333333333333333,
          0.05,
          0.1,
          0.05,
          0.06666666666666667,
          0.0,
          0.03333333333333333,
          0.0,
          0.1,
          0.06666666666666667,
          0.03333333333333333,
          0.03333333333333333,
          0.06666666666666667,
          0.05,
          0.06666666666666667,
          0.05,
          0.1,
          0.03333333333333333,
          0.08333333333333333,
          0.06666666666666667,
          0.016666666666666666,
          0.016666666666666666,
          0.06666666666666667,
          0.06666666666666667,
          0.03333333333333333,
          0.03333333333333333,
          0.06666666666666667,
          0.03333333333333333,
          0.03333333333333333,
          0.016666666666666666,
          0.1,
          0.03333333333333333,
          0.0,
          0.05,
          0.03333333333333333,
          0.06666666666666667,
          0.05,
          0.016666666666666666,
          0.05,
          0.06666666666666667,
          0.06666666666666667,
          0.03333333333333333,
          0.05,
          0.06666666666666667,
          0.03333333333333333,
          0.016666666666666666,
          0.05,
          0.06666666666666667,
          0.03333333333333333,
          0.05,
          0.06666666666666667,
          0.05,
          0.06666666666666667,
          0.08333333333333333,
          0.03333333333333333,
          0.06666666666666667,
          0.05,
          0.05,
          0.06666666666666667,
          0.08333333333333333,
          0.06666666666666667,
          0.06666666666666667,
          0.03333333333333333,
          0.016666666666666666,
          0.03333333333333333,
          0.06666666666666667,
          0.03333333333333333,
          0.05,
          0.03333333333333333,
          0.05,
          0.08333333333333333,
          0.016666666666666666,
          0.05,
          0.03333333333333333,
          0.016666666666666666,
          0.05,
          0.08333333333333333,
          0.05,
          0.05,
          0.05,
          0.05,
          0.06666666666666667,
          0.06666666666666667,
          0.05,
          0.03333333333333333,
          0.0,
          0.016666666666666666,
          0.0,
          0.06666666666666667,
          0.08333333333333333,
          0.03333333333333333,
          0.016666666666666666,
          0.03333333333333333,
          0.06666666666666667,
          0.05,
          0.03333333333333333,
          0.08333333333333333,
          0.03333333333333333,
          0.06666666666666667,
          0.05,
          0.05,
          0.03333333333333333,
          0.03333333333333333,
          0.08333333333333333,
          0.05,
          0.03333333333333333,
          0.05,
          0.05,
          0.016666666666666666,
          0.016666666666666666,
          0.08333333333333333,
          0.06666666666666667,
          0.016666666666666666,
          0.08333333333333333,
          0.03333333333333333,
          0.016666666666666666,
          0.05,
          0.05,
          0.06666666666666667,
          0.06666666666666667,
          0.016666666666666666,
          0.0,
          0.05,
          0.016666666666666666,
          0.08333333333333333,
          0.03333333333333333,
          0.05,
          0.05,
          0.03333333333333333,
          0.05,
          0.05,
          0.03333333333333333,
          0.06666666666666667,
          0.03333333333333333,
          0.06666666666666667,
          0.06666666666666667,
          0.016666666666666666,
          0.06666666666666667,
          0.06666666666666667,
          0.08333333333333333,
          0.05,
          0.06666666666666667,
          0.05,
          0.03333333333333333,
          0.05,
          0.05,
          0.06666666666666667,
          0.06666666666666667,
          0.03333333333333333,
          0.05,
          0.05,
          0.05,
          0.08333333333333333,
          0.0,
          0.1,
          0.05,
          0.05,
          0.03333333333333333,
          0.11666666666666667,
          0.06666666666666667,
          0.03333333333333333,
          0.08333333333333333,
          0.1,
          0.016666666666666666,
          0.05,
          0.03333333333333333,
          0.03333333333333333,
          0.03333333333333333,
          0.05,
          0.05,
          0.05,
          0.05,
          0.1,
          0.08333333333333333,
          0.06666666666666667,
          0.11666666666666667,
          0.0,
          0.06666666666666667,
          0.06666666666666667,
          0.05,
          0.05,
          0.06666666666666667,
          0.05,
          0.03333333333333333,
          0.11666666666666667,
          0.08333333333333333,
          0.05,
          0.06666666666666667,
          0.1,
          0.05,
          0.05,
          0.05,
          0.03333333333333333,
          0.0,
          0.06666666666666667,
          0.03333333333333333,
          0.05,
          0.03333333333333333,
          0.016666666666666666,
          0.016666666666666666,
          0.08333333333333333,
          0.05,
          0.1,
          0.05,
          0.08333333333333333,
          0.08333333333333333,
          0.05,
          0.06666666666666667,
          0.13333333333333333,
          0.016666666666666666,
          0.08333333333333333,
          0.016666666666666666,
          0.06666666666666667,
          0.016666666666666666,
          0.03333333333333333,
          0.05,
          0.06666666666666667,
          0.06666666666666667,
          0.03333333333333333,
          0.05,
          0.03333333333333333,
          0.05,
          0.03333333333333333,
          0.03333333333333333,
          0.08333333333333333,
          0.03333333333333333,
          0.03333333333333333,
          0.03333333333333333,
          0.06666666666666667,
          0.05,
          0.016666666666666666,
          0.05,
          0.0,
          0.016666666666666666,
          0.05,
          0.08333333333333333,
          0.03333333333333333,
          0.05,
          0.05,
          0.05,
          0.08333333333333333,
          0.03333333333333333,
          0.016666666666666666,
          0.016666666666666666,
          0.0,
          0.05,
          0.05,
          0.03333333333333333,
          0.06666666666666667,
          0.08333333333333333,
          0.06666666666666667,
          0.03333333333333333,
          0.016666666666666666,
          0.06666666666666667,
          0.05,
          0.03333333333333333,
          0.05,
          0.03333333333333333,
          0.03333333333333333,
          0.03333333333333333,
          0.05,
          0.08333333333333333,
          0.08333333333333333,
          0.06666666666666667,
          0.05,
          0.05,
          0.05,
          0.05,
          0.03333333333333333,
          0.03333333333333333,
          0.03333333333333333,
          0.03333333333333333,
          0.08333333333333333,
          0.03333333333333333,
          0.06666666666666667,
          0.03333333333333333,
          0.06666666666666667,
          0.03333333333333333,
          0.016666666666666666,
          0.03333333333333333,
          0.05,
          0.03333333333333333,
          0.03333333333333333
        ],
        [
          1.0,
          1.0,
          1.0,
          1.0,
          1.0,
          0.21666666666666667,
          0.06666666666666667,
          0.05,
          0.03333333333333333,
          0.06666666666666667,
          0.05,
          0.06666666666666667,
          0.06666666666666667,
          0.03333333333333333,
          0.05,
          0.05,
          0.03333333333333333,
          0.05,
          0.03333333333333333,
          0.06666666666666667,
          0.016666666666666666,
          0.03333333333333333,
          0.06666666666666667,
          0.05,
          0.05,
          0.08333333333333333,
          0.03333333333333333,
          0.06666666666666667,
          0.05,
          0.03333333333333333,
          0.1,
          0.06666666666666667,
          0.08333333333333333,
          0.03333333333333333,
          0.05,
          0.06666666666666667,
          0.03333333333333333,
          0.05,
          0.08333333333333333,
          0.016666666666666666,
          0.08333333333333333,
          0.0,
          0.05,
          0.05,
          0.05,
          0.0,
          0.05,
          0.05,
          0.016666666666666666,
          0.06666666666666667,
          0.016666666666666666,
          0.0,
          0.03333333333333333,
          0.016666666666666666,
          0.05,
          0.06666666666666667,
          0.03333333333333333,
          0.05,
          0.05,
          0.03333333333333333,
          0.06666666666666667,
          0.06666666666666667,
          0.08333333333333333,
          0.05,
          0.03333333333333333,
          0.03333333333333333,
          0.06666666666666667,
          0.03333333333333333,
          0.05,
          0.06666666666666667,
          0.06666666666666667,
          0.08333333333333333,
          0.05,
          0.08333333333333333,
          0.05,
          0.06666666666666667,
          0.03333333333333333,
          0.05,
          0.05,
          0.05,
          0.08333333333333333,
          0.06666666666666667,
          0.05,
          0.05,
          0.06666666666666667,
          0.05,
          0.06666666666666667,
          0.016666666666666666,
          0.05,
          0.016666666666666666,
          0.03333333333333333,
          0.06666666666666667,
          0.016666666666666666,
          0.03333333333333333,
          0.03333333333333333,
          0.06666666666666667,
          0.05,
          0.05,
          0.05,
          0.016666666666666666,
          0.08333333333333333,
          0.05,
          0.06666666666666667,
          0.05,
          0.05,
          0.03333333333333333,
          0.05,
          0.03333333333333333,
          0.016666666666666666,
          0.08333333333333333,
          0.03333333333333333,
          0.05,
          0.05,
          0.06666666666666667,
          0.016666666666666666,
          0.05,
          0.05,
          0.03333333333333333,
          0.0,
          0.05,
          0.03333333333333333,
          0.016666666666666666,
          0.06666666666666667,
          0.06666666666666667,
          0.06666666666666667,
          0.05,
          0.016666666666666666,
          0.06666666666666667,
          0.03333333333333333,
          0.016666666666666666,
          0.06666666666666667,
          0.03333333333333333,
          0.06666666666666667,
          0.03333333333333333,
          0.0,
          0.03333333333333333,
          0.06666666666666667,
          0.08333333333333333,
          0.06666666666666667,
          0.05,
          0.06666666666666667,
          0.03333333333333333,
          0.11666666666666667,
          0.05,
          0.05,
          0.06666666666666667,
          0.06666666666666667,
          0.03333333333333333,
          0.03333333333333333,
          0.05,
          0.08333333333333333,
          0.05,
          0.06666666666666667,
          0.1,
          0.03333333333333333,
          0.016666666666666666,
          0.016666666666666666,
          0.05,
          0.05,
          0.06666666666666667,
          0.016666666666666666,
          0.06666666666666667,
          0.016666666666666666,
          0.06666666666666667,
          0.05,
          0.03333333333333333,
          0.05,
          0.05,
          0.03333333333333333,
          0.06666666666666667,
          0.05,
          0.05,
          0.06666666666666667,
          0.05,
          0.08333333333333333,
          0.08333333333333333,
          0.05,
          0.0,
          0.06666666666666667,
          0.05,
          0.11666666666666667,
          0.08333333333333333,
          0.05,
          0.0,
          0.016666666666666666,
          0.016666666666666666,
          0.1,
          0.03333333333333333,
          0.06666666666666667,
          0.03333333333333333,
          0.016666666666666666,
          0.06666666666666667,
          0.13333333333333333,
          0.05,
          0.0,
          0.016666666666666666,
          0.03333333333333333,
          0.05,
          0.03333333333333333,
          0.06666666666666667,
          0.03333333333333333,
          0.05,
          0.03333333333333333,
          0.06666666666666667,
          0.05,
          0.08333333333333333,
          0.05,
          0.05,
          0.05,
          0.06666666666666667,
          0.016666666666666666,
          0.03333333333333333,
          0.05,
          0.06666666666666667,
          0.03333333333333333,
          0.1,
          0.05,
          0.08333333333333333,
          0.08333333333333333,
          0.03333333333333333,
          0.05,
          0.05,
          0.06666666666666667,
          0.06666666666666667,
          0.05,
          0.05,
          0.03333333333333333,
          0.03333333333333333,
          0.05,
          0.05,
          0.08333333333333333,
          0.03333333333333333,
          0.1,
          0.05,
          0.06666666666666667,
          0.05,
          0.03333333333333333,
          0.06666666666666667,
          0.05,
          0.05,
          0.06666666666666667,
          0.05,
          0.016666666666666666,
          0.03333333333333333,
          0.05,
          0.016666666666666666,
          0.05,
          0.06666666666666667,
          0.016666666666666666,
          0.08333333333333333,
          0.05,
          0.05,
          0.06666666666666667,
          0.03333333333333333,
          0.03333333333333333,
          0.03333333333333333,
          0.016666666666666666,
          0.016666666666666666,
          0.03333333333333333,
          0.05,
          0.016666666666666666,
          0.03333333333333333,
          0.05,
          0.08333333333333333,
          0.06666666666666667,
          0.016666666666666666,
          0.05,
          0.05,
          0.05,
          0.1,
          0.03333333333333333,
          0.0,
          0.03333333333333333,
          0.03333333333333333,
          0.06666666666666667,
          0.08333333333333333,
          0.06666666666666667,
          0.016666666666666666,
          0.1,
          0.016666666666666666,
          0.03333333333333333,
          0.1,
          0.05,
          0.06666666666666667,
          0.06666666666666667,
          0.08333333333333333,
          0.05,
          0.05,
          0.05,
          0.016666666666666666,
          0.016666666666666666,
          0.05,
          0.06666666666666667,
          0.06666666666666667,
          0.05,
          0.05,
          0.05,
          0.03333333333333333,
          0.08333333333333333,
          0.05
        ]
      ]
    },
    "MA-TD3": {
      "rewards": [
        [
          13.823763705231867,
          -47.8647013592732,
          -11.203815700570507,
          -124.41902675305255,
          -118.07589983168336,
          -237.7519514387193,
          13.29218859434923,
          8.908402076868239,
          -227.44347719838086,
          -186.3285762625341,
          -162.2799894225216,
          -60.21001084187816,
          76.07797603194439,
          82.23431960669859,
          -53.43339500745091,
          -51.23258337782599,
          -37.1443618214592,
          -171.41481883315907,
          -2.684622885367391,
          -167.75778351626283,
          -172.20969869931778,
          -174.93333705636616,
          -148.72164603919754,
          -193.11741438972538,
          -162.02575601401927,
          -239.42237984803094,
          -180.91521826846875,
          -210.74387912858074,
          -174.7766784678672,
          -178.5609619058295,
          -149.33165615773757,
          -174.46360704802234,
          -154.1572105086687,
          -223.98087201103297,
          -200.74787816864128,
          16.018792288263334,
          -84.0482089061467,
          -37.4595647874318,
          -72.17202413453211,
          -269.2096870758081,
          -184.4256322458675,
          -230.1915225443229,
          -176.9252697637986,
          -276.9849792327299,
          -181.87774281206202,
          -55.454848242370026,
          -245.00058577688776,
          -140.40708645174135,
          -137.11146751140453,
          -141.56437635728338,
          -259.9655348656788,
          -73.83896147704084,
          -238.49099380611216,
          25.558924878308012,
          -136.15859804667957,
          -38.532839325292656,
          -96.02257993908151,
          -105.6808137940974,
          16.629015377141627,
          -11.503500071623721,
          -80.8052141496809,
          -80.95619273258023,
          -164.92365775423275,
          -76.58729078879432,
          -113.36288683482084,
          23.7974171237194,
          -265.7508591681601,
          -249.6857450719292,
          64.66736006475284,
          -54.81255579884135,
          -79.86836468375498,
          -85.32785878698071,
          -149.00704056545305,
          -356.2090441281355,
          -209.2442314440244,
          -24.350460552812375,
          -20.94826050715934,
          -139.70993315497202,
          -257.8197791423557,
          -84.6493892658657,
          -78.26190795081386,
          -391.06240686042145,
          -149.8304109103608,
          -117.3105198299752,
          -281.5561211463736,
          -98.41571426138012,
          -85.28840808881651,
          -189.07825237842349,
          -282.0606492295131,
          -125.9555162713454,
          -278.074037132027,
          -116.32745119051333,
          37.74385483834799,
          10.132155410828904,
          -89.72278636181107,
          -162.72832940066218,
          2.8971142468750095,
          -4.594056658022526,
          -106.93173518889478,
          -11.266376235508488,
          -106.05229456252339,
          -8.069226060111026,
          -90.08403678408303,
          9.49660572818658,
          -10.61987750508612,
          -228.6389388469735,
          3.5596150128012547,
          -87.0809618070491,
          -202.68926401109812,
          -105.57084944035373,
          -76.72344895613328,
          -16.661804641990354,
          -237.89291581260474,
          21.697541969052537,
          -125.74823884729764,
          0.2241725814929687,
          -194.15086370731868,
          -367.9772806770522,
          -110.8017119444119,
          -277.90644296376024,
          -132.93178380101602,
          -10.56597400876797,
          -174.88609597794664,
          -181.08621448719708,
          -133.38559776905083,
          -116.49331985584608,
          61.57228493543968,
          -202.30640394517786,
          -261.60610783378064,
          -104.10119733925599,
          -96.62580339996016,
          -162.26352231869527,
          -9.296931939900833,
          -126.58343850055614,
          17.131791138853877,
          -126.60483621104478,
          -258.7933629925978,
          -147.84971740055224,
          -252.8373752577903,
          25.85903572251342,
          62.60202274100374,
          -122.61055335137712,
          -82.89728324116655,
          -139.94849438864617,
          -194.06415648919585,
          -92.00113842530874,
          -176.98027733096535,
          -54.15413541777129,
          -219.8475881652182,
          -7.782309488450947,
          -116.12483506951008,
          19.602411123136843,
          -76.01983401810185,
          -134.60348802961144,
          -78.3692046554319,
          -184.90689204916578,
          -52.86854001673968,
          -120.08078209596464,
          -137.26543191564878,
          1.4524882065453533,
          -167.2806961961786,
          -178.6832941727527,
          37.98278064662118,
          -7.284369221751006,
          -123.10555493559181,
          23.2668679294382,
          -82.56758991804864,
          -40.524102598006394,
          30.81320896713079,
          22.95484171850793,
          -223.6555530848445,
          -32.66216472794117,
          9.913921709869646,
          -111.74412134333346,
          -26.731551763050298,
          11.693144848424422,
          -121.6456952334543,
          -92.00303208798853,
          -303.9365225129535,
          -334.76776212170444,
          -90.0624055281503,
          -11.651209655783848,
          -129.9572447989713,
          15.729923977513351,
          -166.01450742394528,
          -204.6803422306581,
          -68.64674196577488,
          -349.97292190157816,
          -95.94991627936406,
          -287.4513144569462,
          -36.252889965111684,
          -149.2508865756102,
          -196.53771399121598,
          -242.13644045013052,
          -98.26026870430404,
          -197.6268788654921,
          -89.09396698570141,
          -255.45395394268346,
          -60.59428472266897,
          -251.5503874811527,
          -241.90912716098538,
          -356.40297900722936,
          -243.10172419552364,
          -225.90134723749821,
          -197.701186213108,
          -200.60113701192986,
          -217.30101913486286,
          -219.70101623448534,
          -239.80096267165703,
          -183.8009776908455,
          -236.8009325703579,
          -267.3008998287736,
          -295.30088200323337,
          -238.60087443661084,
          -190.7008518642471,
          -279.50084755098356,
          -212.2008416961501,
          -236.70081956056336,
          -168.4008112145993,
          -246.30088172022766,
          -216.20084036689502,
          -268.20084921664613,
          -256.3008122960691,
          -263.70080509206815,
          -223.30089130547896,
          -257.5010063704561,
          -308.50086149015164,
          -223.90090037166104,
          -337.5008893371538,
          -212.90090191398704,
          -230.9010164985739,
          -217.80096869902354,
          -334.8010076760675,
          -311.80120525654183,
          -226.8010679771771,
          -290.90105276464317,
          -280.1011816701146,
          -180.70111097904626,
          -246.3009861415721,
          -161.00085220768813,
          -176.90094226340292,
          -162.70128492377742,
          -187.10169030917717,
          -163.40222415289935,
          -166.20319683822598,
          -173.50456690289283,
          -172.6157765234279,
          -179.40880063581142,
          -83.83721856852314,
          -66.21954182838992,
          92.91648736049862,
          83.5117653491103,
          69.709845261187,
          -176.602688412021,
          -141.16923060959635,
          81.30884500904668,
          -46.38679124750851,
          78.4589413958486,
          88.22182553373509,
          -184.53053876384243,
          -60.59564831774067,
          74.97436990800512,
          -45.913381979386415,
          -47.79875113946133,
          80.57303531045356,
          -35.97770981758904,
          -46.83039341257586,
          -172.48940868314128,
          84.88776519255872,
          -165.7930435894827,
          -54.492325605607434,
          -55.47625612398392,
          76.04251125217681,
          -41.083374603731805,
          -167.16744489840184,
          -35.035890318091525,
          -175.89509349161153,
          -205.18233502246932,
          91.85584806151134,
          -42.441209805573436,
          81.037227662393,
          -59.233668775365594,
          -42.27777586637282,
          -42.154210135858804,
          -41.081739400476856,
          -32.94495951844666,
          -138.3342556979581,
          -42.47803170528856,
          -59.87530144395606,
          -48.153882569590166,
          -166.18913935427375,
          -46.62151102832016,
          -37.52385204856901,
          95.5569588710931,
          -55.15257837798956,
          88.02342213378304,
          78.46913174284006,
          -48.54661842992203,
          80.48787083202443,
          -171.1609445078321
        ],
        [
          -128.48224220229042,
          -107.6209166719278,
          -163.0877441098485,
          -228.03881071650721,
          -275.53589086576056,
          -261.6917282738659,
          -299.3627259369535,
          -168.3839883441152,
          -157.044188513409,
          -183.99612743830943,
          -160.8864278931749,
          -160.0218954175216,
          -169.33073061321704,
          -164.5137114184559,
          -171.94150870613484,
          -186.8097025897426,
          -157.5079245579531,
          -213.0067686380498,
          -165.50564054898862,
          -177.40521433165267,
          -174.9046283355419,
          -146.40406141367205,
          -151.80360662213644,
          -188.70338020330965,
          -155.60285916970608,
          -191.4026213712852,
          -167.5023968280256,
          -157.20216624953463,
          -193.401969417861,
          -147.20176610466953,
          -151.20168953627325,
          -170.4015593838431,
          -182.1014525673803,
          -177.10138074619715,
          -159.50130320600036,
          -152.7011917055876,
          -158.20113495009974,
          -180.6012247985234,
          -197.20107654258732,
          -184.10097399877776,
          -170.70091001172926,
          -175.80089249263057,
          -155.100870804548,
          -180.70083175970268,
          -197.20071984620623,
          -211.70078489956865,
          -196.40070164194094,
          -173.8006244233436,
          -202.20063353771516,
          -167.10066941766445,
          -162.8005981756462,
          -181.00052682269077,
          -182.90053300198292,
          -172.80065534832238,
          -153.50052879036468,
          -182.4005639629954,
          -151.50053329746973,
          -180.00080475073483,
          -175.90057891001433,
          -170.10062626594606,
          -209.60062522368733,
          -156.80060280377705,
          -179.70085093557805,
          -188.20096377669734,
          -157.6010803127346,
          -160.20140987565142,
          -167.60317569114105,
          -181.0099813777863,
          -136.6636199416701,
          -85.78946076417947,
          -143.55165004380729,
          -110.52496065772966,
          -168.36906565431426,
          -153.63190005773293,
          -175.02744505228148,
          -160.44307814011114,
          70.29017222228359,
          -71.21587379156655,
          -36.75396553235536,
          80.23607106590458,
          78.17632414544065,
          42.782791005751655,
          -123.82120671539857,
          -55.038824522231025,
          -39.73549697535799,
          -108.66395395790636,
          54.51417792327966,
          -50.14018879763395,
          -138.06489600218822,
          -38.8883083525772,
          -32.127076974655814,
          -136.4171882260686,
          45.318382049555844,
          -160.8282168930425,
          50.878434131925474,
          -10.563751152427127,
          91.02510187991395,
          -44.069505639012625,
          -58.460555816004224,
          83.98458861158548,
          -174.34435019174177,
          84.42957388539679,
          65.60453453875832,
          -134.35494614138392,
          -75.81697337103151,
          85.94337350239098,
          -133.61969061748715,
          16.649126506123096,
          -38.92924889311329,
          -61.38477675013396,
          80.86195924803826,
          -54.03943164606589,
          86.67083858138795,
          -49.114343695639924,
          77.7067998702513,
          82.65565941457513,
          -25.710189070806205,
          -68.28801398619602,
          -127.27984526032787,
          -46.98184922690196,
          88.75616744292405,
          -67.60636207896401,
          -166.87843577933037,
          -128.08514634154517,
          -260.6977441643268,
          -36.993915762943004,
          86.8715231846215,
          -34.025450687611595,
          -50.29553153544032,
          -50.793579251962214,
          84.7731165846553,
          -42.02268484138734,
          35.0395595603006,
          91.48965751665526,
          -271.77505444662063,
          55.554928623718496,
          70.51613416838,
          -47.726905872794106,
          -58.45269847364686,
          -44.78532343166857,
          -153.7472457770828,
          -36.15139467469533,
          88.09201225117185,
          -59.74977869290645,
          -86.77919741668008,
          82.72001747458677,
          -227.02901892246177,
          -44.51642952993688,
          -41.27509853452198,
          -45.82869662932916,
          -48.95927592290661,
          74.79967621151359,
          -45.41054321904241,
          -164.48570748290362,
          88.82884200356635,
          91.91106467709143,
          79.53261823871958,
          -52.68730558594615,
          72.47495987620825,
          72.985413342961,
          83.81594703262745,
          -47.65977981918353,
          75.25288996864757,
          -39.33527042884103,
          -138.0686427130659,
          -45.42421207542224,
          -27.559443078766833,
          63.12608133549791,
          -43.79167340622892,
          -63.8357719234947,
          -51.22433210476001,
          -73.6471139037084,
          -62.61210020669266,
          -27.576854484668516,
          -39.336531423768626,
          80.13173250082471,
          88.48727044437291,
          -40.09812690168899,
          -139.01894101162853,
          -38.03783949075759,
          -43.6361848038121,
          -177.63238855079803,
          -170.2566364033745,
          89.57580419960202,
          -38.463312214070775,
          76.32532238159938,
          -171.38025055839265,
          -52.56909171543659,
          -181.23702847441768,
          87.12429556865398,
          76.94824761383887,
          -35.687064688428606,
          -140.5055167664091,
          -41.27176489902595,
          -135.2363523768213,
          -41.87759852555326,
          82.83396462526424,
          -26.830042385642603,
          -42.089043711825504,
          91.23648461232123,
          80.88829689137349,
          -47.36866173047156,
          91.50931754969673,
          -53.89424152314712,
          -51.385055675827225,
          -175.42831474188554,
          86.75723229503647,
          65.2561692183812,
          -170.07817219072578,
          86.97643224498744,
          71.26171299955696,
          -60.67320662117092,
          -38.807280528582545,
          84.64839476225747,
          89.77765326959413,
          -139.6960399817641,
          -55.39415142976673,
          -50.22810054386323,
          68.04956195466676,
          -40.42963649257448,
          -46.09142328991574,
          -56.4048384488251,
          -41.679896356660294,
          95.67496557710167,
          89.1108798055011,
          -171.19067674322545,
          -37.88650832649267,
          -52.714712277621544,
          -143.90071233701497,
          -170.43529275862537,
          77.28683686519165,
          87.81573997155537,
          -140.9654391334682,
          -280.1432809836525,
          -34.40972157491335,
          84.32078777925955,
          87.9622773498801,
          -44.02969410935526,
          93.52104418600847,
          -38.607641972058296,
          -38.475958319716504,
          71.74201304350866,
          96.20957375389766,
          90.57266313317606,
          86.14451800486192,
          76.03724334089188,
          -45.19026164505551,
          -52.01848397186197,
          -50.11712793372074,
          79.4792502194994,
          -47.22863162066897,
          -173.71950323948266,
          -127.92549193610549,
          -50.46319217815205,
          -130.54657405077842,
          -37.08559568613127,
          -45.27781859892272,
          -46.67410196258283,
          -50.60611034633927,
          78.08830539203531,
          -227.7964393068899,
          -156.14920799577416,
          -51.45454674814848,
          -176.90370351763127,
          -52.28494913393192,
          74.81956278273714,
          -148.97497018267057,
          75.086937353673,
          78.5567254190805,
          84.92405517933754,
          72.3569968230239,
          94.85922739198047,
          -49.668149723378534,
          -36.32748077688987,
          -183.44419685469867,
          -37.61896011221367,
          83.02605711980753,
          94.76870247525346,
          -164.41489578479704,
          55.43244222965753,
          -41.209390208938856,
          -152.81381604877873,
          -40.78693301136561,
          76.98102407555194,
          -37.95223125512549,
          -40.973393368161254,
          82.43261710874283,
          -132.18920180723126,
          -42.37825669225697,
          -43.829402067365,
          84.40244262946848,
          80.58645757807388,
          -30.712070637509864,
          91.09849281044977,
          -42.251219868456666,
          -37.1226879726213,
          -41.785589713774755,
          68.32126031237252,
          -182.7801194382214,
          85.93883493045912
        ]
      ],
      "aoi": [
        [
          2.033333333333333,
          2.1922222222222216,
          2.0944444444444446,
          2.1344444444444446,
          1.9988888888888887,
          2.0299999999999994,
          2.0344444444444445,
          2.0388888888888883,
          1.9377777777777778,
          2.074444444444444,
          1.9111111111111112,
          2.0877777777777773,
          2.0011111111111113,
          2.02,
          2.0255555555555556,
          1.9699999999999993,
          1.9555555555555555,
          2.0222222222222226,
          2.1055555555555556,
          2.23,
          2.2199999999999993,
          2.2855555555555553,
          2.1711111111111108,
          2.298888888888889,
          2.2911111111111113,
          2.295555555555555,
          2.2455555555555553,
          2.2600000000000002,
          2.2888888888888896,
          2.270000000000001,
          2.1644444444444435,
          2.2722222222222217,
          2.232222222222222,
          2.281111111111111,
          2.233333333333334,
          2.0533333333333337,
          2.0677777777777773,
          2.037777777777778,
          2.132222222222222,
          2.1333333333333333,
          1.9533333333333327,
          2.085555555555555,
          2.102222222222223,
          2.0822222222222226,
          2.112222222222223,
          2.1144444444444446,
          2.2744444444444443,
          2.168888888888889,
          2.0622222222222217,
          2.0477777777777777,
          2.1077777777777778,
          2.007777777777777,
          1.9888888888888892,
          1.991111111111111,
          2.065555555555556,
          2.0677777777777777,
          1.993333333333333,
          2.018888888888888,
          2.077777777777778,
          2.031111111111111,
          2.0933333333333333,
          2.0033333333333325,
          1.9733333333333334,
          2.003333333333333,
          2.068888888888889,
          2.0011111111111117,
          2.0766666666666667,
          2.092222222222222,
          1.935555555555556,
          2.072222222222222,
          2.086666666666667,
          1.9877777777777785,
          1.998888888888889,
          2.1388888888888884,
          1.9622222222222225,
          2.063333333333334,
          2.0744444444444436,
          2.0211111111111113,
          1.9577777777777778,
          2.0088888888888885,
          2.0311111111111106,
          2.164444444444444,
          2.0933333333333333,
          2.023333333333333,
          2.1144444444444455,
          1.9922222222222226,
          2.0100000000000002,
          1.9544444444444442,
          2.0500000000000007,
          2.063333333333333,
          2.0700000000000003,
          2.0633333333333335,
          2.0544444444444436,
          1.9622222222222223,
          2.017777777777778,
          2.0444444444444447,
          2.104444444444445,
          2.035555555555555,
          1.9999999999999998,
          2.0833333333333335,
          1.9888888888888892,
          2.0755555555555554,
          1.948888888888888,
          2.0911111111111107,
          2.065555555555555,
          1.9544444444444447,
          2.0033333333333334,
          1.9733333333333336,
          2.038888888888889,
          2.0877777777777777,
          1.9888888888888894,
          2.0288888888888885,
          2.028888888888889,
          2.0099999999999993,
          2.0477777777777777,
          2.0088888888888885,
          2.1011111111111105,
          2.0588888888888888,
          2.0811111111111114,
          2.0800000000000005,
          2.0055555555555555,
          2.0744444444444436,
          2.0566666666666666,
          2.0566666666666666,
          2.086666666666667,
          2.017777777777778,
          1.9355555555555555,
          2.0466666666666664,
          2.025555555555555,
          1.9966666666666664,
          1.9955555555555549,
          2.082222222222223,
          2.042222222222222,
          2.023333333333334,
          2.0000000000000004,
          2.0311111111111115,
          2.0733333333333324,
          2.1311111111111107,
          2.0044444444444443,
          2.047777777777778,
          2.006666666666667,
          2.036666666666667,
          2.046666666666666,
          2.0388888888888888,
          2.014444444444445,
          2.0544444444444445,
          2.0466666666666664,
          2.0233333333333325,
          2.0188888888888887,
          2.0833333333333335,
          1.9588888888888882,
          2.051111111111111,
          2.011111111111111,
          2.0611111111111113,
          1.9888888888888887,
          2.0599999999999996,
          2.0733333333333337,
          2.053333333333333,
          2.1011111111111105,
          2.0666666666666664,
          2.085555555555556,
          2.098888888888889,
          2.0077777777777777,
          2.08,
          2.051111111111111,
          2.094444444444444,
          2.017777777777778,
          2.088888888888889,
          2.0522222222222224,
          2.0655555555555556,
          2.0722222222222224,
          1.9855555555555557,
          2.0133333333333328,
          2.074444444444444,
          2.0622222222222213,
          2.0133333333333336,
          2.0066666666666664,
          2.034444444444445,
          1.9422222222222225,
          2.033333333333333,
          2.008888888888889,
          2.1,
          2.0455555555555547,
          2.0655555555555556,
          2.01,
          2.0133333333333336,
          1.9688888888888885,
          2.0799999999999996,
          1.9966666666666664,
          2.023333333333333,
          2.036666666666666,
          2.1055555555555556,
          2.0555555555555554,
          2.08,
          2.0600000000000005,
          2.0355555555555553,
          1.9866666666666668,
          2.1166666666666663,
          2.111111111111111,
          2.3100000000000005,
          2.278888888888889,
          2.3522222222222235,
          2.2288888888888896,
          2.3222222222222215,
          2.1977777777777785,
          2.3033333333333332,
          2.295555555555556,
          2.2666666666666675,
          2.402222222222223,
          2.2177777777777776,
          2.3688888888888893,
          2.3144444444444447,
          2.273333333333333,
          2.3255555555555554,
          2.313333333333333,
          2.3655555555555554,
          2.394444444444445,
          2.3177777777777777,
          2.2033333333333336,
          2.333333333333334,
          2.273333333333333,
          2.3711111111111114,
          2.3466666666666667,
          2.4077777777777767,
          2.321111111111112,
          2.3166666666666673,
          2.467777777777778,
          2.3277777777777775,
          2.338888888888889,
          2.2466666666666666,
          2.322222222222223,
          2.3477777777777784,
          2.334444444444444,
          2.4266666666666663,
          2.3055555555555554,
          2.3566666666666674,
          2.422222222222222,
          2.328888888888889,
          2.415555555555556,
          2.1866666666666665,
          2.186666666666667,
          2.2600000000000002,
          2.2533333333333334,
          2.3088888888888888,
          2.2633333333333336,
          2.251111111111111,
          2.2566666666666664,
          2.2199999999999998,
          2.08,
          2.0322222222222224,
          1.9299999999999997,
          1.9355555555555557,
          2.0833333333333335,
          2.0177777777777774,
          2.0355555555555553,
          1.9333333333333331,
          2.0355555555555553,
          1.9966666666666661,
          1.9055555555555557,
          2.1255555555555556,
          2.0666666666666664,
          1.9933333333333327,
          1.973333333333333,
          2.0177777777777774,
          2.0222222222222226,
          1.9299999999999993,
          1.977777777777777,
          1.9844444444444442,
          1.9644444444444447,
          1.9611111111111108,
          2.011111111111111,
          2.011111111111111,
          2.04,
          1.9511111111111108,
          1.9611111111111112,
          1.892222222222222,
          1.9611111111111106,
          1.8744444444444446,
          1.9688888888888887,
          1.9899999999999993,
          2.0055555555555555,
          2.0455555555555547,
          1.9477777777777774,
          1.9911111111111113,
          1.9933333333333334,
          1.881111111111111,
          1.9866666666666668,
          1.9655555555555557,
          2.0700000000000003,
          2.023333333333333,
          1.955555555555556,
          2.017777777777778,
          1.9444444444444442,
          1.9022222222222223,
          2.0311111111111106,
          1.9244444444444444,
          1.9922222222222217,
          1.984444444444444,
          1.965555555555556,
          1.9866666666666661
        ],
        [
          2.1744444444444446,
          2.2466666666666666,
          2.148888888888889,
          2.184444444444445,
          2.298888888888889,
          2.313333333333333,
          2.464444444444445,
          2.1988888888888876,
          2.1877777777777783,
          2.3444444444444437,
          2.118888888888889,
          2.258888888888889,
          2.2344444444444447,
          2.2644444444444445,
          2.2755555555555556,
          2.255555555555555,
          2.177777777777778,
          2.3333333333333326,
          2.257777777777778,
          2.3322222222222226,
          2.2022222222222227,
          2.2011111111111106,
          2.172222222222222,
          2.35,
          2.195555555555556,
          2.2466666666666666,
          2.2622222222222224,
          2.2366666666666672,
          2.2277777777777783,
          2.1822222222222223,
          2.1677777777777774,
          2.2088888888888882,
          2.269999999999999,
          2.302222222222222,
          2.23,
          2.2211111111111115,
          2.195555555555556,
          2.2499999999999996,
          2.281111111111111,
          2.2322222222222217,
          2.261111111111111,
          2.3466666666666653,
          2.194444444444444,
          2.2566666666666673,
          2.3100000000000005,
          2.2855555555555553,
          2.33,
          2.232222222222222,
          2.2922222222222217,
          2.2344444444444447,
          2.27,
          2.314444444444445,
          2.2977777777777773,
          2.2144444444444447,
          2.1966666666666663,
          2.304444444444443,
          2.2533333333333334,
          2.2677777777777774,
          2.3111111111111104,
          2.236666666666667,
          2.342222222222222,
          2.255555555555556,
          2.208888888888889,
          2.233333333333334,
          2.2611111111111124,
          2.216666666666667,
          2.281111111111111,
          2.3233333333333337,
          2.14,
          2.071111111111111,
          2.2322222222222226,
          2.0833333333333335,
          2.214444444444444,
          2.2188888888888894,
          2.2388888888888885,
          2.2277777777777783,
          2.0422222222222226,
          2.062222222222222,
          1.9344444444444446,
          1.9744444444444444,
          2.0433333333333326,
          1.9844444444444445,
          2.0366666666666657,
          2.176666666666667,
          1.9633333333333332,
          2.074444444444444,
          2.02111111111111,
          1.9899999999999998,
          2.007777777777777,
          1.9711111111111115,
          1.9388888888888889,
          1.9733333333333334,
          2.034444444444444,
          2.1411111111111114,
          1.9911111111111108,
          1.9311111111111112,
          1.9366666666666665,
          1.9699999999999998,
          2.03,
          1.9733333333333336,
          1.9755555555555557,
          1.9799999999999995,
          2.0266666666666673,
          1.9833333333333336,
          2.0444444444444447,
          1.9577777777777778,
          2.0144444444444445,
          2.0766666666666667,
          1.9544444444444442,
          2.105555555555555,
          1.9866666666666672,
          2.031111111111112,
          1.99,
          2.08,
          2.023333333333334,
          1.9888888888888894,
          1.8988888888888888,
          2.0566666666666675,
          1.91,
          1.982222222222221,
          1.9188888888888884,
          2.07,
          1.9533333333333334,
          1.9233333333333333,
          2.0155555555555558,
          1.9522222222222223,
          1.9688888888888885,
          1.8988888888888888,
          1.9600000000000002,
          2.0266666666666664,
          1.9777777777777779,
          1.9844444444444442,
          2.1122222222222224,
          1.9233333333333331,
          2.0033333333333334,
          2.0755555555555554,
          1.982222222222222,
          1.9822222222222223,
          2.0577777777777784,
          1.9866666666666666,
          1.877777777777777,
          1.93,
          1.9755555555555546,
          1.9877777777777779,
          2.0844444444444443,
          1.9988888888888887,
          2.022222222222223,
          2.0211111111111113,
          1.9733333333333336,
          1.987777777777777,
          2.0477777777777773,
          2.0433333333333334,
          1.9833333333333334,
          1.9077777777777774,
          1.9311111111111114,
          1.9622222222222223,
          1.9788888888888887,
          1.9977777777777777,
          2.043333333333334,
          2.0411111111111113,
          2.001111111111111,
          2.0300000000000002,
          1.9511111111111112,
          1.9499999999999995,
          2.0011111111111117,
          1.9822222222222226,
          1.868888888888889,
          2.0922222222222215,
          1.977777777777778,
          2.103333333333334,
          2.052222222222222,
          2.044444444444444,
          2.077777777777778,
          1.87,
          1.9444444444444449,
          2.0088888888888885,
          1.9400000000000002,
          1.9700000000000004,
          2.0455555555555556,
          1.957777777777778,
          2.0055555555555555,
          1.9966666666666673,
          2.004444444444444,
          1.9388888888888889,
          1.9711111111111106,
          2.0199999999999996,
          1.9977777777777783,
          2.0266666666666673,
          2.07,
          1.9388888888888884,
          1.9866666666666666,
          1.9433333333333325,
          2.0244444444444443,
          1.915555555555556,
          1.9966666666666664,
          1.962222222222222,
          1.9900000000000004,
          1.9055555555555557,
          1.9866666666666668,
          1.9311111111111108,
          1.9555555555555557,
          1.9866666666666672,
          1.88,
          2.0555555555555554,
          2.005555555555555,
          2.0333333333333337,
          1.9633333333333332,
          2.016666666666667,
          1.984444444444445,
          1.9455555555555555,
          2.0144444444444445,
          2.0966666666666667,
          1.97,
          1.9355555555555553,
          1.9366666666666665,
          2.0244444444444443,
          2.0088888888888885,
          1.994444444444445,
          2.0466666666666664,
          1.9333333333333336,
          1.9955555555555557,
          1.981111111111111,
          1.975555555555555,
          1.9066666666666667,
          1.965555555555556,
          1.9855555555555557,
          1.9488888888888887,
          2.0344444444444445,
          2.001111111111111,
          1.992222222222222,
          2.0144444444444445,
          1.9655555555555562,
          2.0155555555555553,
          2.0755555555555563,
          1.9577777777777774,
          2.0122222222222224,
          1.9666666666666663,
          2.008888888888889,
          1.9122222222222232,
          1.9911111111111104,
          1.9377777777777783,
          2.055555555555555,
          1.8977777777777776,
          1.9522222222222223,
          1.9822222222222226,
          1.9999999999999993,
          2.007777777777777,
          2.0200000000000005,
          2.007777777777778,
          2.0222222222222226,
          2.0299999999999994,
          1.9977777777777772,
          1.9088888888888882,
          2.036666666666666,
          1.9399999999999997,
          1.9466666666666659,
          2.002222222222222,
          1.9933333333333334,
          1.9299999999999995,
          2.027777777777778,
          1.971111111111111,
          1.9944444444444442,
          2.04888888888889,
          2.0244444444444443,
          1.952222222222222,
          2.0377777777777784,
          2.003333333333333,
          2.0066666666666664,
          2.011111111111111,
          1.9899999999999998,
          2.025555555555556,
          1.9300000000000004,
          2.0088888888888885,
          1.9466666666666665,
          2.003333333333333,
          1.9399999999999993,
          1.988888888888888,
          1.8800000000000001,
          1.9322222222222225,
          2.0877777777777777,
          1.9633333333333332,
          2.0611111111111104,
          1.964444444444444,
          2.0177777777777783,
          1.9544444444444447,
          1.9533333333333334,
          1.9566666666666657,
          1.9566666666666666,
          1.9877777777777774,
          2.001111111111111,
          1.941111111111112,
          2.002222222222223,
          1.928888888888889,
          1.9299999999999995,
          1.9566666666666666,
          1.9433333333333322,
          1.966666666666667,
          2.0399999999999996,
          2.012222222222222,
          1.9799999999999995
        ]
      ],
      "ho_freq": [
        [
          0.05,
          0.06666666666666667,
          0.06666666666666667,
          0.06666666666666667,
          0.06666666666666667,
          0.05,
          0.1,
          0.08333333333333333,
          0.06666666666666667,
          0.03333333333333333,
          0.05,
          0.1,
          0.08333333333333333,
          0.06666666666666667,
          0.05,
          0.08333333333333333,
          0.08333333333333333,
          0.08333333333333333,
          0.08333333333333333,
          0.03333333333333333,
          0.03333333333333333,
          0.016666666666666666,
          0.06666666666666667,
          0.03333333333333333,
          0.05,
          0.06666666666666667,
          0.016666666666666666,
          0.06666666666666667,
          0.05,
          0.06666666666666667,
          0.016666666666666666,
          0.03333333333333333,
          0.06666666666666667,
          0.03333333333333333,
          0.03333333333333333,
          0.05,
          0.0,
          0.05,
          0.08333333333333333,
          0.06666666666666667,
          0.05,
          0.08333333333333333,
          0.06666666666666667,
          0.06666666666666667,
          0.03333333333333333,
          0.05,
          0.03333333333333333,
          0.05,
          0.03333333333333333,
          0.08333333333333333,
          0.016666666666666666,
          0.05,
          0.1,
          0.05,
          0.03333333333333333,
          0.06666666666666667,
          0.06666666666666667,
          0.05,
          0.03333333333333333,
          0.03333333333333333,
          0.1,
          0.08333333333333333,
          0.06666666666666667,
          0.06666666666666667,
          0.03333333333333333,
          0.05,
          0.016666666666666666,
          0.06666666666666667,
          0.016666666666666666,
          0.016666666666666666,
          0.06666666666666667,
          0.03333333333333333,
          0.06666666666666667,
          0.03333333333333333,
          0.06666666666666667,
          0.08333333333333333,
          0.05,
          0.05,
          0.06666666666666667,
          0.016666666666666666,
          0.05,
          0.08333333333333333,
          0.016666666666666666,
          0.05,
          0.06666666666666667,
          0.016666666666666666,
          0.03333333333333333,
          0.016666666666666666,
          0.1,
          0.05,
          0.05,
          0.016666666666666666,
          0.05,
          0.05,
          0.1,
          0.1,
          0.08333333333333333,
          0.06666666666666667,
          0.05,
          0.08333333333333333,
          0.06666666666666667,
          0.06666666666666667,
          0.05,
          0.06666666666666667,
          0.08333333333333333,
          0.06666666666666667,
          0.08333333333333333,
          0.06666666666666667,
          0.08333333333333333,
          0.08333333333333333,
          0.03333333333333333,
          0.06666666666666667,
          0.03333333333333333,
          0.08333333333333333,
          0.05,
          0.08333333333333333,
          0.06666666666666667,
          0.03333333333333333,
          0.06666666666666667,
          0.06666666666666667,
          0.05,
          0.016666666666666666,
          0.08333333333333333,
          0.1,
          0.06666666666666667,
          0.03333333333333333,
          0.05,
          0.06666666666666667,
          0.05,
          0.03333333333333333,
          0.016666666666666666,
          0.016666666666666666,
          0.06666666666666667,
          0.1,
          0.05,
          0.016666666666666666,
          0.05,
          0.05,
          0.03333333333333333,
          0.03333333333333333,
          0.016666666666666666,
          0.06666666666666667,
          0.06666666666666667,
          0.0,
          0.05,
          0.03333333333333333,
          0.03333333333333333,
          0.05,
          0.08333333333333333,
          0.03333333333333333,
          0.06666666666666667,
          0.016666666666666666,
          0.03333333333333333,
          0.0,
          0.016666666666666666,
          0.03333333333333333,
          0.06666666666666667,
          0.016666666666666666,
          0.06666666666666667,
          0.016666666666666666,
          0.016666666666666666,
          0.06666666666666667,
          0.05,
          0.08333333333333333,
          0.016666666666666666,
          0.05,
          0.06666666666666667,
          0.06666666666666667,
          0.016666666666666666,
          0.08333333333333333,
          0.016666666666666666,
          0.06666666666666667,
          0.0,
          0.03333333333333333,
          0.05,
          0.05,
          0.05,
          0.03333333333333333,
          0.05,
          0.08333333333333333,
          0.03333333333333333,
          0.06666666666666667,
          0.05,
          0.03333333333333333,
          0.06666666666666667,
          0.05,
          0.05,
          0.06666666666666667,
          0.0,
          0.0,
          0.05,
          0.016666666666666666,
          0.03333333333333333,
          0.1,
          0.016666666666666666,
          0.03333333333333333,
          0.03333333333333333,
          0.08333333333333333,
          0.03333333333333333,
          0.08333333333333333,
          0.08333333333333333,
          0.05,
          0.016666666666666666,
          0.1,
          0.03333333333333333,
          0.03333333333333333,
          0.05,
          0.11666666666666667,
          0.08333333333333333,
          0.03333333333333333,
          0.1,
          0.08333333333333333,
          0.05,
          0.06666666666666667,
          0.06666666666666667,
          0.06666666666666667,
          0.05,
          0.05,
          0.06666666666666667,
          0.03333333333333333,
          0.05,
          0.03333333333333333,
          0.08333333333333333,
          0.06666666666666667,
          0.03333333333333333,
          0.0,
          0.08333333333333333,
          0.05,
          0.05,
          0.08333333333333333,
          0.03333333333333333,
          0.06666666666666667,
          0.03333333333333333,
          0.0,
          0.03333333333333333,
          0.05,
          0.03333333333333333,
          0.06666666666666667,
          0.06666666666666667,
          0.05,
          0.05,
          0.08333333333333333,
          0.08333333333333333,
          0.06666666666666667,
          0.06666666666666667,
          0.03333333333333333,
          0.03333333333333333,
          0.05,
          0.03333333333333333,
          0.03333333333333333,
          0.05,
          0.03333333333333333,
          0.03333333333333333,
          0.05,
          0.08333333333333333,
          0.11666666666666667,
          0.05,
          0.0,
          0.016666666666666666,
          0.06666666666666667,
          0.03333333333333333,
          0.06666666666666667,
          0.05,
          0.03333333333333333,
          0.05,
          0.06666666666666667,
          0.05,
          0.08333333333333333,
          0.03333333333333333,
          0.08333333333333333,
          0.03333333333333333,
          0.016666666666666666,
          0.05,
          0.05,
          0.016666666666666666,
          0.05,
          0.06666666666666667,
          0.03333333333333333,
          0.05,
          0.016666666666666666,
          0.05,
          0.05,
          0.05,
          0.06666666666666667,
          0.016666666666666666,
          0.03333333333333333,
          0.03333333333333333,
          0.06666666666666667,
          0.03333333333333333,
          0.05,
          0.03333333333333333,
          0.05,
          0.05,
          0.06666666666666667,
          0.03333333333333333,
          0.05,
          0.05,
          0.016666666666666666,
          0.1,
          0.03333333333333333
        ],
        [
          0.08333333333333333,
          0.11666666666666667,
          0.12666666666666668,
          0.12,
          0.08,
          0.07333333333333333,
          0.03333333333333333,
          0.06666666666666667,
          0.03333333333333333,
          0.016666666666666666,
          0.08333333333333333,
          0.016666666666666666,
          0.05,
          0.08333333333333333,
          0.06666666666666667,
          0.0,
          0.06666666666666667,
          0.03333333333333333,
          0.016666666666666666,
          0.06666666666666667,
          0.03333333333333333,
          0.03333333333333333,
          0.03333333333333333,
          0.08333333333333333,
          0.03333333333333333,
          0.06666666666666667,
          0.06666666666666667,
          0.06666666666666667,
          0.03333333333333333,
          0.05,
          0.03333333333333333,
          0.08333333333333333,
          0.06666666666666667,
          0.03333333333333333,
          0.08333333333333333,
          0.05,
          0.05,
          0.016666666666666666,
          0.05,
          0.05,
          0.05,
          0.03333333333333333,
          0.03333333333333333,
          0.05,
          0.05,
          0.016666666666666666,
          0.06666666666666667,
          0.06666666666666667,
          0.06666666666666667,
          0.03333333333333333,
          0.06666666666666667,
          0.08333333333333333,
          0.06666666666666667,
          0.03333333333333333,
          0.06666666666666667,
          0.08333333333333333,
          0.06666666666666667,
          0.016666666666666666,
          0.08333333333333333,
          0.016666666666666666,
          0.05,
          0.06666666666666667,
          0.016666666666666666,
          0.03333333333333333,
          0.13333333333333333,
          0.05,
          0.0,
          0.08333333333333333,
          0.03333333333333333,
          0.06666666666666667,
          0.1,
          0.06666666666666667,
          0.05,
          0.03333333333333333,
          0.05,
          0.05,
          0.05,
          0.06666666666666667,
          0.06666666666666667,
          0.0,
          0.016666666666666666,
          0.06666666666666667,
          0.06666666666666667,
          0.1,
          0.05,
          0.06666666666666667,
          0.08333333333333333,
          0.03333333333333333,
          0.016666666666666666,
          0.05,
          0.03333333333333333,
          0.03333333333333333,
          0.08333333333333333,
          0.1,
          0.08333333333333333,
          0.08333333333333333,
          0.03333333333333333,
          0.05,
          0.08333333333333333,
          0.06666666666666667,
          0.016666666666666666,
          0.06666666666666667,
          0.0,
          0.05,
          0.03333333333333333,
          0.03333333333333333,
          0.08333333333333333,
          0.1,
          0.03333333333333333,
          0.03333333333333333,
          0.05,
          0.05,
          0.06666666666666667,
          0.1,
          0.05,
          0.03333333333333333,
          0.06666666666666667,
          0.06666666666666667,
          0.016666666666666666,
          0.016666666666666666,
          0.08333333333333333,
          0.08333333333333333,
          0.03333333333333333,
          0.03333333333333333,
          0.05,
          0.03333333333333333,
          0.05,
          0.03333333333333333,
          0.05,
          0.05,
          0.03333333333333333,
          0.05,
          0.11666666666666667,
          0.016666666666666666,
          0.016666666666666666,
          0.08333333333333333,
          0.05,
          0.1,
          0.016666666666666666,
          0.05,
          0.06666666666666667,
          0.05,
          0.06666666666666667,
          0.03333333333333333,
          0.1,
          0.03333333333333333,
          0.06666666666666667,
          0.05,
          0.06666666666666667,
          0.06666666666666667,
          0.03333333333333333,
          0.05,
          0.03333333333333333,
          0.05,
