{
  "config": {
    "altitude_km": 550.0,
    "n_satellites_visible": 10,
    "min_elevation_deg": 25.0,
    "carrier_freq_ghz": 1.67,
    "p_max_dbm": 40.0,
    "n_platoons": 5,
    "n_priorities": 3,
    "priority_weights": [
      4.5,
      2.5,
      0.5
    ],
    "tau_s": 1.0,
    "tau_ac": 0.04,
    "n_ac": 50,
    "n_safe": [
      5,
      10,
      50
    ],
    "epsilon": [
      0.01,
      0.05,
      0.2
    ],
    "p_bg": 0.42,
    "ho_delay_mean_ms": 225.0,
    "ho_delay_std_ms": 25.0,
    "ho_period_s": 15.0,
    "n_episodes": 300,
    "episode_slots": 150,
    "eval_episodes": 50,
    "n_seeds": 3,
    "update_interval": 4,
    "nn_safety_coeff": 0.35,
    "nn_safety_warmup_env_steps": 12000,
    "nn_safety_shield_urgency": 1.35,
    "nn_safety_shield_power_floor": 0.5,
    "w_power": 0.02,
    "w_handover": 0.3,
    "kappa1": 1.0,
    "kappa2": 0.5,
    "kappa3_m1": 2.0,
    "kappa3_m2": 1.0,
    "kappa1_m3": 0.5,
    "kappa4": 0.1,
    "kappa5": 0.3,
    "rmin_m1": 0.8,
    "rmin_m2": 0.5,
    "sinr_noise_floor": 0.05,
    "interference_coupling": 0.6,
    "t_pre_s": 3.0,
    "output_dir": "outputs",
    "output_run_id": "run_20260417_125702_tou_ac_0_03"
  },
  "convergence": {
    "SafeScale-MATD3": {
      "rewards": [
        [
          -289.1658128603537,
          -441.4827036664067,
          -713.1036341542327,
          -564.704850509574,
          -524.7450505480517,
          -547.3464137889304,
          -483.27281064414444,
          -449.2695531820653,
          -410.05625829120123,
          -451.2914796668246,
          -556.6421953649692,
          -451.2349806476689,
          -419.4418776330871,
          -418.32640309945975,
          -425.9649908886496,
          -472.40014545761795,
          -225.37766488089494,
          225.2773577477427,
          168.90893588712424,
          -184.1733777283363,
          -138.41230440871226,
          -173.1776030322743,
          -164.10169077520342,
          -147.19279961826348,
          120.22070600682771,
          -176.04761602362095,
          -449.1414712638969,
          -163.70021646653905,
          -177.03388476973493,
          -213.24020876994234,
          -60.72423180439722,
          186.62811054616623,
          -93.40170945998297,
          -131.09844468069642,
          -129.2662310502282,
          -112.11278705612776,
          -119.38236175050419,
          205.00643332857263,
          -88.96499836714867,
          -118.49854467810789,
          -103.97006221093311,
          212.37017021126664,
          209.6782382161439,
          -424.48962982584277,
          -430.58973179870094,
          -130.1520544934786,
          207.98978522254086,
          213.55013848373298,
          229.4092238583061,
          -138.7045855365913,
          -93.34000380618212,
          -102.70853904799131,
          -419.01971851299385,
          -94.11240136765409,
          217.048470856781,
          191.00417968590617,
          -84.26596141806785,
          171.24002789794025,
          -133.91030287406073,
          -94.18444702465607,
          -438.3477187282755,
          -115.6428984810303,
          -112.25792237645888,
          211.70392229063668,
          187.47735133567642,
          -90.52213192238376,
          -429.40449382705555,
          -127.24080334546328,
          -112.13926859916528,
          -444.7721711500982,
          194.6267311861453,
          -438.11964963010684,
          -119.77597407666393,
          -437.11308822749737,
          216.5471426880455,
          -424.9268591738396,
          -94.10584848102138,
          192.77963626237147,
          -89.11511211847078,
          179.562015742583,
          -461.23491856222375,
          -121.2931855640153,
          -125.14000119085175,
          -120.04881882636195,
          -111.07136211931517,
          -146.18078644350862,
          -459.8916462737952,
          -146.4966073055172,
          166.44734669561876,
          188.3942211843607,
          213.85061337951993,
          -114.72248292530855,
          -404.9804475295484,
          -427.6196630692538,
          -101.64201304197803,
          -117.01646161418701,
          197.65185776664762,
          -431.2976592529727,
          -106.20654697341905,
          -349.35504844319235,
          -98.9147410669853,
          -101.48065719482666,
          -114.10799877416109,
          -115.56074591943204,
          216.24875813800423,
          -109.74131954709325,
          -100.22071006828696,
          217.39959375436757,
          -124.21422324911221,
          211.39068402378433,
          209.97963857826127,
          237.8998322237229,
          -329.6397274445475,
          -140.55867382838943,
          -88.43512343721999,
          -107.14055192701736,
          -104.90601256362197,
          -94.96367771516408,
          171.0837343213277,
          205.4739041374935,
          -104.24079136561915,
          -426.46824371052554,
          -102.96467535729778,
          -111.42844922174659,
          -107.25907239173843,
          -106.08387747960724,
          -106.04379164879016,
          -134.2560902546292,
          219.72047751376,
          -150.24710742288391,
          -116.76990004392566,
          -118.42783649883846,
          -130.03238984949166,
          -113.76910987970628,
          202.49667189012513,
          200.5356784611607,
          -93.50510717141128,
          -110.29962631397963,
          -97.827001645421,
          -129.043725865776,
          225.07157384899975,
          -427.334512293581,
          -118.45302235477793,
          -441.9083580425313,
          -109.30176291076347,
          208.77979077222142,
          -163.59018500439527,
          -134.75426417329825,
          -410.9769392769363,
          219.79269841429826,
          -109.82332786832659,
          190.51072990115907,
          -117.89666590258966,
          -98.29519263030859,
          -84.93767444059853,
          -132.0767467389734,
          179.974582058352,
          -106.35325410096473,
          197.37347810791235,
          206.9190625995508,
          -115.80579352602106,
          -98.85987110142256,
          -124.16644958446871,
          218.00775575265837,
          -113.85070171816926,
          189.64074015316507,
          -352.74796781313654,
          -406.8068566250466,
          -122.48337438288071,
          -121.52390883303174,
          -138.76486001162235,
          201.33854063961516,
          -448.6270869222515,
          -549.6367285471489,
          -426.9870150357821,
          -446.92091698624074,
          -107.8756053864075,
          -356.8545309870251,
          -110.81234258566523,
          -110.48096257554835,
          -448.24498746565365,
          -118.58709879108291,
          -432.70784666633654,
          -352.8154075730897,
          -100.20167977537297,
          -95.98283973727216,
          -424.4372819100562,
          202.42784454842294,
          214.50722613683592,
          -134.15452009912067,
          -105.98686982005934,
          -114.45367986685572,
          -107.86864902197856,
          -345.7964652551456,
          -106.18047504419467,
          -92.22318775951183,
          -141.67569022136922,
          -115.0633053106779,
          -114.7739071589762,
          185.52304923992858,
          212.45065645791337,
          220.723199599616,
          -100.8581136908888,
          -425.5503600586685,
          208.6659751921535,
          -108.63784654824133,
          -125.0747043850945,
          -108.58158308712191,
          180.36372712880743,
          -116.1606254382541,
          -100.18791000741886,
          -121.84791890507618,
          -104.85950040242642,
          190.8628203654686,
          -123.17445450125015,
          -101.47584778034455,
          -127.9258240475539,
          -115.11203033072428,
          -118.67685271686274,
          205.49481169826984,
          -443.0800003451069,
          -144.06657002543275,
          199.600284842318,
          -120.87411704099142,
          222.83358797514435,
          -424.3931306015955,
          208.09513499639047,
          -118.49146750594615,
          -85.11707731404945,
          -434.33900112269373,
          204.94417681053898,
          -416.7856846269938,
          -100.10659542964619,
          209.95883975558152,
          -98.99698910976936,
          213.34732658851186,
          223.3896875875677,
          -104.21726900599424,
          -123.23835368375521,
          209.74322823879194,
          -98.56632278058784,
          203.1841246529236,
          208.733135940718,
          196.7355717984464,
          198.49314470144412,
          -116.46458132863198,
          -110.9251037379428,
          -113.6460771766055,
          -144.9776743095423,
          -112.09869422309036,
          -124.14045068157488,
          -414.19817008960047,
          -327.835573565754,
          -122.76616704235576,
          192.5202728518391,
          -119.94410279107993,
          215.33576830812606,
          193.93011398963628,
          -132.62421669344565,
          210.1490041034036,
          207.45959610946818,
          -101.40287428597982,
          -421.12364650003093,
          205.77687601890722,
          -124.8008196430874,
          -112.97299773771607,
          217.92351516473715,
          201.19296225422238,
          -100.21373336399672,
          -125.25922517399842,
          186.5096862253726,
          -119.7154681728089,
          220.5326159415689,
          217.12029783285075,
          -353.87462653680785,
          -109.69827889992185,
          -96.801609238354,
          201.58193809528976,
          -99.18158850272063,
          -110.36249081692347,
          -113.57327310863182,
          -114.04636665388303,
          -108.22886270320971,
          -324.55368402895294,
          -98.76232472458581,
          207.86018917584917,
          -130.6737895901241,
          183.71730707683207,
          -94.24350258016784,
          215.0260987534616,
          215.98203465199595,
          -334.0979894572293,
          207.47511271950927,
          205.3420500578946,
          -446.53174345897366,
          -120.4688782789575,
          -344.1431786967077,
          -320.98453834243423,
          220.40672264634085,
          210.56364948368406
        ],
        [
          -277.5170763338952,
          -510.01443019041506,
          26.390167391078943,
          -378.02833053845137,
          -345.8081041698353,
          -495.2084621876923,
          -464.82166680494373,
          -482.08617078432815,
          -468.9738722514709,
          -430.44822100195347,
          -411.98805529636405,
          -440.37626749007126,
          -592.4144947672052,
          -349.5886629273683,
          -397.14385866119505,
          -234.71173667642933,
          -382.3760766763837,
          -355.09990813558704,
          -291.47706907449896,
          -900.8945631005887,
          -74.00894550036503,
          -375.341029773775,
          -115.34295589097249,
          -132.02211788576898,
          -520.4223303289223,
          -661.6821225688008,
          -529.6376485123097,
          -536.0347816704917,
          -222.6380395119251,
          -199.68346101420482,
          -264.13279060790484,
          -20.102720480206145,
          -269.82851417212186,
          -201.2860468159348,
          -437.9794163731163,
          -126.2296174073714,
          -424.23465625102733,
          -128.61998028097662,
          -93.95752419452947,
          -93.53424606649882,
          213.03808505008882,
          -123.30765563183564,
          -112.13599513983323,
          -101.46226157569102,
          -98.38227699866745,
          -153.30527420483534,
          -126.7542320743408,
          -125.14001971910446,
          -428.3700970537991,
          -100.07269320352734,
          -131.99940271653068,
          -414.1001242713935,
          -123.66948005418354,
          -427.39684362587457,
          -148.63433031616822,
          -111.30008652035237,
          214.43529809631923,
          -121.47251898527715,
          -135.16663651595286,
          -128.93868244491358,
          199.45561170266237,
          -315.0842998008967,
          -432.26959232368137,
          -110.22216663005094,
          -347.3712144637956,
          215.50399264577865,
          -115.96204766528808,
          -341.4912915972265,
          195.3906589606143,
          176.74584439453818,
          -666.7130429579115,
          -98.15978210240661,
          -117.80990264615444,
          -129.86301280955004,
          -557.2553366175994,
          210.39780747118462,
          -101.3517365167475,
          209.91366607679868,
          211.972081590522,
          -433.282784937589,
          212.66571818319207,
          -105.75355751765761,
          -128.21373425049217,
          205.8090639739515,
          -109.5109546813202,
          192.78298572054152,
          -355.4678541399068,
          -349.1846982448087,
          214.01584227098215,
          -344.7077426614702,
          -117.75377064911342,
          -102.47008785653063,
          -101.61825802478452,
          -118.07219574937565,
          221.88226898296412,
          -108.58346963241661,
          225.511911826772,
          -111.22128262147675,
          209.06805367587793,
          -419.4555789862296,
          -423.3256756970673,
          -112.17109540428824,
          -109.42553604896841,
          192.34136307643269,
          225.2720159875618,
          -113.74980230299644,
          207.428509770465,
          226.39769873318014,
          -125.27924430987665,
          -446.55805869293965,
          216.7093191111878,
          -345.9976696607996,
          198.8380659927441,
          191.37935108912174,
          -143.43162859721062,
          -127.02296764199454,
          -126.54773325946888,
          209.5349076346674,
          -106.34640178371936,
          -99.95115206774672,
          -103.56221387645101,
          -97.02469978232857,
          205.47384947072817,
          210.1459808218775,
          -353.8572182947382,
          183.5310819508486,
          -142.6900420182956,
          208.1056366134603,
          -97.29776468148656,
          -99.330946517016,
          205.27988821530437,
          -641.8421476332235,
          -108.7610894056393,
          -430.1987476853747,
          -666.3587526544408,
          -130.58026660852173,
          -113.93548424438352,
          214.0727783251814,
          222.74624705922778,
          -122.65148576537331,
          -131.22183750969378,
          -111.27739901146974,
          -337.45632020770677,
          -412.62431827576194,
          218.37155728163333,
          -115.73369351790113,
          -426.7143872459163,
          -172.4883673454215,
          -109.22767253505702,
          -107.1020013837753,
          188.8798546444246,
          216.4899819621105,
          -452.16630489778873,
          -441.1203468874446,
          208.2516095647367,
          215.694811183618,
          -354.74680263467667,
          -105.56940294175774,
          -323.31875058620244,
          -105.07501268302866,
          -111.87694097443719,
          -84.83959677858749,
          -649.8680037983248,
          -347.74591370178956,
          220.3712258281661,
          -110.47804207365338,
          226.7893097335001,
          -110.83668125101177,
          -119.66723227361628,
          210.54269939272154,
          213.2854969339747,
          -92.55955796887356,
          221.21375219970716,
          197.65879256719788,
          -97.38052888096368,
          -109.3819305087047,
          -98.85119095101476,
          -121.83048745955135,
          201.16693268449322,
          197.19544869950658,
          -107.57150160466857,
          -103.05668133915216,
          211.39327999229485,
          -110.60804772518516,
          -353.2697256832205,
          192.42790629058962,
          198.5603529583667,
          220.47844520691905,
          -117.11893219906322,
          -97.85853302742908,
          207.99027370796088,
          -107.13254059391365,
          -104.8977909590385,
          -110.99958302627795,
          223.61503443361804,
          -330.35589489575034,
          227.04363681502318,
          210.40276786649594,
          -397.912004527775,
          -91.0034754604676,
          -139.52203826587532,
          202.64844491046446,
          211.79784406202057,
          -119.01580212195876,
          -111.37653150593167,
          -85.43948172622302,
          -107.03542532506036,
          210.1881562428457,
          -107.00322470726094,
          206.70440744427728,
          -126.07476118878455,
          -113.59819305598883,
          199.9575864839562,
          -117.92729997173265,
          -94.65557203997538,
          -116.61162973318092,
          202.69323345404865,
          -312.1436291115473,
          -358.37348651579117,
          -104.88540374626858,
          -115.50011120119477,
          -128.58732375750236,
          -76.19525316557849,
          -364.54948279940686,
          -114.74010950948912,
          205.94442581082444,
          -104.6261263619846,
          -132.77088133167626,
          -142.5630500824939,
          210.57988606728688,
          -130.6910504634256,
          -340.922092784259,
          -424.79989435317196,
          -125.65316377336154,
          -426.98609452787434,
          -462.5483095628174,
          -101.67198140201972,
          -116.0923265723693,
          186.9586053720273,
          200.89622408615352,
          -439.4706681158428,
          191.37134900685467,
          -113.50879718672951,
          212.77326569441453,
          -129.7377254539773,
          225.04979297090216,
          230.23097606582962,
          -105.12051915957325,
          212.76830454049903,
          -85.86046709113216,
          -440.9514902097601,
          -140.37920749725617,
          209.8057540676607,
          -93.90726910043088,
          -427.3947052223941,
          229.50378937820705,
          203.52080739654673,
          -116.87587582224127,
          -99.08608355608276,
          -103.76403352239808,
          -107.8189638851169,
          168.86847350055945,
          -153.41361554279484,
          -114.8164543634033,
          227.75177480983416,
          188.2703991753617,
          -98.81727493981742,
          -94.9112385979959,
          -116.48051716867296,
          191.78229363656612,
          -100.63183314834208,
          193.95068766107863,
          -372.49264700704975,
          -433.58318788503874,
          -123.61861471085618,
          -110.38459824781728,
          -103.74141016370557,
          195.9640417849583,
          199.98512572724437,
          -121.3019322533107,
          -343.52573454548104,
          -347.0214063494272,
          -120.89529182213361,
          -442.4484948196981,
          214.32127757400997,
          -451.13246458965295,
          -175.34424848425203,
          209.21552053510365,
          208.6286593127075,
          -109.71392597071818,
          -92.43462062833476,
          -100.75246251082412,
          -144.93281354208915,
          -348.23507246130487,
          202.64796514437177,
          -357.48856187282604,
          -87.85698364582282,
          -344.4639746883404,
          191.55362153943855,
          205.70036145020552
        ],
        [
          -412.7889371645148,
          -386.0649499354922,
          -245.2285357436274,
          -448.32732291755076,
          -476.5951198561701,
          -498.22011242371167,
          -503.8688551911612,
          -240.08326140698497,
          -185.85093582096076,
          144.03130555432136,
          144.82932989137242,
          88.20513253029675,
          -478.06899456422076,
          -636.1938845092715,
          -304.302757055514,
          27.964725026120448,
          -351.95862321446896,
          -454.08130841369575,
          -344.44884710905524,
          1.015999130086294,
          -306.02789530136414,
          39.514619349147324,
          -559.7082987729145,
          -111.05036065986528,
          224.80129306154248,
          -94.09848326684792,
          176.54451043402813,
          -134.40898087036237,
          -117.29267060653942,
          194.76396059728933,
          172.4991199363441,
          196.89230685234918,
          189.75769269328916,
          -301.99013232954513,
          105.32774445290909,
          -365.67840343421375,
          -147.0891028144223,
          184.53110640624786,
          -107.7867429873179,
          -344.9470560294281,
          -102.95305202999126,
          -108.64692355108069,
          198.61572486312363,
          -97.40835369638542,
          -112.85832979136119,
          -106.311317047873,
          199.64620264677595,
          -120.11549087856993,
          185.16985130299162,
          220.5102860110624,
          187.39477896547436,
          -94.36372675566194,
          -110.90250409692398,
          -119.82605565198587,
          231.1809637060429,
          -130.37716675283372,
          -116.40857706043114,
          -109.57226248371303,
          228.3375776948911,
          -429.8423255597283,
          -154.64965316962943,
          -107.99624219263771,
          -89.46264349809135,
          203.65072582550755,
          -114.2181091639115,
          -670.2478707663623,
          -100.68203971815633,
          -96.73416389869911,
          -129.73930842306518,
          184.7564783287476,
          -110.36207944943864,
          -341.2651861197309,
          -98.33997971894763,
          -107.33537289580855,
          226.51289085283486,
          -107.23145910114924,
          -110.2461915530912,
          199.11648560186822,
          220.90307943792243,
          -130.00394733351473,
          -123.55725782076411,
          -87.71854910777716,
          -484.3485481043172,
          -91.79084051361117,
          214.10123082801212,
          -119.74727184706785,
          -329.9577051100122,
          -348.6135660649701,
          -116.45415047716823,
          -441.8874357092759,
          -120.6303352812302,
          -117.52390036547649,
          203.1538149143533,
          -441.7111817109565,
          -413.305424997172,
          210.9792790797503,
          203.6164768145313,
          -430.657221538861,
          -110.84973923559309,
          223.3547132198973,
          -339.25418740683625,
          211.9248374575688,
          -115.37458528235285,
          -117.91042979119288,
          -104.6251582403134,
          232.23603950303126,
          188.05875088962551,
          205.81560818506776,
          -108.92537031074345,
          -407.6960125344362,
          -118.06910526015278,
          196.61743763592307,
          -116.6182325336051,
          189.0955989538671,
          -152.09663043226269,
          -122.90874591446664,
          -436.7436442084322,
          -435.4914350425669,
          -138.28922258713837,
          -101.50608631049752,
          197.16650540701173,
          223.4899473485609,
          205.99587684770216,
          -117.35968412765602,
          -119.38475156986725,
          -87.43628029004945,
          -116.06007974678661,
          204.18376827531358,
          -125.45605045023309,
          -435.00571810175074,
          -114.54606542769122,
          -339.7049584876186,
          225.89128415908294,
          -678.9477768335074,
          -108.69908855353563,
          212.70791684812713,
          -100.43701803621066,
          -346.6687346418155,
          -88.22186614545345,
          -128.14591463617367,
          191.0679590461441,
          -110.10189768737033,
          212.11773940608597,
          217.3734745400385,
          -102.6815120971157,
          -120.2931092210511,
          -120.41416140822648,
          -110.2509759580029,
          201.79727263794888,
          -112.7991990381032,
          -111.39894958544845,
          -121.93474280660789,
          -112.90518191641583,
          -108.84689717207645,
          -126.98961551277878,
          -151.66849344539932,
          225.478461701508,
          -114.00903015202853,
          -101.7721948321845,
          -340.50570986031715,
          -109.66849892491634,
          -349.0951249873117,
          -102.08055436416925,
          -397.5598024713863,
          187.10736509486074,
          -329.63286508425153,
          205.66839220591118,
          8.370087019774072,
          -132.63800610145782,
          -297.1438526712403,
          -316.8061128439024,
          -106.32801649553012,
          203.22670681146374,
          -107.41623391016111,
          200.63445579912127,
          -103.93765135499376,
          -127.92006078764287,
          -107.30307742218287,
          -101.1011605137467,
          191.35283112409778,
          -364.0624680282613,
          180.20857044191223,
          -397.52135081760986,
          59.991430843770814,
          -102.4172003234432,
          221.78107912563766,
          -118.04679798294944,
          -117.01145866242206,
          -113.79810651834627,
          -431.9209934553935,
          -428.33439965656345,
          -118.42016823366163,
          -627.5171948453667,
          206.61274694613437,
          187.86725794622575,
          196.60640306582005,
          -103.69937128550183,
          219.48115910079366,
          222.14372283753025,
          -464.02313195107195,
          185.7087987886486,
          216.11519908072773,
          181.40295133797326,
          -103.5781542665743,
          -118.82797623927272,
          -459.2431062569219,
          -437.72535541375436,
          -123.12564944682767,
          -127.94510820635934,
          -98.10572041753252,
          200.29087825560742,
          -141.70443904038058,
          -109.1902303789761,
          228.74799688278947,
          -446.3795061204704,
          233.5620036377789,
          221.36618994833486,
          -105.86706104437577,
          -429.6884599809073,
          -360.83544634641834,
          -76.38928391876394,
          201.81386190181607,
          -443.74878087597114,
          207.19556293908812,
          -104.73191783459316,
          -133.511448885866,
          218.23453217351303,
          -442.536983275148,
          -121.24392388742395,
          -127.38130577056563,
          -147.3235765357062,
          -328.8757483621689,
          -325.95355251610874,
          -339.8158035524513,
          -113.20055734636703,
          -347.0119768797317,
          -120.80804992525503,
          -100.52317812007088,
          -122.29646997956033,
          -110.93686649206616,
          -433.76131300951255,
          -119.09985621542445,
          157.07880661500292,
          -120.64893371691767,
          -564.9874139163346,
          -128.90013372883732,
          200.2712761909795,
          186.18987360307912,
          -103.92187123088776,
          -449.50007198557284,
          194.06851948462935,
          -423.41730640802865,
          212.3129218803288,
          214.29267263128293,
          -112.04130136984577,
          188.83734738326427,
          202.45720810533012,
          188.66007181280875,
          -136.23350976608094,
          207.89664160556228,
          218.81971002769615,
          227.51032536902144,
          191.71743607248285,
          203.1348174273776,
          -133.3163687936753,
          216.7131316489297,
          -417.57738279401394,
          -143.47093022076757,
          215.05532779782385,
          -134.04751383430752,
          226.2245105683593,
          -109.28216481947297,
          -107.11342884857409,
          -131.43212054318428,
          -100.76757725975257,
          -105.61803637369995,
          -107.28685463620663,
          212.41967976375756,
          -109.20436552963172,
          207.430318627726,
          203.4261310205142,
          -111.60216467750689,
          -409.84141324796127,
          -131.32822559431355,
          205.84077298782614,
          -97.94793493526333,
          205.391519812859,
          -440.78848313583944,
          -90.67664274667247,
          -90.4514128352434,
          -141.30138273511557,
          -141.8992785865246,
          -421.02928680797663,
          -121.81226812069326,
          -124.70555873293397,
          -115.36298820440629,
          -345.2394234746058,
          -111.34533943512857,
          -356.45254942109347,
          201.33599372618332
        ]
      ],
      "aoi": [
        [
          2.0848888888888886,
          2.180444444444445,
          2.3688888888888875,
          2.365777777777777,
          2.313777777777777,
          2.2968888888888896,
          2.298666666666666,
          2.2617777777777777,
          2.2039999999999997,
          2.287111111111111,
          2.216444444444445,
          2.2502222222222223,
          2.2280000000000006,
          2.251555555555555,
          2.248444444444445,
          2.327111111111111,
          2.113777777777779,
          1.947555555555556,
          2.008888888888889,
          2.0200000000000014,
          1.9586666666666663,
          1.9968888888888887,
          2.008888888888889,
          1.9724444444444444,
          2.0346666666666664,
          1.9991111111111104,
          1.947555555555556,
          1.9906666666666668,
          1.9511111111111117,
          1.9804444444444445,
          1.9768888888888902,
          2.0186666666666664,
          1.936888888888889,
          2.0337777777777792,
          2.0466666666666673,
          1.9808888888888891,
          1.9982222222222235,
          1.9951111111111102,
          1.935555555555556,
          2.0004444444444447,
          1.971555555555556,
          1.9791111111111115,
          1.9600000000000015,
          1.9484444444444435,
          2.014222222222223,
          2.0239999999999996,
          1.985333333333333,
          1.9688888888888885,
          1.9195555555555552,
          2.0208888888888885,
          1.9497777777777765,
          1.981777777777778,
          1.956444444444444,
          1.9608888888888891,
          1.982222222222222,
          2.0244444444444447,
          1.9395555555555555,
          2.038222222222223,
          2.066666666666666,
          1.9337777777777778,
          1.9866666666666664,
          2.0142222222222217,
          1.9839999999999998,
          1.9693333333333347,
          1.9613333333333336,
          1.9226666666666665,
          1.9844444444444447,
          2.044888888888888,
          2.0044444444444443,
          2.0231111111111124,
          2.009333333333333,
          2.0177777777777774,
          2.0231111111111115,
          2.004444444444444,
          1.9742222222222219,
          1.9644444444444438,
          1.9337777777777774,
          1.9888888888888892,
          1.936444444444445,
          2.0191111111111124,
          2.033333333333334,
          2.0022222222222217,
          2.0120000000000005,
          2.0120000000000013,
          2.0004444444444442,
          2.0160000000000005,
          2.00711111111111,
          2.0426666666666673,
          2.0173333333333345,
          2.0320000000000005,
          1.9893333333333336,
          2.0071111111111115,
          1.935555555555555,
          1.994222222222221,
          1.9720000000000009,
          2.024444444444443,
          2.023111111111111,
          1.9897777777777776,
          1.992,
          2.0097777777777783,
          1.9813333333333325,
          1.9826666666666661,
          1.9902222222222217,
          2.013777777777778,
          1.9577777777777776,
          1.9897777777777783,
          1.966222222222223,
          1.9724444444444449,
          1.9982222222222235,
          1.970222222222222,
          1.985777777777777,
          1.8933333333333342,
          1.9782222222222219,
          2.0502222222222235,
          1.9031111111111105,
          2.0040000000000004,
          1.9911111111111128,
          1.9497777777777776,
          1.9960000000000018,
          1.9977777777777779,
          1.972888888888889,
          1.9960000000000002,
          1.9773333333333327,
          1.967111111111111,
          1.9791111111111108,
          1.9715555555555568,
          1.965333333333333,
          2.0346666666666664,
          1.9737777777777765,
          2.011111111111111,
          1.9755555555555555,
          1.9973333333333343,
          1.974666666666666,
          2.0115555555555558,
          2.0142222222222226,
          2.002666666666667,
          1.940000000000001,
          1.9977777777777788,
          1.9617777777777774,
          2.0262222222222226,
          1.9235555555555561,
          1.9857777777777783,
          2.0000000000000013,
          2.021777777777777,
          1.9808888888888891,
          1.9808888888888896,
          2.0911111111111125,
          2.0342222222222217,
          1.9657777777777772,
          1.9662222222222225,
          1.9897777777777776,
          2.024888888888888,
          2.0164444444444447,
          1.9768888888888894,
          1.9293333333333342,
          2.0360000000000005,
          2.029333333333334,
          1.9382222222222223,
          2.0177777777777766,
          2.000888888888888,
          1.9946666666666666,
          1.9537777777777785,
          1.9871111111111115,
          1.962222222222222,
          1.999555555555556,
          2.030222222222222,
          2.0608888888888894,
          1.9239999999999995,
          1.9835555555555557,
          1.9964444444444438,
          2.0084444444444443,
          2.010666666666667,
          2.0488888888888876,
          1.978666666666666,
          1.9897777777777783,
          2.0,
          1.9755555555555555,
          2.0271111111111124,
          1.9844444444444447,
          1.981333333333333,
          2.0359999999999996,
          1.980000000000001,
          1.958666666666666,
          2.039555555555556,
          1.9715555555555568,
          1.94,
          1.9853333333333338,
          2.018222222222223,
          1.9608888888888891,
          2.027111111111112,
          1.9484444444444446,
          1.9951111111111122,
          1.9875555555555562,
          1.9951111111111102,
          1.9835555555555568,
          1.9475555555555555,
          2.0857777777777775,
          2.0124444444444447,
          2.0222222222222226,
          2.036888888888889,
          1.9680000000000002,
          1.9697777777777772,
          1.9399999999999988,
          2.0164444444444443,
          1.9840000000000002,
          1.9635555555555564,
          2.0422222222222226,
          1.9924444444444454,
          2.0342222222222226,
          1.992,
          1.949333333333334,
          2.0039999999999996,
          1.9702222222222223,
          2.0360000000000014,
          2.006222222222223,
          1.970222222222222,
          2.0275555555555558,
          1.9884444444444451,
          2.0075555555555558,
          1.955999999999999,
          2.024888888888888,
          2.094222222222221,
          1.9866666666666681,
          2.0413333333333337,
          1.9533333333333338,
          1.985333333333334,
          1.9751111111111102,
          1.9955555555555557,
          1.935555555555556,
          2.0164444444444447,
          2.0017777777777783,
          1.975999999999999,
          1.9448888888888898,
          1.9671111111111108,
          1.9542222222222225,
          1.966222222222223,
          1.9586666666666657,
          1.9795555555555566,
          1.9951111111111122,
          1.9773333333333332,
          1.974222222222222,
          1.9884444444444431,
          1.969333333333334,
          2.0097777777777774,
          2.0319999999999996,
          2.021777777777778,
          2.002666666666667,
          2.0000000000000004,
          1.998666666666666,
          2.0128888888888894,
          2.0022222222222217,
          1.9524444444444433,
          1.947999999999999,
          2.0022222222222226,
          2.0351111111111115,
          2.0080000000000005,
          1.951555555555556,
          2.0324444444444443,
          2.031555555555556,
          1.9977777777777772,
          1.998666666666666,
          1.940888888888889,
          1.9688888888888891,
          1.9800000000000004,
          1.9937777777777785,
          2.0168888888888885,
          1.947555555555556,
          1.980444444444445,
          1.9453333333333338,
          1.999111111111111,
          2.000888888888889,
          2.010666666666667,
          1.9662222222222223,
          1.9617777777777776,
          2.0475555555555562,
          1.999111111111111,
          1.9604444444444438,
          2.0160000000000013,
          1.9817777777777776,
          1.9724444444444442,
          1.948,
          1.9773333333333338,
          1.984444444444445,
          1.9537777777777778,
          1.958666666666666,
          1.9764444444444438,
          2.0284444444444456,
          2.047111111111111,
          1.9711111111111124,
          1.9484444444444446,
          1.9715555555555557,
          1.97377777777778,
          1.9986666666666668,
          1.987999999999999,
          2.0217777777777797,
          2.022666666666666,
          2.0204444444444443,
          1.9444444444444442,
          1.9582222222222223,
          1.989777777777778
        ],
        [
          2.0280000000000005,
          2.080444444444445,
          2.0355555555555553,
          2.0022222222222226,
          2.150222222222222,
          2.168000000000001,
          2.247999999999999,
          2.244888888888889,
          2.2924444444444454,
          2.247555555555556,
          2.2604444444444454,
          2.018666666666666,
          2.0084444444444465,
          2.052888888888888,
          2.04088888888889,
          2.0057777777777783,
          2.0644444444444443,
          2.039999999999999,
          2.0106666666666677,
          2.0791111111111107,
          2.045777777777779,
          2.067111111111111,
          2.1328888888888895,
          2.043111111111111,
          2.2524444444444454,
          2.343555555555555,
          2.300444444444444,
          2.309333333333332,
          2.0782222222222226,
          2.0675555555555567,
          2.1462222222222214,
          2.1168888888888886,
          2.133777777777778,
          2.064444444444445,
          2.003555555555555,
          2.0000000000000004,
          1.985333333333333,
          1.9804444444444436,
          1.9586666666666663,
          1.954222222222222,
          1.968000000000001,
          1.9884444444444442,
          1.9822222222222226,
          1.9764444444444447,
          1.966222222222225,
          1.992444444444444,
          2.0022222222222235,
          1.9684444444444444,
          1.9755555555555555,
          1.9448888888888893,
          2.051111111111112,
          1.9537777777777778,
          1.9933333333333336,
          1.9786666666666668,
          1.9911111111111124,
          1.9773333333333338,
          1.9462222222222223,
          2.010666666666667,
          1.9791111111111115,
          2.0177777777777774,
          2.000888888888887,
          1.922222222222223,
          2.0013333333333345,
          2.0102222222222226,
          2.0204444444444447,
          1.9577777777777776,
          1.966666666666666,
          2.0102222222222212,
          2.001333333333333,
          2.0311111111111106,
          1.9991111111111108,
          1.9448888888888878,
          1.9853333333333338,
          2.022666666666666,
          1.9715555555555548,
          2.022666666666667,
          1.9537777777777785,
          1.9831111111111108,
          1.992888888888889,
          2.0097777777777774,
          1.9791111111111104,
          1.9791111111111113,
          2.0351111111111115,
          1.9759999999999998,
          1.9795555555555544,
          2.0097777777777774,
          2.0160000000000005,
          2.0080000000000005,
          1.9720000000000004,
          1.9813333333333345,
          1.9764444444444451,
          1.9742222222222237,
          1.9435555555555557,
          2.0324444444444447,
          1.9471111111111108,
          1.9857777777777779,
          1.9617777777777792,
          1.992888888888889,
          1.9800000000000006,
          1.9568888888888887,
          1.9706666666666677,
          1.9911111111111113,
          1.9631111111111113,
          2.0391111111111115,
          1.960000000000001,
          2.0004444444444434,
          2.0008888888888876,
          1.960888888888889,
          2.046666666666666,
          2.029333333333334,
          1.9737777777777774,
          1.9968888888888887,
          2.0008888888888894,
          1.9853333333333334,
          2.0506666666666673,
          2.01288888888889,
          1.999111111111111,
          1.9862222222222223,
          1.9977777777777788,
          1.9377777777777772,
          1.9942222222222221,
          1.9368888888888895,
          1.987111111111111,
          1.9911111111111104,
          2.0066666666666664,
          1.991555555555556,
          2.0368888888888885,
          1.9871111111111115,
          1.9653333333333343,
          1.9751111111111106,
          2.0013333333333323,
          1.9604444444444438,
          1.9951111111111106,
          1.987555555555555,
          2.012000000000001,
          2.015111111111112,
          2.0084444444444443,
          1.9817777777777772,
          1.9435555555555546,
          1.985333333333334,
          2.017777777777777,
          1.983555555555555,
          1.992,
          1.9608888888888896,
          1.9568888888888882,
          2.006222222222222,
          1.985777777777779,
          2.063555555555555,
          1.9924444444444454,
          1.9844444444444447,
          2.035111111111113,
          1.9404444444444449,
          2.0395555555555553,
          2.015111111111112,
          1.9693333333333336,
          1.953777777777777,
          2.025777777777779,
          1.9871111111111115,
          1.9555555555555555,
          1.9768888888888894,
          2.0071111111111097,
          1.9466666666666659,
          1.9604444444444444,
          1.9919999999999989,
          1.9697777777777783,
          1.9911111111111108,
          1.935555555555555,
          1.9586666666666657,
          1.98088888888889,
          1.992888888888889,
          1.9706666666666663,
          1.9555555555555555,
          1.9457777777777783,
          1.9986666666666668,
          1.9591111111111112,
          1.9782222222222217,
          1.9524444444444433,
          2.0235555555555558,
          2.0084444444444456,
          1.9888888888888907,
          1.9813333333333332,
          1.9768888888888883,
          1.9893333333333327,
          2.0066666666666664,
          2.0022222222222212,
          2.021777777777778,
          2.008444444444444,
          1.9417777777777776,
          1.998222222222222,
          1.9613333333333336,
          2.0,
          1.9591111111111097,
          1.9435555555555566,
          1.975111111111111,
          1.9560000000000006,
          1.9857777777777785,
          1.9533333333333338,
          1.9680000000000002,
          1.9271111111111114,
          1.9342222222222218,
          2.0511111111111107,
          2.0066666666666677,
          2.008444444444444,
          1.9857777777777783,
          1.9764444444444442,
          1.9266666666666667,
          1.9671111111111108,
          1.9719999999999998,
          1.9675555555555562,
          1.9959999999999996,
          1.9866666666666675,
          1.9933333333333323,
          2.0319999999999996,
          2.025333333333333,
          1.9586666666666683,
          2.0093333333333345,
          1.9964444444444447,
          1.9146666666666674,
          1.9888888888888903,
          1.9768888888888891,
          2.0186666666666655,
          1.9946666666666673,
          1.9168888888888882,
          2.0133333333333336,
          1.981333333333334,
          2.0000000000000004,
          1.9977777777777772,
          2.0137777777777774,
          2.0093333333333336,
          1.9835555555555553,
          2.0328888888888885,
          1.993777777777778,
          1.9675555555555566,
          2.018222222222223,
          1.9853333333333334,
          2.0413333333333337,
          1.9577777777777772,
          2.039555555555556,
          2.026222222222223,
          2.010222222222222,
          1.9986666666666668,
          2.022222222222222,
          1.9822222222222232,
          1.9733333333333336,
          2.040888888888889,
          1.9457777777777785,
          1.9244444444444446,
          1.985333333333334,
          1.97288888888889,
          1.9257777777777774,
          2.0280000000000005,
          2.077333333333332,
          1.9946666666666666,
          1.9315555555555557,
          1.9937777777777776,
          1.9391111111111108,
          2.018666666666667,
          2.0031111111111106,
          1.9364444444444446,
          1.9893333333333327,
          1.9880000000000002,
          2.063555555555556,
          2.0488888888888894,
          1.997333333333332,
          1.9226666666666672,
          2.028000000000001,
          1.9688888888888891,
          1.9217777777777765,
          1.9951111111111122,
          2.010666666666666,
          1.967111111111111,
          2.024,
          2.0680000000000005,
          1.9977777777777779,
          1.9746666666666666,
          1.9719999999999989,
          1.9804444444444436,
          2.021777777777778,
          1.9684444444444458,
          2.039111111111113,
          1.9902222222222217,
          1.9964444444444447,
          2.008888888888888,
          2.0293333333333328,
          1.9964444444444447,
          2.021333333333334,
          2.096444444444445,
          2.004888888888888,
          1.9648888888888898,
          1.9955555555555562,
          1.9404444444444433,
          1.9306666666666665,
          2.0595555555555567,
          1.983555555555555,
          2.0173333333333336,
          2.0284444444444434,
          1.9146666666666663,
          2.0039999999999996,
          2.018222222222222,
          1.9884444444444436
        ],
        [
          2.089777777777777,
          2.10888888888889,
          2.1324444444444444,
          2.2728888888888883,
          2.192888888888888,
          2.2475555555555555,
          2.2373333333333343,
          2.1822222222222223,
          2.0484444444444447,
          1.981777777777778,
          1.9724444444444449,
          1.964888888888889,
          2.0635555555555563,
          2.076,
          2.0835555555555554,
          2.0115555555555544,
          2.046666666666666,
          2.0168888888888876,
          1.9964444444444458,
          2.089333333333333,
          2.0324444444444443,
          2.028888888888888,
          2.0791111111111107,
          1.982222222222222,
          1.9533333333333334,
          1.9431111111111117,
          2.037333333333333,
          2.0013333333333327,
          1.976888888888888,
          2.024888888888889,
          2.0671111111111107,
          2.02711111111111,
          2.0133333333333336,
          2.0035555555555566,
          1.9759999999999995,
          2.007111111111111,
          2.017777777777778,
          2.0480000000000005,
          1.992444444444444,
          1.9862222222222226,
          1.9706666666666663,
          1.9911111111111102,
          1.9911111111111128,
          1.9502222222222223,
          1.9755555555555555,
          2.004444444444445,
          1.992444444444445,
          2.0146666666666673,
          2.064,
          1.943555555555555,
          2.0306666666666673,
          1.944888888888889,
          1.9982222222222223,
          1.9915555555555564,
          1.934666666666667,
          2.046666666666668,
          2.028,
          1.9764444444444451,
          1.9311111111111106,
          1.9866666666666664,
          2.0755555555555563,
          1.9986666666666668,
          1.9439999999999993,
          1.9648888888888894,
          1.9773333333333347,
          2.009333333333334,
          1.9542222222222225,
          1.9613333333333325,
          2.000888888888889,
          2.0351111111111115,
          1.9884444444444436,
          1.9800000000000004,
          1.9688888888888876,
          1.9928888888888885,
          1.9506666666666672,
          1.99288888888889,
          1.95288888888889,
          1.976000000000001,
          1.9373333333333338,
          2.016,
          2.0164444444444447,
          1.9195555555555552,
          2.0831111111111102,
          1.9391111111111103,
          1.9964444444444458,
          2.0302222222222217,
          1.9773333333333327,
          2.005777777777777,
          2.001333333333334,
          2.013333333333334,
          1.9933333333333345,
          2.009777777777778,
          2.0200000000000005,
          1.9986666666666664,
          1.9600000000000009,
          1.9782222222222219,
          1.9915555555555557,
          2.001333333333334,
          2.001777777777778,
          1.9506666666666677,
          1.9542222222222234,
          1.9888888888888887,
          1.9417777777777774,
          2.0004444444444456,
          1.9679999999999995,
          1.9355555555555566,
          2.026222222222222,
          1.969777777777778,
          1.961333333333334,
          1.947111111111112,
          1.9799999999999995,
          2.0066666666666664,
          2.0000000000000004,
          2.0613333333333332,
          1.9804444444444436,
          2.0146666666666664,
          2.003999999999999,
          2.011111111111111,
          2.0613333333333346,
          1.9777777777777763,
          1.980444444444444,
          1.9626666666666677,
          1.967111111111111,
          1.9693333333333343,
          1.9880000000000002,
          1.9262222222222223,
          2.0084444444444434,
          1.9840000000000013,
          2.000888888888889,
          2.014222222222222,
          2.0142222222222217,
          1.964888888888889,
          1.9568888888888882,
          2.0315555555555562,
          1.9835555555555557,
          1.9884444444444451,
          1.985777777777777,
          2.007555555555556,
          1.948444444444444,
          1.973777777777778,
          2.0048888888888885,
          1.9968888888888883,
          1.9831111111111113,
          1.9764444444444438,
          1.9648888888888898,
          2.0279999999999996,
          1.988444444444444,
          1.9599999999999995,
          2.022666666666666,
          2.015555555555555,
          1.980444444444444,
          1.9782222222222217,
          2.0039999999999996,
          2.000444444444444,
          2.0102222222222226,
          1.9928888888888894,
          1.9520000000000004,
          2.0173333333333336,
          1.9777777777777783,
          1.9533333333333334,
          1.9880000000000015,
          2.0253333333333328,
          1.9942222222222226,
          1.9697777777777783,
          2.0573333333333337,
          1.9768888888888894,
          1.9902222222222223,
          1.9648888888888876,
          2.0164444444444447,
          1.9959999999999996,
          1.980444444444445,
          2.0008888888888885,
          1.9857777777777794,
          1.9795555555555553,
          1.9840000000000002,
          1.9680000000000006,
          2.019111111111113,
          1.9853333333333334,
          1.9657777777777778,
          1.9915555555555557,
          2.0048888888888903,
          2.067555555555555,
          1.9875555555555566,
          1.993333333333334,
          1.9795555555555555,
          1.9435555555555553,
          2.0137777777777783,
          1.9973333333333345,
          1.9648888888888898,
          2.0106666666666677,
          1.9791111111111115,
          2.0133333333333336,
          1.9164444444444457,
          2.0164444444444447,
          2.0515555555555562,
          1.9804444444444451,
          1.9382222222222232,
          1.934666666666667,
          1.9644444444444438,
          2.0391111111111115,
          1.9804444444444451,
          1.95911111111111,
          2.036,
          1.971111111111112,
          1.9968888888888892,
          2.0595555555555554,
          2.0235555555555567,
          2.0195555555555558,
          1.9777777777777779,
          1.960000000000001,
          1.9933333333333334,
          1.9946666666666673,
          1.9911111111111104,
          1.9320000000000008,
          2.0244444444444434,
          1.9177777777777778,
          1.9368888888888898,
          1.9662222222222223,
          2.0075555555555558,
          2.015999999999999,
          1.8733333333333315,
          2.0146666666666677,
          1.9720000000000009,
          1.9973333333333332,
          1.980444444444445,
          2.014666666666667,
          1.954666666666666,
          2.0435555555555562,
          2.02,
          2.017777777777777,
          2.033333333333335,
          1.9773333333333332,
          1.9537777777777785,
          2.015555555555555,
          1.9684444444444444,
          1.9786666666666675,
          2.0111111111111115,
          1.9648888888888878,
          2.0115555555555558,
          1.9857777777777783,
          2.0217777777777783,
          1.991111111111112,
          2.0275555555555553,
          2.0160000000000013,
          1.9960000000000009,
          2.042666666666668,
          1.9951111111111117,
          2.0382222222222213,
          1.964888888888889,
          2.0475555555555554,
          1.9964444444444447,
          1.9644444444444442,
          1.9693333333333332,
          1.9933333333333336,
          1.9844444444444458,
          2.03688888888889,
          1.9928888888888894,
          2.0324444444444443,
          2.014222222222222,
          1.9800000000000004,
          1.9782222222222212,
          1.9173333333333324,
          2.0231111111111106,
          2.0022222222222243,
          2.0271111111111106,
          1.9675555555555555,
          1.9462222222222223,
          1.999111111111111,
          1.9631111111111101,
          2.0142222222222226,
          1.9377777777777783,
          1.9968888888888892,
          1.953777777777779,
          2.016888888888889,
          1.9546666666666677,
          1.9915555555555557,
          1.992000000000001,
          1.9799999999999995,
          1.9808888888888891,
          1.9871111111111104,
          1.9737777777777779,
          1.9888888888888896,
          1.9315555555555552,
          2.0497777777777784,
          1.9888888888888887,
          1.9639999999999997,
          1.9848888888888894,
          2.0177777777777783,
          1.9311111111111119,
          1.9511111111111108,
          2.0097777777777783,
          2.048444444444445,
          1.9417777777777774,
          2.019111111111113,
          2.0173333333333323,
          1.9951111111111113,
          2.017333333333334,
          2.0035555555555553,
          2.0133333333333336,
          1.9831111111111108
        ]
      ],
      "ho_freq": [
        [
          0.956,
          0.8173333333333334,
          0.096,
          0.08666666666666667,
          0.04,
          0.05333333333333334,
          0.03333333333333333,
          0.05333333333333334,
          0.04666666666666667,
          0.04666666666666667,
          0.05333333333333334,
          0.04,
          0.06666666666666667,
          0.04666666666666667,
          0.04,
          0.04,
          0.05333333333333334,
          0.06666666666666667,
          0.6,
          1.0,
          1.0,
          1.0,
          1.0,
          1.0,
          1.0,
          1.0,
          1.0,
          1.0,
          0.304,
          0.34,
          0.20266666666666666,
          0.03333333333333333,
          0.05333333333333334,
          0.06666666666666667,
          0.02666666666666667,
          0.03333333333333333,
          0.03333333333333333,
          0.04666666666666667,
          0.07333333333333333,
          0.03333333333333333,
          0.04666666666666667,
          0.04,
          0.06,
          0.04,
          0.05333333333333334,
          0.05333333333333334,
          0.05333333333333334,
          0.06666666666666667,
          0.04,
          0.08,
          0.04666666666666667,
          0.08,
          0.06,
          0.03333333333333333,
          0.06,
          0.04666666666666667,
          0.06666666666666667,
          0.05333333333333334,
          0.06,
          0.05333333333333334,
          0.08,
          0.07333333333333333,
          0.06,
          0.06,
          0.04,
          0.06,
          0.04666666666666667,
          0.08666666666666667,
          0.06,
          0.04,
          0.04666666666666667,
          0.06666666666666667,
          0.05333333333333334,
          0.04,
          0.06666666666666667,
          0.07333333333333333,
          0.07333333333333333,
          0.05333333333333334,
          0.06666666666666667,
          0.04,
          0.06,
          0.06,
          0.04666666666666667,
          0.03333333333333333,
          0.04,
          0.03333333333333333,
          0.04,
          0.04666666666666667,
          0.05333333333333334,
          0.06,
          0.06,
          0.06,
          0.06666666666666667,
          0.05333333333333334,
          0.06,
          0.06666666666666667,
          0.06,
          0.06666666666666667,
          0.05333333333333334,
          0.04,
          0.05333333333333334,
          0.04666666666666667,
          0.04666666666666667,
          0.04,
          0.06,
          0.08,
          0.06666666666666667,
          0.06666666666666667,
          0.06666666666666667,
          0.04,
          0.04666666666666667,
          0.05333333333333334,
          0.04666666666666667,
          0.04,
          0.04666666666666667,
          0.05333333333333334,
          0.07333333333333333,
          0.05333333333333334,
          0.03333333333333333,
          0.06,
          0.05333333333333334,
          0.05333333333333334,
          0.06,
          0.02,
          0.05333333333333334,
          0.05333333333333334,
          0.04,
          0.09333333333333334,
          0.04666666666666667,
          0.04666666666666667,
          0.04666666666666667,
          0.05333333333333334,
          0.08666666666666667,
          0.04666666666666667,
          0.06,
          0.02666666666666667,
          0.08,
          0.09333333333333334,
          0.04666666666666667,
          0.04666666666666667,
          0.04666666666666667,
          0.06666666666666667,
          0.05333333333333334,
          0.07333333333333333,
          0.07333333333333333,
          0.05333333333333334,
          0.04666666666666667,
          0.05333333333333334,
          0.06666666666666667,
          0.06666666666666667,
          0.07333333333333333,
          0.04,
          0.04666666666666667,
          0.06,
          0.06,
          0.06666666666666667,
          0.08666666666666667,
          0.04666666666666667,
          0.05333333333333334,
          0.04666666666666667,
          0.07333333333333333,
          0.06666666666666667,
          0.04666666666666667,
          0.06666666666666667,
          0.06666666666666667,
          0.06666666666666667,
          0.07333333333333333,
          0.06,
          0.05333333333333334,
          0.04666666666666667,
          0.02,
          0.06666666666666667,
          0.06666666666666667,
          0.06666666666666667,
          0.07333333333333333,
          0.02666666666666667,
          0.06,
          0.05333333333333334,
          0.07333333333333333,
          0.05333333333333334,
          0.02666666666666667,
          0.07333333333333333,
          0.06,
          0.06,
          0.09333333333333334,
          0.03333333333333333,
          0.05333333333333334,
          0.06,
          0.02666666666666667,
          0.04,
          0.03333333333333333,
          0.02666666666666667,
          0.06666666666666667,
          0.07333333333333333,
          0.04666666666666667,
          0.06,
          0.06,
          0.03333333333333333,
          0.03333333333333333,
          0.05333333333333334,
          0.05333333333333334,
          0.05333333333333334,
          0.04,
          0.07333333333333333,
          0.04666666666666667,
          0.04666666666666667,
          0.04666666666666667,
          0.06,
          0.05333333333333334,
          0.04666666666666667,
          0.02666666666666667,
          0.07333333333333333,
          0.05333333333333334,
          0.08666666666666667,
          0.07333333333333333,
          0.05333333333333334,
          0.06,
          0.04,
          0.04,
          0.04666666666666667,
          0.05333333333333334,
          0.04666666666666667,
          0.06,
          0.06666666666666667,
          0.06,
          0.07333333333333333,
          0.06,
          0.04666666666666667,
          0.06666666666666667,
          0.04,
          0.04,
          0.08,
          0.05333333333333334,
          0.06,
          0.06,
          0.07333333333333333,
          0.013333333333333334,
          0.07333333333333333,
          0.02666666666666667,
          0.04,
          0.04666666666666667,
          0.05333333333333334,
          0.05333333333333334,
          0.03333333333333333,
          0.02666666666666667,
          0.04,
          0.02,
          0.05333333333333334,
          0.06,
          0.06666666666666667,
          0.05333333333333334,
          0.05333333333333334,
          0.06,
          0.04,
          0.04,
          0.06,
          0.04,
          0.04666666666666667,
          0.05333333333333334,
          0.05333333333333334,
          0.04,
          0.03333333333333333,
          0.06,
          0.05333333333333334,
          0.05333333333333334,
          0.05333333333333334,
          0.03333333333333333,
          0.05333333333333334,
          0.04666666666666667,
          0.05333333333333334,
          0.05333333333333334,
          0.04666666666666667,
          0.04666666666666667,
          0.07333333333333333,
          0.06666666666666667,
          0.06,
          0.03333333333333333,
          0.07333333333333333,
          0.06666666666666667,
          0.05333333333333334,
          0.02,
          0.03333333333333333,
          0.06666666666666667,
          0.08,
          0.03333333333333333,
          0.06,
          0.04,
          0.06,
          0.04666666666666667,
          0.06,
          0.05333333333333334,
          0.03333333333333333,
          0.04666666666666667,
          0.02,
          0.03333333333333333,
          0.1,
          0.03333333333333333,
          0.06,
          0.08666666666666667,
          0.06666666666666667
        ],
        [
          1.0,
          0.996,
          1.0,
          1.0,
          1.0,
          0.5253333333333333,
          0.06,
          0.06,
          0.05333333333333334,
          0.08,
          0.05333333333333334,
          0.04666666666666667,
          0.05333333333333334,
          0.04,
          0.02666666666666667,
          0.272,
          1.0,
          1.0,
          1.0,
          1.0,
          1.0,
          1.0,
          1.0,
          1.0,
          1.0,
          1.0,
          1.0,
          1.0,
          0.25466666666666665,
          0.21466666666666667,
          0.06666666666666667,
          0.06666666666666667,
          0.02666666666666667,
          0.04,
          0.05333333333333334,
          0.07333333333333333,
          0.04,
          0.08,
          0.09333333333333334,
          0.03333333333333333,
          0.05333333333333334,
          0.02666666666666667,
          0.03333333333333333,
          0.04,
          0.06666666666666667,
          0.06,
          0.03333333333333333,
          0.04666666666666667,
          0.05333333333333334,
          0.04666666666666667,
          0.04,
          0.05333333333333334,
          0.04666666666666667,
          0.06,
          0.04666666666666667,
          0.07333333333333333,
          0.03333333333333333,
          0.05333333333333334,
          0.05333333333333334,
          0.04,
          0.04666666666666667,
          0.04,
          0.04666666666666667,
          0.07333333333333333,
          0.04666666666666667,
          0.06666666666666667,
          0.06,
          0.03333333333333333,
          0.04666666666666667,
          0.04666666666666667,
          0.04666666666666667,
          0.03333333333333333,
          0.04666666666666667,
          0.03333333333333333,
          0.08,
          0.04,
          0.05333333333333334,
          0.04666666666666667,
          0.03333333333333333,
          0.06666666666666667,
          0.05333333333333334,
          0.03333333333333333,
          0.06,
          0.02666666666666667,
          0.07333333333333333,
          0.04666666666666667,
          0.03333333333333333,
          0.06,
          0.06,
          0.06666666666666667,
          0.04666666666666667,
          0.04666666666666667,
          0.02666666666666667,
          0.06,
          0.06666666666666667,
          0.06,
          0.03333333333333333,
          0.06,
          0.03333333333333333,
          0.07333333333333333,
          0.05333333333333334,
          0.06,
          0.04,
          0.07333333333333333,
          0.06666666666666667,
          0.03333333333333333,
          0.07333333333333333,
          0.04,
          0.04666666666666667,
          0.05333333333333334,
          0.06,
          0.05333333333333334,
          0.08666666666666667,
          0.03333333333333333,
          0.06,
          0.04666666666666667,
          0.06666666666666667,
          0.04,
          0.06666666666666667,
          0.03333333333333333,
          0.04666666666666667,
          0.02666666666666667,
          0.06,
          0.08,
          0.06666666666666667,
          0.03333333333333333,
          0.05333333333333334,
          0.1,
          0.06,
          0.06,
          0.06666666666666667,
          0.05333333333333334,
          0.06,
          0.04666666666666667,
          0.04,
          0.04666666666666667,
          0.06666666666666667,
          0.04,
          0.06,
          0.03333333333333333,
          0.05333333333333334,
          0.06,
          0.04,
          0.05333333333333334,
          0.06,
          0.04666666666666667,
          0.08666666666666667,
          0.03333333333333333,
          0.07333333333333333,
          0.04,
          0.06,
          0.05333333333333334,
          0.04666666666666667,
          0.04666666666666667,
          0.07333333333333333,
          0.06,
          0.07333333333333333,
          0.07333333333333333,
          0.04666666666666667,
          0.05333333333333334,
          0.06,
          0.07333333333333333,
          0.04,
          0.03333333333333333,
          0.04,
          0.05333333333333334,
          0.05333333333333334,
          0.04,
          0.06,
          0.06,
          0.02666666666666667,
          0.04,
          0.06666666666666667,
          0.04,
          0.05333333333333334,
          0.06,
          0.02,
          0.06,
          0.02666666666666667,
          0.05333333333333334,
          0.08666666666666667,
          0.08,
          0.05333333333333334,
          0.05333333333333334,
          0.03333333333333333,
          0.06,
          0.08,
          0.02666666666666667,
          0.04666666666666667,
          0.06,
          0.05333333333333334,
          0.07333333333333333,
          0.04666666666666667,
          0.03333333333333333,
          0.03333333333333333,
          0.06,
          0.09333333333333334,
          0.04,
          0.06666666666666667,
          0.06,
          0.07333333333333333,
          0.07333333333333333,
          0.07333333333333333,
          0.03333333333333333,
          0.05333333333333334,
          0.05333333333333334,
          0.07333333333333333,
          0.05333333333333334,
          0.03333333333333333,
          0.07333333333333333,
          0.04,
          0.04,
          0.07333333333333333,
          0.03333333333333333,
          0.06666666666666667,
          0.05333333333333334,
          0.06,
          0.07333333333333333,
          0.06,
          0.03333333333333333,
          0.07333333333333333,
          0.04666666666666667,
          0.06666666666666667,
          0.03333333333333333,
          0.04666666666666667,
          0.05333333333333334,
          0.06666666666666667,
          0.03333333333333333,
          0.05333333333333334,
          0.04,
          0.013333333333333334,
          0.05333333333333334,
          0.06666666666666667,
          0.04666666666666667,
          0.07333333333333333,
          0.06,
          0.05333333333333334,
          0.06,
          0.05333333333333334,
          0.04,
          0.02,
          0.04666666666666667,
          0.02666666666666667,
          0.05333333333333334,
          0.05333333333333334,
          0.03333333333333333,
          0.05333333333333334,
          0.08,
          0.03333333333333333,
          0.07333333333333333,
          0.06666666666666667,
          0.04666666666666667,
          0.05333333333333334,
          0.05333333333333334,
          0.06666666666666667,
          0.03333333333333333,
          0.08666666666666667,
          0.06666666666666667,
          0.05333333333333334,
          0.04666666666666667,
          0.04666666666666667,
          0.06,
          0.04666666666666667,
          0.06,
          0.04666666666666667,
          0.04,
          0.06,
          0.06,
          0.04666666666666667,
          0.06666666666666667,
          0.06,
          0.04666666666666667,
          0.04,
          0.05333333333333334,
          0.03333333333333333,
          0.04666666666666667,
          0.04666666666666667,
          0.06,
          0.06666666666666667,
          0.04666666666666667,
          0.03333333333333333,
          0.06666666666666667,
          0.03333333333333333,
          0.04,
          0.04666666666666667,
          0.05333333333333334,
          0.05333333333333334,
          0.04,
          0.03333333333333333,
          0.04,
          0.05333333333333334,
          0.02666666666666667,
          0.02,
          0.07333333333333333,
          0.05333333333333334,
          0.04666666666666667,
          0.06,
          0.04666666666666667,
          0.05333333333333334,
          0.05333333333333334
        ],
        [
          1.0,
          1.0,
          1.0,
          1.0,
          1.0,
          1.0,
          1.0,
          1.0,
          1.0,
          1.0,
          1.0,
          1.0,
          0.8,
          0.06,
          0.06666666666666667,
          0.08666666666666667,
          0.06666666666666667,
          0.05333333333333334,
          0.04,
          0.05333333333333334,
          0.07333333333333333,
          0.03333333333333333,
          0.05333333333333334,
          0.04666666666666667,
          0.04666666666666667,
          0.04666666666666667,
          0.06,
          0.04,
          0.05333333333333334,
          0.06,
          0.02666666666666667,
          0.06,
          0.04933333333333333,
          0.31333333333333335,
          0.308,
          0.30266666666666664,
          0.06666666666666667,
          0.04,
          0.04666666666666667,
          0.02666666666666667,
          0.05333333333333334,
          0.052,
          0.04,
          0.04,
          0.04,
          0.06,
          0.04666666666666667,
          0.03333333333333333,
          0.07333333333333333,
          0.05333333333333334,
          0.06,
          0.05333333333333334,
          0.05333333333333334,
          0.05333333333333334,
          0.04,
          0.04666666666666667,
          0.02666666666666667,
          0.02666666666666667,
          0.04,
          0.04666666666666667,
          0.04,
          0.03333333333333333,
          0.06,
          0.05333333333333334,
          0.04,
          0.06666666666666667,
          0.04666666666666667,
          0.04666666666666667,
          0.04,
          0.06,
          0.06666666666666667,
          0.04666666666666667,
          0.05333333333333334,
          0.04666666666666667,
          0.05333333333333334,
          0.06,
          0.04,
          0.06,
          0.03333333333333333,
          0.04,
          0.06,
          0.03333333333333333,
          0.03333333333333333,
          0.06,
          0.06,
          0.03333333333333333,
          0.05333333333333334,
          0.04666666666666667,
          0.03333333333333333,
          0.06666666666666667,
          0.04666666666666667,
          0.05333333333333334,
          0.04,
          0.04,
          0.04,
          0.05333333333333334,
          0.05333333333333334,
          0.06666666666666667,
          0.04666666666666667,
          0.06,
          0.06,
          0.03333333333333333,
          0.04,
          0.04666666666666667,
          0.04,
          0.04666666666666667,
          0.05333333333333334,
          0.06666666666666667,
          0.05333333333333334,
          0.07333333333333333,
          0.06,
          0.06,
          0.06,
          0.08,
          0.06666666666666667,
          0.06,
          0.04,
          0.05333333333333334,
          0.04666666666666667,
          0.06666666666666667,
          0.05333333333333334,
          0.05333333333333334,
          0.06,
          0.04,
          0.02666666666666667,
          0.07333333333333333,
          0.02666666666666667,
          0.05333333333333334,
          0.04,
          0.04666666666666667,
          0.05333333333333334,
          0.06,
          0.03333333333333333,
          0.06,
          0.03333333333333333,
          0.05333333333333334,
          0.04666666666666667,
          0.06,
          0.06666666666666667,
          0.06,
          0.04,
          0.04,
          0.03333333333333333,
          0.06,
          0.09333333333333334,
          0.06,
          0.05333333333333334,
          0.05333333333333334,
          0.08,
          0.06,
          0.06666666666666667,
          0.04666666666666667,
          0.06666666666666667,
          0.04,
          0.03333333333333333,
          0.05333333333333334,
          0.09333333333333334,
          0.04,
          0.06,
          0.07333333333333333,
          0.03333333333333333,
          0.06666666666666667,
          0.06666666666666667,
          0.06533333333333333,
          0.02666666666666667,
          0.05333333333333334,
          0.03333333333333333,
          0.06266666666666666,
          0.05333333333333334,
          0.04666666666666667,
          0.056,
          0.06666666666666667,
          0.05466666666666667,
          0.04,
          0.03333333333333333,
          0.06,
          0.02,
          0.05333333333333334,
          0.07333333333333333,
          0.07333333333333333,
          0.05333333333333334,
          0.06,
          0.044,
          0.08133333333333333,
          0.04,
          0.05333333333333334,
          0.07333333333333333,
          0.03333333333333333,
          0.03333333333333333,
          0.08666666666666667,
          0.06666666666666667,
          0.06,
          0.06,
          0.04666666666666667,
          0.05333333333333334,
          0.07333333333333333,
          0.04,
          0.05333333333333334,
          0.03333333333333333,
          0.06666666666666667,
          0.04,
          0.05333333333333334,
          0.04,
          0.03333333333333333,
          0.08,
          0.07333333333333333,
          0.07333333333333333,
          0.06666666666666667,
          0.05333333333333334,
          0.06666666666666667,
          0.02,
          0.04,
          0.05333333333333334,
          0.04666666666666667,
          0.04,
          0.06666666666666667,
          0.07333333333333333,
          0.05333333333333334,
          0.05333333333333334,
          0.03333333333333333,
          0.04666666666666667,
          0.07333333333333333,
          0.03333333333333333,
          0.04,
          0.05333333333333334,
          0.05333333333333334,
          0.07333333333333333,
          0.08,
          0.06666666666666667,
          0.05333333333333334,
          0.05333333333333334,
          0.06666666666666667,
          0.06666666666666667,
          0.08,
          0.06,
          0.04666666666666667,
          0.05333333333333334,
          0.05333333333333334,
          0.06666666666666667,
          0.04666666666666667,
          0.04666666666666667,
          0.02666666666666667,
          0.02,
          0.06,
          0.03333333333333333,
          0.05333333333333334,
          0.1,
          0.03333333333333333,
          0.06,
          0.03333333333333333,
          0.04666666666666667,
          0.04666666666666667,
          0.04666666666666667,
          0.05333333333333334,
          0.07333333333333333,
          0.05333333333333334,
          0.06666666666666667,
          0.06,
          0.06,
          0.04666666666666667,
          0.05333333333333334,
          0.08,
          0.05333333333333334,
          0.04666666666666667,
          0.04666666666666667,
          0.02666666666666667,
          0.06,
          0.05333333333333334,
          0.05333333333333334,
          0.07333333333333333,
          0.06,
          0.04666666666666667,
          0.04,
          0.04666666666666667,
          0.04666666666666667,
          0.05333333333333334,
          0.06,
          0.06,
          0.06,
          0.07333333333333333,
          0.07333333333333333,
          0.04666666666666667,
          0.04666666666666667,
          0.03333333333333333,
          0.04,
          0.08,
          0.06,
          0.04,
          0.06666666666666667,
          0.04666666666666667,
          0.03333333333333333,
          0.04666666666666667,
          0.06,
          0.03333333333333333,
          0.04666666666666667,
          0.04666666666666667,
          0.06666666666666667,
          0.05333333333333334,
          0.05333333333333334,
          0.06666666666666667
        ]
      ]
    },
    "MA-TD3": {
      "rewards": [
        [
          -553.0380094062149,
          -537.9162758199446,
          -639.2916803604483,
          -142.99667005450087,
          -465.802344406121,
          -466.9332946632412,
          -414.6994697851538,
          -420.9295647341349,
          -403.52907108593234,
          -462.2618429395564,
          -482.242315922436,
          -497.82723137447647,
          -423.12308887838714,
          -527.1776968932719,
          -795.7568600168051,
          -572.1520387189413,
          -683.0124337846806,
          -681.8988838525058,
          -654.1280462127223,
          -664.7294646174474,
          -637.8885134510174,
          -577.9699259016019,
          -604.8042706158567,
          -488.752827211363,
          184.91961520131716,
          -84.61548515610153,
          212.4784090033088,
          -116.1035218342196,
          -100.30584492450545,
          221.9845571714286,
          199.17193399748732,
          -436.68301537280087,
          213.2121514362284,
          205.11137894473532,
          -364.20733130511195,
          200.07583583066383,
          211.94026611466677,
          213.37607055411956,
          -424.2932507877208,
          -440.4199039219667,
          -115.10419982418804,
          196.00855265954405,
          205.79507454968467,
          -126.08422522818287,
          -648.1309588077548,
          -115.83419138206341,
          -104.53709005117466,
          -107.89719313660738,
          -108.26210720511794,
          213.51447350293566,
          -91.65926561845988,
          -105.23824678430533,
          -109.13033157565995,
          228.271733527905,
          204.2421249611004,
          -453.821123889979,
          -115.70258466453137,
          -128.18623839006386,
          204.61496351845977,
          -110.23994028186138,
          -100.88922317328756,
          -449.649396770766,
          198.66697270289936,
          -350.1909124869094,
          194.691635171383,
          -430.23109326225705,
          168.32893970812074,
          213.9153338286203,
          -108.82178991274056,
          -462.1912624101847,
          -113.91608215091541,
          -139.61270345760565,
          -119.27439795719901,
          197.90342039047763,
          -89.2367562438643,
          -143.88980641431823,
          -112.0029122523474,
          -101.9683667629954,
          -96.87773662635396,
          -125.88854523420295,
          -421.0148777182294,
          -429.58435261472044,
          -151.83098065703342,
          -108.7257716272063,
          -108.2694110751423,
          -126.68988989018784,
          -351.7193867308679,
          -110.41057217090521,
          -146.23633710484555,
          192.1873241360382,
          188.97084615906167,
          -351.61389519667114,
          -408.0380593564195,
          234.81663993091837,
          -345.9572184649964,
          -92.79007917161292,
          -137.634029918829,
          -426.2232908775164,
          -336.91706907412714,
          -97.02190957461363,
          -102.12362841874886,
          -125.4874221715701,
          -115.9366139530006,
          185.9345129713536,
          -138.23613962191902,
          -122.67561505952773,
          194.26445981060428,
          210.90886841507267,
          -105.67228714549157,
          -119.66473951129143,
          -107.49489181427283,
          202.610365472794,
          204.84597946146602,
          -127.49037784449882,
          211.46441154577133,
          197.32887925233385,
          195.49187739291656,
          -113.76643762010957,
          -339.93362284398495,
          169.684023330768,
          -116.83393701276952,
          -111.42028760450496,
          -120.72973207427547,
          -132.56766414636257,
          -103.64624908090143,
          209.9814924440679,
          -103.07106521102911,
          206.51889231996302,
          -84.81071007003415,
          -341.8977737783769,
          -116.9112944028399,
          -121.58665469670127,
          -143.074568187788,
          -136.71509565109392,
          -453.0358353086941,
          -104.77352668284512,
          -96.51679724155203,
          -125.79372825657634,
          -104.24825812807804,
          187.67270685811073,
          -125.16216407152469,
          214.13605541863186,
          -435.3665473221043,
          -407.44098220707525,
          197.8476846816416,
          -105.63517017157467,
          -84.40792283998555,
          -101.15096246865625,
          -105.82141321477036,
          -130.0125163370034,
          195.23046665762774,
          -117.47734626164228,
          -98.33457230952075,
          -89.87996982289106,
          -354.2937139296683,
          197.71597255633017,
          -98.03512074022667,
          193.69291664392117,
          -106.09302749633406,
          -118.63140687929723,
          -123.10950558235083,
          -131.10580791158202,
          -105.51426457080473,
          187.10781843802857,
          204.7300712047797,
          179.40002420320516,
          -107.24526976551456,
          -115.29260733175954,
          -121.00930365461647,
          -94.77966226087621,
          -423.5853295193111,
          206.3349382532632,
          -98.32255370395625,
          -129.65095533651368,
          -81.84426709913348,
          -106.44599481533277,
          -83.14328355406413,
          -119.52962458600241,
          156.00124991327516,
          -121.11907477775459,
          198.0917915844075,
          -325.1651000827146,
          197.51948512246645,
          190.51859237915266,
          -113.68936266263204,
          -105.4977269970299,
          -432.4442526713588,
          -133.9541067518896,
          -120.52546544432302,
          -107.13158107392286,
          222.3908027836149,
          216.63794860303432,
          197.0472418386849,
          -117.89495769012014,
          195.06774356413493,
          -99.32522217244114,
          -108.2041184397424,
          234.30440206128702,
          -103.17662505614682,
          -114.13248487232211,
          191.64953745047998,
          -108.09066124125448,
          -111.41044927303113,
          210.6477046392539,
          243.62945649770398,
          -104.57597247297515,
          -112.48737068059815,
          209.00411136186958,
          -118.61306732626117,
          181.90637087335344,
          -421.21745752667437,
          -110.55100078893167,
          217.73724253649934,
          -112.24444156020147,
          -354.69080501617196,
          181.44071794282726,
          198.78354935283642,
          -348.82086126750926,
          -71.12513864388471,
          -105.76157741862272,
          -126.69550245786876,
          233.01439998526976,
          185.00353727591286,
          232.57385659428124,
          -111.06067022672433,
          -358.9848082860641,
          -99.99565086303281,
          -425.0505140188966,
          175.00361876794508,
          210.91897311440033,
          -100.6679957689078,
          -116.01012122619014,
          -123.84152292608333,
          -123.90762630166184,
          -418.6930014413172,
          -106.815838005408,
          -116.33194198273435,
          -110.69626016819892,
          -103.58860815251502,
          203.28495422692203,
          -331.51125074661906,
          193.3111809697138,
          198.26505107300332,
          193.47845406248578,
          197.86104017754712,
          -97.9406134382558,
          -413.7770857195065,
          -432.3145620797427,
          -120.02197534228553,
          -120.50558342067019,
          212.57296340092358,
          -109.08175512286955,
          -114.59347554922635,
          -644.7119893095346,
          -112.75189154647467,
          -125.26220096830333,
          -90.98485078388083,
          -121.10591999350137,
          -360.2579986955712,
          -424.6962724324567,
          181.4521033348057,
          173.7321978826936,
          210.86600965217406,
          225.3211857680442,
          -133.8613375761419,
          -118.26518521642029,
          -445.05073446179586,
          -432.53705433041324,
          -536.9144094017174,
          -422.2991762473588,
          229.86243835761795,
          -95.26826662633745,
          234.58975038943868,
          -407.3823247706172,
          -109.00300050582327,
          -99.44897101064952,
          183.46277874295475,
          220.7528527057608,
          210.72775183274078,
          -106.7277786542907,
          -96.88188725505331,
          -341.8850645975613,
          -358.2885700275682,
          -422.5589485897406,
          -121.0153732603577,
          -340.25786497234134,
          -103.87410443297631,
          -100.33672685086671,
          -112.94131087278555,
          -339.5258321991284,
          -331.2626085439531,
          -103.57969016774223,
          -431.385129313905,
          210.69215740387085,
          197.24543542507288,
          214.5082979573457,
          215.38320752851183,
          -107.18021210473677,
          209.90760767481976,
          -109.31581731593306
        ],
        [
          -483.00446057717625,
          -464.08307035876885,
          -472.67278419334446,
          -688.5278778210977,
          -739.8494912164404,
          -528.8765893974238,
          -594.0427225581021,
          -502.0145801518791,
          -376.92875209970066,
          -409.84299169770514,
          -418.21305278187765,
          -408.1095076784155,
          -475.6077255616976,
          -401.4071927730073,
          -467.6056251737966,
          -402.50489983416776,
          -387.6044953971728,
          -436.20528314134236,
          -462.80465416092875,
          -381.80499893214073,
          -516.605827535611,
          -425.107048408447,
          -446.5093724712789,
          -510.0134577442418,
          -401.02563303904316,
          -430.0223101962039,
          -227.12662346758125,
          -117.87103140507199,
          -357.5720664989321,
          171.85271681497358,
          -173.38230726695986,
          -106.85653590679833,
          -54.86271233157337,
          -416.70117427655805,
          -732.8419440659068,
          -761.0432865261257,
          -435.78142970069797,
          -370.5662203987425,
          -419.8714839303797,
          -22.961098335264523,
          -373.38645944639757,
          -442.81944715050724,
          -363.9897299668772,
          -460.56673089431706,
          -585.6172132025002,
          -41.030555310294474,
          -57.255018119823134,
          -542.9122286009458,
          -414.28511585855347,
          -138.55955874673649,
          -196.2909589658435,
          -477.93016724764414,
          -386.52851649094924,
          -206.31967743319433,
          -676.8536421442607,
          -154.8848876777996,
          -583.542815004616,
          -370.96814761074694,
          -397.95018994991625,
          -350.48524677511847,
          -419.2221821264493,
          -384.5715760595776,
          -359.6059576293843,
          -488.8929948891576,
          -31.979685660408094,
          -162.24195267264312,
          -507.70650969532136,
          -95.93187287399107,
          -408.6644653934934,
          -77.44262322652486,
          -135.99137131602072,
          -402.31966178534464,
          -159.20326436753174,
          -24.64103565378289,
          -773.4910432400279,
          -641.2860423339756,
          -521.1652079344786,
          -919.9206625122017,
          -84.64800612568425,
          -322.13289096763276,
          -318.0303895153282,
          -464.2789187684059,
          -718.3168776520529,
          -576.7157141116438,
          -626.6180807784208,
          -519.6442827355525,
          -680.4085608992647,
          -561.1454081669093,
          199.03984880596929,
          -87.85663521812025,
          207.70975782248894,
          -160.25160078990706,
          -115.75413160462915,
          -117.50926582355122,
          -417.5158934604327,
          -91.08419754378144,
          -101.74853871296443,
          198.29648233588532,
          -116.02163233418365,
          -145.46633366430444,
          195.4147646966813,
          -412.6637765706991,
          -93.64741297750481,
          202.13661973756678,
          -116.12735041684718,
          -105.24408587281866,
          216.60963071457414,
          201.7151542677603,
          -116.27151549977904,
          -129.3501072529409,
          -456.1072408225094,
          225.45739230083564,
          209.331442510561,
          -135.9495165863669,
          213.46406241146505,
          -440.38062701803256,
          189.14689796585523,
          189.1809481224828,
          226.17734572847127,
          -356.2560224290475,
          210.0590655820201,
          -107.93086699090493,
          -120.90219115642792,
          -110.90295837438384,
          -337.49148310352143,
          193.98740857325515,
          -134.93312735939236,
          -101.41820470279261,
          202.12764108285086,
          -89.5540306626158,
          206.08472710653302,
          -434.05519616180334,
          -647.7288705337288,
          215.86215315636642,
          -123.12217034704494,
          -105.86063035887076,
          -98.45690498969272,
          222.58234300074741,
          197.40939227437823,
          -111.52313543606532,
          205.0848625325611,
          -101.61591673987597,
          -111.46867748597276,
          227.89861992400233,
          -421.74457718092987,
          -115.13973065531546,
          -114.87413147390613,
          -128.2792848700637,
          -327.4318340070982,
          -662.1902268647239,
          -115.27673534067412,
          -117.97243745073077,
          187.68015330681465,
          -120.18511592403628,
          -432.8438571972507,
          182.17762479341508,
          -95.09638631678577,
          -111.27671646153232,
          203.05997076447795,
          -337.32791603710496,
          205.75736527703677,
          -121.31804663866174,
          -438.1928531836196,
          -412.54841001835183,
          -418.4691097035197,
          -96.99141918382088,
          205.698651755993,
          -129.94739299257412,
          -95.67833300324777,
          -104.71433470390572,
          -99.79721482653804,
          216.94609953510655,
          190.28831149595058,
          -94.61632625332955,
          -117.46759888996982,
          -126.55699851390926,
          180.83180270735022,
          -102.37951213379016,
          -110.52512870961944,
          199.0419490300047,
          190.4079492480292,
          -418.9614156204863,
          -119.38287001833292,
          -438.26652587814385,
          174.0688048278281,
          -92.18649378735684,
          205.61210473172918,
          208.89695996416881,
          -103.4163028647282,
          -111.67382051735105,
          205.46762393575136,
          -125.19765114718264,
          176.96748834969523,
          -123.88379716327516,
          211.9984758930511,
          222.38502464081677,
          202.89778663455198,
          -142.2563119754129,
          -119.39996758514039,
          -418.441817422392,
          -450.1588801115169,
          200.03103740495845,
          -84.75227197194603,
          210.62944396100207,
          -343.4403413950742,
          206.38803518687462,
          -128.99332158444733,
          223.27479284139918,
          197.51319789603997,
          188.01475303196312,
          193.98650099547825,
          -402.38937108801605,
          210.13489985922325,
          234.3649714510174,
          -119.78669979546159,
          -101.1295367107978,
          -91.11393567536311,
          -124.41085957284794,
          -435.34980727418764,
          -115.17216300212239,
          -106.00468931261805,
          -116.20421344946767,
          -667.9102943903082,
          -89.89690558041055,
          -108.49182926058869,
          -105.02261744281282,
          -108.4145939366606,
          -111.35825478059412,
          197.93671455063722,
          -123.34447082849076,
          -121.36179203585054,
          211.68459491407657,
          -120.42831505467471,
          -134.55342647135788,
          -71.95105146663336,
          -134.85666851930736,
          -147.65342018177384,
          -339.7822757317435,
          212.9863010742473,
          -104.7797947829319,
          -111.42537468864889,
          -103.55129625752764,
          -416.59160009344754,
          209.29090838480835,
          -109.69908393807025,
          -95.45184092673027,
          222.27331500177755,
          -448.07975515145944,
          -646.780998373814,
          -144.7342033350459,
          -105.29998517629355,
          -463.43790093420955,
          205.69458112888748,
          199.8560990147836,
          -103.39123671908881,
          185.75604715793133,
          -102.13393584610087,
          215.62403614991788,
          -417.81673888731075,
          -97.12114348936706,
          -128.2892455793781,
          -104.39018542804718,
          -110.95378063416659,
          199.70521100640465,
          -425.61505995025044,
          198.5311431114337,
          204.79199325478726,
          -128.5744874379935,
          213.43203518013402,
          -118.94001816559424,
          211.21201955095137,
          -119.42439722971704,
          -430.47394522039696,
          201.14770468798108,
          -107.53817387458754,
          -112.35506409842947,
          220.9166264483994,
          204.1783651850017,
          -122.0413467277207,
          -115.86676803250913,
          -128.33576528613514,
          -132.62644804750187,
          -95.6373514415292,
          -107.21696263436363,
          -418.5732604830715,
          217.38460118911146,
          197.70583166825006,
          -125.89007479715048,
          202.91715403164974,
          -93.8866116365689,
          180.97316788613963,
          -102.3261817681347,
          180.53595027807143,
          -138.22455658312077,
          200.59005959904763,
          214.28884682594622,
          -99.12933146792204,
          -97.31482874924204,
          -91.40289102440029,
          -104.30552914000707
        ],
        [
          -265.92984598907174,
          -128.81535827023998,
          -353.95413283137543,
          -439.79695847129204,
          -417.7354515083832,
          -416.38509835125524,
          -454.81290923641825,
          -447.0332797115671,
          -457.3365988571837,
          -408.81909795405375,
          -462.0150643710355,
          -433.81164135387604,
          -407.99516413175087,
          -405.81822166358756,
          -437.02614429145126,
          -486.19715468588373,
          -485.39501294574205,
          -416.6095701737615,
          -452.77191953916486,
          -467.06566308317207,
          -471.2319836783961,
          -483.9607635081553,
          -456.9680663955767,
          -398.22365380814676,
          -237.6284319528931,
          -210.64345381890436,
          -460.021613965082,
          -454.47986946960623,
          -112.10187493638905,
          -115.6936102517014,
          -629.8064905759711,
          -6.502673454849747,
          -757.1295273800055,
          -28.863075946421354,
          -623.7455846803283,
          -335.5867760324435,
          -870.7589965773205,
          -636.0203162905267,
          27.32991074677806,
          -240.0523358403179,
          -673.5274811978996,
          -300.52256818987354,
          80.70622664432669,
          -14.521953180372362,
          -349.4506727226317,
          -382.2962215973185,
          -282.5620595558907,
          -596.399734440217,
          -323.09088125973614,
          -232.32476397925117,
          -344.155812573208,
          17.948954651612905,
          -436.6970265008804,
          -358.76227560528673,
          -612.3665690085091,
          -399.44404425974164,
          -263.73506531325273,
          -206.81092717885087,
          -356.0718226304825,
          -616.5861658704669,
          -253.63613064370924,
          82.10803135379064,
          -233.11783110046633,
          -487.21078255319105,
          50.9363188790889,
          6.1245285878603255,
          -261.56428509794375,
          -300.2048803353461,
          51.9034300919909,
          99.82966210661444,
          -565.963698141655,
          -419.22263765109454,
          -639.4480341037067,
          -304.1506014627871,
          -236.37503471726905,
          -22.371273550073013,
          -84.10727815445395,
          -4.165505191977336,
          -590.0403269565478,
          -612.1046923935027,
          -531.4046662060273,
          -643.6040816588545,
          -571.8159227653107,
          -634.8070681984547,
          -696.303392176368,
          -531.0037607029283,
          -651.2044016022569,
          -559.0098255749928,
          -686.8883813956087,
          -658.817409747878,
          -747.9943446367046,
          -529.0918691068391,
          -388.9473596345981,
          -249.4140838744174,
          -694.1998763918842,
          -95.60223481967353,
          -107.43200939723958,
          -103.34597231478647,
          201.8176889664982,
          -449.7433387807129,
          231.51120032733303,
          -98.90816247659264,
          -430.6408989603768,
          -106.45320415725348,
          192.19419283488807,
          -87.02338917942062,
          188.1225519809841,
          -323.97507167400187,
