{
  "config": {
    "altitude_km": 550.0,
    "n_satellites_visible": 10,
    "min_elevation_deg": 25.0,
    "carrier_freq_ghz": 1.67,
    "p_max_dbm": 40.0,
    "n_platoons": 5,
    "n_priorities": 3,
    "priority_weights": [
      4.5,
      2.5,
      0.5
    ],
    "tau_s": 1.0,
    "tau_ac": 0.02,
    "n_ac": 50,
    "n_safe": [
      5,
      10,
      50
    ],
    "epsilon": [
      0.01,
      0.05,
      0.2
    ],
    "p_bg": 0.42,
    "ho_delay_mean_ms": 225.0,
    "ho_delay_std_ms": 25.0,
    "ho_period_s": 15.0,
    "n_episodes": 300,
    "episode_slots": 60,
    "eval_episodes": 50,
    "n_seeds": 3,
    "update_interval": 4,
    "nn_safety_coeff": 0.35,
    "nn_safety_warmup_env_steps": 12000,
    "nn_safety_shield_urgency": 1.35,
    "nn_safety_shield_power_floor": 0.5,
    "w_power": 0.02,
    "w_handover": 0.3,
    "kappa1": 1.0,
    "kappa2": 0.5,
    "kappa3_m1": 2.0,
    "kappa3_m2": 1.0,
    "kappa1_m3": 0.5,
    "kappa4": 0.1,
    "kappa5": 0.3,
    "rmin_m1": 0.8,
    "rmin_m2": 0.5,
    "sinr_noise_floor": 0.05,
    "interference_coupling": 0.6,
    "t_pre_s": 3.0,
    "output_dir": "outputs",
    "output_run_id": "run_20260417_130218_episode_slots_60"
  },
  "convergence": {
    "SafeScale-MATD3": {
      "rewards": [
        [
          -107.4369744384208,
          -253.45723872422505,
          -38.89264002851471,
          -276.564454893531,
          -319.211558125795,
          -36.826626315678396,
          -202.37669869823014,
          -112.42849923080416,
          -336.2079221859446,
          -286.9898884836566,
          -201.08743987263236,
          -200.81918406193788,
          -205.28905107981168,
          -260.1202415570201,
          -271.6131325361727,
          -221.44360044533713,
          -249.11431905218632,
          -237.21415060076401,
          -300.8247313786754,
          -312.821312048618,
          -318.2249628516991,
          -262.75520282787,
          -235.67922353210855,
          -231.95973274925313,
          -286.61153812344713,
          -225.10961676522567,
          -201.70856845711683,
          -280.80702659792587,
          -290.7066971260297,
          -311.2061068975353,
          -324.70560142699685,
          -203.40508540801892,
          -259.00489843971957,
          -183.1064283401559,
          -181.91069501384192,
          -175.31432965366116,
          -192.91384377256912,
          -150.91179118271106,
          -151.10949674208237,
          -164.8086493363036,
          -189.80899076625062,
          -207.00929767652127,
          -192.51072400504205,
          -187.8137223653699,
          -148.61790452496203,
          -158.70932313370642,
          -167.67889607119892,
          -223.58562233568355,
          -173.87837425524532,
          -138.71353698191948,
          -94.05445228879827,
          81.1892843889208,
          69.56952766655454,
          -184.61853251034344,
          -163.45240065692832,
          86.84628145429707,
          81.76140443905163,
          -47.50233357644457,
          -173.9300391929074,
          65.26710768073191,
          -45.46448868259425,
          72.38064790241582,
          -48.85951770829964,
          70.73034112559705,
          -49.566456518783966,
          -43.24846902365996,
          87.18633181451713,
          70.12289619650927,
          92.63720140811162,
          -55.80000596970549,
          -40.63860957930241,
          55.745906252769835,
          -47.44280902735845,
          81.166228475895,
          -43.11732650519087,
          85.77193999164466,
          78.07546636298652,
          83.9665363218496,
          85.2639618516773,
          -29.483925501942757,
          -47.40953707988323,
          -164.26661109266732,
          77.59731648127585,
          -35.499482695222284,
          -44.87294296877997,
          -40.15186037529468,
          85.92511729941668,
          -60.01854257455382,
          -56.280245762095575,
          -48.34774883941242,
          82.89239176547589,
          -161.8066447419968,
          -132.40698339070022,
          -160.2954582832397,
          72.7684630046927,
          81.08991734636304,
          -71.03988087367536,
          -48.07630417906868,
          -41.43781596178339,
          -60.45727793578604,
          88.40878440176651,
          -48.33594679318569,
          -47.37567253473226,
          78.76945022046881,
          -36.22549222097541,
          -141.25236773866513,
          -40.19283425945139,
          -39.02686657608618,
          -37.68342058552997,
          80.61332218621331,
          -139.11719936643888,
          -46.56079327632495,
          -44.145939152446324,
          78.49791796380005,
          -45.87715807963648,
          -171.57793769697443,
          90.77021614618502,
          -34.80277781717464,
          94.03796795498094,
          -52.3694885555996,
          -39.69760405528595,
          -36.69850488340004,
          -41.5978976349611,
          -53.71439890745214,
          -43.05553658728891,
          -48.892797019168,
          67.0663291317417,
          72.55242583206156,
          80.7815559784055,
          -46.33265124505297,
          93.29417804954994,
          79.8078076169059,
          80.40526560113481,
          -162.5883381486774,
          -48.22557250513369,
          -47.26416053490072,
          -53.459686470727696,
          -46.068116494739535,
          -37.781004440240295,
          -40.80513758107248,
          -36.35590528669566,
          -37.39273859305813,
          -45.02002071578354,
          85.09572946996789,
          98.14633291732389,
          -44.73495565876723,
          -130.8365521394199,
          -53.92788303847176,
          73.40725353574754,
          -284.50937328494945,
          79.7311892276987,
          -164.33871076453573,
          -45.50857889477057,
          -128.17785533835016,
          -141.8976249147806,
          76.07772317718278,
          -41.33811717619628,
          -64.01410691340304,
          -42.925588773166325,
          74.94867919639681,
          -137.5917052103142,
          82.26780676259308,
          -37.76477242598227,
          -39.30871125670293,
          67.51912601300818,
          86.75201406757903,
          86.36834096217824,
          54.156186156628955,
          -135.79573758733372,
          99.14854997008007,
          -51.082434703423544,
          -132.48286355409968,
          -67.25154638474132,
          -50.27308186925575,
          82.18192724009869,
          89.46581610673665,
          -49.39380615970629,
          -52.14764594401821,
          -154.13887950926986,
          -224.2529708361214,
          -41.753712534638275,
          -36.22275871644131,
          -37.504335438876446,
          -177.0296800688822,
          77.02505055011471,
          -30.310054129810336,
          -177.4649627018064,
          -52.9267500035042,
          -42.58172166940785,
          75.798787709238,
          -40.58210183473997,
          -42.98102998296052,
          -126.33210233482782,
          -170.78946012118084,
          -39.42470642992398,
          86.11992134065541,
          -46.40714264856707,
          -48.3795383875917,
          75.00147797824668,
          74.88191037983496,
          95.79409286051424,
          -57.466302303525985,
          60.812469320065,
          -58.17400734584642,
          -46.927009994225436,
          -135.46408751054415,
          82.79416702105799,
          79.34606562476588,
          -128.0836606464765,
          -256.3671534698008,
          74.14364624331364,
          -31.636000977833874,
          79.63405734947177,
          -172.70242484499605,
          -43.8930744520741,
          -142.57098197112438,
          -48.91267463691094,
          -63.62227444226278,
          -53.24345037675599,
          -40.38308359053953,
          -51.83985916004884,
          80.3582515331149,
          86.8096168830729,
          -34.902545089921205,
          74.92348351352024,
          85.45875839157246,
          -48.57363500803562,
          -35.40347913357206,
          -30.784436294036148,
          -34.48293035748159,
          -23.167887644159073,
          -41.84899460750101,
          -54.45119445981378,
          84.31801405997237,
          -54.211463310560006,
          -264.37557572642027,
          -138.74698882180618,
          -38.32939329882575,
          -44.00755570271888,
          83.49524938268598,
          -176.6670641086896,
          -29.072911591024518,
          46.451682533960486,
          -27.017454446554087,
          85.79740904437733,
          81.37388603182104,
          -47.537580635749165,
          -54.11608395953822,
          80.48465577021786,
          -40.374950982269645,
          -147.61385493514157,
          -163.06639024018634,
          98.11192197805707,
          74.70646535776658,
          -67.57303137059854,
          -38.29838995635507,
          -50.444293702245666,
          -182.91988509545098,
          75.94929384031745,
          -149.26195905717967,
          -129.96142867662562,
          -56.78825285180775,
          -47.41381325091757,
          -41.80384675295029,
          86.57117933055638,
          75.48099080851867,
          -39.279538496727426,
          -44.98055424976403,
          -139.90113913660153,
          -155.7459381401443,
          -55.00502440637354,
          -50.05785478921678,
          -36.886877901913195,
          -39.34909356373428,
          -50.321742076513814,
          72.30945507612208,
          83.5639550210466,
          -44.30994049106423,
          -35.2301267988624,
          -39.322811268248095,
          88.99898905032398,
          -50.50878073395276,
          -51.52820856144127,
          86.62254819195816,
          -42.20844570467935,
          -130.35101032353862,
          -46.51643144898764,
          -154.43061821843907,
          -37.96637780584733,
          60.7948926409351,
          -45.35465274957404,
          -45.99998972785657,
          80.76041106850988,
          89.54368638769196,
          75.36330753505183,
          -30.2016611619667,
          68.0342399461853,
          -46.47113604232265,
          99.5774390390269,
          -57.76253683452492
        ],
        [
          -170.5738818199561,
          -219.0089538172384,
          -143.46541845957293,
          -232.81852913326958,
          -177.90285743984234,
          -61.215163672984666,
          -89.34591750996967,
          -153.3215207971224,
          -267.6180621514446,
          -335.939651261162,
          -214.16118555361905,
          -198.1513011712986,
          -197.93847619348247,
          -186.61018758177482,
          -60.89437373272025,
          -78.67446819816035,
          -182.53770657141848,
          -56.607639331485586,
          92.79101552921387,
          53.166808319656134,
          -52.128645792861356,
          -133.7267951666915,
          -26.24600152553297,
          11.8324207739943,
          69.65531392981964,
          -25.772143259406185,
          -56.76930056722324,
          -17.9964386931231,
          -43.20961004770668,
          -52.00304437083774,
          -49.828333951919326,
          -113.55929011825066,
          -42.73064520520635,
          -59.281269021306095,
          77.35900411570043,
          -37.7432249413732,
          73.70525607534007,
          -48.84012738210017,
          -36.876066345358865,
          -245.64532219489425,
          -54.04377880160068,
          -49.98492106861911,
          -62.29407231819592,
          -132.37421293117737,
          -38.92072464829463,
          57.36908054772368,
          -54.56591181505361,
          7.192970472544411,
          -19.468396508072214,
          56.069766160621796,
          -53.62140595743912,
          -118.5570656714949,
          -152.6700047820532,
          -44.13676125199056,
          -114.00117140607567,
          -50.77846737936634,
          -49.19642893723595,
          83.29896419645858,
          -57.04657523746391,
          -40.25063764931897,
          80.0822152926605,
          -168.1307802241506,
          -54.36874021848013,
          -107.52317049368254,
          -44.911960347289344,
          60.296040868773886,
          -42.32364701906054,
          86.81395474288695,
          -262.79781120739966,
          -133.1031442333042,
          82.89573233956854,
          76.05356672613665,
          -76.8163332835087,
          -177.13470199020074,
          75.94337541947905,
          -49.465449167524355,
          -162.53837196526342,
          70.10608534689445,
          74.27048475087872,
          -36.97850744695721,
          85.92292574688086,
          -36.40148666091505,
          85.83759585863014,
          -55.359725682004864,
          84.50140932612926,
          -44.01459972900259,
          -73.84071155993281,
          -59.86751738846359,
          -59.66316014794264,
          -151.9162640323711,
          -164.63667347323494,
          99.0787245619761,
          88.55585059335388,
          77.490663850359,
          -64.82891135426672,
          80.69120617048158,
          -44.83826400852843,
          -43.79225953012697,
          -45.293099396071284,
          -36.54914812933981,
          -38.498236667022454,
          -48.317407873402445,
          73.06154519697856,
          -54.07391106886738,
          -39.00797965324318,
          -35.26061075714446,
          -53.048353639397945,
          -163.3255848618697,
          -131.05201082715104,
          -139.28083899793407,
          -46.96882791557797,
          79.09420072804093,
          -139.57272889835713,
          -66.85767965653496,
          -31.077480753250374,
          -39.39495146320796,
          -45.17371047437009,
          -40.61702888462077,
          80.61104982342556,
          -41.55701551957395,
          87.16975656122858,
          -169.7895526201641,
          -175.20796097870914,
          -50.20520053693317,
          -49.89263859147897,
          -158.6284514621513,
          92.86775468721868,
          -35.464711533718436,
          -54.33247566025198,
          -47.420202272633176,
          -49.21369979072038,
          73.04129033508117,
          82.63078120919332,
          -47.92166841063556,
          71.67208068137502,
          63.18359046196279,
          -182.99142932965597,
          -32.5111458118796,
          -42.7782107851145,
          -56.7569648500829,
          -39.63479101292791,
          -42.20699241126757,
          68.99510308407567,
          -171.30129401353847,
          -59.592997088251046,
          72.22870152559145,
          -44.170527153438876,
          -30.121441133005867,
          -63.20433394045304,
          86.79933576104557,
          -166.68981869092448,
          78.52547833951151,
          68.846190496698,
          -46.33120751239197,
          -142.49120006487254,
          -175.6415387768871,
          -165.30833338331868,
          -43.7727701188339,
          -48.49528401344945,
          -113.63504076832547,
          80.81435248864689,
          92.96227534644258,
          -42.29878802270878,
          -47.52340768751154,
          84.97696314609472,
          89.70003353330532,
          -39.41987300399545,
          -168.3564474232461,
          67.03512656056525,
          85.27041652400393,
          72.01305581914077,
          -45.491762079810904,
          -51.886113987097644,
          -92.29101367803307,
          -45.32541583398415,
          -46.77122778284849,
          -153.12864201679866,
          -167.42643645937935,
          72.9485665838672,
          -159.60964487649363,
          -39.273120616707715,
          -46.19182379714765,
          -137.9167354171342,
          83.60515738080863,
          -38.68790678122788,
          -42.5202665241148,
          -54.46695928836275,
          -45.55945523057579,
          76.75701291067698,
          64.83004968769251,
          68.03649251425689,
          99.69388580655932,
          -36.56568357082438,
          -39.71450514489466,
          -61.46708544514183,
          -58.92914163783713,
          -50.30191974430499,
          -32.701723908679284,
          -168.33324200946333,
          -47.5578732369509,
          -43.34414591748591,
          -54.58176895500833,
          -40.89878568942568,
          -123.93887049944341,
          -180.28691368057545,
          -44.09949211961595,
          -40.44255174839997,
          -224.4732135934686,
          -61.5418258879817,
          92.48077367634228,
          -45.50580610346428,
          -173.89741904310716,
          -52.313349260884166,
          70.9106400334305,
          67.62014297435327,
          82.76459236604359,
          96.75992979963425,
          -51.571002858505594,
          -52.384806982596416,
          -49.504631935543784,
          -30.02891728366782,
          98.67248658140527,
          -35.31160540435198,
          79.00515544977034,
          -30.854741670564636,
          -41.475074648168025,
          -43.48901982517768,
          -38.17287989508217,
          77.29349123270724,
          -267.5715581688266,
          -44.67461567737872,
          -46.420433527552966,
          -43.67780341761909,
          80.64189316312535,
          -42.696503387296545,
          -177.3618527040818,
          -38.27872967747711,
          -144.08217182067,
          -51.152598750046984,
          86.61063195230892,
          81.0933216033062,
          -157.41762669462753,
          -49.11266404111384,
          93.61484054206267,
          -48.485090905064055,
          -56.417818066735684,
          -42.817894609269445,
          -52.456939032241024,
          -42.0894770539061,
          77.07809385260107,
          77.37773924937288,
          89.92417059312858,
          90.77218683820541,
          93.35659070384578,
          64.92108852380271,
          84.80629787018125,
          -35.565826683294794,
          -48.587391782714455,
          -44.5112797650361,
          -35.31170158370185,
          75.83976815716086,
          -44.38992970086435,
          -30.741807736897435,
          -36.11043937508383,
          -35.68873093850409,
          82.68574663486271,
          -44.36389498755698,
          86.79926362477853,
          85.8315330927323,
          -166.1673277308491,
          -43.238853348933105,
          -143.41765360168287,
          92.69054140424275,
          82.43328370392356,
          -56.33580453922097,
          86.49185693767404,
          -44.3006432530687,
          -61.38304555155794,
          -58.94433695813763,
          84.5784065701999,
          45.22274197134545,
          -55.287703687024646,
          -71.53208646328383,
          71.86497667790886,
          -63.41982511999818,
          60.20207668083488,
          59.813040820410286,
          -166.0142727136669,
          -57.615002164247734,
          50.995815868802126,
          -133.90889308300098,
          -52.918179054380836,
          -53.19289674626666,
          -47.349437742858974,
          74.74083412111258,
          -37.79574636919264,
          -53.789021328149886,
          -35.038703513440794,
          71.67701823504734,
          79.04722358446693
        ],
        [
          -300.0899309692286,
          -179.50006892032937,
          -106.3737140503252,
          -188.56625408297037,
          -246.62355228281038,
          -170.16815055483926,
          -218.5435294786565,
          -241.4882598462229,
          -257.2884284493832,
          -217.6325645767386,
          -206.88509247980275,
          -244.11441707510087,
          -305.51328553471694,
          -345.8100594722688,
          -178.6062686428733,
          -197.7043863278064,
          -245.20465438665778,
          -218.00431229999162,
          -222.34329327376668,
          -254.50847714529522,
          -262.10411560216306,
          -233.20524973919603,
          -301.1035815047638,
          -231.30420215017512,
          -216.00577129300294,
          -258.00397958486576,
          -214.60480980053765,
          -245.82687612685842,
          -260.4321660926564,
          -246.04622543179065,
          -191.4449806654836,
          -258.7611899047102,
          -173.74616226853863,
          -90.85264968071449,
          -148.10990816227044,
          -158.4291680332262,
          -143.32133823794055,
          -141.44386469445757,
          -52.30527313016147,
          66.47049233218141,
          19.924215287331045,
          -128.47039260367296,
          -72.26703973944947,
          -56.91912501142051,
          44.30311620676066,
          -36.427942746809926,
          -42.178092756354424,
          -97.80649854403133,
          -94.3498245021323,
          -122.19216560353593,
          -212.59460651855827,
          66.42130413385722,
          44.993746970911985,
          49.793000329815456,
          -5.6084151097755885,
          7.6217021555381255,
          74.59922452809292,
          -135.18298654992236,
          86.11571433084073,
          -31.04102833898811,
          74.64848993272923,
          -49.540819802576955,
          -54.29864643756437,
          60.212446531534844,
          80.27705192852412,
          -42.31853465011787,
          77.54686144602785,
          -138.36039088715313,
          -46.094687133169224,
          102.32490997726548,
          58.68224214383004,
          -131.80119700725407,
          73.8892384082322,
          -183.92531647244672,
          -41.88584511076373,
          81.85007845102555,
          -51.78573783944276,
          -47.37551404647523,
          85.63699404367185,
          -29.319314512590154,
          -45.949993913635375,
          71.19157853756249,
          -47.96196842105282,
          95.55328662636273,
          -55.33494297616877,
          75.44179201897074,
          -51.95907746680948,
          90.5842240034997,
          -44.820745623386415,
          71.33310627446721,
          -146.22605095172733,
          74.65440932673144,
          -161.90310236879233,
          -43.51758441853781,
          89.97350884205852,
          -38.04311586275779,
          -41.515273564175736,
          -46.0952831201259,
          88.2911641275645,
          -45.82141738276926,
          -41.929680320336516,
          84.91007799202322,
          -45.74794679831642,
          -41.32273815660817,
          -40.52540758260652,
          -44.32561090975568,
          -65.28264392440975,
          -33.20120533215187,
          -35.88289925794575,
          78.08863471279798,
          58.64909608627072,
          -166.93685258539261,
          73.18814978607591,
          -136.90801493596436,
          -36.368292760449584,
          81.95154337647551,
          90.54196945786373,
          -54.286751649392805,
          -45.24565562989718,
          -32.16496456014928,
          87.45396639930243,
          -130.5402441162216,
          84.32927331296963,
          -153.11037927220409,
          -168.2828133423761,
          85.99520407581477,
          74.27081106849023,
          -145.68222003976462,
          -135.88941948799166,
          89.88978673181367,
          93.04224858656934,
          77.51755289552648,
          83.1957121766814,
          -43.76556163507914,
          -178.23286904586956,
          76.62743361865503,
          80.31292841171742,
          66.92856019893799,
          -50.97845838214092,
          79.54041822348894,
          -36.563745371320344,
          -25.40359624189886,
          -52.31389872281132,
          87.41275643624505,
          87.59016516689407,
          87.14666490041604,
          60.89883979344931,
          75.83435743350347,
          -48.78615777880815,
          -51.32197969325205,
          47.31991866010238,
          75.77509924793891,
          -163.56066138712956,
          67.57577183446867,
          -50.59655668825367,
          -30.896627996776775,
          -34.82537662348876,
          -47.31929917943898,
          -38.99521375406677,
          -50.99995739585885,
          88.19819690841197,
          79.14709378759794,
          -42.46535101471183,
          80.51644963956392,
          -49.63855703920139,
          -47.39868288603769,
          89.63071468877901,
          -191.12554801816864,
          -39.65542025014661,
          82.00273797002957,
          -53.60432175421228,
          -50.83805026906107,
          92.41399531650012,
          -38.122833095889774,
          -42.90978180561319,
          90.99843414392086,
          -47.83500029298958,
          -47.77672166458599,
          86.30624887282026,
          -172.95290402351282,
          -51.77971951612859,
          -40.64746662302868,
          -41.932531592075875,
          -43.476148384467756,
          -61.25175138402386,
          -38.78160688582268,
          96.45144241606701,
          79.63787633498964,
          76.5326530574357,
          -59.36955173364855,
          -45.896761780892696,
          79.1614841614509,
          79.47052143963268,
          -179.95625011824197,
          -42.82778363357284,
          -184.68661411047816,
          -71.46323296349553,
          -169.71457451618107,
          -64.21896896203303,
          -173.2852831336737,
          82.66274428723854,
          -45.504094518981915,
          86.08507212548353,
          -157.3230694110221,
          -80.03988261044913,
          -42.40583575628922,
          57.89898391728706,
          80.28443863683847,
          -40.73772872802144,
          -50.54655552762484,
          72.48819785910501,
          -45.000631435324,
          -152.3765778659381,
          -36.343358087712325,
          81.88364573385671,
          -40.812400569841365,
          73.7675137980138,
          -44.038557680008914,
          -147.01537889611947,
          -45.77299186002911,
          80.71119907767745,
          90.84192426880485,
          66.33239604406201,
          80.7143022177421,
          -51.92580551764461,
          -185.59604364775743,
          100.20496966766488,
          76.66009416289548,
          72.66538973713384,
          -36.72904949503273,
          84.68790479222997,
          -46.43400114491969,
          -168.74229161620715,
          -48.20612422477243,
          -56.64043252392123,
          92.0825291636459,
          -161.96164971183512,
          -36.84082327061375,
          72.55923339108283,
          -185.60317583950857,
          -59.26428488973187,
          -45.6622160038869,
          79.5771739626214,
          79.58801608481002,
          -45.74470473344752,
          81.63077162177615,
          97.21730687379011,
          -48.80682843468667,
          85.78336223178414,
          -182.56801409177308,
          -46.79350428674466,
          -54.498576503262996,
          -260.4603999698076,
          86.4809027279457,
          -50.979533011707304,
          -171.43541131206052,
          51.56287843290447,
          96.95641982968696,
          -47.562097749408245,
          -47.049493069407184,
          -276.742068366479,
          -49.01717000491005,
          -45.83290978221414,
          -38.086696321962684,
          -33.168185409232656,
          -130.29816743967012,
          -53.75151747121596,
          -56.97116320896236,
          -38.20222393494659,
          -46.377347717717235,
          -45.04382962225686,
          -42.317680505473476,
          96.97019617194795,
          83.60744642408449,
          -40.99791802868735,
          -130.97708714750715,
          -44.13305074014136,
          57.174284285955046,
          76.68715085285992,
          -27.250236757455287,
          -142.3633755562993,
          -46.023515729200405,
          -139.57404064330402,
          -34.891587386126645,
          -31.959903700685995,
          -31.990047778038438,
          -37.70230545871155,
          -46.509508644270284,
          -47.39728484677305,
          79.20955243869753,
          -49.16319454360275,
          -48.16192475339457,
          77.94024802802784,
          -49.49181019758519,
          89.5690644588847,
          -184.9022648601251,
          -51.70098782646895,
          -48.760352759022545,
          82.6953310487375,
          86.94837130293318
        ]
      ],
      "aoi": [
        [
          2.1088888888888886,
          2.0822222222222218,
          2.074444444444444,
          2.05,
          2.1133333333333333,
          2.086666666666667,
          2.1022222222222218,
          2.168888888888888,
          2.3,
          2.416666666666666,
          2.243333333333333,
          2.258888888888889,
          2.2944444444444447,
          2.3066666666666666,
          2.1899999999999995,
          2.3955555555555565,
          2.3955555555555557,
          2.2722222222222217,
          2.331111111111112,
          2.341111111111112,
          2.484444444444444,
          2.476666666666667,
          2.3155555555555556,
          2.446666666666666,
          2.3911111111111105,
          2.2822222222222215,
          2.3822222222222225,
          2.420000000000001,
          2.444444444444444,
          2.4211111111111117,
          2.4522222222222223,
          2.355555555555555,
          2.467777777777777,
          2.2544444444444447,
          2.1977777777777776,
          2.264444444444444,
          2.282222222222222,
          2.2000000000000006,
          2.225555555555556,
          2.197777777777778,
          2.3755555555555565,
          2.3899999999999997,
          2.3444444444444454,
          2.3688888888888884,
          2.1999999999999997,
          2.178888888888889,
          2.2833333333333337,
          2.267777777777778,
          2.292222222222222,
          2.226666666666667,
          2.0744444444444445,
          1.957777777777778,
          2.054444444444445,
          1.9944444444444447,
          1.9455555555555561,
          1.9833333333333338,
          1.9888888888888887,
          1.9899999999999995,
          2.0200000000000005,
          2.076666666666666,
          1.9988888888888887,
          2.0711111111111107,
          2.046666666666667,
          2.0711111111111102,
          2.0222222222222226,
          1.9788888888888896,
          1.9344444444444446,
          2.023333333333334,
          1.9377777777777774,
          2.048888888888889,
          1.9455555555555548,
          2.0766666666666667,
          2.0111111111111106,
          2.0055555555555546,
          1.9377777777777778,
          1.95,
          2.068888888888888,
          1.9811111111111106,
          1.9766666666666666,
          1.8722222222222222,
          1.9900000000000004,
          1.9355555555555557,
          2.004444444444444,
          1.9222222222222218,
          2.013333333333333,
          1.993333333333333,
          1.976666666666667,
          2.0411111111111113,
          1.995555555555555,
          2.0033333333333334,
          1.9722222222222219,
          1.8888888888888882,
          1.9688888888888891,
          1.9400000000000002,
          2.063333333333333,
          1.994444444444445,
          2.0911111111111116,
          1.9811111111111117,
          1.9455555555555553,
          2.0711111111111107,
          1.9588888888888891,
          1.9977777777777777,
          2.036666666666667,
          2.0244444444444443,
          1.9466666666666663,
          1.9988888888888883,
          1.9855555555555555,
          1.9477777777777776,
          1.948888888888889,
          1.9999999999999993,
          2.0822222222222218,
          1.9877777777777779,
          1.981111111111111,
          1.978888888888889,
          1.965555555555556,
          1.9444444444444442,
          1.9533333333333334,
          1.9244444444444437,
          1.9133333333333329,
          2.0255555555555556,
          1.9522222222222216,
          1.917777777777778,
          1.977777777777778,
          1.9499999999999995,
          1.9733333333333325,
          2.0177777777777774,
          2.0477777777777777,
          2.036666666666667,
          2.023333333333333,
          1.9866666666666657,
          1.9011111111111105,
          2.0088888888888885,
          2.00111111111111,
          1.9433333333333325,
          2.016666666666667,
          2.021111111111111,
          1.9988888888888892,
          1.952222222222222,
          1.943333333333333,
          1.9711111111111113,
          1.9277777777777776,
          1.9377777777777778,
          1.975555555555556,
          1.952222222222222,
          1.901111111111111,
          1.9822222222222223,
          1.9655555555555553,
          2.0633333333333335,
          2.0499999999999994,
          2.1344444444444446,
          2.028888888888889,
          1.9611111111111115,
          1.9855555555555553,
          1.893333333333333,
          2.0066666666666664,
          2.0500000000000003,
          2.002222222222222,
          1.982222222222222,
          1.9511111111111112,
          2.0355555555555553,
          2.006666666666666,
          1.9766666666666677,
          1.9255555555555557,
          1.943333333333333,
          2.088888888888889,
          1.9566666666666666,
          1.9766666666666666,
          2.0900000000000003,
          1.952222222222222,
          1.901111111111111,
          2.062222222222222,
          1.9755555555555555,
          1.9944444444444445,
          2.0511111111111107,
          1.9911111111111106,
          1.9299999999999988,
          2.0077777777777777,
          2.0477777777777773,
          1.8622222222222224,
          2.033333333333333,
          1.9444444444444442,
          1.9644444444444449,
          1.9311111111111119,
          2.0622222222222226,
          2.043333333333332,
          1.9188888888888884,
          2.0577777777777784,
          2.0233333333333334,
          1.9755555555555555,
          2.01,
          1.9622222222222214,
          1.9066666666666667,
          1.9311111111111108,
          1.9844444444444445,
          1.9555555555555557,
          1.9700000000000004,
          1.9633333333333338,
          2.0233333333333325,
          2.013333333333334,
          2.0155555555555553,
          1.9177777777777782,
          2.0655555555555547,
          1.9744444444444442,
          2.057777777777778,
          1.981111111111111,
          1.9777777777777774,
          1.9899999999999998,
          2.0122222222222224,
          1.9388888888888889,
          1.952222222222223,
          2.0188888888888883,
          1.9422222222222214,
          1.9711111111111108,
          2.0,
          1.991111111111111,
          1.9711111111111101,
          2.0433333333333334,
          2.0866666666666664,
          2.0477777777777777,
          1.9622222222222212,
          2.052222222222222,
          2.02,
          1.9755555555555548,
          1.9122222222222227,
          2.007777777777777,
          1.9511111111111106,
          2.0155555555555553,
          1.9444444444444444,
          1.8755555555555554,
          1.9199999999999995,
          1.8599999999999994,
          1.991111111111111,
          2.0522222222222224,
          1.96,
          2.05,
          1.9777777777777783,
          1.9933333333333332,
          1.9366666666666668,
          2.038888888888889,
          1.978888888888889,
          2.014444444444444,
          1.8933333333333333,
          2.03,
          1.8655555555555559,
          1.957777777777777,
          2.002222222222222,
          2.008888888888889,
          1.9722222222222223,
          2.014444444444444,
          1.9533333333333331,
          2.0833333333333335,
          1.9555555555555562,
          1.896666666666666,
          2.065555555555556,
          2.0899999999999994,
          1.9244444444444446,
          1.9855555555555553,
          2.074444444444444,
          2.0333333333333337,
          2.0111111111111115,
          1.9544444444444447,
          2.0900000000000003,
          1.9933333333333332,
          1.9777777777777772,
          1.9333333333333338,
          2.0477777777777777,
          1.9633333333333332,
          2.007777777777777,
          2.0288888888888885,
          2.0944444444444446,
          2.007777777777777,
          2.0122222222222224,
          1.9677777777777776,
          1.9699999999999993,
          2.0266666666666664,
          2.0366666666666675,
          1.9877777777777772,
          1.9788888888888891,
          1.9299999999999997,
          1.9711111111111108,
          1.961111111111111,
          1.9844444444444445,
          2.04,
          1.949999999999999,
          1.9755555555555553,
          1.9688888888888896,
          2.0255555555555556,
          1.845555555555555,
          1.9699999999999995,
          2.06,
          1.9922222222222223,
          2.035555555555556,
          2.0111111111111115,
          1.9488888888888891,
          1.9999999999999993,
          1.8888888888888893,
          1.9788888888888885,
          1.9666666666666661,
          1.9044444444444444,
          1.9733333333333334
        ],
        [
          2.2566666666666664,
          2.232222222222222,
          2.2033333333333327,
          2.328888888888889,
          2.2255555555555557,
          2.1411111111111105,
          2.1588888888888893,
          2.213333333333333,
          2.2600000000000002,
          2.2888888888888896,
          2.362222222222222,
          2.24,
          2.177777777777779,
          2.1800000000000006,
          2.125555555555555,
          2.042222222222222,
          2.103333333333333,
          2.0477777777777773,
          1.9077777777777776,
          2.0877777777777777,
          2.0944444444444446,
          2.0100000000000002,
          2.0111111111111115,
          1.8777777777777773,
          1.9722222222222219,
          2.028888888888889,
          1.9922222222222217,
          2.002222222222222,
          1.9677777777777785,
          2.0077777777777777,
          2.036666666666667,
          1.9355555555555555,
          1.9944444444444436,
          2.0722222222222224,
          2.0044444444444443,
          1.9544444444444453,
          2.061111111111111,
          1.9844444444444442,
          2.0222222222222217,
          1.9144444444444444,
          2.0422222222222213,
          2.046666666666666,
          2.006666666666667,
          1.9588888888888891,
          1.9699999999999998,
          2.0555555555555554,
          2.098888888888889,
          1.9411111111111106,
          1.953333333333333,
          2.028888888888889,
          2.0411111111111095,
          1.8844444444444448,
          1.9722222222222223,
          2.0033333333333334,
          2.024444444444444,
          2.013333333333333,
          2.021111111111111,
          1.9833333333333332,
          2.086666666666667,
          1.9655555555555557,
          1.9999999999999998,
          1.9755555555555548,
          1.9833333333333332,
          2.032222222222222,
          1.9777777777777776,
          2.0022222222222217,
          1.9522222222222227,
          1.9844444444444447,
          2.021111111111111,
          2.0177777777777774,
          1.9788888888888891,
          1.9922222222222217,
          2.0088888888888885,
          1.9822222222222223,
          2.056666666666666,
          2.036666666666667,
          1.922222222222222,
          2.0588888888888888,
          2.0055555555555555,
          1.965555555555556,
          1.9844444444444445,
          1.951111111111111,
          1.9455555555555553,
          2.0933333333333337,
          1.9677777777777776,
          1.9588888888888887,
          2.0555555555555554,
          2.0766666666666667,
          2.0522222222222215,
          2.055555555555556,
          1.9411111111111112,
          1.895555555555555,
          1.958888888888889,
          2.038888888888889,
          1.965555555555555,
          2.018888888888889,
          2.0366666666666666,
          1.9888888888888887,
          1.9877777777777772,
          1.8833333333333337,
          1.911111111111111,
          1.9766666666666663,
          2.033333333333333,
          2.013333333333333,
          1.923333333333333,
          1.951111111111111,
          2.025555555555555,
          1.9822222222222226,
          1.9977777777777779,
          2.0055555555555555,
          1.9888888888888892,
          1.9777777777777772,
          2.0077777777777777,
          2.1488888888888886,
          1.9100000000000001,
          1.9511111111111112,
          2.008888888888889,
          1.9522222222222223,
          2.0144444444444445,
          1.9444444444444442,
          1.9611111111111108,
          1.9877777777777774,
          1.9922222222222223,
          2.034444444444444,
          2.012222222222222,
          2.012222222222222,
          1.9066666666666667,
          1.9522222222222225,
          2.0577777777777775,
          1.998888888888889,
          2.0155555555555558,
          2.0211111111111113,
          1.9722222222222219,
          2.0166666666666675,
          2.0700000000000003,
          2.046666666666666,
          2.0666666666666673,
          1.9111111111111116,
          1.9922222222222221,
          2.0622222222222226,
          1.9866666666666666,
          1.9711111111111117,
          2.067777777777778,
          2.007777777777777,
          2.0911111111111107,
          2.0188888888888887,
          1.9866666666666668,
          1.8800000000000006,
          2.086666666666667,
          1.9488888888888884,
          2.0033333333333334,
          1.9955555555555546,
          2.0266666666666664,
          2.0288888888888885,
          2.007777777777778,
          2.0333333333333328,
          1.9477777777777776,
          2.0155555555555553,
          1.9533333333333331,
          1.8555555555555556,
          2.0155555555555558,
          1.9288888888888884,
          1.9866666666666655,
          2.0044444444444443,
          1.9988888888888887,
          1.961111111111111,
          1.9566666666666668,
          2.006666666666667,
          2.0966666666666667,
          2.0166666666666666,
          2.067777777777778,
          2.026666666666667,
          2.0555555555555562,
          2.1444444444444444,
          1.9777777777777776,
          2.005555555555555,
          1.874444444444444,
          1.9455555555555557,
          2.051111111111111,
          1.8944444444444442,
          1.975555555555556,
          1.9366666666666668,
          1.9933333333333332,
          1.986666666666667,
          1.97,
          2.0133333333333328,
          2.062222222222222,
          1.9777777777777774,
          2.0233333333333334,
          2.058888888888889,
          2.0266666666666655,
          1.8988888888888884,
          1.965555555555555,
          1.973333333333333,
          2.057777777777778,
          1.9811111111111113,
          2.073333333333333,
          1.9400000000000002,
          1.9755555555555562,
          2.024444444444444,
          2.002222222222222,
          2.0344444444444445,
          1.9322222222222225,
          1.923333333333333,
          2.062222222222222,
          2.003333333333333,
          1.9755555555555557,
          1.9766666666666663,
          2.0344444444444445,
          1.9377777777777778,
          1.9666666666666666,
          2.0033333333333334,
          2.016666666666666,
          2.1122222222222224,
          2.0666666666666664,
          1.9622222222222212,
          1.9088888888888893,
          2.035555555555556,
          2.0455555555555556,
          1.997777777777778,
          1.8911111111111112,
          1.896666666666666,
          1.9366666666666672,
          2.0133333333333336,
          1.8966666666666672,
          1.975555555555555,
          1.936666666666667,
          1.9611111111111112,
          2.03,
          2.031111111111111,
          2.003333333333334,
          2.006666666666667,
          2.0199999999999996,
          1.9866666666666668,
          1.9877777777777783,
          2.0200000000000005,
          1.95,
          2.0555555555555554,
          2.043333333333334,
          1.9988888888888887,
          1.9655555555555553,
          1.8844444444444446,
          1.9666666666666661,
          1.9055555555555557,
          1.924444444444444,
          2.0622222222222226,
          1.965555555555556,
          2.0122222222222224,
          1.958888888888889,
          2.035555555555555,
          2.016666666666667,
          1.941111111111112,
          1.9355555555555555,
          1.9422222222222216,
          1.9966666666666664,
          1.9677777777777774,
          1.9177777777777778,
          1.993333333333333,
          1.9833333333333334,
          1.941111111111111,
          2.072222222222222,
          2.0055555555555555,
          1.9088888888888884,
          1.9466666666666665,
          1.922222222222222,
          1.991111111111111,
          1.9922222222222223,
          2.0,
          1.9833333333333332,
          1.933333333333333,
          1.9411111111111106,
          2.0077777777777777,
          1.935555555555556,
          1.9622222222222225,
          2.046666666666667,
          1.9677777777777778,
          1.9788888888888887,
          2.0188888888888887,
          2.0577777777777775,
          1.9400000000000002,
          2.148888888888888,
          2.0100000000000002,
          1.977777777777778,
          2.0811111111111105,
          2.0311111111111115,
          2.076666666666666,
          2.075555555555556,
          1.9144444444444446,
          2.0033333333333325,
          1.9866666666666661,
          1.9222222222222218,
          1.9766666666666663,
          2.048888888888889,
          1.9955555555555557,
          2.0188888888888887,
          1.9388888888888893,
          2.012222222222222,
          1.9077777777777776,
          2.0688888888888894,
          1.9600000000000004
        ],
        [
          2.152222222222222,
          2.260000000000001,
          2.1277777777777773,
          2.0933333333333333,
          2.175555555555556,
          2.152222222222222,
          2.361111111111111,
          2.328888888888889,
          2.39,
          2.308888888888889,
          2.3033333333333337,
          2.2944444444444447,
          2.4111111111111114,
          2.364444444444444,
          2.2388888888888894,
          2.3222222222222224,
          2.3255555555555554,
          2.401111111111112,
          2.3922222222222222,
          2.3900000000000006,
          2.480000000000001,
          2.4011111111111116,
          2.443333333333333,
          2.2566666666666664,
          2.378888888888889,
          2.5688888888888894,
          2.341111111111111,
          2.4411111111111112,
          2.3633333333333337,
          2.3588888888888895,
          2.312222222222223,
          2.3422222222222215,
          2.2055555555555553,
          2.112222222222222,
          2.1399999999999997,
          2.138888888888889,
          2.1966666666666663,
          2.172222222222222,
          2.157777777777778,
          1.9366666666666665,
          1.9311111111111112,
          2.0777777777777775,
          1.9288888888888887,
          1.971111111111111,
          1.964444444444444,
          1.9888888888888885,
          2.0155555555555553,
          1.9955555555555549,
          2.0300000000000002,
          1.8822222222222225,
          1.9633333333333332,
          1.9700000000000009,
          1.9766666666666672,
          2.0366666666666666,
          1.968888888888888,
          1.9111111111111108,
          1.8966666666666674,
          2.014444444444445,
          1.975555555555555,
          2.057777777777778,
          1.964444444444444,
          1.9655555555555553,
          2.046666666666667,
          1.9877777777777779,
          1.956666666666667,
          1.9733333333333336,
          2.0755555555555563,
          1.96,
          1.9988888888888892,
          1.8522222222222227,
          2.0244444444444447,
          1.9577777777777776,
          2.0466666666666673,
          2.0677777777777773,
          1.9799999999999995,
          1.9711111111111108,
          2.033333333333334,
          1.966666666666667,
          1.998888888888889,
          1.9266666666666663,
          1.9777777777777785,
          2.096666666666667,
          1.9599999999999997,
          1.9055555555555552,
          2.083333333333333,
          1.994444444444444,
          2.0222222222222217,
          1.913333333333333,
          1.9677777777777778,
          2.044444444444444,
          1.9977777777777774,
          2.058888888888889,
          1.9422222222222219,
          1.9866666666666666,
          1.948888888888889,
          1.9788888888888887,
          1.9844444444444433,
          1.9544444444444447,
          1.9399999999999997,
          1.9933333333333334,
          1.9633333333333336,
          1.9866666666666666,
          2.0044444444444447,
          1.962222222222223,
          1.984444444444445,
          1.9922222222222226,
          2.0599999999999996,
          1.9588888888888891,
          1.9488888888888887,
          2.0011111111111113,
          2.054444444444445,
          1.9688888888888882,
          1.987777777777777,
          1.9466666666666668,
          1.9400000000000002,
          1.9233333333333331,
          1.9444444444444442,
          2.0211111111111113,
          1.9922222222222226,
          1.9066666666666665,
          1.973333333333333,
          1.9666666666666657,
          1.9700000000000002,
          2.0611111111111113,
          1.95,
          1.973333333333333,
          2.0388888888888888,
          2.005555555555555,
          2.0033333333333334,
          1.9499999999999997,
          1.882222222222222,
          2.0400000000000005,
          1.98,
          1.9788888888888887,
          2.05,
          2.018888888888889,
          1.9577777777777772,
          2.042222222222223,
          1.8944444444444446,
          1.9966666666666668,
          1.9211111111111103,
          1.862222222222222,
          2.037777777777778,
          1.9633333333333336,
          1.9433333333333331,
          1.9788888888888894,
          1.9711111111111104,
          2.0411111111111113,
          2.0122222222222224,
          2.0688888888888894,
          2.1055555555555556,
          2.005555555555555,
          1.9655555555555548,
          2.0044444444444443,
          2.051111111111111,
          1.9188888888888889,
          1.9544444444444444,
          2.001111111111111,
          1.954444444444444,
          2.022222222222222,
          1.9522222222222219,
          2.033333333333333,
          1.9622222222222225,
          1.98,
          2.007777777777778,
          2.0144444444444436,
          1.951111111111111,
          2.031111111111111,
          1.945555555555555,
          1.9977777777777772,
          2.083333333333333,
          2.0077777777777777,
          1.936666666666667,
          1.9666666666666663,
          1.987777777777777,
          1.9244444444444448,
          1.9922222222222221,
          2.056666666666667,
          1.9255555555555557,
          2.005555555555555,
          2.0411111111111113,
          1.9611111111111115,
          1.9700000000000004,
          1.9844444444444447,
          2.0111111111111115,
          1.9688888888888891,
          1.8900000000000001,
          2.0211111111111113,
          2.0144444444444445,
          2.073333333333333,
          2.019999999999999,
          1.9911111111111104,
          2.0300000000000002,
          2.0322222222222224,
          1.9688888888888887,
          2.0811111111111114,
          2.085555555555555,
          1.9644444444444449,
          2.028888888888888,
          2.0144444444444436,
          2.0033333333333325,
          1.9866666666666668,
          1.958888888888888,
          1.903333333333333,
          2.0977777777777775,
          1.9733333333333332,
          2.0200000000000005,
          2.0399999999999996,
          1.9888888888888883,
          1.9888888888888894,
          2.007777777777779,
          2.0211111111111113,
          1.8700000000000003,
          1.9455555555555561,
          1.9277777777777776,
          1.9733333333333332,
          1.9966666666666661,
          1.9755555555555555,
          2.012222222222223,
          2.0200000000000005,
          1.982222222222222,
          1.9311111111111108,
          2.0722222222222224,
          1.9999999999999996,
          2.045555555555555,
          2.0533333333333337,
          1.8822222222222216,
          2.045555555555555,
          2.0533333333333332,
          1.9544444444444442,
          1.9711111111111115,
          2.0200000000000005,
          1.9688888888888896,
          2.0333333333333328,
          1.996666666666667,
          1.9077777777777774,
          1.9044444444444442,
          1.8977777777777773,
          1.9777777777777776,
          2.0988888888888884,
          2.0200000000000005,
          1.9755555555555557,
          1.9755555555555553,
          2.0000000000000004,
          2.019999999999999,
          1.986666666666666,
          1.8944444444444442,
          2.0377777777777775,
          1.9422222222222214,
          2.0222222222222226,
          2.0100000000000007,
          2.0511111111111107,
          1.9800000000000002,
          1.9522222222222219,
          2.013333333333333,
          1.936666666666666,
          2.0955555555555554,
          1.8677777777777778,
          2.0077777777777777,
          2.0433333333333334,
          2.0588888888888883,
          2.073333333333333,
          2.0133333333333328,
          1.9644444444444449,
          1.9033333333333335,
          1.9577777777777783,
          2.0155555555555558,
          2.094444444444444,
          1.9177777777777776,
          2.0111111111111106,
          1.9911111111111106,
          1.9744444444444444,
          1.912222222222222,
          2.007777777777777,
          1.9677777777777776,
          1.961111111111111,
          1.971111111111111,
          2.1077777777777773,
          2.036666666666666,
          1.9,
          1.9699999999999998,
          2.0300000000000002,
          1.9911111111111113,
          1.9622222222222225,
          1.8844444444444444,
          1.9200000000000004,
          1.9711111111111115,
          2.003333333333333,
          2.0066666666666664,
          2.02,
          1.9499999999999995,
          2.002222222222222,
          2.0233333333333334,
          2.0355555555555553,
          1.9277777777777776,
          2.0777777777777784,
          1.9966666666666668,
          1.9955555555555557,
          1.967777777777777,
          1.9600000000000004
        ]
      ],
      "ho_freq": [
        [
          1.0,
          1.0,
          1.0,
          1.0,
          1.0,
          1.0,
          1.0,
          1.0,
          1.0,
          1.0,
          1.0,
          1.0,
          1.0,
          1.0,
          1.0,
          0.18,
          0.03333333333333333,
          0.06666666666666667,
          0.08333333333333333,
          0.06666666666666667,
          0.05,
          0.03333333333333333,
          0.05,
          0.016666666666666666,
          0.03333333333333333,
          0.03333333333333333,
          0.05,
          0.0,
          0.06666666666666667,
          0.05,
          0.03333333333333333,
          0.05,
          0.016666666666666666,
          0.016666666666666666,
          0.06666666666666667,
          0.03333333333333333,
          0.05,
          0.03333333333333333,
          0.05,
          0.06666666666666667,
          0.03333333333333333,
          0.03333333333333333,
          0.08333333333333333,
          0.06666666666666667,
          0.08333333333333333,
          0.08333333333333333,
          0.05,
          0.03333333333333333,
          0.06666666666666667,
          0.05,
          0.06666666666666667,
          0.05,
          0.03333333333333333,
          0.08333333333333333,
          0.06666666666666667,
          0.05,
          0.08333333333333333,
          0.08333333333333333,
          0.06666666666666667,
          0.05,
          0.08333333333333333,
          0.1,
          0.05,
          0.03333333333333333,
          0.1,
          0.0,
          0.08333333333333333,
          0.03333333333333333,
          0.06666666666666667,
          0.03333333333333333,
          0.016666666666666666,
          0.05,
          0.06666666666666667,
          0.03333333333333333,
          0.05,
          0.016666666666666666,
          0.05,
          0.06666666666666667,
          0.06666666666666667,
          0.06666666666666667,
          0.08333333333333333,
          0.06666666666666667,
          0.016666666666666666,
          0.03333333333333333,
          0.06666666666666667,
          0.016666666666666666,
          0.05,
          0.016666666666666666,
          0.03333333333333333,
          0.03333333333333333,
          0.05,
          0.06666666666666667,
          0.016666666666666666,
          0.08333333333333333,
          0.016666666666666666,
          0.03333333333333333,
          0.08333333333333333,
          0.03333333333333333,
          0.05,
          0.08333333333333333,
          0.05,
          0.06666666666666667,
          0.06666666666666667,
          0.06666666666666667,
          0.0,
          0.03333333333333333,
          0.03333333333333333,
          0.06666666666666667,
          0.08333333333333333,
          0.05,
          0.06666666666666667,
          0.05,
          0.05,
          0.06666666666666667,
          0.05,
          0.03333333333333333,
          0.03333333333333333,
          0.03333333333333333,
          0.08333333333333333,
          0.05,
          0.08333333333333333,
          0.03333333333333333,
          0.05,
          0.05,
          0.016666666666666666,
          0.016666666666666666,
          0.05,
          0.03333333333333333,
          0.03333333333333333,
          0.06666666666666667,
          0.016666666666666666,
          0.06666666666666667,
          0.08333333333333333,
          0.05,
          0.08333333333333333,
          0.06666666666666667,
          0.08333333333333333,
          0.05,
          0.05,
          0.05,
          0.08333333333333333,
          0.0,
          0.08333333333333333,
          0.03333333333333333,
          0.06666666666666667,
          0.05,
          0.05,
          0.03333333333333333,
          0.06666666666666667,
          0.06666666666666667,
          0.08333333333333333,
          0.05,
          0.06666666666666667,
          0.06666666666666667,
          0.06666666666666667,
          0.016666666666666666,
          0.06666666666666667,
          0.08333333333333333,
          0.016666666666666666,
          0.1,
          0.05,
          0.08333333333333333,
          0.03333333333333333,
          0.08333333333333333,
          0.05,
          0.05,
          0.016666666666666666,
          0.06666666666666667,
          0.016666666666666666,
          0.05,
          0.03333333333333333,
          0.1,
          0.016666666666666666,
          0.06666666666666667,
          0.05,
          0.05,
          0.016666666666666666,
          0.05,
          0.016666666666666666,
          0.03333333333333333,
          0.06666666666666667,
          0.05,
          0.05,
          0.1,
          0.0,
          0.06666666666666667,
          0.08333333333333333,
          0.08333333333333333,
          0.03333333333333333,
          0.05,
          0.05,
          0.016666666666666666,
          0.016666666666666666,
          0.06666666666666667,
          0.03333333333333333,
          0.03333333333333333,
          0.016666666666666666,
          0.03333333333333333,
          0.06666666666666667,
          0.05,
          0.016666666666666666,
          0.08333333333333333,
          0.03333333333333333,
          0.05,
          0.08333333333333333,
          0.016666666666666666,
          0.05,
          0.1,
          0.05,
          0.03333333333333333,
          0.05,
          0.06666666666666667,
          0.03333333333333333,
          0.03333333333333333,
          0.1,
          0.05,
          0.016666666666666666,
          0.06666666666666667,
          0.05,
          0.05,
          0.03333333333333333,
          0.1,
          0.05,
          0.03333333333333333,
          0.03333333333333333,
          0.05,
          0.03333333333333333,
          0.08333333333333333,
          0.03333333333333333,
          0.016666666666666666,
          0.08333333333333333,
          0.03333333333333333,
          0.08333333333333333,
          0.05,
          0.016666666666666666,
          0.05,
          0.016666666666666666,
          0.03333333333333333,
          0.016666666666666666,
          0.03333333333333333,
          0.016666666666666666,
          0.05,
          0.05,
          0.016666666666666666,
          0.03333333333333333,
          0.0,
          0.05,
          0.03333333333333333,
          0.05,
          0.06666666666666667,
          0.05,
          0.06666666666666667,
          0.05,
          0.05,
          0.03333333333333333,
          0.05,
          0.0,
          0.06666666666666667,
          0.05,
          0.06666666666666667,
          0.016666666666666666,
          0.03333333333333333,
          0.06666666666666667,
          0.1,
          0.05,
          0.05,
          0.03333333333333333,
          0.05,
          0.08333333333333333,
          0.03333333333333333,
          0.06666666666666667,
          0.016666666666666666,
          0.1,
          0.06666666666666667,
          0.016666666666666666,
          0.06666666666666667,
          0.03333333333333333,
          0.06666666666666667,
          0.03333333333333333,
          0.06666666666666667,
          0.03333333333333333,
          0.05,
          0.05,
          0.05,
          0.05,
          0.05,
          0.03333333333333333,
          0.05,
          0.1,
          0.016666666666666666,
          0.016666666666666666,
          0.1,
          0.06666666666666667,
          0.05,
          0.03333333333333333,
          0.016666666666666666,
          0.03333333333333333,
          0.05,
          0.016666666666666666,
          0.05
        ],
        [
          0.9866666666666667,
          0.8233333333333334,
          0.93,
          0.8533333333333334,
          0.30666666666666664,
          0.06666666666666667,
          0.016666666666666666,
          0.08333333333333333,
          0.03333333333333333,
          0.08333333333333333,
          0.06666666666666667,
          0.06666666666666667,
          0.03333333333333333,
          0.06666666666666667,
          0.06666666666666667,
          0.06666666666666667,
          0.05,
          0.03333333333333333,
          0.05,
          0.03333333333333333,
          0.06666666666666667,
          0.06,
          0.09333333333333334,
          0.20666666666666667,
          0.09666666666666666,
          0.1,
          0.1,
          0.08,
          0.13,
          0.08666666666666667,
          0.09,
          0.07666666666666666,
          0.05,
          0.03333333333333333,
          0.05,
          0.06666666666666667,
          0.05,
          0.1,
          0.04666666666666667,
          0.13333333333333333,
          0.05,
          0.05,
          0.03333333333333333,
          0.016666666666666666,
          0.03333333333333333,
          0.03333333333333333,
          0.05,
          0.07333333333333333,
          0.07333333333333333,
          0.12,
          0.08333333333333333,
          0.08333333333333333,
          0.06666666666666667,
          0.09666666666666666,
          0.06,
          0.016666666666666666,
          0.08333333333333333,
          0.016666666666666666,
          0.05,
          0.0,
          0.11666666666666667,
          0.12,
          0.07,
          0.07666666666666666,
          0.08333333333333333,
          0.05,
          0.016666666666666666,
          0.06666666666666667,
          0.05,
          0.11666666666666667,
          0.016666666666666666,
          0.05,
          0.05,
          0.05,
          0.05,
          0.03333333333333333,
          0.03333333333333333,
          0.06666666666666667,
          0.05,
          0.05,
          0.06666666666666667,
          0.05,
          0.03333333333333333,
          0.1,
          0.06666666666666667,
          0.05,
          0.016666666666666666,
          0.05,
          0.05,
          0.05,
          0.03333333333333333,
          0.016666666666666666,
          0.03333333333333333,
          0.03333333333333333,
          0.016666666666666666,
          0.05,
          0.05,
          0.05,
          0.08333333333333333,
          0.05,
          0.06666666666666667,
          0.06666666666666667,
          0.03333333333333333,
          0.03333333333333333,
          0.05,
          0.03333333333333333,
          0.05,
          0.05,
          0.08333333333333333,
          0.03333333333333333,
          0.016666666666666666,
          0.03333333333333333,
          0.08333333333333333,
          0.05,
          0.06666666666666667,
          0.1,
          0.03333333333333333,
          0.08333333333333333,
          0.03333333333333333,
          0.05,
          0.05,
          0.05,
          0.06666666666666667,
          0.06666666666666667,
          0.06666666666666667,
          0.05,
          0.016666666666666666,
          0.06666666666666667,
          0.03333333333333333,
          0.016666666666666666,
          0.06666666666666667,
          0.03333333333333333,
          0.06666666666666667,
          0.03333333333333333,
          0.0,
          0.03333333333333333,
          0.06666666666666667,
          0.08333333333333333,
          0.06666666666666667,
          0.05,
          0.06666666666666667,
          0.03333333333333333,
          0.11666666666666667,
          0.05,
          0.05,
          0.06666666666666667,
          0.06666666666666667,
          0.03333333333333333,
          0.03333333333333333,
          0.05,
          0.08333333333333333,
          0.05,
          0.06666666666666667,
          0.1,
          0.03333333333333333,
          0.016666666666666666,
          0.016666666666666666,
          0.05,
          0.05,
          0.06666666666666667,
          0.016666666666666666,
          0.06666666666666667,
          0.016666666666666666,
          0.06666666666666667,
          0.05,
          0.03333333333333333,
          0.05,
          0.05,
          0.03333333333333333,
          0.06666666666666667,
          0.05,
          0.05,
          0.06666666666666667,
          0.05,
          0.08333333333333333,
          0.08333333333333333,
          0.05,
          0.0,
          0.06666666666666667,
          0.05,
          0.11666666666666667,
          0.08333333333333333,
          0.05,
          0.0,
          0.016666666666666666,
          0.016666666666666666,
          0.1,
          0.03333333333333333,
          0.06666666666666667,
          0.03333333333333333,
          0.016666666666666666,
          0.06666666666666667,
          0.13333333333333333,
          0.05,
          0.0,
          0.016666666666666666,
          0.03333333333333333,
          0.05,
          0.03333333333333333,
          0.06666666666666667,
          0.03333333333333333,
          0.05,
          0.03333333333333333,
          0.06666666666666667,
          0.05,
          0.08333333333333333,
          0.05,
          0.05,
          0.05,
          0.06666666666666667,
          0.016666666666666666,
          0.03333333333333333,
          0.05,
          0.06666666666666667,
          0.03333333333333333,
          0.1,
          0.05,
          0.08333333333333333,
          0.08333333333333333,
          0.03333333333333333,
          0.05,
          0.05,
          0.06666666666666667,
          0.06666666666666667,
          0.05,
          0.05,
          0.03333333333333333,
          0.03333333333333333,
          0.05,
          0.05,
          0.08333333333333333,
          0.03333333333333333,
          0.1,
          0.05,
          0.06666666666666667,
          0.05,
          0.03333333333333333,
          0.06666666666666667,
          0.05,
          0.05,
          0.06666666666666667,
          0.05,
          0.016666666666666666,
          0.03333333333333333,
          0.05,
          0.016666666666666666,
          0.05,
          0.06666666666666667,
          0.016666666666666666,
          0.08333333333333333,
          0.05,
          0.05,
          0.06666666666666667,
          0.03333333333333333,
          0.03333333333333333,
          0.03333333333333333,
          0.016666666666666666,
          0.016666666666666666,
          0.03333333333333333,
          0.05,
          0.016666666666666666,
          0.03333333333333333,
          0.05,
          0.08333333333333333,
          0.06666666666666667,
          0.016666666666666666,
          0.05,
          0.05,
          0.05,
          0.1,
          0.03333333333333333,
          0.0,
          0.03333333333333333,
          0.03333333333333333,
          0.06666666666666667,
          0.08333333333333333,
          0.06666666666666667,
          0.016666666666666666,
          0.1,
          0.016666666666666666,
          0.03333333333333333,
          0.1,
          0.05,
          0.06666666666666667,
          0.06666666666666667,
          0.08333333333333333,
          0.05,
          0.05,
          0.05,
          0.016666666666666666,
          0.016666666666666666,
          0.05,
          0.06666666666666667,
          0.06666666666666667,
          0.05,
          0.05,
          0.05,
          0.03333333333333333,
          0.08333333333333333,
          0.05
        ],
        [
          0.95,
          0.47,
          0.47,
          0.75,
          0.22,
          0.05,
          0.05,
          0.08333333333333333,
          0.016666666666666666,
          0.03333333333333333,
          0.06666666666666667,
          0.03333333333333333,
          0.05,
          0.06666666666666667,
          0.06666666666666667,
          0.08333333333333333,
          0.05,
          0.1,
          0.06666666666666667,
          0.016666666666666666,
          0.05,
          0.03333333333333333,
          0.06666666666666667,
          0.03333333333333333,
          0.016666666666666666,
          0.06666666666666667,
          0.08333333333333333,
          0.09666666666666666,
          0.07333333333333333,
          0.12333333333333334,
          0.11,
          0.05,
          0.08333333333333333,
          0.08666666666666667,
          0.08666666666666667,
          0.12333333333333334,
          0.11333333333333333,
          0.07333333333333333,
          0.10666666666666667,
          0.1,
          0.1,
          0.12,
          0.09666666666666666,
          0.11,
          0.1,
          0.11666666666666667,
          0.12,
          0.1,
          0.11,
          0.12,
          0.1,
          0.1,
          0.1,
          0.09,
          0.1,
          0.08666666666666667,
          0.09666666666666666,
          0.1,
          0.10333333333333333,
          0.08333333333333333,
          0.08666666666666667,
          0.08333333333333333,
          0.09333333333333334,
          0.11333333333333333,
          0.07333333333333333,
          0.05,
          0.08333333333333333,
          0.05,
          0.05,
          0.1,
          0.05,
          0.05,
          0.05,
          0.1,
          0.016666666666666666,
          0.11666666666666667,
          0.06666666666666667,
          0.016666666666666666,
          0.05,
          0.06666666666666667,
          0.05,
          0.08333333333333333,
          0.0,
          0.03333333333333333,
          0.08333333333333333,
          0.1,
          0.03333333333333333,
          0.05,
          0.06666666666666667,
          0.1,
          0.016666666666666666,
          0.08333333333333333,
          0.03333333333333333,
          0.08333333333333333,
          0.03333333333333333,
          0.05,
          0.08333333333333333,
          0.016666666666666666,
          0.03333333333333333,
          0.08333333333333333,
          0.05,
          0.03333333333333333,
          0.05,
          0.05,
          0.05,
          0.016666666666666666,
          0.05,
          0.05,
          0.08333333333333333,
          0.06666666666666667,
          0.08333333333333333,
          0.016666666666666666,
          0.0,
          0.016666666666666666,
          0.03333333333333333,
          0.05,
          0.03333333333333333,
          0.016666666666666666,
          0.05,
          0.06666666666666667,
          0.1,
          0.03333333333333333,
          0.05,
          0.016666666666666666,
          0.03333333333333333,
          0.05,
          0.05,
          0.06666666666666667,
          0.016666666666666666,
          0.0,
          0.016666666666666666,
          0.06666666666666667,
          0.11666666666666667,
          0.05,
          0.05,
          0.05,
          0.03333333333333333,
          0.05,
          0.05,
          0.03333333333333333,
          0.05,
          0.05,
          0.06666666666666667,
          0.03333333333333333,
          0.03333333333333333,
          0.08333333333333333,
          0.05,
          0.05,
          0.016666666666666666,
          0.1,
          0.05,
          0.08333333333333333,
          0.03333333333333333,
          0.06666666666666667,
          0.016666666666666666,
          0.05,
          0.08333333333333333,
          0.13333333333333333,
          0.05,
          0.06666666666666667,
          0.06666666666666667,
          0.05,
          0.06666666666666667,
          0.05,
          0.03333333333333333,
          0.05,
          0.06666666666666667,
          0.03333333333333333,
          0.08333333333333333,
          0.06666666666666667,
          0.03333333333333333,
          0.05,
          0.06666666666666667,
          0.06666666666666667,
          0.1,
          0.05,
          0.06666666666666667,
          0.1,
          0.06666666666666667,
          0.05,
          0.03333333333333333,
          0.05,
          0.08333333333333333,
          0.03333333333333333,
          0.05,
          0.06666666666666667,
          0.05,
          0.03333333333333333,
          0.016666666666666666,
          0.016666666666666666,
          0.06666666666666667,
          0.06666666666666667,
          0.03333333333333333,
          0.03333333333333333,
          0.05,
          0.05,
          0.016666666666666666,
          0.05,
          0.03333333333333333,
          0.08333333333333333,
          0.016666666666666666,
          0.03333333333333333,
          0.1,
          0.06666666666666667,
          0.08333333333333333,
          0.05,
          0.016666666666666666,
          0.05,
          0.06666666666666667,
          0.06666666666666667,
          0.05,
          0.016666666666666666,
          0.0,
          0.08333333333333333,
          0.08333333333333333,
          0.11666666666666667,
          0.1,
          0.06666666666666667,
          0.03333333333333333,
          0.06666666666666667,
          0.08333333333333333,
          0.05,
          0.08333333333333333,
          0.08333333333333333,
          0.016666666666666666,
          0.06666666666666667,
          0.03333333333333333,
          0.03333333333333333,
          0.08333333333333333,
          0.06666666666666667,
          0.05,
          0.05,
          0.05,
          0.05,
          0.05,
          0.06666666666666667,
          0.05,
          0.05,
          0.05,
          0.03333333333333333,
          0.06666666666666667,
          0.016666666666666666,
          0.08333333333333333,
          0.06666666666666667,
          0.06666666666666667,
          0.05,
          0.08333333333333333,
          0.08333333333333333,
          0.03333333333333333,
          0.06666666666666667,
          0.03333333333333333,
          0.06666666666666667,
          0.03333333333333333,
          0.08333333333333333,
          0.03333333333333333,
          0.06666666666666667,
          0.0,
          0.03333333333333333,
          0.06666666666666667,
          0.05,
          0.06666666666666667,
          0.08333333333333333,
          0.06666666666666667,
          0.03333333333333333,
          0.06666666666666667,
          0.03333333333333333,
          0.016666666666666666,
          0.05,
          0.016666666666666666,
          0.0,
          0.05,
          0.03333333333333333,
          0.016666666666666666,
          0.03333333333333333,
          0.05,
          0.03333333333333333,
          0.06666666666666667,
          0.05,
          0.08333333333333333,
          0.05,
          0.05,
          0.03333333333333333,
          0.05,
          0.03333333333333333,
          0.06666666666666667,
          0.03333333333333333,
          0.08333333333333333,
          0.08333333333333333,
          0.03333333333333333,
          0.05,
          0.06666666666666667,
          0.06666666666666667,
          0.05,
          0.08333333333333333,
          0.03333333333333333,
          0.05,
          0.05,
          0.03333333333333333,
          0.05,
          0.03333333333333333
        ]
      ]
    },
    "MA-TD3": {
      "rewards": [
        [
          -299.45438502543294,
          -124.70719757223385,
          -152.87944456869286,
          -126.91348461383446,
          -230.42481607247456,
          -255.28260500654432,
          -222.8279589324455,
          -213.30542374648755,
          -219.7425547314881,
          -233.0064364254283,
          -238.4961204237977,
          -238.92386123307304,
          -196.31992362233035,
          -177.32406836432057,
          -266.7282907509826,
          -197.7171559771349,
          -231.0137711301446,
          -190.33070929062947,
          -219.21070253544895,
          -292.6096830991402,
          -242.915550515789,
          -215.1079530145376,
          -264.2090683533024,
          -244.00709768289522,
          -272.20588212706207,
          -201.1057946757486,
          -251.40717144882586,
          -218.90461416173858,
          -237.1048712188662,
          -191.707364680212,
          -190.40517756460176,
          -192.38399059838676,
          -183.9085823266403,
          -151.4384346947244,
          -212.1636975233778,
          -156.84873713523987,
          -182.60966450204435,
          -181.6079339861346,
          -178.30923906487374,
          -195.79371723118206,
          -153.2037833996219,
          -207.8038874989601,
          -180.60431183411507,
          -162.3035427202558,
          -176.00296587029513,
          -167.20255093109586,
          -195.7024745701215,
          -155.00233082909466,
          -160.10200910470337,
          -183.70287687363708,
          -181.40190137351087,
          -167.60203695016466,
          -158.50162174366486,
          -195.7016437013863,
          -153.4018291902364,
          -184.30132347955492,
          -172.60174663998257,
          -178.1018249536095,
          -179.40110959585988,
          -166.90169601325246,
          -162.90113143071886,
          -178.50101906714565,
          -191.5012591493678,
          -156.40101463326985,
          -161.90119642406268,
          -173.50113539382397,
          -160.40117821612566,
          -169.5010007962921,
          -197.501494737418,
          -156.50107592998395,
          -186.50137216496512,
          -142.80087440966886,
          -164.30143490748466,
          -210.90120501241162,
          -174.1019950512425,
          -162.30253716902627,
          -181.80099944251614,
          -154.40259223071735,
          -176.5021361399899,
          -166.60244099851278,
          -165.80461537997877,
          -172.3045381296751,
          -170.33524781500645,
          -198.5017896531602,
          -182.93444698543757,
          76.35353341745915,
          -169.60325708598003,
          -80.16551817320473,
          1.9279485587472882,
          -121.09116255338704,
          -188.66805054470595,
          -118.44616897769873,
          -132.06741332560827,
          -190.35528037062224,
          -127.20664559046615,
          -115.0022272323271,
          -141.89105476610845,
          -42.30531966721168,
          -162.8909663380775,
          -150.74536016399537,
          -114.03511516401014,
          2.2509273496456306,
          -30.60127485402122,
          -47.62345918290133,
          -67.78649853276991,
          18.012935054085542,
          -61.89461191827533,
          -54.84319892534292,
          -52.08816244209134,
          83.25531769609829,
          -56.024500537353674,
          -42.15183211620293,
          -163.6549203506444,
          -57.651195853584824,
          -45.024125142097716,
          -39.386133594534016,
          -160.57519780284795,
          -179.07841947063432,
          49.16176281337935,
          -173.43770779258645,
          -37.555593640991205,
          75.31927218208122,
          -44.62688643434899,
          89.78395935637714,
          -136.4083555254756,
          77.00576943831858,
          -47.9428050527999,
          88.99661509087082,
          -41.350005539661716,
          85.79547280197164,
          89.63157679497874,
          -47.4110368843407,
          91.0742897792154,
          -40.642264971861756,
          -35.044797120531825,
          -178.20823291580928,
          90.93984571778498,
          -45.456195222357955,
          85.80075624975473,
          -44.532372019067736,
          -43.72610855376992,
          -48.58497039907692,
          -61.22294898379668,
          93.5806812381636,
          71.99247066442368,
          -128.4178076235228,
          -44.601115730818705,
          -163.69353782345755,
          69.24428475063912,
          -49.84045450598748,
          -49.25953529345216,
          -43.867370739917185,
          77.44503517429615,
          -39.574651718366354,
          87.01607183932357,
          -58.9490557091017,
          -34.19151115852683,
          -44.9232119480974,
          -36.595586333641045,
          -168.10951111093266,
          69.8804452672528,
          -145.27260364720433,
          -61.91963440152263,
          72.48233110119257,
          -61.909267803267106,
          -36.18468639384998,
          81.56479849178504,
          -172.80412070222965,
          80.60187247380836,
          74.34040725375245,
          90.7757943423791,
          81.90014899089665,
          -47.58026679512889,
          -36.844627637343905,
          77.42113657537313,
          -43.5537753031497,
          88.0168960408852,
          -41.27333812480292,
          -46.243181251174,
          -50.26629363237876,
          -65.75473589341455,
          -145.81434247911272,
          -56.98612445980788,
          -55.22255485229353,
          91.24294259356135,
          -37.003422617157575,
          64.06320336209134,
          -44.3661698035436,
          -48.6464767721104,
          -38.59284541094876,
          72.70477302920646,
          90.52459168963367,
          -29.686098602161053,
          77.2900867201441,
          82.14286930446768,
          -39.00779138915158,
          -48.54278584930433,
          -45.15366890585053,
          -155.985452562883,
          -138.548606482816,
          -58.53128453108455,
          -49.23092681324325,
          -39.27736437996922,
          -45.36962733202507,
          -40.43840230069896,
          -45.53107909409805,
          -48.28449422380914,
          -53.12574862740031,
          -47.106496615964836,
          -51.45018598714751,
          -39.072045593840635,
          -44.46387665873884,
          -49.160363182736866,
          -137.38445658582424,
          -170.2835472735647,
          75.89857228128103,
          -44.64092451602595,
          70.36265419978285,
          -41.96895702418499,
          -184.47929943724617,
          -45.85543872356703,
          -42.50777809593737,
          -266.08671396524966,
          -46.15007901413097,
          -49.87631475396759,
          -50.16117930241431,
          87.42404048950871,
          -41.709167396930965,
          -50.678362833932134,
          -174.63928379880718,
          -45.34415856971277,
          -43.04879540684356,
          -50.18738569881818,
          -47.214522941693204,
          -170.38854117974722,
          -37.26598626668833,
          -31.919997900674556,
          -189.3366511137838,
          -167.18633584041592,
          78.19968989500154,
          -132.6003625130887,
          -170.84673764364368,
          -48.71716629646282,
          -39.51398428296484,
          -53.88353197888643,
          -168.02066151242718,
          -32.31501497287711,
          75.782167622965,
          -46.44325576028928,
          77.75799216885375,
          -51.6879352715428,
          -38.25263112641128,
          -48.15334100584781,
          -48.18261711608821,
          79.29943396110029,
          -48.36507127780619,
          -84.31617150001995,
          75.66328966739927,
          -40.36400524005396,
          86.44375789407668,
          -52.73456087693303,
          -50.85210423884114,
          -61.761349273051266,
          -35.8117639253842,
          87.01979045642395,
          72.13569684234834,
          -44.80516951529364,
          -54.03778126795918,
          -162.80989150805712,
          -65.49306997425005,
          80.58894650198354,
          -50.19809123612015,
          -47.11416014013268,
          -36.214156398059494,
          -27.6632623005775,
          -36.86020340296438,
          79.67115708773521,
          -34.36671511484452,
          -180.97022908972556,
          -43.03895637421767,
          -159.1376498287742,
          -138.04987244893715,
          -45.72286903964067,
          -53.11822702991721,
          91.94421263324055,
          -47.40641075457623,
          81.36501949965792,
          -47.84610567995124,
          -30.598550661003948,
          83.97034544204861,
          -171.33811405609117,
          83.19249711373212,
          96.94703595852313,
          87.78218026670396,
          -164.19416176466424,
          88.47756139374411,
          -52.627905900568024,
          87.56155589009789,
          -36.99422232544898,
          -48.334445724991966
        ],
        [
          -129.4257233143667,
          -189.38847842374835,
          -216.55067355204486,
          -225.58480479658317,
          -171.7293519826915,
          -272.60852462442585,
          -294.07956819263944,
          -259.18668708704905,
          -255.91303614251876,
          -241.9205445873475,
          -268.07548255462984,
          -214.29724977736058,
          -242.11010423429548,
          -196.21101100328528,
          -172.19533495018274,
          -168.32220846846494,
          -178.5135117802332,
          -159.53144818532851,
          -153.81287157539634,
          -172.71107629480252,
          -165.55349990393995,
          -155.90781454777309,
          -185.10563789064474,
          -160.00484861449223,
          -182.1045405167555,
          -148.50506507052702,
          -153.1925113251924,
          -175.60420826941188,
          -205.60409191731745,
          -162.50370578388825,
          -157.60359345877947,
          -159.90344184736017,
          -173.10325567224868,
          -172.00321030719644,
          -158.9031695422054,
          -175.1033026369791,
          -192.9031109774333,
          -160.20305901296956,
          -164.40327558021022,
          -168.40328458223377,
          -170.90320345225481,
          -146.10378099898008,
          -183.70308337597672,
          -196.40369813369176,
          -182.3035401077773,
          -180.9045591917973,
          -169.15240396727447,
          -185.07292342638684,
          -232.3053445317513,
          -194.8073577931209,
          -151.8772297524579,
          -207.7155677239082,
          -253.80401563800305,
          -165.4705596012623,
          -84.65057007122473,
          -120.96552436664182,
          63.40532896666962,
          -41.52537257444434,
          84.65910298702956,
          88.04248440762494,
          60.11877903581056,
          73.97699702799486,
          -48.990206257871506,
          -35.15227927346139,
          -30.920862306928537,
          -166.46472450549908,
          78.08383753568769,
          -36.60916316996242,
          -167.81743052823643,
          -57.953046005678544,
          -39.60522676099404,
          97.5718973699891,
          76.44079024277897,
          -175.5451751773288,
          -161.88657873689752,
          -47.821586713775744,
          -151.36594913575357,
          93.54619175680547,
          -164.3781559385444,
          -44.436234107052805,
          88.97996961133813,
          -45.41500268898197,
          -178.68585409601963,
          -161.27278870041982,
          -43.692046377126,
          -55.27760394241148,
          61.10090697829301,
          -44.53353566986697,
          75.10784899830405,
          -47.45002148932208,
          76.89156927389955,
          -44.79397730421293,
          -147.26367023001694,
          -174.10488524871462,
          83.93859471689866,
          -139.44658605635863,
          -133.18544549236282,
          -52.202287425594875,
          -31.105070917471227,
          -56.2268035994055,
          -39.683591860497735,
          83.089465156604,
          -136.78170863187717,
          88.2142913666071,
          -52.29702113240877,
          71.92007619969893,
          -162.23870535080653,
          -49.57112189314756,
          -50.81846209743648,
          -38.75451068378456,
          -61.08222872456748,
          -55.21071348510967,
          -41.91446391394402,
          -59.40124574207407,
          -131.83748746516028,
          90.12051150072284,
          90.34764592259043,
          79.25792066112393,
          -41.45940569665178,
          -46.94658813698892,
          -175.72879149191652,
          -53.97679992947294,
          -35.54584019134642,
          -135.60980041724878,
          -43.721506991252966,
          80.1302359624732,
          -40.95284613084785,
          -165.04019853346927,
          90.07754128038304,
          82.4493139078163,
          -33.14750830009345,
          -51.765324572143435,
          -46.122893608474335,
          -46.06532695572914,
          -53.82639941993859,
          -146.5215728370739,
          85.11919412246885,
          -38.334689198854626,
          -63.54233097955969,
          -63.05445522428656,
          75.89352790155388,
          85.49333368484083,
          -49.3461760428943,
          76.40091805755421,
          82.93652727640728,
          -47.27811062092401,
          -176.90513940065247,
          -39.25978727116546,
          -38.88723338321202,
          69.83377854440337,
          66.28906487618654,
          -38.197734538620374,
          -163.02122733208193,
          -52.77763856592245,
          76.2216492069466,
          -232.01694739846428,
          -40.2785182411296,
          84.51089284393156,
          -51.90060594724058,
          68.15458182268969,
          -41.21173524899696,
          -51.91297094528936,
          -48.33875156569924,
          -47.17002815626231,
          -38.87541092605209,
          -160.41377675619663,
          -41.04743348785438,
          79.49142707747745,
          -172.82999779770094,
          88.8681940800309,
          -59.50527855719231,
          84.80938543660083,
          56.2947554905372,
          84.71463475501774,
          -49.40257915089679,
          -49.63976768587079,
          81.21309503064644,
          -48.96459766619467,
          -56.70167929918422,
          -40.41510390608072,
          -166.31196551332414,
          -49.44642756705338,
          -42.043938457465444,
          -51.947119873856316,
          74.68466283663963,
          85.03035725257497,
          -53.11771149757706,
          -35.604483576279904,
          -24.711290701444895,
          -255.8046147699204,
          78.17720910411951,
          85.25141160645842,
          -37.684326699931724,
          -163.202212358053,
          -159.41739781470554,
          -42.717881820254284,
          -168.3426227138003,
          -33.23241612202576,
          81.66738331905485,
          -51.26353207949845,
          -48.098715937557984,
          87.67920214326779,
          -35.95330574151974,
          -168.00646734410694,
          83.23740929110927,
          -172.91838776259138,
          91.5122215665589,
          -37.83893006745993,
          -57.8621121230127,
          -51.38711898402988,
          -179.43012882067427,
          -139.68450418764965,
          -43.34015323709486,
          -45.252524709915875,
          -59.12715013814084,
          -50.65868191619018,
          -47.73893429912402,
          -51.236067060089916,
          85.46207948365438,
          -53.008245240691416,
          -45.352343412250974,
          82.30731226546735,
          -33.82274019963677,
          88.33943520775004,
          -162.37079302827112,
          -45.523803186190044,
          80.85262445771446,
          -37.559940828248415,
          64.69688844667859,
          71.59135224493731,
          -41.90904830373872,
          69.3755749132603,
          96.89485095919079,
          70.04043645139807,
          74.3014641500723,
          -33.689080537922784,
          -47.21518316458483,
          -39.43695532190868,
          86.82340365962611,
          -136.69756310648665,
          -43.6168748073099,
          -135.11578150060188,
          -35.845922883737,
          -38.00499188419357,
          89.14912162231383,
          -44.21479593783875,
          70.72428334550068,
          72.28449429920832,
          76.47651072051183,
          -26.424235308904525,
          -47.09276857819705,
          -172.8120349714763,
          -176.9146343860597,
          -131.81095295616706,
          -54.50475016851685,
          -174.91720762487358,
          79.40189743593652,
          80.90854034034271,
          86.77961286253013,
          83.60416546603047,
          -37.68859979880663,
          -49.524675770235405,
          -80.72671609466796,
          -165.10284429926372,
          -156.8766634868267,
          -49.23290490070047,
          -164.3863283383118,
          -40.937498905164524,
          100.36509556254974,
          -52.99604495734549,
          67.92934833927335,
          -36.34473201030543,
          -58.31755023271044,
          -46.31842076648654,
          -37.66001612546774,
          -46.13759881552007,
          -55.40700496263932,
          -135.88945348969395,
          87.41988253793721,
          -141.90904753198703,
          -48.371842076948646,
          72.6000159540905,
          -22.361327064762527,
          -40.34812046077903,
          -171.56509334721423,
          75.81756330194352,
          91.44343668335284,
          -172.22972832774076,
          86.82875623031559,
          71.18155405676696,
          -45.43757319848287,
          84.66377228614817,
          -44.53098007480979,
          -51.52739057867913,
          -41.18050103372096,
          -180.2650954181964,
          93.51493785364269,
          -41.403672142986935,
          -173.41711497789277,
          -46.749961862790656
        ],
        [
          -154.50370446177428,
          -62.50991079227595,
          -156.96483410108354,
          -88.99472933115113,
          -126.15363837975832,
          -191.94469870589526,
          -221.9267964681622,
          -310.21961674321943,
          -283.57288966568626,
          -177.8469043802785,
          -192.73110064244088,
          -186.7520449067133,
          -332.33033885222034,
          -207.16064918825862,
          -266.0716997264474,
          -215.92249974286594,
          -253.62726598692544,
          -230.98175112742643,
          -247.21909084416112,
          -261.2141237026517,
          -230.96172146777053,
          -209.91742384439374,
          -311.7091944155603,
          -265.3088264417122,
          -250.60785833234405,
          -207.20836407990134,
          -304.40680874309476,
          -334.70631336021904,
          -220.2072806683005,
          -210.60578691052797,
          -262.4059104597298,
          -226.90650263904243,
          -289.00553436656776,
          -228.40539858496206,
          -297.00539085431524,
          -349.90509375235985,
          -329.90506815549816,
          -281.5053153865673,
          -228.80597167641892,
          -218.50528553748003,
          -294.10584018542863,
          -254.3054481225001,
          -288.5061148633852,
          -241.50579766817106,
          -334.43456581978774,
          -340.5917823575926,
          -242.74953683846442,
          -237.46976202703826,
          -268.62201865821896,
          -193.29693816297018,
          -353.12164803225437,
          -224.41348002193072,
          -258.9999209507981,
          -247.44392644814437,
          -110.21189455104721,
          73.28784014534375,
          81.84753886054779,
          -43.35593660849702,
          76.60938363234636,
          -120.44935368210074,
          72.07600762375193,
          -35.372574831510704,
          -57.81137413971111,
          94.7350525548287,
          83.10009014445215,
          -141.87314114540564,
          -46.5045004790812,
          84.99050116264371,
          84.20309970590367,
          -56.13624720546727,
          -42.474685206494044,
          -47.04439702683411,
          -157.08151472385373,
          78.51240933189057,
          -136.66953015162989,
          -53.374161540514734,
          -53.020147731028906,
          59.83834785883809,
          -46.93012332083378,
          -45.67590794105272,
          -46.62497623410435,
          -52.54648161163749,
          -172.85557217257502,
          -46.883065126275405,
          -49.54782473621053,
          -135.68750280026626,
          -173.17729013835296,
          -44.90156637168067,
          -49.22144273907868,
          -59.58438442139232,
          -35.424218537675884,
          81.11938273348886,
          -63.52439167518915,
          -62.924405329750115,
          -46.2101913476238,
          -193.8696500588775,
          -49.35637939158977,
          -164.56449891849243,
          -47.87847563692877,
          -46.175190601871485,
          77.40040070078307,
          -58.54742268961419,
          88.2803340966297,
          84.42743215658972,
          -53.02777607043208,
          -32.42884941591764,
          82.16547390575334,
          78.63096298824887,
          88.2598732757003,
          -162.3841377575828,
          -54.333548593541764,
          -74.62398603861793,
          -172.12032280695732,
          -173.17848781906267,
          -45.87862208784572,
          72.92569492814567,
          -137.01614238275025,
          76.69501890636786,
          80.5567766716894,
          -129.5335926344004,
          -50.61252635324977,
          76.0156022461463,
          -45.927529380570846,
          -51.24348991350896,
          -48.834581497957466,
          80.79016519648805,
          -146.9543129428628,
          -37.61904457565931,
          -39.576975829260704,
          -47.917479020971655,
          -43.64224626762236,
          -46.5827586450819,
          -34.6819581037482,
          -176.8087146235591,
          -54.38497120024279,
          80.07104958435914,
          -37.50605150327417,
          86.85475360857114,
          -135.19570027615455,
          -187.07532583671465,
          85.80192474574369,
