{
  "config": {
    "altitude_km": 550.0,
    "n_satellites_visible": 10,
    "min_elevation_deg": 25.0,
    "carrier_freq_ghz": 1.67,
    "p_max_dbm": 40.0,
    "n_platoons": 5,
    "n_priorities": 3,
    "priority_weights": [
      4.5,
      2.5,
      0.5
    ],
    "tau_s": 1.0,
    "tau_ac": 0.02,
    "n_ac": 50,
    "n_safe": [
      5,
      10,
      50
    ],
    "epsilon": [
      0.01,
      0.05,
      0.2
    ],
    "p_bg": 0.42,
    "ho_delay_mean_ms": 225.0,
    "ho_delay_std_ms": 25.0,
    "ho_period_s": 15.0,
    "n_episodes": 1000,
    "episode_slots": 150,
    "eval_episodes": 50,
    "n_seeds": 3,
    "update_interval": 4,
    "nn_safety_coeff": 0.35,
    "nn_safety_warmup_env_steps": 12000,
    "nn_safety_shield_urgency": 1.35,
    "nn_safety_shield_power_floor": 0.5,
    "w_power": 0.02,
    "w_handover": 0.3,
    "kappa1": 1.0,
    "kappa2": 0.5,
    "kappa3_m1": 2.0,
    "kappa3_m2": 1.0,
    "kappa1_m3": 0.5,
    "kappa4": 0.1,
    "kappa5": 0.3,
    "rmin_m1": 0.8,
    "rmin_m2": 0.5,
    "sinr_noise_floor": 0.05,
    "interference_coupling": 0.6,
    "t_pre_s": 3.0,
    "output_dir": "outputs",
    "output_run_id": "run_20260417_130050_n_episodes_1000"
  },
  "convergence": {
    "SafeScale-MATD3": {
      "rewards": [
        [
          -234.49810330530354,
          -259.3587333094997,
          99.59599555782172,
          -351.89865741133593,
          -365.27586787179325,
          -311.10763741633406,
          43.633063991921226,
          -77.86659024370624,
          -276.93096961459077,
          -392.9536899698591,
          -572.0310352967995,
          -557.4741538740501,
          -445.3529875748661,
          -173.3444069474467,
          -185.30143195959255,
          -393.31258828399154,
          70.45559528486025,
          64.67803056411219,
          -398.3410557336826,
          -396.4420338466829,
          -194.47578379965694,
          78.40341896588973,
          -498.90736140800226,
          -483.85107464310784,
          -194.01751758327268,
          41.81379059566646,
          69.40086853550795,
          81.1612048290909,
          -164.5807524522586,
          -124.97398602476666,
          191.01853802128946,
          169.2780538621684,
          -144.3613173764894,
          -123.09484612110668,
          147.72008768771954,
          -149.59106190706103,
          182.01541943173672,
          -350.3141350297519,
          180.87147914989222,
          167.73609464441796,
          -142.6499819277967,
          166.0531824413962,
          -132.30160342844343,
          -130.91924840370342,
          -390.33654084890577,
          -215.57006986258443,
          -301.4510502784815,
          -5.518259518164619,
          -416.1376619329467,
          -248.05087871228451,
          -225.51776651565882,
          -238.71405217879408,
          -292.55343351094956,
          -0.028921080152709777,
          -205.58664325135592,
          -469.97609907990596,
          -430.8244503512983,
          -207.93350659727776,
          -242.97725813442568,
          -632.7378405124009,
          -477.6919022985397,
          5.212206233276618,
          -232.2434717537597,
          -0.4379962821201995,
          18.21673334380021,
          -468.58029661430936,
          133.37944034778258,
          -478.9248362800168,
          -80.20093275977428,
          -468.55294056830263,
          -163.79398490597129,
          113.0980263867311,
          53.377205277725274,
          -285.2255089288654,
          -63.56478728914992,
          16.933725814945422,
          -67.3066167695071,
          -351.5219893535287,
          -33.71645176652029,
          18.41535406559611,
          18.353270534136417,
          -492.4561664952738,
          -162.70296929520097,
          -96.05755268862129,
          -142.30704427498642,
          -91.93803566831672,
          -316.8637047165006,
          -172.45528011324132,
          36.361226020428774,
          -12.291288168392827,
          -289.5079088344768,
          -85.60946151791555,
          -212.93542822218652,
          -149.06570054261994,
          3.959000368779368,
          83.58078031486589,
          -83.54461695413649,
          -84.9446004593853,
          -197.01237200333588,
          -181.3084281376777,
          93.76373499382417,
          8.96442380057901,
          -101.58240884936421,
          -271.07355446705833,
          28.32051901409884,
          -184.0184409413448,
          -77.2408792383387,
          -33.91334497983416,
          41.75238301856703,
          -163.40357681393334,
          0.07741937117341768,
          -169.5653861997208,
          -136.61849657577034,
          7.242553916512846,
          -129.87685963535435,
          79.46707465168429,
          -124.37882330901154,
          59.48764145146007,
          16.751845197445366,
          -57.83347861422548,
          -101.29524289856636,
          -183.83147120731138,
          -154.62756301601814,
          46.29860778883456,
          -228.1028797376496,
          -177.3067879761056,
          35.67880971976124,
          56.20187559785238,
          -80.25563870183771,
          -275.78079276076534,
          -73.26724358027876,
          30.94277261707971,
          -235.50041742849436,
          -103.7808642492749,
          -45.43381843705993,
          -120.58640340944189,
          -177.76767318127838,
          -64.22431467081248,
          -113.32954216502083,
          -64.9577127171344,
          -253.51248323606669,
          -140.9656151342016,
          -328.89375173044124,
          -58.33702456259161,
          -150.89889489289493,
          -371.2000012964161,
          -44.84350358245478,
          -64.27061972701262,
          -210.21817306100834,
          -333.2884545765367,
          -237.48413138906773,
          12.483040147178528,
          -156.7001113913024,
          -10.260371566410337,
          -372.6378630286796,
          -302.5450628454849,
          -171.48167876111748,
          -31.25520825818988,
          -346.6798538724544,
          13.010152378357414,
          13.641013797498225,
          -253.85296445514967,
          -138.10852041719562,
          -59.87640755889244,
          -366.01066235138325,
          28.063381185802932,
          -104.03379031083328,
          12.797704696690543,
          -176.90860824812106,
          -6.52579148244571,
          54.08320236317634,
          -172.5623605730152,
          -176.3790262487958,
          1.2118111642322562,
          78.41386164653449,
          -282.6115660946111,
          -333.05669668099125,
          -489.3435478710461,
          -199.3263682677806,
          -42.31595646291669,
          -188.37379778263505,
          -200.0571335781054,
          -174.8236450280235,
          -178.60079806351172,
          20.56127528975276,
          123.29036623590908,
          -138.3367794315354,
          -141.9508388775238,
          -142.02144180720157,
          -131.31686369282633,
          -134.17750636200202,
          -179.33140631636894,
          156.986650792728,
          -367.34779829193286,
          -172.85843232002324,
          -109.31873730303987,
          103.06090397900161,
          39.17944192540054,
          155.1864880820593,
          93.48256734163482,
          -211.55387054887748,
          -88.80234205542246,
          115.92002022674431,
          -149.05886997903656,
          -170.18443881818587,
          -154.23450065594275,
          -184.01540813597643,
          147.20646003314408,
          -29.675820669584404,
          -481.10797612931333,
          -156.54127489161564,
          126.63269870385403,
          -122.38937672644258,
          -165.39571248376566,
          -363.20734929429227,
          -375.5971669512728,
          -163.77037236936712,
          -159.84402251514337,
          -152.87075786067962,
          -133.4369479316626,
          158.69779847814937,
          168.24931957186624,
          -362.17508151250394,
          135.28828903653857,
          148.52745509182503,
          137.1396452915733,
          -435.99517971136385,
          99.5301101628215,
          -486.134860458782,
          -225.98845841103096,
          155.752819165512,
          -115.17132902609562,
          -174.6294126363687,
          -140.57397859681052,
          -140.09205958716112,
          -160.23874376018566,
          -153.0471956371195,
          -535.090676174315,
          -170.55834773457343,
          -139.08355713766528,
          170.48496387708877,
          -327.83959948644286,
          -147.30256940754583,
          -118.17627566303963,
          143.5456332070891,
          -293.9589459834956,
          133.09203340601317,
          -165.8466770233645,
          147.10920361769925,
          -423.3460788731069,
          -241.89054945374187,
          59.3088876087901,
          -139.02923177687964,
          -195.66274755537947,
          -167.6217710217136,
          -164.7064905077166,
          -163.42811060188114,
          -181.495079185479,
          -182.5958624878753,
          -389.70790981245136,
          189.9967325893847,
          -139.21854199230881,
          -188.5783590580957,
          152.7975197867397,
          -574.5670029300921,
          -143.1421595143672,
          134.9806077407054,
          -142.7718176607577,
          160.00656943385815,
          -142.1129619502162,
          145.37709657895758,
          -153.83413363173736,
          -125.72494091966696,
          187.94955209203764,
          -140.87053866025803,
          -131.78547901026877,
          -339.82928072401154,
          -128.94617521538459,
          141.08342694962585,
          127.7312449623384,
          -152.3076206424658,
          -151.71185336177444,
          -318.15455396670416,
          109.85462508604535,
          -177.67472767732875,
          85.81485543913055,
          134.05002570892847,
          -195.6600224030418,
          119.35311391689784,
          -183.81128071252877,
          -162.32035464165813,
          111.34769161865783,
          168.03554771567806,
          -181.40968486728443,
          -146.92658080787666,
          -146.59138057995852,
          -150.98442020459316,
          -439.6800585963283,
          116.72272857010071,
          -349.63989683291186,
          -119.20478527391764,
          183.3727786435969,
          -345.8305226382223,
          -684.9627645982889,
          -146.72975584061427,
          -465.34160639559013,
          157.16532435931666,
          -159.70252870531908,
          170.12571284891305,
          -444.6572973597299,
          155.3277813888665,
          155.66123460503113,
          -163.85380487831796,
          144.8145222758288,
          -140.78833533445643,
          -441.4338963230183,
          -153.35096399723892,
          -357.6134535392613,
          -156.83453874316967,
          -166.59986753936045,
          -142.86193592070074,
          -130.43114188657904,
          -159.76143286552752,
          -370.7136355639471,
          134.13390023040844,
          -348.36180739233146,
          -459.92110657489565,
          149.36177313996512,
          -391.40499992311635,
          -351.3737149240227,
          -151.04013459009522,
          -452.28701906249375,
          -136.2548670297068,
          -130.47953815599215,
          113.16476918421988,
          -481.160456501858,
          -143.7615608248256,
          -287.4903395737961,
          -162.6533507355915,
          80.88034968006885,
          132.0466402163885,
          -166.53194269085745,
          167.84626884275303,
          -149.16642870388753,
          -158.75304181613626,
          165.95890820454886,
          121.78237868348602,
          -164.42023556922007,
          -192.67231742499888,
          -133.88933714541315,
          -135.67840412349008,
          43.31037839423879,
          -150.24082476298926,
          -154.95804357658818,
          -643.1364971567789,
          146.93629643342425,
          129.75640585523274,
          -202.89934592574667,
          146.40049688811442,
          178.69192272387698,
          -149.62820815920568,
          166.99792008564995,
          -193.22192374279675,
          138.21185714984568,
          175.9544688771205,
          -150.83465088118547,
          -195.9435244555464,
          -145.81046764564684,
          -157.42784657271795,
          -133.20815930000344,
          135.18440884049693,
          162.7444779413317,
          -119.95465523632812,
          -366.4147933780663,
          168.14229579870113,
          160.2463163919149,
          -106.23482870607192,
          -140.3960905305267,
          -133.14523028098057,
          -446.46976896388134,
          -156.62837312570872,
          -315.397683820207,
          179.68396578241493,
          125.60464800225438,
          169.86687592072377,
          -331.0844570901579,
          -152.9487942631236,
          145.05007506698306,
          -90.64362898749745,
          -147.96042053357772,
          -356.29317227693195,
          -128.0684830735118,
          167.62201669149732,
          -158.38718613978818,
          -138.32624035473836,
          180.42395904433565,
          -155.26327477320075,
          -172.8051492587314,
          151.91189961711729,
          149.6930550885371,
          169.14688532329595,
          126.89226020372593,
          -563.6190254013065,
          157.92574680507295,
          172.7799742737418,
          163.959526681115,
          -600.690402291108,
          154.3503833129224,
          -434.3704160733574,
          157.6857831180681,
          -441.7478369396531,
          -422.3905342119544,
          -134.08612501950904,
          139.6465963977167,
          -377.16933201089137,
          -149.75319035871988,
          -360.86757324473353,
          -132.43144211857935,
          -129.59544446382446,
          -155.50310583875356,
          -139.4923157068445,
          -154.06973363827626,
          -380.8966732517499,
          -125.3846597252589,
          -338.12971175331114,
          153.3119057711124,
          -129.22819703319274,
          -168.4191879589936,
          -144.84448859817786,
          -156.30231137105667,
          153.02587928481813,
          -427.07207424588273,
          -105.40484573972847,
          121.2310292801909,
          -130.3626390820883,
          153.47233952650743,
          -164.39039435356094,
          -443.1340105567034,
          -98.85252647715001,
          -376.61414380632175,
          -140.02979492971974,
          -137.3206023076983,
          104.81976219879746,
          -205.51877358582703,
          -206.01565623105446,
          -224.41884568154032,
          -245.7467042016017,
          83.63288679446701,
          -600.677997628644,
          -223.84937818290925,
          -426.35279305032725,
          -197.6315048088326,
          -201.29461117822115,
          -173.18235591324253,
          50.03342860413171,
          -155.14087474001855,
          -226.92078170217408,
          -236.827742765262,
          5.45521862380249,
          -220.6490936685938,
          44.32047903386004,
          -220.53818404655493,
          -272.4319289630293,
          -412.3302396031938,
          -394.70238727480785,
          94.65563858191231,
          -39.35844546155696,
          63.19910369192792,
          83.87934881392576,
          -477.9135110729313,
          27.62703413331005,
          37.9500888963975,
          -197.68837869563814,
          -244.53985434390614,
          -252.21127423423215,
          -490.6515226660174,
          -224.51241788849407,
          -248.61251579002703,
          -368.29761211536487,
          -471.2807766245978,
          140.72259350245818,
          -182.09642672485222,
          166.24904446741672,
          -365.6413122608389,
          -426.0102375855579,
          -146.26360366188771,
          -147.9172670782974,
          -147.13092588335394,
          103.49656085619438,
          -195.55880650470135,
          -136.87631084093258,
          -346.7253743348251,
          188.7896557791667,
          147.4207859359336,
          -168.09288425344437,
          -136.6976833660812,
          -152.0491151940856,
          174.41955216920223,
          -345.70642754293016,
          175.29158274530167,
          -142.9313791474811,
          180.3673939692436,
          159.3706651249501,
          133.428742488442,
          -164.9695470193241,
          -333.3353531335923,
          -135.89597072108023,
          -413.4919659865185,
          -145.72564792375726,
          -134.23814097833898,
          158.79809576960275,
          138.12026282550968,
          133.24966085982354,
          -348.7697316195621,
          -132.6233001251824,
          -130.38431636759998,
          -156.47577900725366,
          146.30974628634087,
          -127.19596574186416,
          -464.40427710660344,
          151.37222188467098,
          -117.54755515075743,
          -137.09151508727302,
          147.28796574621683,
          -130.82127635334578,
          -141.11810214486354,
          -138.73336039860854,
          -388.32368853381575,
          -452.24243822346955,
          -426.5629677439915,
          154.76368561148468,
          -113.84538842418486,
          172.2628647027585,
          -134.7074319584575,
          164.021172343105,
          -166.2934320206136,
          -149.95233162697966,
          -126.66234514551749,
          -158.08537912399785,
          -163.20945158999953,
          -41.65516527723528,
          -159.97038167605402,
          85.69453850773651,
          111.84384733643218,
          -107.94690649172446,
          -167.72304105047135,
          -182.65130556427755,
          -149.80139867321006,
          69.15707082570836,
          -186.52409698424725,
          -179.6886779703355,
          -672.185476496596,
          142.48555770627362,
          -158.05321925191404,
          -160.76687307732485,
          132.49885194291858,
          -195.23332342356795,
          -187.96090877086854,
          103.14861827508088,
          96.05815578652329,
          -439.91508450329223,
          -182.25665313978882,
          -367.75971506279365,
          93.2613452388667,
          -171.13561541614274,
          -380.6926818167392,
          92.41346372837779,
          -156.0998369585037,
          -199.95822048882263,
          92.24399433854143,
          -179.9138594153662,
          -269.8737906188331,
          -389.1535966868449,
          -467.82145022554386,
          -182.44615320360717,
          126.13671423948276,
          -185.77345591947108,
          -199.79896332992973,
          87.5543399913219,
          -152.6419141960343,
          115.61504741415561,
          54.566947978980174,
          -190.06458325409542,
          108.49990356025477,
          73.41708748590065,
          -177.16454921518564,
          -177.06290662638534,
          -193.56882847771402,
          -161.41967057925743,
          -187.3274398625939,
          111.9110413401078,
          -134.26877213314918,
          132.86653267528402,
          -148.03674232400385,
          -178.2684215397915,
          -399.49641402282623,
          -120.20544731568529,
          -161.06537560437155,
          118.49646291345658,
          99.64449458334241,
          -169.04231328614244,
          -154.57318538074261,
          127.36250348265014,
          -166.5736067779512,
          -169.47716780661614,
          118.29456306297803,
          136.63780416834345,
          -373.6880044134866,
          126.83543278002603,
          159.81197284168329,
          -160.90791639843863,
          -129.93745596955733,
          -302.49310766012417,
          173.78920370084188,
          -148.1664682205545,
          165.18052495810625,
          -150.6916696935057,
          -185.8013709939703,
          -175.5071887604619,
          123.540684337303,
          163.2577912410925,
          -168.9960165941884,
          -124.55146288985634,
          173.39967099792813,
          -145.53134351393814,
          116.43368022731312,
          -143.34460226994844,
          97.31867916881208,
          -132.22982196785398,
          -181.19941510079718,
          -161.86240740003782,
          -416.71018460965445,
          -405.96974391081864,
          -146.86405928437895,
          -362.5642700627081,
          -572.952604929676,
          -447.67628663073094,
          135.70480960707118,
          -139.9477784807777,
          -130.1896416720265,
          -155.74247671963602,
          -115.11894127977251,
          -149.9207606635466,
          -440.5134463471427,
          -165.37233070646298,
          -399.84543779985836,
          -147.16227908073998,
          -116.90535706032655,
          -453.9537663135998,
          149.89428096687962,
          -149.52493011603426,
          -141.83996353117578,
          -158.18956586433674,
          -131.78730409055663,
          -45.52759678494099,
          157.49165288509946,
          -121.31675827538467,
          -54.289846365777834,
          -122.18501652353974,
          -217.85503389104232,
          -177.27738656490388,
          -157.16019226448475,
          -245.26638151331608,
          14.360615543499655,
          -166.46306884462447,
          26.269661834069034,
          17.879933913897144,
          -193.63114690436393,
          -464.08389252185106,
          -409.7979705733153,
          37.544579533076835,
          -228.69223531879342,
          -210.88733115226367,
          -240.725085825552,
          -225.93818451612205,
          -1.6025630768209287,
          -410.3411945162605,
          -212.5162393498187,
          -237.955634430298,
          -267.3798012219649,
          11.975091499401783,
          -227.6393354888377,
          -209.3782514547012,
          50.79582262112076,
          12.406188875669942,
          31.87804560096937,
          -216.16387496396618,
          -192.04664310149963,
          -187.89380513593417,
          -102.04301959263502,
          -341.27099942741063,
          -280.7626435906725,
          -35.592816599592865,
          -224.1974222877817,
          -473.6408947425652,
          -286.3133385427147,
          -403.9805413085683,
          41.334264800924785,
          -228.10452873483501,
          -253.77598454450785,
          -239.6371178633319,
          -242.97093952129484,
          -481.8351730354309,
          -212.0491491777226,
          14.566738989077503,
          39.60209685776438,
          -245.50145006691005,
          -462.4553957775339,
          -243.16214418672828,
          33.186722050812904,
          45.83369388628211,
          -211.1396259682925,
          37.181614812420364,
          -237.81448793040556,
          1.226755077681518,
          1.2861907236755221,
          -252.80496564049164,
          -639.5921238799167,
          -223.4254881440643,
          -200.45274420339084,
          34.800621052884395,
          -249.63696320879365,
          24.111645238698237,
          -128.83220431161524,
          -448.18511461772624,
          -35.4653316587388,
          -205.24373010237798,
          -148.30088577871993,
          -209.44731887089725,
          -192.11650186345923,
          -172.83942355153275,
          -112.49880525723327,
          -423.68926566575163,
          -377.32933586286845,
          -257.58673526053394,
          -192.9775286385093,
          43.217216550259515,
          101.4276669813068,
          -450.49037081110396,
          -420.7982658566398,
          7.956544187342498,
          24.607331083936103,
          -145.67281337868928,
          -198.28219039765935,
          -216.02049126948327,
          -59.639402014466434,
          -178.93235868577273,
          -169.69425623690736,
          -246.2406507806984,
          88.92009337140065,
          -177.4470892218645,
          11.534654016279706,
          -188.2522775863324,
          -202.11007976174048,
          -202.7316695146668,
          66.64172661243988,
          -399.0886402732388,
          -78.8751598148942,
          -202.73134415271232,
          -213.32875946884187,
          -170.6990468855041,
          66.43301201462653,
          -24.953561411373023,
          20.186952208216255,
          -189.50180603590866,
          -433.45307767127963,
          -377.234410363602,
          -233.21754236328803,
          -350.0345006731925,
          87.95096123259924,
          -191.5061565392373,
          -201.54694139500234,
          -167.76638702601917,
          -179.22626622793007,
          -120.27453360375401,
          -196.42899662799243,
          -281.43039150533065,
          -177.21804909775682,
          -290.50297691799454,
          -200.4618107787805,
          69.10139861304494,
          101.12003778254721,
          51.36081534055662,
          -215.25776447119392,
          -130.4066065160751,
          -27.472696865290125,
          -172.21920685964835,
          -207.71016686493385,
          101.55265576452884,
          -210.21342582514475,
          -192.37898029649915,
          -17.780848562343337,
          101.27267312161553,
          -57.84504844005587,
          77.28407626646444,
          -173.2167386294341,
          -235.94515526930454,
          -166.13589414380775,
          114.60744361621708,
          -222.21283116365137,
          -414.25420204832557,
          -410.1966439445475,
          34.56461518415011,
          49.883979791238794,
          -251.55135827300683,
          85.54313291053921,
          -108.98246582236798,
          -206.60120756159083,
          -134.0449588355279,
          -317.2653663479279,
          -203.27168891444998,
          -165.1483412952014,
          -147.1718480680164,
          52.43976322468213,
          -5.307815782199839,
          -124.10616636572084,
          -134.98389423242855,
          -29.10698905996154,
          -315.9519031088451,
          -279.54954196989775,
          -306.81993723313917,
          -127.47422666764308,
          -243.45252132232594,
          -122.8841058718275,
          -389.692518808461,
          -82.40076166474103,
          -185.77067413284962,
          -249.5874834089027,
          -120.32822900012579,
          -156.72136240332577,
          -285.0242614235807,
          -148.06996051737767,
          -291.98339436545194,
          -60.83981721870601,
          -144.70479326792648,
          -31.195634406499675,
          -68.5229332229619,
          -22.308449213837026,
          -130.0684826486863,
          -237.1631069103265,
          -327.65657789806204,
          -233.597747499108,
          -128.8180333466876,
          -267.1785848298968,
          -50.86225522556686,
          6.0161560761870385,
          -91.09503810654682,
          77.43214905441894,
          -18.90298638440703,
          -51.36936784081316,
          -11.513017931589667,
          -160.018987437995,
          -136.25885876427833,
          -312.7809142876478,
          23.119393860184427,
          -53.7955664305139,
          -269.2314098370255,
          -244.50837846107814,
          -58.896757031886764,
          88.25703435145307,
          -47.21354431887712,
          155.64004859332988,
          -30.529499219899378,
          83.73189568015425,
          -214.77873240794239,
          -98.61442154104517,
          -90.49450177739249,
          36.40687287563865,
          -169.10683112387474,
          -131.20687156584853,
          -19.20717843571259,
          -105.46432390469688,
          -169.43844232083606,
          -51.407516150655375,
          -163.06660280113377,
          -9.711073126209435,
          -129.7100128659826,
          91.82268193422667,
          -168.56808691021135,
          -200.95406110056211,
          -44.25332149011926,
          -241.05839400903366,
          -196.6520355153823,
          -47.689124519014946,
          36.3320552177095,
          -379.4233369311781,
          -79.87296985132535,
          -192.3658998190008,
          -162.9775211370267,
          -201.00726524862668,
          30.13209211581013,
          -106.39512874220874,
          -343.60318547272476,
          -85.46094916487809,
          -48.32698504713217,
          -269.01552396660315,
          -515.3445563821733,
          133.41678947352094,
          -293.2852977783466,
          -74.6489147501992,
          -166.94298519608483,
          -80.94452433343679,
          -130.69639136492646,
          -75.79059782818167,
          -58.22889000459237,
          -3.565697706517757,
          -425.9645952271621,
          -26.343787119688958,
          -132.1898662296353,
          -271.95409945709343,
          57.84530095654493,
          -183.20994428994467,
          -214.73425210301048,
          -46.7656484626673,
          -164.12497470349604,
          -397.7803853749354,
          -166.08785325343638,
          -76.10516749204912,
          -122.12999034436781,
          -78.14961493577837,
          -9.036744109937297,
          -143.7941836554961,
          -150.0371178361791,
          -140.39828927829788,
          -240.5463216929187,
          -91.92539953115573,
          14.278694967197499,
          -316.6894176861873,
          -27.969631391588702,
          -151.60353430249197,
          -54.13237778771472,
          -15.13032796201685,
          -247.2054030435038,
          -312.35854260815864,
          -44.516171635181244,
          -68.71547476225486,
          -91.96499214706125,
          -3.2827988180125827,
          -173.4715436352079,
          -184.36777087775218,
          -65.91488596790823,
          -75.57746019263234,
          -173.4057351940543,
          -229.8966777867381,
          -176.4741590391423,
          -179.31250806630678,
          -125.92017749754106,
          -253.27250841839074,
          7.963817029147647,
          -63.056581947354594,
          -152.1610233762402,
          -99.27045086735623,
          -120.70417302149232,
          -283.6052452757279,
          -40.5498662660031,
          -66.13685914473153,
          -322.02902271603966,
          -172.93317932707285,
          -268.518979175843,
          -245.3440414134614,
          43.652294469547876,
          -184.212442239548,
          -291.6035302929715,
          -222.8921556042142,
          -104.04352370483754,
          -153.9565193490109,
          77.32845581382884,
          -121.12647013689573,
          -247.90827016171076,
          21.700179641264707,
          63.68016245840566,
          -160.9262115549431,
          92.85801276320916,
          -40.5523335916123,
          -233.05681489618115,
          -138.54486154375599,
          -2.881072124801177,
          33.78917628979885,
          -51.465366344522245,
          -283.70638906811183,
          24.69413936372384,
          -28.08502538487274,
          -204.61076542065237,
          51.07109658155739,
          46.985068703936186,
          -195.745316809727,
          -183.03710024271643,
          -161.2929624024291,
          -53.400460813148136,
          -99.15767782029464,
          -337.5461668758477,
          -167.35507649701927,
          -160.98260243986215,
          -181.75811378106158,
          -298.8473054379642,
          154.51662675449663,
          -250.12502738894983,
          -314.7498479778515,
          -281.2446028182543,
          -23.05919508977208
        ],
        [
          -439.3130020258681,
          -208.87248836287714,
          -636.706464237592,
          -501.0947453086248,
          -601.078435292642,
          -645.1235450720008,
          -602.63189346533,
          -526.5187239731791,
          -560.4147489247079,
          -608.6094259207305,
          -517.5069081866787,
          -598.3058315177427,
          -590.2042433146299,
          -588.9033243001852,
          -524.5030160918687,
          -809.402307946056,
          -595.5019444706996,
          -506.9016499629528,
          -584.6013634529718,
          -555.801249426824,
          -660.8009519524344,
          -615.8007122721177,
          -664.0005197982364,
          -570.3007209433899,
          -640.901280313549,
          -596.5251813347093,
          -490.09456078467076,
          -460.56526660075997,
          -472.3328218586937,
          -456.3077316504788,
          16.412106244862244,
          -228.45925805464628,
          -417.94222698331885,
          -208.66531176416703,
          2.3885914534551613,
          -90.39970530427618,
          -244.1620557241332,
          -230.1710719887698,
          -12.20516762600362,
          -4.5513691679129415,
          -126.4318366278952,
          -120.91888421933642,
          -127.84050066092156,
          -98.77249991504668,
          216.14571195947218,
          199.3214156247877,
          -112.91783296134138,
          201.67475482199566,
          -136.59490608023305,
          187.561857832579,
          -434.67637318126486,
          -103.53579380654503,
          224.5966881697857,
          -87.19949259609504,
          -127.84993019598585,
          -116.38012745405774,
          206.7955249185895,
          -142.3558628674565,
          -113.82963677599989,
          -114.08786536227582,
          -105.49584537417057,
          -458.10953818024456,
          210.10707474922927,
          -101.37835554918618,
          -114.94523249577527,
          -104.82971956166111,
          -107.02079024753803,
          208.57734157790458,
          -118.29146036738305,
          210.87938077207718,
          -112.36637855014706,
          194.7810019935293,
          205.48627110382157,
          200.6242506935678,
          -413.9368730510963,
          -360.92086538767904,
          -132.84111131035772,
          -104.97085581610543,
          -106.59508461519849,
          -105.19222878960585,
          -338.10605854383766,
          -352.2936674456547,
          -116.53243348122248,
          -113.37172104667886,
          -129.56626917827953,
          199.5156219567186,
          221.6967439384115,
          -150.46072011455004,
          -372.41011834191244,
          -112.91767714646423,
          -100.50173216845828,
          -105.55290537618355,
          -129.4033444851144,
          195.85900721675364,
          -102.1611589971127,
          -101.50843380307646,
          223.47438213754165,
          -167.6031007285739,
          -418.7172152995616,
          -123.88528417991424,
          210.82098906830217,
          -103.58535468745247,
          210.04071859169449,
          -116.45458455806494,
          -93.42149476202368,
          -438.7077909873046,
          -134.43992075980526,
          -97.76303055802252,
          -426.5440914844551,
          -116.88492807209573,
          204.30780931384768,
          181.68432329018407,
          -126.77463352049271,
          -107.7014736735544,
          -120.32844923299815,
          -424.0693697632679,
          -98.45608227724713,
          -108.61769666225317,
          -113.01395525197792,
          191.68113697526485,
          227.8940780550946,
          182.59464821749185,
          208.585350190908,
          184.83879875397943,
          -108.42524686362376,
          -106.03167668155645,
          -127.17969038351912,
          -425.7007491234201,
          -131.34707254102457,
          218.18040057770614,
          -110.46432822792384,
          -105.39446772065446,
          193.39543448305201,
          210.99004221359624,
          -124.51100485699418,
          -117.91630421649764,
          -329.2459467284354,
          -103.50560994594007,
          197.38460617728836,
          -129.757578349029,
          211.57277617359367,
          -120.7161346785167,
          -129.67226073138204,
          207.13772730558586,
          -160.76231625165437,
          196.99787713464258,
          180.19885428965037,
          -103.84847263045238,
          -121.1845348170544,
          208.61400870068715,
          -108.12183490114889,
          -98.81238549255299,
          188.81950887972,
          -114.44907519300776,
          -120.85406340276893,
          -421.58628185026447,
          200.1690098067147,
          -130.43733791076068,
          -443.884721199109,
          181.35174968578963,
          -101.46464324256496,
          -406.38064158472207,
          211.79644589606968,
          199.0646601194858,
          -416.00904189968315,
          -117.24915131469592,
          195.03101351957812,
          -352.5254670731972,
          -322.2851130542667,
          202.88135206452856,
          -410.47076917642676,
          217.36082226891943,
          221.57396502492517,
          -104.66464950527865,
          186.62732373401914,
          -100.17131200080647,
          -120.64895157999504,
          173.91993403040513,
          -431.12141388184375,
          205.5209012047192,
          219.24018289575372,
          -106.70914971190614,
          -418.0544656772555,
          -100.30601908617795,
          -337.38471258902416,
          -128.1418403605534,
          223.41336996820186,
          -413.8438485137859,
          -432.1749525586743,
          -107.93017095144188,
          -109.47884778757627,
          -133.80162938123303,
          -113.03185375854011,
          220.00384626063675,
          -416.8135002327099,
          -97.01190722448456,
          -422.1131637952149,
          -101.90521345096764,
          -459.94778845479567,
          -117.10379798306934,
          -161.30620502936694,
          185.5286622155591,
          -108.03578007709152,
          -334.46678376404236,
          -109.15542167434846,
          -86.7023679680519,
          -99.3824452353083,
          195.34491633749434,
          -125.24160512157076,
          -116.26914732291806,
          -135.35114218662707,
          -129.31484745944744,
          207.7900067037378,
          -373.2334243316276,
          218.39739094826263,
          -119.2165488973241,
          -425.84377870650013,
          -91.9018944340052,
          196.40245244157285,
          200.8129808734599,
          -134.83622325414728,
          -114.86475097311491,
          -107.76163714703442,
          214.97610903082762,
          227.7375248929478,
          -131.76063291390187,
          209.734990553276,
          -110.43170606663568,
          -118.21807396833876,
          -112.97791367043925,
          -131.25379435507364,
          191.5610735341079,
          -102.50448450819849,
          -483.3118387009235,
          204.6190188756409,
          -359.2740981098265,
          -143.81444576998732,
          -346.83356110320403,
          -93.05698612260478,
          -122.82624657180045,
          -123.74405641737651,
          -442.52462951714847,
          191.12066056772565,
          -112.583595229624,
          -111.49918725873498,
          -110.17189128550797,
          -110.49008565140603,
          -322.41990113104305,
          -92.26382246620014,
          -131.61638482624036,
          218.39790043363928,
          182.79885921338936,
          -112.91588247152363,
          -351.2064133720915,
          -449.63236663753776,
          -102.64369112198746,
          199.99222569481194,
          210.49225637830776,
          -133.76369922358177,
          -99.16735095467855,
          -107.02105827550227,
          -448.1185586088029,
          -358.2151732258333,
          198.50152768899628,
          171.4744684619735,
          -128.6970966828766,
          209.34794756514478,
          -131.3446026842892,
          202.97658614773113,
          -112.86403292578849,
          -123.10134932217818,
          -118.91591487461986,
          -416.6858760758977,
          -358.8206922793711,
          -418.73110805761627,
          174.2570844846275,
          175.91198404694708,
          -103.00855410425967,
          213.1315324680582,
          -122.08745269551238,
          -344.2006415659776,
          -134.14795105750935,
          203.50621103311389,
          -104.27370632691704,
          222.11155206233337,
          -436.8429586984882,
          -139.29417710980292,
          -411.8246907080566,
          -107.57933555253473,
          -457.8610661417828,
          -337.17563234973386,
          -115.25463964530506,
          -442.45108846927843,
          -426.80536412946844,
          202.32536623705627,
          -119.11777359568241,
          -368.8851652228636,
          -103.97655367927486,
          -109.69995904702449,
          205.03957782113343,
          195.73316236799684,
          192.91548209463176,
          -124.73928840113328,
          -137.8190529046332,
          179.1657714527576,
          -336.3670283587406,
          187.0431757950143,
          203.67745066662553,
          -375.5578284870346,
          187.8146370618008,
          -117.98684888734319,
          -440.49807490693837,
          -426.28265637153237,
          -93.28475176896339,
          178.56205130664895,
          -116.93755586764352,
          -124.82350437926215,
          -117.42663050106592,
          206.76697954126675,
          -114.12617772979922,
          169.9983073798652,
          206.96184006924352,
          -135.3090731356272,
          200.1458938937537,
          -156.07086442215646,
          -142.71261383490625,
          -660.0679815859576,
          -113.81010137270606,
          -109.53512507240731,
          -121.3695792797481,
          -357.9026767410209,
          225.57721748983084,
          -338.22727958428794,
          -120.61580214189809,
          -97.76369798169996,
          -106.20204107674893,
          216.50009702773545,
          -91.55069520559148,
          -122.15516775200805,
          -112.3481413397794,
          -113.14213681226177,
          -107.38214392269906,
          -342.16332854286856,
          210.76706207943667,
          -321.47206161281906,
          -436.7796106715487,
          -129.69061791834363,
          -444.56187240476726,
          -103.86517577886815,
          -94.86160418419375,
          -116.71082894718782,
          -112.7175506631872,
          -349.118425033978,
          -442.5248685319505,
          -118.1282962547648,
          -113.31864339406111,
          180.29511086299013,
          203.8126579028791,
          -94.9618425629499,
          201.60091703557188,
          -355.55615917488853,
          -124.22222904387901,
          210.57544870439173,
          191.5514606074925,
          -100.23168073499497,
          -354.83542689487837,
          -439.3499874001249,
          199.3838648905781,
          -417.8955496189516,
          -116.6563570617101,
          -103.35999753299913,
          183.51646356578232,
          -148.90366406700957,
          -116.18571005614662,
          -101.72907055082533,
          -106.81244257698607,
          199.69033165693804,
          -117.1375193725041,
          -364.0605121316693,
          -113.74219188507092,
          -106.00566274285286,
          -124.23077040908734,
          -431.14805825508273,
          210.85239969635285,
          -443.9785244137649,
          -126.7369329659597,
          147.12964309209755,
          -643.6222416198864,
          -445.6945952257798,
          -121.23716322380236,
          -431.94711347414176,
          -424.2735916498542,
          -121.63079660747583,
          -115.73318913442003,
          -442.9213191271117,
          -93.21160181707886,
          163.4303253620032,
          -112.83620112129258,
          196.16692635759924,
          -103.62972424954391,
          -94.58057515189334,
          -111.5799142524151,
          222.86468682325105,
          184.94604036269536,
          217.30427706329772,
          -110.84062557467385,
          150.33950788884002,
          -114.08879861002423,
          -97.57401280702726,
          188.91197299111184,
          -115.64901689311992,
          201.6335498189558,
          -363.75189300047236,
          -110.52673932626834,
          -107.96590100085315,
          -107.02333264324282,
          194.7478440930613,
          -104.06050842794338,
          191.59875913572068,
          211.72619479024627,
          -439.8706304761964,
          -93.42264328589158,
          -118.62886870542557,
          216.70853690999058,
          -127.39427133541956,
          -112.35495170317122,
          209.72297053883466,
          -100.2500118979125,
          -417.0796625410681,
          -124.9235307519026,
          195.912882953301,
          187.64206902540502,
          -123.53855023562168,
          -89.86593394128141,
          -341.11123842323724,
          -135.1670921873001,
          -128.2440883546099,
          217.51954094810048,
          -103.25953570404035,
          -117.66704775659794,
          -104.88346607541325,
          -143.69125039023027,
          -462.6169337477085,
          -125.43570455451899,
          -84.53641907428856,
          205.1365288954964,
          -432.30855227044174,
          204.75876371384402,
          -130.49754148818877,
          218.86586738926871,
          -103.94781659585453,
          -90.90085972426853,
          -117.70013223992777,
          215.92756973022105,
          -455.4130951577674,
          -108.59464476920289,
          -445.6636734726185,
          210.85699253093793,
          208.54271568710024,
          185.34303529709385,
          -115.51163650286894,
          198.40300759482554,
          -122.24826532966286,
          -435.1990661945071,
          -120.27651603890139,
          -439.7770732055861,
          -123.34943004673718,
          189.9048424707712,
          177.6159068210797,
          189.56940555591265,
          198.1987627971206,
          -129.6445479362161,
          -342.6543851543055,
          -115.20427514300722,
          -114.55291809910989,
          -459.8253810030516,
          -120.10404574551954,
          -130.52349602167908,
          -665.9848764505679,
          -91.9669954931112,
          -441.95140629780326,
          212.50197296635935,
          195.77573830133048,
          220.13136944994363,
          -668.0890734475591,
          230.14666016657617,
          -339.1146490696119,
          194.58105586473835,
          -655.47359936871,
          -118.09964112541743,
          196.02028451092286,
          213.4783089773661,
          228.03621913934097,
          -109.36668962036578,
          -96.92264096663068,
          193.5771727696589,
          -104.62887631697681,
          -117.03532845152176,
          -430.3828181928159,
          -114.18643774953654,
          -436.21510515134156,
          196.54502552883324,
          -122.80165899965378,
          -100.84588869206964,
          206.98992009972503,
          201.21510803860102,
          -92.2216503611401,
          -118.3516077360445,
          -93.11862303984232,
          -116.38082151432064,
          -110.19289195680297,
          -98.48421424646146,
          -128.3039075427072,
          -136.4148945728233,
          217.76765497289355,
          -104.33506083221467,
          -119.10450720784786,
          214.7069428842115,
          -433.5098819211763,
          226.48132086528415,
          -114.57216243910678,
          -337.27604643581986,
          -123.23644369934944,
          189.1265335555692,
          -135.94292362486308,
          225.08642151853405,
          -119.24558054391163,
          -133.9713264347689,
          202.79586832671077,
          -97.25257282868287,
          203.26782370303843,
          218.17016829229544,
          -326.30247222371094,
          -84.759594271734,
          -100.90073502902361,
          -123.02531699443671,
          -118.52011011925978,
          204.4507966722782,
          -116.36181467340712,
          -356.18209407908574,
          -326.39393640231026,
          -98.85032843021989,
          196.14255149861933,
          209.9674987359352,
          -112.3170133419556,
          -106.74757086070319,
          186.2090029482782,
          -408.6708703358116,
          -106.3881008020244,
          -98.32086853814093,
          -115.51942452480635,
          -133.7336123719335,
          -110.28089062932806,
          165.71977747670508,
          210.10439801145608,
          -106.89568451024275,
          215.31184719076197,
          -405.7333689500723,
          -127.57696793411577,
          214.56454901164685,
          189.21335191085277,
          212.63886176109534,
          214.89691111713407,
          -130.68304207147247,
          -101.14555423680937,
          -110.2782190283922,
          -102.24122215964624,
          -122.75681055933578,
          -434.04338828046986,
          -329.1282745153565,
          200.37778409041348,
          209.21625143629717,
          203.4430409398441,
          -130.7702304455083,
          -406.5629290430992,
          192.36060943714764,
          -658.0334411888874,
          209.99543798905714,
          -105.11307813483995,
          189.66575614604255,
          -125.78690147498575,
          -91.99523987045515,
          207.57694548031947,
          222.76580071812256,
          193.13031719830906,
          203.7525654365559,
          177.96578167867577,
          -126.02411890316054,
          -99.59444816891536,
          208.14494316261855,
          206.25409061973235,
          -125.36583734937163,
          202.6191057997386,
          -81.98238477399268,
          223.7251396028132,
          191.75361435756506,
          167.4358134442746,
          -110.52588041016094,
          -109.53655379367159,
          -448.66062155430257,
          -99.74240015500791,
          -106.73375724916548,
          208.61691360558402,
          192.07349336571832,
          -343.5379823210668,
          -427.1154838786482,
          201.16338115917856,
          -99.5855940529328,
          209.87635544136833,
          225.1297905793941,
          -409.3029584414595,
          -101.70244801155309,
          -124.2623594013394,
          -162.6092040239637,
          210.87813021203195,
          -114.17108045857091,
          206.43974001448137,
          -581.300359293987,
          -454.8546657403502,
          -121.57244716904579,
          -135.21440038835186,
          -129.8459161243242,
          -86.50139524744054,
          213.46702269787875,
          -120.44376536673025,
          -121.88127770367721,
          -340.20523272452164,
          -127.3628914044583,
          -110.82128498614018,
          224.60029554193966,
          -337.86283495287415,
          -78.75039980866374,
          -103.72742780646584,
          -563.5435844506698,
          -339.62626761585517,
          -114.56476885564865,
          -98.50755191210108,
          -110.41801914481152,
          -348.6395239268697,
          212.51973598185114,
          -109.20629478584262,
          205.675343068172,
          -123.32558193277254,
          -131.45582368456706,
          -102.21380876741424,
          -104.51253457225779,
          -407.66553143336694,
          -107.73595458174205,
          188.41340200714652,
          -102.17822968720026,
          -94.1031171456233,
          -429.86354582119515,
          -113.23961246998606,
          -335.3034086881498,
          -420.71831686620095,
          -126.04598716525804,
          -109.0527616371723,
          -121.47135223079418,
          213.8664100462533,
          -349.6828422131355,
          -107.89577051323192,
          -120.59193449800965,
          -139.91296560887957,
          204.63033136578682,
          -123.10664061484532,
          203.86561755718148,
          -117.57189217299485,
          -425.8234336289673,
          219.01681094686836,
          -117.66478006857655,
          201.24761335210468,
          -120.99644674791222,
          -117.66277983978743,
          -114.71970994246286,
          -122.20016184358134,
          -157.34288558025216,
          211.63598783169977,
          208.88575630880712,
          -121.56341878721824,
          -345.0397119920768,
          -99.68373674386298,
          -123.69091642733925,
          -125.03469860883347,
          -413.8076026713978,
          -331.4287612542087,
          176.0490363022915,
          -111.84124990398769,
          194.64257445274572,
          -344.74422977040666,
          191.3768405813859,
          -117.76187865282203,
          -353.3455492708618,
          -129.5885181261145,
          -655.5152097071738,
          -344.6834130675399,
          -461.11314496997613,
          164.31976839631258,
          -441.23766792900244,
          -447.6696292418278,
          192.09570668676167,
          -109.79921853258756,
          -121.66705390896568,
          208.46291518030728,
          195.73715546064633,
          201.13613443173512,
          -83.47005383793918,
          193.95558206926128,
          194.59202897659452,
          -103.25580923091256,
          -443.8464679114145,
          -425.8085590092419,
          -133.91257088852382,
          -110.91303714258845,
          -136.18349855102593,
          -428.4913502885518,
          -427.8816024059284,
          -352.5318520986417,
          -97.80606552525498,
          185.38665319533132,
          -98.07999391132772,
          -673.3814325563061,
          -112.1072198827801,
          -329.6036125942789,
          -115.20280899529284,
          -105.6320345800822,
          -126.33889912490403,
          200.99796254392342,
          -109.77891533329532,
          -105.77543355616785,
          -425.9915057255656,
          -112.94430424356945,
          -135.9871026811922,
          211.16939055418106,
          -138.25304578950733,
          218.15573541521928,
          -353.9221822291241,
          190.7102729743996,
          -123.52895218646974,
          -117.55884047682339,
          -118.32199675697503,
          153.42889248712365,
          -127.02341598885505,
          -116.90193842107166,
          -121.98319886153303,
          -125.01357222755263,
          -109.39278522833945,
          201.38418668032472,
          -99.02696021940358,
          -115.31066881586274,
          -103.6964563804953,
          -427.6605116892496,
          -347.2945824763289,
          -114.42828633894611,
          212.48534511968376,
          -106.69126973678497,
          193.7137423156943,
          220.35551477014377,
          -127.31258274981553,
          -105.78098970634097,
          -112.17826226202507,
          -130.41440869566532,
          196.10896242705923,
          -119.25544629953507,
          -448.93705716403224,
          -100.95054522235756,
          -97.81906443743219,
          214.87500150271836,
          -120.12969895550343,
          -141.31988948211986,
          192.0780171060153,
          -129.3918884770186,
          -348.06298677078377,
          -110.12807484202946,
          206.15322808549345,
          190.33319467607336,
          -107.14523113164196,
          -104.20294358526957,
          208.20757315072416,
          -111.85311427435975,
          -349.30264256687894,
          214.08383812508768,
          187.9235643850517,
          221.7116879099538,
          -115.25328347912985,
          -110.10394723745867,
          203.8876955126241,
          -118.87046758764752,
          -108.14957767222413,
          -348.36712737213935,
          -346.74106256877616,
          -99.73712000588424,
          -88.19483245041872,
          -130.09743397423395,
          -446.17649766379236,
          -118.19555589271995,
          209.46961150765742,
          -135.16835031508035,
          -121.43558129473324,
          -97.39566116454998,
          -112.06227216233403,
          -422.2904579753223,
          -329.1180976883084,
          -90.94954033776573,
          -111.54036384973004,
          -131.73344409223316,
          184.3185666437906,
          -141.70533939113747,
          -143.65250124317882,
          -368.2435432774266,
          184.38918193012069,
          -101.25264516650465,
          -101.25572673869965,
          180.87026521156625,
          203.04088495935582,
          -137.58496828224062,
          -124.14073732895233,
          -110.2322927656103,
          196.07509193502193,
          -119.84103493253077,
          -110.46271129012639,
          -110.18706361737385,
          -111.36053840208064,
          -184.6461815680433,
          -103.08284314907425,
          -131.34396026212667,
          -107.97293130174123,
          182.53055564137472,
          -117.33086117533622,
          -125.59627784724083,
          205.68376963717787,
          -132.36578676607581,
          -111.03021589387485,
          -431.16466173128146,
          -120.55023897217269,
          -123.67879243757616,
          -434.6530588196052,
          -114.00247227619286,
          -117.0200049825988,
          -113.96392916497956,
          217.3312939264827,
          -139.87720614391014,
          212.83141598379947,
          -102.91409859392047,
          175.42685833168,
          -417.63687054284895,
          -117.49827033245472,
          -103.33401089140426,
          -111.30402586429214,
          194.21570286817945,
          -430.4575577100175,
          -112.76090648165622,
          -440.0882314535109,
          208.20703978690523,
          -122.28946757589154,
          207.16982887769942,
          209.66144085250102,
          219.6417908333795,
          -120.62932959178842,
          184.85390403889548,
          -103.75439167386321,
          -91.25210366224569,
          -127.48147717262849,
          -86.57117180392325,
          -105.60870322905924,
          -133.57405096696178,
          -346.5984480287205,
          -104.96083681273416,
          -332.9195487729805,
          195.55612643677483,
          206.7741442096205,
          210.09895326549514,
          -118.7623308857159,
          204.7416336958943,
          199.82664682500223,
          -112.30162744575783,
          -100.06806732989962,
          -104.44957267558958,
          187.39388629805492,
          205.35502985477171,
          -122.61147123436139,
          -126.92776782907585,
          -427.5675679757784,
          -130.77798075389285,
          -122.20457341911708,
          -128.65764649892475,
          -111.465934510737,
          -116.53991764026502,
          -429.70355441865286,
          195.16037204495956,
          -130.51101836685004,
          -132.13565068681282,
          -108.15522025941941,
          218.05491289798096,
          -431.2063455862273,
          -136.11470284532322,
          -126.19484051427406,
          -117.44221523977774,
          196.175816148825,
          -97.70714511347124,
          -426.8108974263174,
          197.53135520052544,
          -76.11583246869672,
          202.47975585264817,
          -95.86441954954918,
          -106.21776839394435,
          -124.10820861131593,
          189.54947226369632,
          -444.7106670081696,
          -433.5315622807962,
          188.5105745815975,
          -109.50564239801494,
          -109.85288187904438,
          -104.07274275835695,
          198.97957141968521,
          -102.028431023119,
          -102.51547241352637,
          -440.8221118082583,
          -105.97260813604237,
          210.19091748031377,
          -361.74467113754537,
          -343.22851263182633,
          -101.86141490203535,
          -349.6558436022512,
          221.5997315149825,
          203.18362737024603,
          -107.08948668093589,
          -121.80678599932732,
          199.10636487838553,
          -130.4376167956373,
          -134.67915907455816,
          -106.79118334589971,
          200.08366633183172,
          -406.62525498060506,
          232.84766288893624,
          215.79564481160796,
          -126.73740868774084,
          -121.70145605148595,
          -116.86190401669108,
          194.17303530010443,
          -117.22682775393925,
          209.8712081642614,
          -126.67077763794316,
          -125.34660808465742,
          -140.6876722779456,
          -132.08177988574235,
          -112.72387384086359,
          189.89722757897664,
          -444.63084684202624,
          -114.81060680932794,
          -640.0939292107972,
          180.10051421778746,
          -104.26506972696968,
          -416.69913201846725,
          -120.2303822502696,
          -107.41568340197195,
          -116.66302180446044,
          -122.04921243064551,
          -104.26409324560447,
          194.4475354422154,
          -363.3307702031164,
          -138.30458415752736,
          -128.07898137604926,
          -123.89059549927876,
          -332.55348232328043,
          -108.0401091534642,
          -126.05121643617895,
          -340.1726606363739,
          -106.1006759823385,
          -99.02030605628075,
          -144.0494699784374,
          -112.75079336492249,
          -125.50384588867534,
          -88.0903487018813,
          -105.89190056398253,
          -113.87671592340814,
          -111.20978970023327,
          -652.2424451550212,
          186.23835663473545,
          -88.13506403508774,
          206.01715274655973,
          -456.16058350672995,
          227.98119109083297,
          -150.4445841951527,
          -340.0495568004055,
          -123.28333139880834,
          -324.3951713849945,
          -78.35614475392201,
          -145.37581429066407,
          195.040628650163,
          -98.24341032196133,
          -98.89877690871882,
          217.41706748928797,
          190.7380497914751,
          -352.8655727015193,
          194.86820289586697,
          -122.80853726197003,
          -92.69703123701493,
          205.1448375465741,
          -137.43477226106398,
          -124.7966350881029
        ],
        [
          -464.74790151590196,
          -468.8430053855453,
          -578.1683757490136,
          -511.9314051349879,
          -569.624204774003,
          -437.47341106113174,
          -449.53915666330124,
          -460.5387675558654,
          -451.725120092623,
          -468.4171456387209,
          -447.61366940384454,
          -434.2101665682873,
          -455.70810892657596,
          -428.90680183264124,
          -429.8059924584829,
          -420.9048602723757,
          -397.4044368391939,
          -390.9037156862452,
          -432.1035120220646,
          -471.5032385145706,
          -430.5026146627266,
          -428.40254588959164,
          -459.40222762630725,
          -446.30209771354953,
          -418.3019906322562,
          -400.10178130241417,
          -387.5018878975149,
          -386.401746957967,
          -222.16094379983164,
          -15.438159423298114,
          -24.56733091497818,
          -225.09872388860205,
          -229.19924435088737,
          -27.99814249659589,
          -393.10838404238825,
          74.98712033801817,
          -131.7156558734013,
          -353.4016141334824,
          168.50116480831417,
          -128.56868441852924,
          -582.1811635638362,
          -108.94630954361214,
          210.14482874396631,
          195.55396898121967,
          -328.3751744900852,
          -133.85676840466292,
          201.14787281291228,
          -119.37892009506784,
          -348.1017507862946,
          -430.9593404568612,
          220.41984493070322,
          -463.52080414631246,
          -113.59193709246995,
          -114.23844103495608,
          191.8642444852056,
          -115.50008220767386,
          203.63233386102937,
          -454.56824911741984,
          -144.0508415838234,
          192.65953577982,
          149.70995320718288,
          -144.29724210090498,
          -162.83666696953821,
          -450.3633767388864,
          168.0302783046201,
          -112.70089191011287,
          189.7155190910743,
          -165.8415184654548,
          166.15781090375089,
          177.70142476977142,
          -120.50867675577176,
          190.7032760092448,
          181.79301493114355,
          -124.53917702769691,
          213.31464050011712,
          -123.40108568162685,
          185.97151179964203,
          -175.3024620039091,
          -112.06919088929264,
          -159.34783095104513,
          -128.74614812013382,
          -414.7593919965402,
          195.06906855923864,
          -148.53524546862667,
          -122.93553316795537,
          -111.32638809385753,
          -178.6099299897572,
          -123.94461044711909,
          -457.81622681183956,
          -356.18979236377936,
          -133.0534670347193,
          99.40481266359636,
          -95.50642164653087,
          -439.064317364795,
          -116.82362982058648,
          170.62493458930274,
          -104.97164013645367,
          -101.46827351545328,
          -110.1518239879196,
          222.53958935609845,
          -447.87848542206547,
          -110.03349845900098,
          -135.24984582689038,
          162.98669751542693,
          -98.29304577533804,
          221.4629250311987,
          -436.5674430583263,
          -103.20130828499957,
          -120.43913858685704,
          -78.93945362378717,
          -111.2775917700431,
          -135.36995227043198,
          213.08088384552553,
          223.6894070847678,
          -91.38568031477854,
          -455.77944364657225,
          219.71161601064915,
          184.99872025518266,
          -346.93926203390214,
          -105.24638960204379,
          -115.38182890585479,
          -134.36568371892622,
          -115.68267370107968,
          -334.06698389152103,
          -119.13950964391643,
          200.95672813525232,
          193.55736737460344,
          -111.48034419655174,
          -104.83124394160694,
          -128.0613806265636,
          -335.335804384059,
          -118.16533472512974,
          -436.58056117593895,
          205.44510077234466,
          -102.43288420759656,
          -110.00240672960386,
          -117.75376371104964,
          -124.87199916163527,
          -125.71692967994366,
          209.29579811393813,
          -116.12375013918334,
          -125.54738420890072,
          -101.70135860050648,
          -343.35054280584046,
          189.93407065263932,
          214.14540366267659,
          -332.3402289742694,
          -107.6705056781411,
          -115.37511617570156,
          199.3432182641037,
          -103.89855583679528,
          211.11669745796527,
          -139.31934820445005,
          -83.1277516928762,
          215.18513651154524,
          -121.71272779720518,
          -342.68860053997184,
          -444.39782767480045,
          -680.8118026691254,
          -123.57889210794283,
          -108.89290088962264,
          -116.76173708021749,
          -127.4858288738017,
          -423.50657522427394,
          -133.99650696705848,
          -136.09451933080976,
          177.4200413921792,
          204.1248718002722,
          -135.1822368444888,
          -120.30173742418634,
          -120.78496892246667,
          -110.16396271646843,
          183.0850779171502,
          -421.808796798483,
          219.78401439026868,
          200.2678412326076,
          -110.6183729568673,
          -440.77381341950144,
          -107.73161095143176,
          -423.1851469719854,
          -113.62106525272556,
          200.7912294482298,
          -118.68135629341583,
          -448.1603484090267,
          -118.13401911087442,
          196.74502483451695,
          -105.27709622298029,
          186.10404920844738,
          -330.95150695807,
          180.95422643067096,
          -119.50272211114682,
          -121.60491679291059,
          -114.15198944536793,
          -128.79197767427118,
          194.64920420826178,
          -127.36534788876409,
          -441.1605604956933,
          232.64397379777012,
          205.37458948696673,
          -112.73185630178232,
          -130.44178839038827,
          175.16516618409105,
          219.95749887993978,
          -108.31477574677945,
          -114.80850087392248,
          -93.59664446110044,
          -104.08461177325464,
          -130.3751342462869,
          -135.2088871620511,
          -121.42274425242513,
          -122.91676677416889,
          -460.9627619826714,
          176.87421956913414,
          -126.67718490578207,
          -113.80581222028133,
          -104.18789862753597,
          -408.9957365323213,
          220.18033605056465,
          172.74129452566953,
          -345.5772619838214,
          196.16636045338046,
          190.62999871528837,
          -450.2605506087026,
          -442.7494576029229,
          -122.71589758120656,
          196.38455188735492,
          -98.73867386987465,
          179.03346838617182,
          -460.9340051619047,
          -150.1983561521835,
          204.01358832413777,
          -437.3023524316989,
          -135.34170770925854,
          -128.57402144996124,
          216.71664972098796,
          -104.46532885559323,
          -107.03071319497253,
          213.9092332533366,
          -439.73688249763194,
          -105.5233955594481,
          -123.69457245229526,
          -109.90734953613944,
          214.44702449141192,
          -113.86048537661631,
          -123.29905211689517,
          -114.30259000622326,
          208.94689551510012,
          -105.20071119057124,
          188.6586940790281,
          -109.47364356009835,
          -693.2103626865597,
          -110.54519489894854,
          -112.54258034446534,
          -111.71424287034712,
          183.1164152836321,
          185.860273519457,
          -111.4263457818653,
          -122.45222842959656,
          -111.34239035252988,
          212.01212987837718,
          -432.0616787605111,
          -669.1035905246626,
          -428.7000090092206,
          -114.9475556473082,
          -83.74604087753362,
          -116.7898835302368,
          -120.83553132893493,
          -137.1995319154654,
          206.55003743530722,
          -105.06312993283095,
          220.50451228071205,
          205.92678865223735,
          -115.96286741583882,
          -115.60274046705145,
          -330.43068415994014,
          -427.8763724012825,
          -432.07409330523046,
          193.6648466913031,
          -136.40966686528898,
          -106.00930714047061,
          -105.79361216020739,
          -129.49580235308625,
          -351.791524552144,
          -364.70842513198124,
          -111.5047674890809,
          -101.56393753459206,
          208.19518719351265,
          219.4867804467254,
          158.91368390992838,
          -368.45558485424715,
          -102.84977229882716,
          -115.12141107785449,
          207.29374373275328,
          -96.41939206526023,
          -341.5746727933396,
          -117.02691031789526,
          -119.74642093054288,
          -447.158601611742,
          -123.02062796300591,
          -340.74949229418394,
          -114.45075623384318,
          -118.15948973415942,
          -122.83012925614393,
          199.83470772362114,
          209.52656123908594,
          -138.4836046171107,
          -100.35369937934455,
          -133.73587641861258,
          221.39834417498952,
          -123.362621508184,
          -428.3667513037774,
          217.3267242365358,
          -111.81503820444577,
          -100.46922910099555,
          -315.3941438496775,
          -121.846268943569,
          180.59424065537564,
          -98.0791015059209,
          201.36066601267302,
          -437.617579720021,
          211.03869831664827,
          217.53484812710133,
          -447.3599533410962,
          197.33963525235106,
          -101.78726100978295,
          -113.91752613238022,
          219.09071735070526,
          -115.43482262839272,
          195.8930944381434,
          -103.18034453958103,
          209.34377696254757,
          -127.80339314673984,
          -123.79817456786466,
          201.48048548864287,
          -137.862956485941,
          -439.4441096688194,
          217.77911033588276,
          -95.66697849301691,
          219.17750418636953,
          -115.4592266532426,
          -110.41270671626768,
          195.23889492173967,
          -128.0179200107016,
          -117.01302357908156,
          -113.42182774499254,
          226.406321497259,
          -104.9009866687219,
          -117.98863736093651,
          -136.01742491610696,
          -439.47584250140494,
          223.46652775727108,
          -137.09889863959592,
          207.35618333501628,
          -434.47206527668527,
          -426.28456332392255,
          -108.90289201070308,
          -390.3788253021369,
          -118.06064706771318,
          -110.6410760671651,
          -127.93912992953781,
          -431.84661554810583,
          -332.3701206291313,
          -90.81029166484197,
          -126.01782826560517,
          -460.94210841306545,
          192.5657530308653,
          -107.66471802280729,
          217.80464837992736,
          -574.0539014797986,
          -118.03229276054843,
          -111.46957409969889,
          -145.63219013208024,
          -346.738844279474,
          -117.03103476850708,
          223.88296801165166,
          -132.91960871544254,
          -103.66552032785049,
          210.1943438936615,
          185.72527505413439,
          -426.9876174058777,
          -92.23035722340909,
          -372.42946739860696,
          189.69451096691085,
          -332.5416928983323,
          210.81994899796584,
          -442.93253335379325,
          -103.18733412471045,
          -425.4273143121254,
          -101.3881558049939,
          -107.2247754333769,
          211.61773315444137,
          -114.55545776095744,
          -323.58993100199973,
          -124.175331337061,
          172.6622190202589,
          -92.45278606317946,
          216.08486816941792,
          -117.94110595398898,
          -108.73351500591562,
          -114.22835640962283,
          -108.405696896136,
          -145.87274852065775,
          -464.7919139875292,
          -482.30713917362067,
          -116.4515053685603,
          -344.9362918119733,
          -119.29788899570387,
          183.7220431865182,
          -124.93579388380698,
          -110.43043074025299,
          193.08636701764985,
          -437.48253873887444,
          -122.29525899132405,
          -550.9625775367856,
          202.25289792051933,
          -103.83684391404321,
          -151.34962635382476,
          -337.9289368555178,
          217.15957476432177,
          -419.3046946589863,
          166.74736240658387,
          195.3680678022839,
          228.40970405304896,
          197.2407202201597,
          -323.93446551782716,
          -120.02018628081319,
          205.8878411621417,
          -668.7029207322133,
          -111.47146114016674,
          -431.9344350394381,
          194.89639807418502,
          204.0556963347308,
          208.3266858246366,
          -113.33323072111021,
          -117.77732106352587,
          -130.3356580006139,
          -111.43088398450631,
          -103.43013430014162,
          -127.99572721731658,
          188.38077996444017,
          -133.74201998678924,
          203.7170628621651,
          -450.63223157167965,
          224.2637398549996,
          -98.64084753832996,
          -111.06617468740613,
          198.13879538426698,
          -670.3058157443128,
          -123.75764208402016,
          212.9407866225709,
          -117.44486113425596,
          199.05245376462446,
          207.92153687954206,
          -124.92955065702769,
          -112.31688396746233,
          -105.66692370974359,
          -98.1686045489927,
          -119.21421548388948,
          -338.7140014991966,
          -118.5161560162877,
          204.81922468607235,
          -326.25030282939696,
          195.5824203450221,
          212.50823267555631,
          201.1153090498563,
          -86.58954562790838,
          -359.6184665304507,
          233.313157983482,
          186.78188653078897,
          210.2551199485983,
          -131.59808589163416,
          219.79289035493522,
          -354.6444948344017,
          206.03288269170875,
          -131.25821381720618,
          -125.18303112186624,
          -352.4436092119564,
          -118.65196830533678,
          -367.3180824286654,
          -147.33271401381282,
          -101.39920809166502,
          -97.98591982159887,
          -342.23513277846894,
          -102.17824709961671,
          -80.32077632358968,
          219.62169442058348,
          -113.73481255630216,
          197.30527548167663,
          189.1492621335706,
          -353.2081953674865,
          212.6797833002008,
          -131.26414319445945,
          177.47462660300354,
          -108.32386425289125,
          196.45569926065522,
          178.89304714061194,
          212.51717251528802,
          218.76822197494224,
          -138.1378235580875,
          155.72048359505894,
          -115.9235092051245,
          217.6017728675783,
          -103.3930702741104,
          -144.1244424741186,
          -109.57973925097752,
          186.8890062845828,
          -132.17541838887973,
          -122.43744657461976,
          -121.29198420526446,
          -128.16798943221517,
          -465.6929164824118,
          -111.76155092262498,
          -103.03185855696867,
          -121.09236996050262,
          -434.1441835056239,
          -108.78143815848088,
          -333.8216225991844,
          -643.2318974527709,
          187.0991221880857,
          217.51828643616827,
          -109.79411475985076,
          -105.73525118215224,
          -121.72830490753002,
          -94.15777049494001,
          -135.89620126666054,
          -91.91913116241807,
          203.84664082648732,
          -117.62557149382559,
          200.02489746614106,
          -130.60570513243326,
          229.71442751514857,
          -95.4653413769368,
          -449.1364634789587,
          192.7143824713765,
          -113.57281805094496,
          203.6246180767655,
          -142.1780551278549,
          -113.3723504343997,
          196.59930166657298,
          -116.84014331994186,
          -95.21259035962132,
          -124.43191893460538,
          209.50331833560145,
          -358.88066998003285,
          -112.90073584402613,
          -136.69708204447986,
          189.60126616036104,
          -103.44363726578645,
          -414.31540369868014,
          -116.7263933523129,
          210.39553390869756,
          -110.15844203627071,
          -96.0685197413298,
          214.9366738153543,
          202.60242770254607,
          222.7181695940011,
          -429.0832009092041,
          -125.65777538830672,
          -118.00084033622416,
          -99.90589404447583,
          -110.30294831428807,
          -133.66393705611776,
          -105.89870001623756,
          -150.9747666105437,
          -128.12252253216846,
          218.1587044312481,
          222.92184997434867,
          -337.9944370934719,
          221.35790532966612,
          -361.5078857332981,
          -163.6018452180582,
          -95.97500902246226,
          -344.034781933044,
          -422.5853307460127,
          235.02578068074686,
          218.31004189949647,
          202.14455353327006,
          192.2685120621361,
          -107.22357403819943,
          201.60670254953405,
          214.16831172924952,
          213.6656392031762,
          -96.81746321272304,
          -132.7953047117602,
          -124.65483849636617,
          -427.6392740855832,
          215.37420886221872,
          -350.51162664448003,
          199.05302132133818,
          -335.9014264842869,
          -439.44586405413855,
          207.00351069044248,
          222.55224770936258,
          -336.2421254536154,
          -139.7201647927804,
          -327.12417188363486,
          -369.7487618479638,
          -112.36747116687074,
          -436.00582335873503,
          -311.4853270353635,
          169.86904256502973,
          202.80620451218974,
          -120.1216932354616,
          192.18912851135707,
          -426.74702462507076,
          -355.7277446631047,
          227.64349449828566,
          223.30680263385915,
          -114.92338557821272,
          146.21113017140132,
          -116.47551834295534,
          198.98223364627316,
          -142.32580984794612,
          -135.62222215872097,
          -426.31719679956655,
          -119.62956368062495,
          192.98031477539794,
          -104.71959077379884,
          -335.7191702137155,
          -100.62670929908792,
          204.095819462389,
          -111.33177940738699,
          193.0651553343306,
          174.58771023785403,
          -118.59858266576472,
          -132.96719473358093,
          155.79773222246646,
          -101.71856380327485,
          -123.2465877763754,
          -121.57666015105066,
          219.03649973741187,
          -115.68716997504333,
          -96.08995545149341,
          -103.65489838934467,
          -132.4942883467066,
          -425.0357796161031,
          221.60571515979464,
          -364.30726564789273,
          186.88640243990807,
          -131.55878784410484,
          186.55217290166343,
          -445.8659681707254,
          -122.36425647453805,
          -106.1118155306315,
          -121.10611823202345,
          200.9294801769404,
          -129.20130078934477,
          171.85728280537177,
          -116.91540986143193,
          216.31281060909788,
          -120.3858477350261,
          -117.38341925672633,
          207.80116317561126,
          -130.40460929781372,
          -112.60420112909354,
          206.64122607803407,
          -363.35840301869274,
          -98.78942605582657,
          203.3041707062044,
          197.39134085086098,
          -117.81267600163798,
          -115.18268756758259,
          -116.03253847426822,
          204.2516725888276,
          -124.7457913139998,
          211.85041285926323,
          171.841550232501,
          -361.7948956074676,
          216.3900973207874,
          230.89825950732052,
          -437.1856322800679,
          -94.60320703331627,
          206.9953553639877,
          -346.697814697675,
          -111.43442476287673,
          -118.84143365253908,
          217.7930769640494,
          -120.712100738344,
          -119.98471425132666,
          -114.277307827139,
          -422.78317367185036,
          190.3548313867243,
          -138.1042633446727,
          179.7674208769214,
          215.34742454692255,
          -108.10365190171768,
          -117.46217079911662,
          -322.02137577542226,
          -99.56095068310293,
          209.66052392062903,
          -114.55331936923356,
          -408.4488682982146,
          -123.37421134951518,
          -451.1426259798531,
          -351.8025470237859,
          -109.83249873120327,
          224.97664363617628,
          -117.58504016516487,
          -110.3113104212824,
          185.9869732576051,
          -106.47638344255031,
          217.67244219733573,
          -428.3071307864627,
          -121.01823194180864,
          -117.00112868079952,
          -125.03543778786748,
          -103.7260685572067,
          -343.72430264063485,
          207.63962640660822,
          -417.21595657605116,
          -450.67077027498755,
          -111.59452704502472,
          -125.15382480454821,
          -126.11795763673413,
          -123.11156110589967,
          -120.49872797846932,
          187.92542170195543,
          -130.34221061457058,
          -121.62937296068446,
          188.52555718519625,
          -131.83580058156605,
          -114.40931090555303,
          -131.4189542220396,
          -417.76419731466456,
          -100.59316597181036,
          -424.9129294217871,
          -119.47870999296806,
          -430.00425812516056,
          -95.30446847905954,
          -102.02575984688296,
          -85.40664561832202,
          -130.57466809439197,
          -101.36177563364723,
          -104.68099836258286,
          -352.5247572174806,
          -121.70392823105144,
          209.06035189496183,
          -114.4802957448099,
          -131.1622080982904,
          -321.488082116152,
          -102.7466032970008,
          -103.97588720848388,
          -137.87418717030448,
          -116.81380738020636,
          -120.40054144103688,
          -134.311526936294,
          211.51135077270501,
          200.27748071361387,
          -122.08413787623039,
          -119.61301356574114,
          178.0287692345657,
          -124.20106519558448,
          198.78228612647794,
          -145.8230412581528,
          -434.7812971614919,
          -424.7731675949739,
          -106.91729807636409,
          -120.28783976069796,
          -323.7702631602144,
          -116.8843058816327,
          -437.61788922550835,
          -114.01341864544864,
          -473.17658213128163,
          -445.03577597343684,
          -103.20656206749425,
          -418.72914642130183,
          -116.62274634874721,
          -108.31232238431647,
          202.90015335442803,
          233.49021913748484,
          -113.31788873667735,
          217.7511023714649,
          -117.5515093441579,
          -421.8775751935025,
          213.3605501217651,
          -328.57706791395555,
          206.26499257761554,
          -135.77780320778467,
          -108.8164076146481,
          -112.28173263881921,
          168.41608364550788,
          206.78267455409332,
          -127.36021966204402,
          -116.30133090676759,
          -350.75575990903485,
          188.67723637776996,
          -115.31962874805673,
          181.18000537053373,
          -563.7678461883336,
          -126.60030586419578,
          192.93194912972402,
          -112.57304016703367,
          -112.00188849049734,
          -117.7134146906568,
          -438.6243373232647,
          -120.8247542531781,
          -97.93367402643729,
          206.53489696795413,
          -438.2670593136666,
          207.09966206292574,
          217.63976223787233,
          -342.62195951402066,
          205.32081983592215,
          -101.15636995163217,
          -130.2877229690907,
          201.74233898145803,
          -110.57965669394704,
          -79.84833250854527,
          184.26705666807348,
          -106.15410797143451,
          -99.60574498083486,
          -104.62729248590796,
          -112.27496883330477,
          -95.16560479828156,
          -425.59822858477673,
          -134.50859650529253,
          -345.6446969315166,
          183.7571042492491,
          140.04454514381203,
          -110.18397073980061,
          223.6492616860352,
          207.30600180462343,
          -434.194352235932,
          -650.7159090608653,
          -413.37892217908023,
          -99.91287941316556,
          194.4920877116413,
          -129.25026561564198,
          -326.17523322821756,
          -131.94555020596323,
          -396.10784156849513,
          -98.72087754186083,
          214.0144997270429,
          -103.72302603049283,
          -113.50527189597656,
          207.00595413124194,
          -106.958866335569,
          -109.83114671576183,
          -115.25842761455114,
          -442.367905772236,
          -126.63583607977935,
          -435.6469491532013,
          -136.78164616178714,
          203.66678776132238,
          -106.7220812299774,
          204.548696067557,
          201.93772265971077,
          190.24083008739188,
          -116.41480628490474,
          196.3407892269949,
          -129.64953052477864,
          -95.84515619903837,
          213.96869782270784,
          -121.12619837236383,
          -142.54806470368604,
          -114.53097573121153,
          -335.65266664570856,
          182.1986207552567,
          -464.1883021887979,
          -107.64181770045082,
          211.0171572842397,
          -125.7963293774929,
          209.8892341032524,
          -119.15392696726973,
          217.13149645260555,
          -113.62519236526775,
          198.10892679118442,
          -100.35851287028197,
          189.96195026855514,
          212.82352359146086,
          -121.24276847004755,
          -113.43466861322663,
          -104.81016957979719,
          -132.9093625194851,
          -121.84727605704352,
          220.44017033475563,
          -354.7187712672788,
          -124.3823175895749,
          192.65742872596903,
          207.5059426694972,
          170.85680656921582,
          197.37751434555264,
          -137.56416402388152,
          -118.69684447698157,
          -123.93510962773748,
          204.1049980434807,
          -108.03382092361419,
          -582.1877545880371,
          -132.34126652738814,
          -103.43350776172065,
          -114.64098492724868,
          -457.8979205366011,
          -420.2706662348431,
          -430.88409272871644,
          -426.13290967460443,
          -134.41862144920592,
          -91.14218163957293,
          -117.71239253279363,
          -105.56256844219374,
          -124.9077148387147,
          -436.3839164262019,
          -439.18331598409236,
          -115.44500803978615,
          -104.5150664149391,
          -130.09868092660525,
          213.4435870219902,
          -101.88475524485045,
          209.9251417379117,
          -133.68540337169827,
          -407.95745956533204,
          202.04904745274078,
          202.3648740523564,
          188.4482323715444,
          -105.43610072665186,
          -655.8664473991037,
          -115.61955817164805,
          200.47088585833473,
          -126.67952433604482,
          -561.3628443971567,
          -115.35768765809442,
          -143.57587702653734,
          -123.2796839570387,
          -132.62422780242542,
          -94.78230616126464,
          -92.52595206046468,
          -94.46840721032154,
          -324.9288267109238,
          -98.74581337433884,
          -654.82145575116,
          -122.19754935201013,
          194.23410598590058,
          -124.86041654864854,
          -118.32896667503255,
          185.2312070097641,
          -331.87011369653277,
          -111.16721711042804,
          -130.20962933033556,
          -359.83972566145206,
          -106.90414345618338,
          202.1108894344957,
          -117.35267730234298,
          -79.49573787614092,
          209.82529924580967,
          -136.40000442554484,
          -109.21185493919975,
          -114.35134727901759,
          -119.37530690892828,
          195.36447066880515,
          -123.9030278699204,
          202.75504438641187,
          -156.0862660247218,
          -354.8942269226391,
          -324.6711294040203,
          183.27457428885353,
          -126.99666051840674,
          192.64395360543855,
          204.5554357841236,
          207.55642286958533,
          -113.88027904728354,
          -112.33898158658589,
          188.13344117687012,
          -104.88546093058993,
          -122.89438344347523,
          192.22101191938003,
          -429.65777868796386,
          204.71233160830073,
          -112.68819839798842,
          172.3258834469032,
          -111.51058908215899,
          -131.03273210198589,
          -116.93431342077947,
          -148.7397163261271,
          -134.59540149637272,
          233.99133495454421,
          193.8238832290119,
          -98.3316504021499,
          -318.9298588150838,
          -446.8430964720855,
          -118.61307838885057,
          -118.14677897021936,
          213.74315661504014,
          188.59125681687283,
          -127.27432149767635,
          227.93299912654996,
          -122.49694553386021,
          -122.52946319199623,
          -145.94231453910157,
          -119.97867555734217,
          -116.73652496259206,
          -473.5057306816345,
          -124.62691980360925,
          219.97970462180461,
          -440.44643219984385,
          212.00790051736575,
          -102.6220377212341,
          -437.1972688969833,
          -343.24251121578936,
          -96.96483360264682,
          -113.0167440790048,
          -103.75406443968681
        ]
      ],
      "aoi": [
        [
          1.9982222222222223,
          2.0066666666666673,
          2.010666666666666,
          2.0271111111111106,
          2.0537777777777775,
          2.045333333333335,
          2.030222222222222,
          2.070222222222222,
          2.015555555555557,
          2.078222222222222,
          2.053777777777776,
          2.0173333333333336,
          2.0582222222222226,
          2.027111111111112,
          1.9342222222222218,
          1.9986666666666675,
          1.9866666666666666,
          1.9533333333333338,
          2.0208888888888907,
          2.0502222222222226,
          1.9724444444444449,
          1.9653333333333338,
          1.986222222222222,
          1.9835555555555553,
          1.9702222222222228,
          2.072444444444445,
          1.9751111111111117,
          1.9688888888888885,
          2.009777777777778,
          1.9191111111111108,
          1.9431111111111112,
          1.9626666666666666,
          1.9911111111111117,
          1.947111111111112,
          1.9764444444444447,
          1.9995555555555555,
          1.9782222222222234,
          1.987111111111113,
          1.950666666666666,
          1.955999999999999,
          1.9831111111111108,
          1.9951111111111117,
          1.950666666666666,
          1.9568888888888876,
          2.0142222222222235,
          2.0817777777777775,
          2.136444444444445,
          2.1631111111111117,
          2.0786666666666656,
          2.126222222222222,
          2.117777777777778,
          2.0955555555555563,
          2.1137777777777775,
          2.1084444444444457,
          2.065333333333334,
          2.0928888888888895,
          2.1342222222222222,
          2.069777777777777,
          2.147555555555556,
          2.152888888888889,
          2.092,
          2.060444444444445,
          2.1022222222222227,
          2.1195555555555554,
          2.0751111111111107,
          2.0693333333333337,
          2.006666666666667,
          2.090222222222222,
          1.9444444444444453,
          1.9893333333333325,
          2.038666666666667,
          2.010666666666668,
          2.0115555555555558,
          1.975111111111111,
          2.0262222222222217,
          1.9942222222222237,
          2.0311111111111124,
          2.041777777777778,
          2.000888888888889,
          2.039555555555556,
          1.9453333333333338,
          2.0186666666666673,
          1.980888888888889,
          1.9884444444444451,
          2.0484444444444434,
          2.008000000000001,
          1.9866666666666675,
          2.0004444444444442,
          2.021333333333334,
          2.044888888888889,
          2.0444444444444434,
          2.0297777777777775,
          2.054222222222222,
          2.040888888888888,
          2.0555555555555554,
          2.035555555555555,
          2.015555555555556,
          2.0577777777777793,
          2.0595555555555554,
          2.029333333333334,
          2.0431111111111107,
          2.029333333333333,
          1.9844444444444453,
          2.0537777777777793,
          2.136444444444444,
          2.075555555555555,
          2.033777777777778,
          2.0608888888888894,
          2.0124444444444447,
          1.9444444444444438,
          2.004888888888889,
          1.9871111111111122,
          2.018666666666668,
          1.9795555555555566,
          1.9795555555555548,
          2.004888888888888,
          1.9942222222222226,
          2.004888888888888,
          1.9768888888888891,
          2.026666666666667,
          1.9742222222222219,
          2.0315555555555562,
          2.0302222222222213,
          2.0057777777777774,
          2.0595555555555554,
          2.0311111111111106,
          2.0137777777777788,
          2.006222222222222,
          2.0511111111111124,
          1.9524444444444422,
          1.999111111111111,
          1.9835555555555557,
          1.9791111111111108,
          2.019555555555557,
          2.008000000000001,
          2.042222222222222,
          1.9937777777777785,
          1.9924444444444427,
          2.0137777777777774,
          1.9800000000000006,
          1.953777777777777,
          1.935555555555555,
          1.9626666666666672,
          2.0142222222222226,
          2.0088888888888894,
          2.0239999999999996,
          1.992444444444445,
          2.021777777777778,
          1.9884444444444456,
          2.02888888888889,
          2.0648888888888903,
          1.955111111111111,
          2.0924444444444443,
          2.039555555555556,
          2.0035555555555558,
          1.9902222222222228,
          2.0502222222222217,
          1.9968888888888887,
          2.025777777777778,
          2.0022222222222235,
          2.0200000000000005,
          2.0102222222222212,
          1.9599999999999995,
          1.9955555555555562,
          2.002222222222223,
          1.9715555555555557,
          2.0315555555555562,
          1.993777777777779,
          1.9799999999999993,
          2.002666666666667,
          2.0573333333333337,
          1.9955555555555566,
          2.0422222222222217,
          1.973777777777777,
          2.0306666666666664,
          2.0226666666666673,
          2.025333333333333,
          2.10888888888889,
          2.0946666666666673,
          2.0853333333333346,
          2.056888888888888,
          2.106666666666667,
          2.0359999999999996,
          2.0208888888888894,
          2.0000000000000004,
          2.01111111111111,
          1.9893333333333332,
          1.9697777777777783,
          2.0155555555555558,
          1.9951111111111122,
          1.9911111111111113,
          2.0066666666666673,
          1.9622222222222228,
          2.020444444444445,
          2.0391111111111124,
          1.9826666666666672,
          2.0306666666666655,
          2.002222222222223,
          1.9902222222222217,
          2.0546666666666673,
          2.0506666666666677,
          2.0075555555555566,
          2.0484444444444434,
          2.029333333333333,
          2.002222222222222,
          2.080888888888889,
          2.028888888888889,
          1.9835555555555553,
          2.027111111111112,
          2.060444444444445,
          2.0084444444444434,
          1.993333333333333,
          1.9911111111111108,
          2.047555555555556,
          2.038222222222222,
          1.9448888888888893,
          2.0133333333333323,
          1.9911111111111113,
          2.01288888888889,
          2.110666666666666,
          1.9782222222222228,
          2.0084444444444443,
          1.9853333333333327,
          1.9822222222222228,
          2.024444444444446,
          1.987111111111112,
          1.948444444444445,
          1.993333333333333,
          2.004888888888889,
          1.9613333333333332,
          1.9631111111111117,
          1.9688888888888887,
          2.0315555555555553,
          1.9773333333333338,
          1.9884444444444431,
          2.0222222222222235,
          1.9768888888888894,
          1.9577777777777763,
          2.0084444444444447,
          1.9608888888888896,
          1.953777777777778,
          1.98,
          2.004000000000001,
          2.030222222222222,
          2.018222222222222,
          2.0346666666666664,
          2.0208888888888885,
          2.0111111111111106,
          2.004444444444445,
          1.9533333333333338,
          2.0724444444444434,
          2.068888888888889,
          2.08488888888889,
          2.058222222222222,
          1.985777777777779,
          2.037333333333333,
          1.9742222222222219,
          2.0320000000000005,
          2.024888888888888,
          2.045333333333333,
          1.9591111111111112,
